//-----------------------------------------------------------------------------
// Network: hzz2e2mu
// Inputs:
//                                                  Offset       Scale
//    ele1_pt                                    5.457e+01   2.070e+01
//    ele1_eta                                   6.609e-03   1.083e+00
//    ele1_phi                                  -4.322e-03   1.811e+00
//    ele2_pt                                    3.542e+01   1.114e+01
//    ele2_eta                                  -3.348e-02   1.092e+00
//    ele2_phi                                  -2.274e-02   1.791e+00
//    ele3_pt                                    2.307e+01   8.608e+00
//    ele3_eta                                   2.855e-03   1.140e+00
//    ele3_phi                                   6.449e-02   1.800e+00
//    ele4_pt                                    1.365e+01   6.274e+00
//    ele4_eta                                   1.215e-02   1.176e+00
//    ele4_phi                                  -2.963e-03   1.799e+00
//    worst_iso_X_ele                            5.006e-01   1.351e+00
//    second_worst_iso_X_ele                     1.210e-01   2.435e-01
//    worst_vertex                               4.767e+00   9.663e+00
//    second_worst_vertex                        1.942e+00   3.756e+00
//    mZ                                         8.596e+01   1.215e+01
//    mZstar                                     3.393e+01   1.507e+01
//    mbestH                                     1.400e+02   1.418e+01
//
// Created: Thu Jun 21 09:22:05 2012
//-----------------------------------------------------------------------------
#include <cmath>
#include <vector>
#include <iostream>
//-----------------------------------------------------------------------------
// Make following visible only to this programming unit
namespace nshzz2e2mu {
  // NOTE: Network indices start at 0
  static const int nnetworks=200;
  static const int ninputs  =19;
  static const int nhidden  =30;
  static const int nparams  =631;

  static const double mean[ninputs]={
  5.45700e+01,
  6.60900e-03,
 -4.32200e-03,
  3.54200e+01,
 -3.34800e-02,
 -2.27400e-02,
  2.30700e+01,
  2.85500e-03,
  6.44900e-02,
  1.36500e+01,
  1.21500e-02,
 -2.96300e-03,
  5.00600e-01,
  1.21000e-01,
  4.76700e+00,
  1.94200e+00,
  8.59600e+01,
  3.39300e+01,
  1.40000e+02
  };

  static const double sigma[ninputs]={
  2.07000e+01,
  1.08300e+00,
  1.81100e+00,
  1.11400e+01,
  1.09200e+00,
  1.79100e+00,
  8.60800e+00,
  1.14000e+00,
  1.80000e+00,
  6.27400e+00,
  1.17600e+00,
  1.79900e+00,
  1.35100e+00,
  2.43500e-01,
  9.66300e+00,
  3.75600e+00,
  1.21500e+01,
  1.50700e+01,
  1.41800e+01
  };

  static const double weight[nnetworks][nparams]={
    { -22.476,    6.493,   -3.155,    1.257,    6.472,    4.398,   -6.699,
       -3.959,    0.783,    4.818,   -8.185,   -1.792,   17.900,  -17.013,
        7.826,  -12.172,   -5.061,   -2.333,   -1.819,    5.260,    6.834,
       -3.492,    2.561,   -5.996,   -5.101,   -5.827,   -1.464,   -1.259,
       -4.463,   -4.304,   -7.544,    7.986,    5.460,   -4.358,    4.317,
        5.607,    1.971,    1.068,    8.124,    0.770,  -19.575,   -2.645,
        1.177,   -4.233,   -8.756,    0.803,    9.929,    1.968,   -7.930,
        3.450,   -8.184,   -2.286,   -1.794,    1.686,    5.621,    7.769,
       -3.513,    9.287,   -8.949,    3.892,  -20.575,    0.285,    2.810,
       -0.548,   -4.117,    0.612,   -2.458,    0.120,   10.175,    2.167,
        1.815,  -11.175,    2.531,   -6.867,   -6.193,   11.449,   -1.867,
        1.785,   -4.752,   -3.470,  -27.400,    0.971,   -4.008,   -3.719,
        0.639,   -2.737,    2.814,    5.262,    2.075,   -3.811,    2.556,
        3.784,   -3.522,   -0.121,   -0.403,    7.985,    2.718,   -3.757,
       -5.635,   -0.172,   -8.053,    1.265,    8.577,   -2.976,   -2.908,
       -6.660,   -1.041,    1.606,  -11.993,    5.431,   -0.356,   10.518,
        0.933,    4.671,  -12.944,   -3.510,    5.016,   -2.307,   -8.746,
       -2.929,  -16.092,    4.850,   10.548,    1.114,    1.432,    0.217,
        1.415,   -2.090,   -1.190,    3.236,   -1.954,   -3.639,    2.517,
       -1.012,   13.224,    1.938,    8.933,   -3.260,   -1.821,    3.289,
      -15.568,    3.141,   -3.064,    4.729,    0.747,  -12.837,    2.558,
        4.780,    1.534,    4.105,    4.148,   13.999,   -0.516,    1.443,
       13.915,  -20.010,    6.100,   -1.801,   -1.196,   -5.974,   34.390,
       -2.896,    7.395,   -1.959,   10.580,    0.737,    4.727,   -7.247,
        1.064,    2.155,   -1.602,   -7.563,    1.465,    0.242,  -14.079,
       -0.194,   -4.572,    6.375,   11.476,    1.813,   17.113,  -12.340,
       -6.055,    6.977,  -12.182,   -2.855,   -1.779,   -4.779,   13.878,
       -3.843,   -1.975,   -2.408,   -0.317,   -2.182,   -6.056,    1.673,
        2.989,    2.217,    3.895,    6.161,  -20.554,   -2.032,    9.208,
       -3.088,   -1.143,    5.438,   -7.384,   -1.749,    8.463,   -2.560,
       -0.784,   -2.580,    2.102,    0.729,    0.658,   14.002,   -3.766,
        3.957,    8.954,   -4.281,   -9.870,    7.218,   -1.619,   -5.352,
        5.999,  -12.602,   -0.408,   -7.202,    1.716,   -7.621,   -0.183,
       12.156,    0.010,   -3.370,    5.094,   -9.930,   -1.809,   -2.288,
        0.615,   -0.113,    6.243,   -6.739,    6.185,    3.941,   -9.065,
       -6.231,    3.991,    4.566,   -1.366,   -9.648,    4.798,    3.116,
      -13.420,    4.818,  -10.840,   -8.375,   -8.522,   -3.138,   10.040,
       -3.201,   14.235,   -1.548,   -7.576,    0.515,   -2.699,   -3.161,
        5.509,   -9.231,   14.620,   -4.000,   -3.635,    1.296,   -3.306,
        3.082,    2.450,    6.211,   -1.776,   -2.683,   -4.882,    8.652,
       31.805,   -6.303,    3.344,    0.636,    2.902,    1.708,    1.544,
       -3.585,    1.693,    0.834,    3.261,   -1.471,    1.504,    1.518,
        6.682,    1.964,   -2.495,  -19.433,    8.550,   -2.313,  -15.944,
        0.226,   -1.929,   -6.561,    0.569,   -2.762,   -0.362,   -4.208,
       -1.655,   -3.036,   -0.580,    5.946,    0.911,    8.116,    2.013,
       10.088,    5.106,   -2.941,   -1.243,   22.983,   22.488,    2.312,
        7.664,    0.937,    7.082,  -10.847,    9.153,    0.069,   -2.368,
       -6.068,   -8.661,   -3.736,   -3.738,  -11.827,    4.425,   -2.289,
        9.627,   -1.071,   -1.671,   -6.611,  -31.598,    2.914,    5.116,
        6.117,    4.825,    7.849,    1.376,   -2.378,   -8.020,    5.379,
        2.940,   -4.404,    4.246,    1.201,    3.987,   -1.018,   -3.716,
        5.805,    7.167,   -2.989,   24.244,    1.735,   -0.532,   -7.729,
       -3.154,   -2.567,   -1.944,   -5.871,    5.526,   -2.165,   -0.322,
       -3.281,    5.745,   -2.921,   10.695,    6.171,    0.432,    5.722,
       -7.861,   -7.948,  -19.618,   -4.270,   -3.347,    7.416,   -6.990,
       -0.576,   -1.211,    4.797,    4.599,    2.806,   -8.577,    2.340,
       -5.618,    0.563,   -5.641,   -4.445,    0.546,    0.351,  -12.736,
        7.025,   17.365,   -2.702,    1.002,   -3.840,    2.593,    6.053,
       -5.064,    3.360,   -9.830,    3.836,    5.042,   -0.233,   -1.652,
        7.411,    0.517,  -21.993,    3.836,    9.407,   11.029,    2.517,
       19.701,  -13.301,    2.859,    2.739,   -1.596,   -2.275,   -1.665,
        1.954,   -2.810,    0.478,    2.164,    5.693,   -1.628,   -0.669,
        5.242,   15.365,    0.950,    1.627,   -7.594,    3.517,  -21.657,
       -9.924,    2.422,   -1.186,    3.536,    2.071,   -4.423,   -5.676,
       -1.186,  -10.809,    1.887,    8.970,  -12.900,    2.011,    0.332,
        5.494,    7.648,    0.441,  -14.746,    3.306,   21.652,   -4.728,
      -11.026,   -4.151,    1.538,    4.619,   -0.094,    5.605,   14.736,
       10.470,    2.775,    0.697,   12.804,    0.113,  -10.147,    9.369,
        0.621,   -5.126,   -3.690,    1.883,  -21.090,   -8.938,    0.739,
       -0.999,   -6.681,    2.537,   -3.027,    1.080,    4.367,   -6.367,
       -0.815,    7.489,   -3.339,    3.343,  -11.235,  -14.406,   -5.598,
       -5.940,    9.879,    2.638,   17.925,   -2.428,    1.263,    0.730,
        3.141,   -0.099,    1.491,   -1.549,   12.890,   -1.411,   -1.250,
      -15.256,    1.396,    9.856,   -2.277,   -2.973,   -0.135,   -0.048,
        5.516,   -1.298,    2.434,    8.106,   -1.585,    0.661,   -6.665,
       -2.582,   -8.195,  -10.983,   -7.455,   -0.159,   -1.617,    7.053,
        8.733,    1.958,    7.598,    6.886,    3.916,    0.781,   -3.013,
        3.589,  -28.492,    1.302,   -3.023,    2.061,    9.975,   -1.049,
        1.177,  -15.552,   -3.708,   -0.926,   -9.721,   -4.852,   -0.045,
       -8.385,    2.021,   -2.618,    2.028,   -1.086,    0.544,    3.215,
       15.159,    1.562,    5.889,   -0.649,   -9.474,    4.220,   -1.214,
        3.935,    5.973,    0.225,   -9.601,    2.279,   -2.063,  -12.050,
       -7.062,  -16.012,  -12.767,    9.125,    1.427,    4.088,   53.424,
        4.864,    5.108,   -3.279,    5.893,   -6.011,    5.575,    7.439,
        3.583,   -5.011,    4.544,   -3.432,   -6.810,   -5.856,   -1.454,
       -3.319,    9.874,    3.785,   13.412,   -1.827,    0.536,    0.716,
       -0.464,   -0.541,    0.795,    3.029,   -0.625,   -2.075,    0.899,
        2.912,   -0.834,   -0.634,    0.452,    0.693,   -0.625,    0.922,
       -0.820,   -0.325,    3.020,    0.814,   -0.633,    0.590,   -1.079,
       -0.640,   -0.608,    0.648,   -1.029,   -0.607,   -0.920,    0.806,
        0.727
    },
    { -19.877,    6.748,   -2.990,    0.590,    6.921,    3.488,   -6.543,
       -4.791,    2.348,    3.523,   -7.447,   -2.913,   17.117,  -12.411,
        6.373,  -12.152,   -3.201,   -6.072,   -1.312,    5.381,    6.433,
       -2.256,    4.220,   -4.741,   -5.356,   -7.231,   -1.019,   -1.724,
       -2.143,   -1.263,   -6.560,    4.909,    6.961,   -8.542,    3.402,
        7.276,    2.698,   -1.090,    7.539,   -1.555,  -17.155,   -1.808,
        1.373,   -3.655,  -10.555,    0.515,   10.510,    0.269,  -11.338,
        3.157,   -8.537,   -0.358,   -2.612,    1.335,    3.838,    9.721,
       -4.371,    6.372,   -4.984,    2.899,  -19.322,   -0.692,    5.264,
        0.109,   -6.171,   -0.504,   -2.246,   -0.339,   11.188,    0.913,
        1.515,  -13.498,    0.817,   -2.683,   -0.439,    2.707,   -4.041,
        0.559,   -5.133,   -1.014,  -29.171,   -0.051,   -1.146,   -4.328,
        3.032,   -3.214,    2.798,   -3.070,    1.662,   -4.099,    3.463,
        1.693,   -4.414,   -2.658,   -2.216,    6.322,   -2.408,   -5.321,
       -1.150,   -1.464,  -13.935,   -0.445,   10.328,   -3.238,   -3.327,
      -10.736,   -1.575,    2.242,  -14.838,    8.470,    0.597,   14.900,
        0.500,    1.300,  -16.593,   -5.264,   -0.690,   -1.909,  -11.151,
       -6.201,  -22.446,    7.472,   12.423,    2.489,    1.710,    0.983,
        2.150,   -4.094,   -1.390,    5.065,   -1.418,   -3.848,    3.732,
       -4.101,   21.371,    3.831,   14.888,   -5.512,   -3.046,    4.402,
      -11.658,    3.966,   -1.085,    4.586,   -0.031,  -15.350,    2.290,
        4.898,    3.597,    3.266,    1.309,   12.462,    0.785,    2.513,
       19.255,  -18.476,    8.877,   -0.423,    0.799,   -5.514,   38.959,
       -1.939,   11.036,   -0.580,   10.857,    0.672,    5.007,   -8.611,
        0.500,    2.939,    0.211,   -9.161,    2.903,   -4.618,  -13.796,
       -0.249,   -5.392,    7.347,   12.768,   -0.580,   17.458,  -11.495,
       -3.320,    6.580,  -10.799,   -6.144,   -4.321,   -2.481,   12.611,
       -4.611,   -2.167,    0.960,   -2.300,   -2.726,   -3.795,    1.559,
       -1.953,    2.153,    2.134,    5.722,  -28.149,   -3.678,   10.443,
       -0.783,   -2.271,    3.080,   -4.017,   -8.531,   10.851,   -4.801,
       -2.252,   -1.747,    3.551,   -0.441,    0.016,    2.228,   -4.455,
        4.465,   12.127,   -0.823,   -9.584,    4.862,   -0.893,   -2.316,
        7.601,  -12.482,    0.012,   -8.509,    2.823,   -5.167,    0.917,
       11.341,    0.112,   -2.882,    7.436,  -14.474,    0.864,   -3.687,
       -2.107,    1.001,    3.240,   -5.861,    3.750,    3.165,   -7.821,
       -5.217,    3.036,    4.529,   -0.300,   -8.349,    3.345,    3.995,
      -11.170,    4.420,  -10.250,   -6.798,  -10.263,    1.119,    8.087,
       -2.589,   12.902,   -2.543,   -4.846,   -0.082,   -2.624,   -3.848,
        3.541,   -9.486,   12.498,   -3.422,   -2.546,    2.391,   -3.700,
        4.332,    2.769,   -1.160,    3.992,   -0.192,   -3.940,    7.987,
       30.943,   -5.111,    2.496,    0.675,    2.748,    1.464,    1.442,
       -3.217,    2.446,    0.000,    2.842,   -2.159,    1.065,    2.381,
        8.879,    3.072,    0.562,  -16.097,    8.187,   -2.048,   -8.542,
        0.213,   -1.239,   -4.073,    0.563,   -0.879,   -0.559,   -2.963,
       -0.957,   -1.719,   -1.376,    3.141,    0.655,    3.961,    2.869,
        9.984,    0.806,   -2.266,   -0.471,   14.585,   16.591,    3.828,
        7.372,   -2.637,    2.039,   -9.566,    8.897,    5.972,   -1.748,
       -8.162,   -9.169,   -5.261,   -4.041,   -8.071,    1.653,   -3.879,
        0.923,    2.635,   -5.118,   -6.603,  -28.353,    2.972,    8.674,
        2.123,    3.451,    6.956,    1.246,   -3.188,   -7.790,    2.049,
        3.447,   -4.995,    2.489,    1.407,    4.540,   -6.834,   -3.954,
        2.635,    5.466,   -2.146,   18.628,    1.707,    0.690,   -6.545,
       -2.608,   -2.693,   -1.901,   -4.755,    4.553,   -1.817,    1.958,
       -2.374,    3.658,   -1.884,    4.598,    6.014,    0.615,    4.277,
       -7.893,   -6.891,  -17.731,   -2.667,   -4.451,    5.995,   -4.785,
       -0.374,   -2.319,    3.817,    3.853,    1.623,   -7.325,    4.366,
       -7.130,    1.548,   -4.632,   -7.831,    5.227,    2.093,   -9.859,
        5.653,   20.812,   -2.024,    0.228,   -3.874,    2.795,    7.905,
       -4.389,    5.301,   -8.903,    1.734,    6.798,   -2.455,   -4.736,
        6.221,    5.842,  -17.869,    3.690,    8.887,   13.781,   -2.234,
       21.223,  -12.049,    1.134,    3.516,   -1.898,   -2.478,   -1.711,
        1.411,   -2.268,    0.497,    3.105,    5.509,   -1.441,    2.658,
       13.983,   13.832,   -0.843,    0.850,   -7.660,    4.069,  -18.043,
      -10.790,    2.463,   -0.748,    0.723,    3.097,   -5.078,   -4.679,
        1.100,  -10.049,   -0.102,    5.516,  -10.570,    5.712,    5.843,
        5.709,    5.031,    2.030,  -12.111,    3.350,   17.837,   -4.349,
       -7.943,   -4.245,    1.258,    2.790,    0.526,    4.962,   11.589,
        7.702,    3.145,    0.635,   10.492,   -2.530,   -7.262,   11.032,
       -0.434,   -3.180,   -4.966,    2.930,  -19.631,  -11.006,    1.011,
       -0.869,   -6.957,    4.103,   -2.779,    1.904,    4.414,   -7.129,
       -0.304,    4.819,   -3.838,    1.831,   -4.679,  -10.306,   -6.372,
       -3.900,   10.222,    1.984,   18.106,   -2.542,    1.456,    1.399,
        3.500,   -0.167,    0.939,   -2.898,   13.315,   -0.972,   -1.098,
      -15.964,    2.977,   11.080,   -3.870,   -0.593,   -1.730,   -0.694,
        5.144,   -0.641,    4.222,   11.019,   -1.318,    2.417,   -6.999,
       -4.151,   -5.572,  -12.018,   -6.333,    1.159,   -1.136,    5.960,
        8.058,    6.034,   11.579,    3.871,    4.738,    0.286,   -4.699,
        6.243,  -29.127,    1.306,   -1.086,    0.248,   10.713,    0.705,
        0.274,  -12.725,   -5.391,   -1.333,   -9.145,   -5.733,   -1.328,
       -6.409,    2.737,   -3.307,   -3.984,    1.216,    1.170,    0.038,
       16.243,    1.377,    2.128,    1.754,   -9.870,    6.072,   -0.616,
        2.563,    4.915,   -0.291,   -9.341,    4.056,   -1.158,   -3.780,
       -5.737,  -12.761,   -7.217,   11.358,    0.705,    6.214,   54.232,
       12.115,    4.956,   -2.799,    4.961,   -1.250,    2.645,    6.647,
        5.932,    0.627,    2.228,   -4.192,    1.533,   -7.291,    2.042,
       -3.420,    1.788,    2.554,    7.899,    0.997,    0.029,    0.622,
       -0.438,   -0.451,    0.656,    4.077,   -0.524,   -2.212,    0.856,
        2.753,   -0.653,   -0.512,    0.585,    0.591,   -0.767,    1.290,
       -0.760,   -0.368,    2.252,    0.879,   -0.577,    0.632,   -1.015,
       -0.756,   -0.575,    0.569,   -1.213,   -0.585,   -0.833,    0.719,
        1.192
    },
    { -14.427,    6.092,   -2.410,    0.150,    3.622,    2.737,   -4.967,
       -2.617,    0.743,    2.338,   -5.836,   -1.386,   13.038,   -9.103,
        3.097,   -1.062,   -8.866,   -2.065,   -1.232,    3.184,    7.370,
       -2.297,    4.530,   -6.275,   -4.831,   -9.288,   -2.144,   -3.760,
       -2.666,   -4.457,   -8.365,    5.002,    6.594,   -5.906,   -0.567,
       18.134,   -1.767,   -0.451,    9.255,    0.371,  -18.749,   -2.040,
        1.886,   -3.733,   -9.973,    0.312,   13.000,    0.313,   -9.547,
        4.921,   -6.308,   -1.254,   -1.692,    3.353,    1.043,    8.945,
       -7.172,    5.087,   -4.422,    2.501,  -27.669,    0.312,    3.915,
        0.138,   -9.628,   -1.517,   -3.160,   -0.653,   17.945,    0.737,
        3.822,  -17.653,    0.815,   -6.844,   -2.209,    0.809,    5.111,
       -0.048,   -7.451,    0.211,  -27.452,    1.054,   -0.405,   -3.373,
        1.648,   -3.667,   -0.154,   -2.101,    0.555,   -4.940,    5.307,
        1.170,   -3.711,   -2.463,   -4.982,    5.700,   -3.161,   -1.749,
       -4.350,   -2.471,  -12.089,   -0.230,   11.622,   -2.927,   -5.074,
       -9.433,   -0.973,    1.643,  -14.077,    8.445,   -0.237,   14.401,
        0.353,    2.590,  -14.184,   -5.842,    3.945,   -2.674,  -11.458,
       -5.429,  -22.769,    7.192,   14.111,    1.397,    1.066,    0.331,
        2.003,   -1.745,   -2.298,    4.823,   -2.204,   -4.848,    3.424,
       -2.939,   20.785,    1.893,   11.806,   -5.139,   -2.823,    3.976,
      -11.912,    3.231,   -1.720,    3.305,    0.453,  -11.951,    1.220,
        3.955,    2.064,    3.855,    1.237,   10.275,   -0.135,    3.504,
       12.245,  -15.959,    6.734,   -1.458,    0.559,   -5.268,   37.282,
       -1.942,   10.330,   -1.925,    8.791,    1.220,    5.796,   -7.671,
       -1.154,    0.672,   -1.561,   -8.519,    1.726,   -1.467,  -14.109,
       -2.201,    2.096,    6.356,   13.707,    1.099,   16.601,  -12.496,
       -2.896,    3.743,  -11.084,   -4.654,   -0.278,   -2.345,   11.451,
       -5.949,   -3.420,   -0.928,   -2.379,   -2.388,   -3.745,    8.245,
        0.224,    2.442,    2.466,    3.592,  -32.774,   -4.462,    9.195,
       -1.322,   -8.508,    4.949,   -7.757,   -3.214,   10.685,   -6.187,
       -2.634,   -1.951,    2.544,    1.365,   -1.941,   -3.755,    1.526,
        3.199,    9.934,    1.513,  -12.743,    6.847,   -2.624,   -4.832,
        2.739,  -11.810,    1.262,   -8.346,    2.588,   -6.081,    1.361,
       12.521,    1.038,   -6.748,    5.248,  -10.485,    2.504,    0.241,
        1.298,   -1.366,    0.647,   -4.728,    4.290,    2.164,   -3.411,
       -3.914,    1.012,    2.177,   -0.093,   -4.863,    3.440,    1.081,
       -8.023,    1.184,   -6.607,   -6.524,   -9.306,    1.526,    5.042,
       -2.361,    9.252,   -2.807,   -4.648,    0.889,   -0.851,   -4.621,
        2.463,   -6.575,   11.043,   -3.887,   -3.505,    2.994,   -3.905,
        1.597,    2.301,   -1.304,    3.338,    1.509,   -4.038,    6.886,
       24.648,   -5.378,    1.215,    0.322,    3.104,    1.737,    1.993,
       -2.273,    2.130,   -0.812,    3.350,   -1.060,    0.466,    2.944,
        7.259,    0.945,    2.828,  -13.869,    4.996,   -0.990,  -12.007,
        2.101,   -0.893,   -4.308,   -0.151,   -1.298,   -0.781,   -3.774,
       -2.041,    0.381,    0.963,    2.277,    0.798,    0.914,    4.704,
        7.094,   -0.274,   -1.554,   -0.609,   16.490,   14.721,    2.005,
        2.500,   -3.522,    2.253,   -8.489,    6.788,    5.031,   -4.416,
       -7.197,  -10.089,    1.057,   -4.789,   -6.192,    2.304,   -0.697,
        0.999,   -1.096,   -0.389,    0.068,  -34.123,    3.807,    9.396,
        5.666,    5.325,    7.970,    1.344,   -3.043,  -11.075,    3.656,
        4.936,   -5.752,    2.619,    2.328,    6.821,   -6.580,   -1.594,
        4.938,    6.306,   -3.077,   21.663,    2.157,   -0.787,   -7.993,
       -4.557,   -3.109,   -1.936,   -5.962,    6.305,   -2.734,    0.684,
       -2.896,    5.598,   -2.771,    7.243,   -0.837,    0.395,    4.863,
       -9.286,   -7.445,  -16.955,   -3.322,   -3.559,    5.569,   -4.599,
       -0.341,   -1.293,    3.674,    3.619,    1.185,   -5.585,    1.484,
       -4.474,    1.509,   -4.373,   -8.680,    5.660,    1.439,  -11.791,
        3.694,   25.756,   -2.167,    0.926,   -3.110,    1.445,    8.149,
       -4.419,    7.998,  -12.350,    2.537,   10.879,   -2.218,   -2.658,
       12.022,    0.460,  -18.735,    3.900,    8.786,   13.401,    0.711,
       26.305,  -16.093,    0.736,    3.928,   -2.554,   -2.914,   -3.400,
        1.036,   -2.539,    0.249,    4.137,    8.323,   -2.782,    0.091,
       15.944,   15.711,   -0.278,    1.537,   -8.716,    4.005,  -21.423,
      -11.721,    4.267,   -0.986,    3.954,    2.817,   -2.533,   -5.510,
       -1.767,  -10.501,   -0.378,    5.266,  -12.419,    4.488,    0.768,
        5.560,   -1.805,    2.299,   -9.560,    2.353,   14.790,   -2.805,
       -8.763,   -3.024,   -1.267,    4.529,    1.532,    5.945,   11.479,
        5.856,    3.512,    0.277,    9.663,   -2.184,   -4.074,    3.049,
        4.169,   -3.983,   -4.725,    1.484,  -16.730,   -6.696,    0.170,
       -0.514,   -5.281,    1.198,   -2.360,   -0.050,    4.116,   -5.711,
        0.037,    4.740,   -3.529,   -1.195,   -8.314,   -7.497,   -4.143,
       -2.526,    8.212,    2.088,   21.917,   -2.906,    1.212,    0.903,
        2.551,   -1.588,    1.065,   -3.531,   14.682,   -1.063,   -2.709,
      -15.413,    1.635,   10.885,   -3.545,    2.821,    6.876,   -2.375,
        4.802,    1.023,    4.930,   11.365,   -1.265,    1.910,   -9.752,
       -4.493,   -6.708,  -14.221,   -6.996,    1.016,   -0.293,    7.067,
        8.228,    5.983,    7.506,    8.953,   12.183,    2.871,   -5.250,
        6.655,  -26.093,    0.934,    0.143,    0.611,    9.263,    0.373,
       -0.271,  -15.466,   -5.041,    0.224,   -3.493,   -4.400,    0.440,
       -9.896,    2.259,    1.178,   -3.341,    3.560,    3.747,   -0.247,
       12.527,   -0.062,    5.315,   -0.714,   -7.744,    4.814,   -0.591,
        1.971,    3.436,   -0.003,   -7.217,    1.477,   -1.157,   -6.515,
      -12.867,  -11.294,   -3.542,    8.689,   -0.035,    4.401,   54.760,
       14.336,    2.862,    0.352,    1.724,   -0.872,    2.780,    5.853,
        8.271,    2.423,    3.432,    1.543,   -0.245,   -7.586,    0.029,
       -4.900,   -4.927,   -3.499,    3.327,    2.826,   -0.127,    0.674,
       -0.418,   -0.459,    0.767,    3.727,   -0.571,   -2.319,    0.899,
        2.334,   -0.632,   -0.718,    0.612,    0.786,   -0.577,    1.093,
       -0.740,   -0.222,    2.526,    0.754,   -0.641,    0.667,   -0.908,
       -0.698,   -0.600,    0.579,   -1.091,   -0.561,   -0.728,    0.785,
        1.516
    },
    { -11.623,    5.869,   -2.619,   -0.463,    3.156,    3.502,   -4.509,
       -2.415,    0.865,    3.360,   -5.870,   -1.533,   13.025,  -10.893,
        8.200,    0.666,   -4.520,   -2.414,   -1.396,    3.952,    3.797,
        3.481,    3.347,   -3.596,   -5.974,   -7.074,   -1.266,   -0.257,
       -3.938,   -1.256,   -6.906,    7.156,    8.326,   -2.230,   -7.444,
        7.303,   -1.858,    1.792,   10.524,   -2.970,  -19.461,   -2.504,
        1.007,   -4.077,   -7.865,    0.923,    7.221,    0.641,   -5.866,
        3.963,   -4.141,   -1.928,   -0.156,    3.956,   -4.214,    6.237,
       -9.372,    7.232,   -7.841,    3.672,  -34.439,   -3.082,    6.685,
        0.470,   -7.413,   -3.122,   -2.763,    3.286,   22.406,    1.692,
        4.016,  -24.878,    3.431,   -4.231,   -6.533,    5.632,    4.298,
        0.763,  -10.202,   -2.941,  -34.023,    1.092,   -2.886,   -4.703,
        2.506,   -5.039,    4.994,   -4.566,    1.307,   -3.329,    9.464,
        6.072,   -2.624,    4.154,   -2.633,    8.126,   -9.541,   -1.811,
       -1.915,   -2.076,   -7.753,    0.021,    8.839,   -2.070,   -3.537,
       -6.226,    0.183,    2.182,  -12.109,    6.353,    1.042,   11.478,
        0.394,    0.749,   -6.399,   -5.817,    4.720,   -1.353,   -9.846,
       -3.050,  -20.063,    5.804,   10.889,    1.293,    1.029,    0.302,
        1.357,   -2.132,   -0.594,    4.271,   -1.117,   -3.827,    3.016,
       -1.286,   15.750,    2.109,    4.985,   -4.362,   -2.694,    4.289,
      -12.610,    3.993,   -1.373,    3.749,   -0.081,  -11.803,    1.297,
        3.009,    2.730,    3.079,    0.633,   10.080,   -0.089,    4.005,
        9.949,  -11.534,    1.783,   -0.517,    2.477,   -5.562,   38.057,
       -2.952,   10.380,   -1.439,   10.456,    2.226,    3.853,   -6.686,
       -2.346,    1.032,   -0.987,   -7.327,    0.545,   -1.807,  -13.902,
       -1.976,    9.031,    8.227,   11.639,   -0.519,   14.571,  -12.854,
       -2.766,    4.189,   -9.088,   -5.431,   -0.357,   -3.236,   10.397,
       -5.769,   -1.984,   -1.503,   -1.156,   -0.700,   -4.315,    7.460,
       -1.248,    2.732,    1.887,    4.729,  -26.096,   -5.778,    7.282,
       -1.028,    0.599,    4.604,   -2.837,   -5.603,    8.592,   -5.834,
       -2.427,   -2.414,    2.681,   -4.928,    4.404,   -2.969,   -3.577,
        6.473,   12.005,   -1.000,  -11.699,    6.377,   -0.639,   -6.063,
        4.434,  -12.313,   -0.471,   -5.250,    1.701,   -7.314,   -0.095,
       11.484,    1.967,   -5.059,   10.556,  -11.926,   -6.610,    1.505,
        0.428,   -1.601,    0.416,   -5.018,    2.311,    2.370,   -3.220,
       -3.100,    1.938,    2.483,   -0.320,   -4.748,    4.546,    1.196,
       -7.613,    1.884,   -6.449,  -11.199,   -4.670,    3.110,    3.936,
       -2.317,    8.496,   -3.014,   -6.104,    0.178,   -3.786,   -3.648,
        2.053,   -4.517,   11.499,   -3.870,   -2.865,    4.286,   -4.196,
        1.947,    1.703,   -0.848,   -1.195,   -2.188,   -6.862,    6.533,
       25.929,   -4.461,    0.629,   -0.086,    1.246,    1.083,    2.535,
       -2.818,    1.951,    0.186,    2.894,   -1.195,   -0.244,    6.446,
        7.465,    0.394,    7.008,  -14.618,    5.158,   -0.113,  -16.953,
        2.788,   -1.426,   -6.976,    2.268,   -1.785,   -0.322,   -6.420,
       -2.139,   -1.668,    0.754,    3.377,    1.964,    4.770,    4.207,
       11.043,    1.913,   -4.878,   -0.293,   23.433,   18.479,   -1.849,
        4.728,   -1.742,    4.518,   -7.995,    6.182,    7.925,   -5.047,
       -9.318,  -10.533,    0.087,   -4.255,    3.800,   -0.792,   -1.891,
        3.039,    0.458,   -3.473,   -1.052,  -36.962,    2.991,    9.171,
        3.579,    6.167,    8.584,    0.050,   -4.943,  -11.108,    2.398,
        3.454,   -7.253,    3.719,    3.883,    6.139,   -7.338,   -5.493,
        3.605,    6.166,   -0.861,   23.427,    2.645,   -0.654,   -8.452,
       -4.698,   -3.445,   -2.240,   -5.597,    5.691,   -2.021,    0.698,
       -2.898,    5.912,   -2.187,    1.205,    2.449,    5.398,    7.750,
       -8.920,  -11.313,  -19.657,   -2.682,   -6.115,    6.739,   -4.570,
        3.043,   -0.972,    4.013,    4.460,    0.218,   -6.919,   -0.409,
       -7.556,    0.901,   -0.577,  -11.011,    4.881,    1.486,  -12.000,
        5.395,   24.057,   -2.841,    1.735,   -3.842,    1.786,    7.870,
       -4.836,    5.022,  -11.425,    2.069,    9.748,   -3.312,   -2.665,
       11.188,   -3.965,  -10.986,    4.366,    7.577,   11.955,    1.749,
       24.484,  -16.080,    2.558,    1.686,   -4.078,   -4.175,   -3.396,
        1.786,   -3.128,    0.405,    1.726,    9.135,   -2.239,    4.342,
        4.206,   18.563,    0.010,    2.802,   -7.796,    4.398,  -21.591,
       -8.334,    3.403,   -1.299,    2.026,    1.003,   -3.580,   -5.072,
       -1.022,  -12.344,   -0.084,    7.085,  -12.745,    4.681,   -3.784,
        6.016,    1.266,   -0.067,  -12.644,    5.342,   19.697,   -4.930,
      -10.417,   -5.103,   -0.808,    4.519,    1.358,    5.465,   15.574,
       10.349,    2.571,    1.161,   11.449,   -2.004,   -7.087,   -0.264,
        3.273,   -2.519,   -2.908,    3.010,  -21.467,   -9.498,   -0.076,
       -1.580,   -7.837,    6.433,   -2.869,   -0.638,    4.474,   -8.437,
       -0.376,    7.505,   -2.121,    4.289,  -14.053,   -6.673,   -2.832,
       -7.768,   11.922,    1.997,   23.910,   -3.948,    0.440,    0.441,
        3.432,   -1.314,    1.459,   -1.946,   17.732,   -0.596,   -3.337,
      -18.215,    2.506,    3.181,   -2.442,    3.649,    3.967,   -2.054,
        7.394,   -0.847,    3.743,    4.032,   -1.581,    1.803,   -5.588,
       -2.700,   -4.154,   -7.130,   -3.328,   -0.559,    0.259,    2.596,
        4.742,    4.154,    5.141,    6.707,   15.647,    2.052,   -3.769,
        2.809,  -25.293,    2.320,    0.510,    0.480,   11.234,    1.430,
        1.174,  -13.569,   -6.759,   -0.434,   -4.563,   -4.868,    0.534,
       -8.322,   -0.553,   -0.774,    3.430,   -1.329,    0.414,    0.375,
       13.738,    0.456,    3.243,   -1.606,   -6.343,    4.790,   -0.976,
        3.848,    5.907,    0.072,   -6.438,    5.152,   -0.302,  -12.390,
      -11.940,  -17.064,    0.653,    8.929,    0.467,    3.827,   52.902,
        7.607,    1.603,    2.789,    0.552,   -5.566,    7.596,   16.799,
        6.740,   -0.741,   -2.103,    0.823,    3.017,   -7.207,   -4.740,
       -2.137,   -3.922,   -4.785,   -2.522,    6.076,   -2.067,    0.767,
       -0.459,   -0.523,    0.684,    3.908,   -0.586,   -2.443,    0.842,
        2.838,   -0.742,   -0.538,    0.477,    0.930,   -0.554,    0.984,
       -0.708,   -0.266,    2.439,    0.746,   -0.582,    0.668,   -0.906,
       -0.645,   -0.527,    0.587,   -0.957,   -0.573,   -0.698,    0.741,
        2.937
    },
    { -15.287,    7.533,   -3.900,   -1.003,    4.885,    4.733,   -5.817,
       -2.444,    0.806,    3.009,   -7.148,   -1.647,   14.911,  -10.405,
        8.136,   -2.504,   -8.274,   -2.375,   -1.335,    3.977,    1.646,
       -1.882,    4.420,   -6.805,   -6.552,   -8.896,   -2.869,   -3.751,
       -1.273,   -1.782,  -10.609,    6.198,    8.222,   -5.501,   -4.734,
        4.283,   -2.932,    1.429,   10.285,   -1.016,  -17.454,   -5.535,
       -0.573,   -3.949,  -10.134,    2.705,    8.455,   -4.324,   -5.630,
        2.460,   -6.266,   -2.885,   -1.677,    4.491,   11.666,    0.097,
       -4.374,    9.891,  -10.599,    8.144,  -36.715,   -1.922,    7.053,
        0.392,   -9.806,   -0.359,   -2.575,   -1.185,   20.429,    1.158,
        4.685,  -21.439,    0.434,  -10.885,   -8.220,    7.051,   -3.595,
        1.296,  -10.395,   -2.961,  -39.010,    1.947,   -3.311,   -2.662,
        2.837,   -2.162,    7.087,   -3.671,    1.432,   -5.237,   10.128,
        3.601,   -2.895,    3.995,    1.345,    8.592,   -6.106,   -0.328,
       -7.239,   -2.950,   -6.041,    0.572,    6.484,   -2.043,   -2.208,
       -5.386,   -0.483,    1.581,   -9.000,    3.823,    0.138,    8.858,
        0.690,    0.134,   -2.862,   -7.488,    3.712,   -1.524,   -6.486,
       -2.864,  -16.769,    5.217,    9.436,    1.243,    1.821,    1.219,
        0.478,   -2.422,   -1.357,    4.150,   -1.554,   -3.633,    3.370,
       -1.301,   14.495,    2.574,   14.269,   -4.179,   -2.688,    3.685,
      -15.522,    3.553,   -4.077,    4.586,    0.478,  -12.923,    1.352,
        3.753,    3.191,    5.041,    2.898,   13.167,    0.365,    3.060,
       11.654,  -10.240,   -6.709,   -1.982,   -0.550,   -5.822,   38.931,
       -2.754,    8.103,   -0.585,   10.631,    3.443,    5.831,   -9.570,
       -0.317,    1.243,   -1.649,   -8.297,   -0.785,   -1.099,  -14.931,
        1.688,    4.471,    6.245,   10.845,    2.556,   12.902,  -11.564,
       -3.578,    4.385,   -7.444,   -3.634,   -0.275,   -2.371,   10.559,
       -4.635,   -1.530,   -1.693,   -0.980,   -1.686,   -3.251,    3.509,
        3.425,    2.215,    0.995,    5.303,  -27.171,   -1.590,    6.367,
       -0.090,   -0.080,    5.227,   -4.169,   -1.554,   11.335,   -7.372,
       -2.113,   -2.341,    3.624,    0.221,    2.388,    8.108,   -2.532,
        4.623,   11.570,   -4.601,  -14.645,    9.717,   -1.449,   -6.275,
        9.169,  -17.972,   -0.713,   -8.263,    2.031,   -8.957,    2.321,
       17.583,    1.017,   -3.243,    4.357,  -16.132,   -5.583,   -2.434,
       -1.348,   -1.117,   -0.371,   -7.235,    4.938,    3.085,   -5.782,
       -4.362,    2.450,    3.394,    0.640,   -8.175,    4.672,   -0.203,
      -11.479,    2.049,   -9.142,  -16.312,   -9.811,    4.283,    7.562,
       -2.265,   11.755,   -2.201,   -5.577,    0.408,    0.637,   -5.457,
        4.679,   -7.246,   17.234,   -6.281,   -4.554,    1.672,   -4.006,
       -1.248,    3.631,   -4.791,    2.186,   -1.597,   -6.268,    6.224,
       30.121,   -4.629,    2.135,   -0.043,    2.042,    0.369,    4.211,
       -4.823,    1.597,    0.009,    3.066,   -1.216,   -0.548,    4.228,
       10.425,    1.371,    4.847,  -15.080,    6.030,    1.161,  -13.846,
        3.174,   -1.153,   -6.613,    2.272,   -1.319,   -0.858,   -5.389,
       -1.715,   -1.169,    0.868,    3.688,    2.175,    4.553,    7.490,
       10.550,    0.247,   -6.839,   -1.463,   23.297,   18.111,    1.590,
        1.615,   -4.694,   -1.902,  -13.824,    7.554,    5.181,   -5.711,
       -8.641,  -13.076,    3.204,   -5.316,   -2.138,   -0.610,   -5.487,
        3.584,   -3.707,   -0.550,    0.555,  -39.325,    3.680,    7.596,
        6.797,    4.846,    8.761,    0.680,   -3.067,  -10.361,    5.580,
        3.621,   -6.176,    6.124,   -0.215,    5.882,   -5.695,   -5.520,
        6.998,    8.304,   -4.033,   24.710,    2.857,    0.812,   -7.989,
       -3.281,   -4.762,   -3.502,   -5.794,    5.778,   -0.778,    1.797,
       -1.196,    6.520,   -0.831,    3.919,   -1.455,    8.840,    8.758,
       -9.763,  -10.694,  -25.420,   -2.885,   -7.973,   12.067,   -4.820,
        1.635,   -1.041,    5.521,    5.812,    2.404,   -9.009,    2.958,
      -10.011,    0.710,    4.514,  -11.629,    9.152,    0.622,  -21.245,
        9.906,   19.110,   -2.192,    0.465,   -2.518,    2.059,    5.040,
       -2.905,    5.047,   -8.223,    2.259,    5.318,   -0.505,   -1.345,
       10.597,   -1.473,  -12.075,   10.753,    6.544,    8.864,    0.884,
       19.638,  -12.700,    4.735,    2.377,   -3.334,   -3.183,   -0.891,
        3.683,   -2.036,   -0.812,    1.239,    2.913,   -1.925,    1.540,
        3.404,   17.219,   -2.649,    1.624,   -8.903,    4.822,  -19.307,
       -7.601,    3.294,   -0.469,    0.357,    2.763,   -2.568,   -5.201,
       -0.169,   -9.977,    1.106,    5.996,  -11.615,    5.851,   -3.285,
        6.127,    4.110,    2.204,  -10.753,    2.592,   16.126,   -5.613,
       -9.002,   -2.951,    0.952,    4.008,    0.726,    4.701,   11.711,
       10.033,    2.964,    2.137,    9.388,    4.979,   -7.592,   -6.516,
        1.931,   -9.475,   -4.576,    3.674,  -24.426,  -10.919,    0.709,
       -1.478,   -9.985,    6.404,   -2.637,   -1.061,    4.712,   -9.597,
       -0.474,    8.702,   -3.119,    3.445,  -17.678,   -7.648,    6.072,
       -9.925,   14.882,    3.956,   17.502,   -1.553,    0.864,    1.416,
        2.421,   -0.171,    2.596,   -1.205,   12.957,   -1.597,   -2.778,
      -14.869,    1.638,    2.632,   -3.549,    2.273,    0.618,   -0.430,
        4.303,   -0.427,    0.857,    6.854,   -1.735,    2.576,   -4.610,
       -3.582,   -8.336,  -15.444,   -8.301,    0.357,    1.026,    6.813,
        9.407,    7.359,    5.347,    3.288,    3.967,    1.026,   -3.678,
        4.756,  -26.482,    0.669,   -1.699,    1.091,   11.923,   -0.358,
        0.931,  -15.811,   -5.482,   -0.810,   -3.205,   -3.621,   -0.019,
       -7.071,    1.156,    2.814,   -2.173,    5.564,   -2.543,    3.785,
       13.725,   -2.234,    4.737,    0.004,   -3.978,    5.334,   -1.138,
        5.767,    8.160,   -2.318,  -10.871,    4.663,   -0.391,  -16.900,
      -10.264,  -18.394,   -3.293,    7.866,   -0.228,    8.860,   49.586,
        5.409,    4.708,    3.066,   -2.153,   -1.553,    7.195,   17.742,
        6.823,    0.094,   -1.500,    1.972,   -2.047,   -5.917,   -4.437,
       -3.533,   -4.359,   -4.814,    1.330,    2.208,   -1.058,    0.805,
       -0.421,   -0.419,    0.743,    3.070,   -0.667,   -2.212,    0.808,
        2.638,   -0.807,   -0.594,    0.654,    0.789,   -0.603,    1.235,
       -0.785,   -0.136,    2.292,    0.761,   -0.540,    0.722,   -1.096,
       -0.611,   -0.625,    0.576,   -0.975,   -0.561,   -0.701,    0.697,
        1.562
    },
    { -16.416,    7.089,   -1.970,   -0.183,    3.797,    3.278,   -5.785,
       -2.533,    0.972,    4.361,   -8.337,   -2.105,   15.035,  -10.570,
        7.493,   -7.904,   -5.646,   -2.903,   -1.072,    4.667,    6.122,
        2.627,    6.002,   -8.164,   -6.728,  -11.269,   -2.815,   -3.303,
       -6.986,   -0.511,  -11.673,    6.851,   10.373,   -1.309,   -6.200,
        3.646,   -0.549,    2.546,   16.150,   -2.492,  -18.413,   -5.287,
       -0.829,   -3.576,   -8.957,    4.474,    6.535,   -6.600,   -3.185,
        3.955,   -4.852,   -4.418,    0.047,    1.068,   10.679,   -4.830,
        2.397,    8.636,  -10.669,    7.296,  -32.498,   -2.177,    7.591,
        1.797,  -10.525,   -2.002,   -2.594,    0.390,   19.432,    0.730,
        4.512,  -21.383,    1.808,   -3.963,   -5.897,    5.593,    0.539,
        1.586,   -8.362,   -3.253,  -40.276,    0.608,   -3.749,   -4.166,
        4.221,   -2.714,    9.451,   -3.378,    1.301,    0.488,    7.815,
        2.367,   -4.709,    5.713,   -1.574,    8.882,   -3.503,   -5.138,
       -5.867,   -1.078,   -8.296,   -0.226,    9.323,   -2.890,   -2.847,
       -5.116,    1.135,    2.165,  -12.447,    4.619,   -0.409,    9.924,
       -0.091,   -0.766,   -9.305,   -1.767,   -0.153,   -3.096,   -6.634,
       -0.104,  -18.798,    6.092,   12.319,    1.712,    0.873,   -0.788,
        1.935,   -1.673,   -1.459,    4.081,   -2.262,   -3.901,    2.989,
       -0.426,   14.967,    3.380,   10.551,   -3.916,   -2.388,    3.783,
      -15.528,    5.180,   -0.924,    5.720,    0.758,  -14.329,    2.715,
        3.794,    3.744,    4.706,    1.997,   10.316,   -0.267,    2.167,
       10.689,   -7.806,   -7.326,   -1.950,    0.269,   -6.087,   34.288,
       -2.855,    6.445,   -2.289,   10.503,    2.031,    4.386,   -6.201,
        0.689,    0.924,   -2.187,   -7.369,    2.129,   -0.350,  -15.011,
        0.731,   -2.153,    7.110,   10.299,   -0.000,   14.092,  -14.727,
       -5.547,    4.398,   -9.725,   -4.359,   -0.589,   -3.724,   12.786,
       -4.920,   -2.630,   -1.299,   -1.219,   -0.841,   -5.833,    8.325,
       -5.261,    3.295,    1.942,    5.359,  -29.364,   -3.396,    6.095,
       -0.071,   -0.369,    6.560,   -4.375,   -2.799,   10.890,   -5.627,
       -1.330,    0.606,    3.180,    1.445,   -0.419,    4.509,    2.986,
        2.882,   11.643,   -4.119,  -12.315,    9.623,   -1.530,   -5.027,
        8.306,  -17.074,   -1.126,   -7.627,    3.528,   -6.113,    1.031,
       14.978,    2.466,   -5.376,    2.989,  -14.756,   -0.685,   -1.919,
        0.618,   -0.437,   -1.131,   -7.147,    4.930,    3.792,   -5.441,
       -4.474,    2.695,    2.733,   -0.576,   -7.808,    4.587,    1.829,
      -11.071,    2.369,  -11.218,  -18.037,  -11.982,    3.492,    7.680,
       -2.460,   14.188,   -2.451,   -8.060,    0.257,    1.200,   -6.490,
        4.505,  -11.396,   18.086,   -6.803,   -5.303,    4.840,   -6.770,
        0.344,    4.306,  -12.977,    8.100,   -1.533,   -7.698,    9.642,
       37.377,   -6.783,    2.593,   -0.602,    5.467,    0.940,    5.336,
       -6.569,    2.027,   -1.339,    4.069,   -1.186,    0.883,    2.963,
        9.744,    1.635,   -1.896,  -18.018,    8.324,   -0.873,   -6.791,
        1.066,   -0.611,   -3.818,    2.871,   -0.706,   -0.134,   -4.231,
       -0.785,   -0.942,    0.290,    2.806,    2.602,    2.360,    9.025,
        9.850,    0.992,   -4.656,   -0.401,   15.785,   22.649,    0.665,
        4.315,   -3.063,    3.545,  -15.605,   10.332,    0.342,   -8.721,
       -6.266,  -11.898,    3.902,    0.922,   -0.591,   -4.640,   -2.303,
        5.381,   -5.678,   -2.548,    2.764,  -42.718,    4.900,    9.449,
        7.649,    7.082,    9.742,    0.311,   -2.696,  -12.895,    5.109,
        4.625,   -6.601,    5.631,   -1.421,    6.499,   -7.039,   -6.555,
        7.877,    8.956,   -5.577,   25.377,    1.184,    0.476,   -9.266,
       -4.777,   -4.442,   -2.472,   -6.180,    5.860,   -2.273,    1.347,
       -2.889,    5.710,    0.850,    3.581,    5.635,    4.132,    7.880,
       -9.057,   -9.758,  -21.955,   -2.666,   -8.403,   11.654,   -5.808,
        1.018,   -1.135,    6.956,    5.806,    2.423,   -8.327,    3.019,
      -10.021,    0.488,    6.627,   -3.209,    4.584,    0.471,  -21.326,
        8.449,   21.189,   -1.732,   -0.565,   -3.373,    3.814,    4.927,
       -2.826,    5.916,   -9.666,    2.089,    5.044,    0.308,   -0.087,
        5.764,   -0.426,   -5.992,    9.923,    9.919,   10.380,    1.550,
       22.005,  -14.738,    5.810,    3.289,   -3.249,   -4.812,   -1.196,
        5.296,   -2.893,   -1.453,    2.069,    4.966,   -2.730,    3.555,
        2.126,   17.423,   -4.064,    0.913,  -10.302,    4.461,  -19.572,
       -7.858,    2.620,   -1.427,   -1.319,    3.414,   -1.557,   -4.500,
       -0.866,  -10.205,    0.563,    3.588,  -12.270,    6.162,   -4.243,
        0.309,    5.224,    4.204,   -9.808,    2.700,   15.826,   -5.256,
       -7.224,   -4.130,    1.241,    1.654,   -0.525,    5.203,   12.051,
        9.257,    3.734,    1.358,   10.539,    3.811,  -10.234,    2.190,
        5.972,   -3.321,   -3.484,    2.056,  -21.183,  -12.494,    0.737,
       -2.110,   -8.109,    5.279,   -2.387,   -1.663,    4.197,   -7.906,
       -3.126,    9.034,   -2.145,    2.338,   -9.212,   -9.074,    4.118,
       -9.621,   13.455,    4.600,   18.081,   -2.496,    1.500,    0.287,
        2.015,   -1.388,    1.441,   -1.714,   14.262,   -1.364,   -2.619,
      -14.946,    2.115,    3.290,   -2.080,    3.846,    1.003,   -0.990,
        5.544,   -0.178,   -0.549,    7.211,   -0.280,    0.576,   -5.848,
       -6.952,  -10.165,  -16.964,   -9.679,    0.787,   -3.197,    8.043,
       12.840,    9.925,    2.958,   10.123,   -5.774,    0.126,   -5.132,
        8.589,  -28.795,    2.898,   -0.854,   -0.617,   12.951,    0.168,
       -0.173,  -16.935,   -5.313,   -0.755,   -5.437,   -4.555,   -0.886,
       -4.013,   -0.543,   -0.415,   -6.461,    4.902,    3.129,    2.111,
       11.339,   -3.917,    4.037,   -0.517,   -5.576,    6.876,   -0.911,
        5.519,    6.074,   -0.734,   -9.047,    4.483,    1.959,  -15.437,
      -15.632,   -7.802,  -15.233,    8.455,   -0.138,    7.192,   48.809,
       -2.752,    7.818,    0.134,   -0.908,   -4.200,    9.047,   12.643,
        6.038,    3.189,    2.802,   -0.618,   -0.177,   -2.319,   -5.939,
       -2.512,   -6.121,   -3.277,    4.181,    3.817,   -0.943,    0.682,
       -0.422,   -0.440,    0.698,    2.611,   -0.524,   -2.137,    0.704,
        2.323,   -0.801,   -0.708,    0.582,    0.833,   -0.601,    1.174,
       -0.750,   -0.266,    2.627,    0.729,   -0.594,    0.697,   -1.226,
       -0.577,   -0.515,    0.677,   -0.932,   -0.660,   -0.666,    0.667,
        1.700
    },
    { -14.658,    4.789,   -2.890,   -0.274,    2.345,    5.836,   -5.582,
       -2.968,   -0.225,    2.627,   -9.824,   -0.950,   16.768,  -13.679,
       14.800,   -2.889,   -1.673,   -3.673,   -1.417,    7.359,   10.109,
        2.145,    5.525,  -10.745,   -6.252,  -12.295,   -2.013,   -3.654,
       -3.600,   -1.855,  -12.382,    9.564,   10.618,   -1.359,   -1.383,
        1.513,    0.347,    1.023,   15.521,   -4.231,  -14.001,   -4.222,
       -0.451,   -2.112,   -7.044,    1.123,    6.557,   -6.156,   -3.713,
        0.162,   -4.063,   -0.878,   -2.146,   -1.485,    6.729,   -1.091,
        7.598,   10.850,   -8.120,    7.948,  -22.807,   -1.269,    3.875,
        0.920,   -5.421,   -0.979,   -1.527,   -1.526,   13.547,    0.547,
        2.655,  -12.859,   -0.790,   -2.201,  -10.233,    5.182,    3.882,
        0.705,   -6.244,   -1.070,  -40.414,    2.418,   -5.367,   -1.272,
        4.497,   -1.848,    5.350,   -0.537,    2.943,   -1.556,    7.185,
        4.173,   -4.624,    3.090,   -1.040,    9.014,  -11.834,   -5.809,
       -5.570,   -3.161,   -9.463,    2.193,    7.152,   -1.535,   -3.624,
       -3.300,    1.338,    1.277,  -11.010,    4.671,   -1.718,   10.813,
        0.287,   -7.554,   -7.531,   -1.857,    1.472,   -3.359,   -6.499,
       -1.352,  -25.702,    7.849,   15.816,    1.742,    1.264,   -0.476,
        3.748,   -1.842,   -1.541,    4.680,   -2.776,   -5.067,    3.990,
       -1.898,   19.463,    4.156,    7.436,   -5.566,   -2.683,    3.710,
      -13.802,    2.147,   -2.204,    3.667,    1.796,  -12.738,    1.984,
        6.089,    2.705,    4.870,    1.808,   11.238,    0.491,    2.653,
       15.077,  -12.217,    1.908,   -1.833,    0.812,   -7.681,   35.306,
       -1.806,    9.046,   -2.350,    8.874,    0.851,    3.678,  -10.232,
       -0.120,    2.087,   -0.144,   -9.012,    1.901,   -0.421,  -14.053,
        0.398,    0.567,    6.627,   12.282,   -0.048,   10.850,  -14.659,
       -4.430,    3.659,   -7.453,   -3.786,    0.172,   -4.646,   10.520,
       -3.962,   -2.551,   -1.557,   -0.239,    0.319,   -7.605,    5.005,
       -2.909,    1.559,    0.960,    6.119,  -30.662,   -4.869,    6.203,
       -0.132,    0.461,    7.302,   -4.431,   -0.649,   10.411,   -7.542,
       -3.076,    0.170,    3.004,   -4.578,    2.346,    1.309,   12.368,
        1.900,   11.649,   -1.895,   -8.714,    5.485,   -2.657,   -2.051,
        6.334,  -10.010,    0.265,   -5.290,    2.199,   -5.118,    0.514,
        9.453,    0.842,   -1.019,    3.353,  -11.297,   -4.567,   -2.532,
        0.130,    0.313,    0.261,   -6.892,    5.695,    2.651,   -5.189,
       -5.254,    2.875,    2.280,    0.364,  -10.146,    4.656,    0.508,
      -12.473,    3.576,  -13.149,  -15.936,  -10.851,    2.937,    9.392,
       -1.976,   10.864,   -1.971,   -5.726,    0.294,   -0.126,   -4.411,
        4.193,   -9.504,   13.060,   -4.480,   -3.071,    3.462,   -3.644,
        2.201,    3.748,   -8.378,    3.328,   -3.709,   -6.454,    7.685,
       33.177,   -4.370,    1.433,    1.855,    6.101,    4.054,    2.367,
       -6.992,    3.387,   -2.673,    2.836,   -2.593,    1.273,    1.135,
        5.520,    1.025,   -7.027,  -14.729,   11.315,   -2.275,   -9.090,
        3.872,   -0.511,   -3.002,    0.088,    0.654,   -0.310,   -3.200,
       -0.909,   -1.572,   -1.085,    1.651,    2.626,    1.984,    7.271,
       10.360,    4.287,   -2.148,    1.738,   15.672,   20.451,    3.403,
       -1.905,   -2.912,    0.634,   -4.114,   11.538,   -0.414,   -3.933,
       -2.450,   -8.813,    2.789,   -3.911,    0.573,   -8.144,   -2.079,
        4.382,   -5.459,   -7.503,   -0.866,  -39.904,    1.896,    4.864,
        7.821,    8.890,   10.061,    0.596,   -3.336,   -8.758,    2.989,
        3.624,   -5.691,    3.149,   -2.177,    7.037,   -4.437,   -3.069,
        4.495,    6.003,   -0.010,   25.181,    2.108,    0.620,   -9.153,
       -4.423,   -4.823,   -1.687,   -6.842,    6.373,   -3.017,    1.999,
       -1.886,    6.652,   -2.356,    7.233,    1.781,   -0.542,    6.157,
      -10.662,   -9.861,  -13.233,   -2.054,   -4.145,    4.544,   -4.279,
        0.865,   -0.739,    2.544,    3.000,    1.514,   -4.234,    2.694,
       -5.834,   -0.249,    2.229,   -2.600,   -3.852,    1.306,   -9.874,
        4.356,   20.141,   -1.133,   -1.589,   -2.563,    1.599,    5.147,
       -2.403,    7.893,   -9.229,    2.071,    5.876,    2.072,   -2.426,
        0.633,    3.531,   -0.621,   -0.410,    8.739,   10.929,   -1.889,
       28.532,  -15.425,    5.140,    2.438,   -5.429,   -6.102,   -2.088,
        5.586,   -1.832,   -1.658,    0.890,    7.457,   -2.391,    3.175,
        7.314,   17.303,    4.695,    2.893,   -9.942,    4.122,  -23.721,
       -7.972,    4.454,   -1.880,    0.298,    1.528,   -5.116,   -3.764,
       -0.661,  -14.710,   -1.494,    6.322,  -12.087,    5.222,   -0.165,
        2.273,    4.288,    1.389,  -11.895,    3.546,   25.525,   -4.601,
      -12.349,   -6.218,    0.206,    4.888,   -0.319,    7.695,   15.084,
        8.825,    4.111,    1.427,   10.061,    5.261,   -3.623,    8.995,
        4.605,   -5.153,   -5.884,    0.658,  -20.398,   -6.400,    0.063,
       -0.832,   -5.814,    2.569,   -2.223,   -2.354,    3.899,   -6.823,
       -1.979,    8.174,   -2.311,   -6.203,   -7.017,  -11.619,   -3.444,
       -8.999,   10.888,    3.411,   18.283,   -1.629,    1.030,    0.759,
        2.743,   -0.429,    1.264,   -0.386,   14.057,   -2.176,   -1.844,
      -15.215,    2.375,    6.917,   -3.382,    3.821,   -4.358,   -1.045,
        5.511,   -1.157,   -1.360,    8.223,   -3.838,    0.636,   -5.711,
       -8.502,  -10.977,  -16.050,   -7.238,    0.580,   -4.364,   10.323,
       12.918,   -0.920,    3.998,    8.910,    2.183,   -0.591,   -5.186,
        7.163,  -26.455,    0.575,   -0.945,    0.998,   11.945,   -2.414,
        0.095,  -19.115,   -4.025,   -2.045,   -3.254,   -4.658,   -2.412,
       -7.452,    5.822,    7.079,   -4.010,    2.718,    0.312,    2.899,
       13.449,   -1.626,    2.068,   -1.019,   -4.752,    6.037,   -0.783,
        2.262,    7.498,   -1.212,   -7.227,    2.103,    0.358,  -14.543,
       -9.183,   -0.966,  -12.782,    7.563,    1.964,    3.699,   49.921,
       -0.815,    3.976,    3.000,   -1.978,   -3.401,    9.128,   10.059,
        9.564,    1.143,    6.112,   -1.196,   -1.022,   -3.059,   -3.015,
       -3.211,  -10.239,   -0.718,    7.034,    4.083,   -0.345,    0.757,
       -0.382,   -0.450,    0.843,    2.779,   -0.548,   -1.903,    0.873,
        2.461,   -0.883,   -0.686,    0.589,    0.681,   -0.445,    0.936,
       -0.823,   -0.201,    2.427,    0.739,   -0.583,    0.645,   -1.087,
       -0.529,   -0.492,    0.715,   -0.953,   -0.594,   -0.866,    0.835,
        1.411
    },
    { -13.581,    6.877,   -0.971,    0.681,    3.863,    3.291,   -5.232,
       -2.158,    1.055,    4.440,   -9.078,   -1.956,   15.079,  -13.488,
        9.012,    2.999,   -7.098,   -4.149,   -1.657,    4.849,    6.545,
        2.486,    2.420,   -5.824,   -3.818,   -8.350,   -1.369,   -1.477,
       -2.772,   -0.214,  -10.184,    8.304,    6.192,   -4.656,    2.237,
        5.077,   -5.969,    2.075,   11.607,   -3.415,  -14.926,   -1.505,
       -0.071,   -2.098,   -5.415,    0.644,    3.608,   -7.634,   -4.507,
        0.510,   -6.522,   -4.183,   -2.493,   -4.708,    3.614,   -0.772,
        3.985,    6.252,   -3.150,    6.125,  -21.699,    0.061,    3.234,
        0.059,   -5.855,   -1.091,   -1.154,   -1.503,   12.737,    0.850,
        2.724,  -11.656,    1.564,   -4.400,   -4.956,    1.771,   -1.426,
       -0.516,   -4.638,   -1.437,  -38.821,    6.395,   -2.437,    0.843,
        0.615,   -2.028,   -4.503,    1.431,   -1.693,   -5.830,    7.163,
        1.501,   -1.359,    1.414,   -0.856,   10.163,   -4.201,   -0.551,
       -0.014,   -4.628,   -7.445,    1.078,    6.245,   -2.714,   -2.737,
       -3.556,   -0.091,    1.932,   -9.265,    4.166,   -0.627,    8.994,
       -0.519,   -5.819,   -5.479,    0.779,   -1.090,   -4.002,   -7.742,
       -2.098,  -23.540,    6.601,   15.683,    2.464,    0.614,   -0.290,
        1.776,   -3.456,   -2.028,    4.494,   -1.813,   -5.345,    4.096,
       -0.726,   16.637,    4.290,   11.793,   -3.847,   -2.237,    4.614,
      -11.677,    2.714,   -2.066,    3.838,    0.609,  -12.174,    1.802,
        4.662,    4.165,    3.912,    2.259,   10.417,    0.212,    2.215,
       11.409,   -8.241,    3.138,    0.519,    1.428,   -6.302,   33.877,
       -1.376,    8.273,   -0.931,    8.204,    1.046,    5.019,   -7.719,
        1.132,    1.609,   -0.691,   -7.995,    2.733,   -1.047,  -12.522,
       -1.040,    0.097,    5.389,   10.590,    1.679,   11.526,  -11.680,
       -3.678,    1.126,   -6.220,   -2.819,   -0.355,   -4.450,    8.306,
       -3.352,   -1.765,   -1.032,   -0.825,    7.842,   -5.985,    1.002,
        6.467,    2.728,    1.558,    5.619,  -32.629,   -1.682,    9.190,
       -1.417,   -3.708,    5.968,   -3.443,    0.827,   11.824,   -7.479,
       -3.516,   -1.411,    5.620,   -0.187,    0.024,    3.182,    8.053,
       -0.796,   11.248,   -0.326,   -5.861,    5.186,   -0.800,   -2.574,
        4.173,   -8.062,   -0.634,   -4.375,    0.056,   -3.097,    0.769,
        7.795,    1.337,   -2.727,    2.665,   -6.188,   -2.544,   -0.138,
        0.599,   -0.759,    0.486,   -5.822,    4.244,    1.876,   -4.445,
       -4.532,    2.066,    2.767,   -0.026,   -8.211,    3.365,    0.573,
      -10.158,    1.557,   -9.274,  -11.316,   -7.885,    2.062,    7.179,
       -1.220,   12.494,   -1.188,   -5.519,   -0.018,   -0.422,   -3.337,
        3.967,   -8.555,   14.933,   -4.846,   -4.283,    2.115,   -4.873,
       -1.449,    3.300,    0.292,    0.161,   -0.905,   -5.576,    7.641,
       33.083,   -4.911,    2.317,    0.656,    7.214,    3.844,    2.200,
       -7.019,    3.209,   -1.285,    3.533,   -2.368,    0.303,    2.345,
       -0.155,   -2.300,   -4.039,  -16.695,   11.493,   -3.970,  -10.597,
        3.839,   -1.660,   -6.165,    2.951,   -0.968,   -0.280,   -4.798,
       -1.701,   -2.426,    0.162,    3.523,    4.020,    2.862,    6.764,
       13.882,   -0.473,   -7.962,    2.698,   17.582,   20.230,    4.481,
       -2.690,   -1.549,    0.699,   -3.228,    7.594,   -0.129,   -1.343,
       -3.620,    0.541,   -2.669,   -9.734,    2.730,   -1.647,   -4.403,
       -2.301,   -2.471,   -6.718,    0.255,  -33.031,    1.816,    4.868,
        5.018,    5.027,    9.909,   -1.231,   -2.673,   -7.784,    3.719,
        1.975,   -5.306,    3.242,    1.477,    5.915,  -12.054,    5.944,
        3.095,    4.499,    1.912,   24.148,    1.840,   -1.227,   -9.083,
       -7.106,   -3.504,   -2.338,   -7.426,    7.402,   -2.373,    0.523,
       -3.263,    7.008,   -2.788,    5.807,   -0.714,    2.954,    6.558,
      -10.103,   -8.426,  -15.261,   -4.403,   -1.652,    4.351,   -4.769,
       -0.269,    0.193,    3.407,    3.875,    1.261,   -3.284,    2.154,
       -5.017,    3.238,   -0.503,   -0.561,   -2.706,    3.552,   -9.973,
        3.271,   19.307,   -2.082,   -0.554,   -2.246,    2.537,    4.151,
       -2.507,    6.113,   -8.565,    2.088,    4.673,   -0.086,   -0.676,
        2.229,    1.829,    3.929,   -4.105,   10.112,   11.033,    0.911,
       26.976,  -14.727,    5.832,    2.255,   -5.336,   -6.669,   -2.102,
        3.902,   -2.713,   -1.701,    0.119,    7.738,   -2.243,   -1.656,
       12.311,   13.376,    4.075,    2.354,   -9.522,    5.879,  -30.204,
      -11.574,    5.443,   -0.468,    1.005,    0.401,   -6.231,   -5.244,
       -0.244,  -15.832,   -3.516,    6.797,  -15.226,    9.439,   -7.087,
        2.747,   -0.022,    4.667,  -11.817,    4.450,   24.563,   -6.457,
      -10.191,   -3.335,    1.086,    6.013,    0.981,   11.545,   15.342,
        8.122,    4.937,   -0.240,   11.891,    0.326,    0.008,    6.992,
       -0.038,   -2.658,   -1.534,    0.179,  -17.131,   -5.906,   -0.294,
       -1.329,   -6.467,    2.579,   -1.604,   -1.528,    3.748,   -7.425,
       -2.225,    8.982,   -2.189,   -4.698,   -2.104,   -9.994,   -3.337,
       -6.561,   12.510,    1.470,   16.667,   -2.088,    2.011,    1.899,
        2.512,   -0.445,    1.670,   -1.372,   11.152,   -0.842,   -0.892,
      -13.414,    2.162,    7.338,   -7.615,    3.393,    4.436,    0.034,
        5.129,   -1.546,   -1.385,    7.210,   -3.454,    0.596,   -7.409,
       -5.877,   -9.745,  -15.321,   -8.928,   -0.051,   -3.578,    9.860,
       12.303,   -2.505,    5.610,    7.522,    2.606,    1.136,   -3.267,
        6.416,  -24.615,    2.895,   -1.672,    1.319,    7.740,    0.244,
       -0.805,  -15.450,   -3.193,   -2.713,   -6.892,   -3.807,   -3.052,
       -8.841,    0.724,    5.400,   -2.383,    2.687,    2.464,    3.128,
       14.831,    1.919,    2.889,   -1.580,   -5.716,    4.389,   -1.121,
        3.273,    5.823,   -1.649,   -6.353,    4.376,   -0.234,  -11.353,
      -11.653,   -2.682,   -3.185,    6.795,    0.783,    3.054,   46.252,
        1.983,    6.962,   -1.200,    0.541,   -3.159,    1.556,    9.306,
        8.997,   -2.586,    8.199,    3.491,   -3.250,   -0.568,    0.087,
       -3.354,  -12.901,    1.514,    1.850,    0.183,   -1.533,    0.767,
       -0.455,   -0.551,    0.946,    3.810,   -0.568,   -2.122,    0.761,
        3.615,   -0.671,   -0.646,    0.496,    0.842,   -0.750,    1.662,
       -0.823,   -0.044,    2.597,    0.769,   -0.591,    0.656,   -1.299,
       -0.754,   -0.673,    0.729,   -1.198,   -0.753,   -0.791,    0.890,
        1.774
    },
    { -11.090,    4.588,   -1.975,   -0.444,    3.011,    3.360,   -4.005,
       -2.592,    0.209,    1.996,   -6.694,   -0.865,   12.424,   -9.898,
       11.839,    1.359,   -8.931,   -2.984,   -0.939,    4.308,    7.788,
        2.198,    4.454,   -5.742,   -3.435,   -7.939,   -1.308,   -2.141,
       -4.291,   -0.852,   -8.555,    5.763,    6.599,   -4.224,    7.184,
        6.267,  -11.695,    0.422,   10.156,   -2.269,  -21.581,   -4.003,
        3.259,   -2.403,   -7.209,   -1.418,    9.747,   -9.364,   -7.800,
        1.851,   -7.690,   -2.063,   -0.545,   -3.484,    3.499,    4.222,
        2.924,    7.829,   -6.071,    8.951,  -18.852,   -0.171,    3.989,
       -1.067,   -5.219,   -1.085,   -2.461,    1.110,   13.002,    0.800,
        1.435,  -13.624,    1.282,   -3.780,    0.542,    2.908,    4.708,
       -0.825,   -7.691,   -0.727,  -41.960,    7.147,    2.071,    1.190,
       -0.777,   -5.830,   -2.445,   -1.416,   -0.093,    1.106,    3.625,
        4.845,   -1.198,   -4.778,   -2.285,   11.985,    3.798,    3.857,
       -4.081,    5.223,   -8.810,    0.246,    7.972,   -1.974,   -3.603,
       -5.720,    0.246,    1.675,  -10.463,    5.670,   -0.580,    9.475,
        0.789,   -1.292,   -8.868,   -5.275,    4.102,   -2.914,   -8.181,
       -2.017,  -17.538,    5.624,   12.143,    0.892,    0.747,    0.669,
        1.046,   -1.242,   -2.933,    3.441,   -2.595,   -4.325,    3.493,
       -2.645,   16.543,    2.744,   12.005,   -4.042,   -1.836,    3.456,
      -12.628,    1.601,   -2.297,    4.041,   -0.391,   -9.992,    2.114,
        3.487,    2.564,    3.726,    2.530,    9.606,    0.550,    3.652,
        4.407,   -8.348,    2.868,   -0.003,    0.463,   -5.385,   31.775,
       -2.494,    6.890,   -1.608,    9.469,    1.885,    4.049,   -6.649,
        0.860,    1.995,   -0.275,   -7.393,    2.589,   -0.885,  -12.229,
       -0.904,   -3.383,    5.798,   10.532,   -0.289,   13.612,  -11.725,
       -2.245,    1.435,   -7.432,   -5.307,   -0.372,   -4.110,    9.663,
       -4.531,   -2.457,   -0.988,   -0.507,    6.785,   -7.474,    6.142,
        1.138,    2.073,    1.638,    5.724,  -33.293,   -4.389,   10.004,
       -0.074,   -2.034,    6.581,   -2.473,    0.292,    9.982,   -6.539,
       -3.684,   -1.430,    4.807,   -1.478,   -3.378,    4.682,    4.742,
        1.535,   10.573,   -0.281,   -7.131,    5.628,   -0.542,   -3.900,
        6.124,  -10.397,   -1.078,   -7.038,    0.746,   -4.108,    0.277,
        8.954,    1.301,   -3.736,    4.424,   -7.949,   -4.327,   -2.595,
       -0.011,    0.638,    0.725,   -6.225,    4.649,    2.944,   -4.232,
       -3.939,    2.505,    2.811,   -0.316,   -7.267,    3.705,    1.374,
       -9.953,   -0.055,   -8.908,  -13.304,   -2.183,    3.725,    7.416,
       -2.769,   12.490,   -1.903,   -6.907,   -0.254,   -0.774,   -3.397,
        4.443,   -8.886,   13.860,   -6.432,   -4.618,    3.831,   -5.143,
       -0.386,    1.097,   -0.011,    3.622,   -1.476,   -9.061,   10.741,
       35.292,   -5.183,    1.686,    0.894,    6.254,    2.221,    3.224,
       -5.056,    1.836,   -1.505,    3.432,   -1.418,    1.628,    3.958,
       11.626,    6.627,    1.099,  -12.606,    8.306,   -3.283,  -12.134,
        4.338,   -0.847,   -5.531,    3.109,   -1.765,   -0.689,   -5.084,
       -3.464,   -0.844,   -1.076,    4.950,    3.206,    2.820,    8.444,
       20.572,   -0.880,   -6.955,    4.646,   19.932,   13.408,    0.886,
       -2.648,    1.934,    0.890,   -6.710,    6.050,   -7.346,   -0.128,
       -0.544,   14.821,    4.799,   -3.477,    9.279,   -3.837,   -2.347,
       -8.764,    1.427,   -6.366,   -1.442,  -33.113,    2.903,    3.840,
        3.106,    4.141,   10.184,    0.029,   -4.719,   -7.856,    2.779,
        1.112,   -5.343,    4.109,    1.539,    6.204,  -19.187,    3.780,
        5.227,    8.409,   -3.640,   27.034,   -0.358,    0.285,   -9.073,
       -0.458,   -4.740,   -3.450,   -8.245,    5.143,   -2.453,    0.089,
       -2.305,    8.510,   -1.237,    5.959,    4.449,   -2.306,    7.006,
       -9.189,  -11.922,  -18.860,   -5.771,   -5.324,    4.981,   -3.655,
       -1.425,   -1.398,    3.860,    5.107,    0.302,   -5.650,    4.941,
       -4.675,   -2.738,   -4.193,    2.393,   -0.971,    4.146,  -13.671,
        4.865,   16.979,    0.799,   -1.356,   -3.276,    1.375,    4.693,
       -2.727,    6.649,   -8.158,    2.026,    5.497,    1.329,   -2.512,
        9.922,   -6.347,   -2.306,   -4.078,    8.229,   11.425,   -0.800,
       20.225,  -11.725,    4.468,    2.255,   -3.750,   -4.059,   -1.214,
        2.770,   -2.767,   -1.054,    0.445,    5.630,   -1.222,   -0.284,
        5.839,   18.554,   -5.949,    1.414,   -7.210,    3.796,  -28.314,
      -12.256,    5.027,   -0.958,    2.221,    2.206,   -5.138,   -5.929,
       -0.415,  -14.268,   -0.375,    7.151,  -14.902,    7.619,   -1.091,
        1.902,    0.560,    2.033,  -12.955,    4.127,   20.635,   -4.221,
      -10.497,   -3.718,    1.447,    5.600,    0.975,    6.219,   13.633,
        9.411,    3.557,    1.020,   11.421,    3.481,   -3.973,   -0.231,
        3.120,   -3.752,   -3.614,    1.207,  -18.620,   -8.124,    1.203,
       -0.531,   -5.124,    4.413,   -2.155,    0.243,    2.502,   -6.480,
       -0.516,    5.204,   -3.020,   -0.406,  -11.076,   -9.152,   -2.235,
       -6.008,    9.060,    3.053,   14.678,   -0.869,    1.488,    1.333,
        3.246,    0.030,    1.905,   -1.461,    9.078,   -1.320,   -1.065,
      -11.769,    2.090,    3.623,   -3.384,    1.891,    1.657,   -1.528,
        4.248,   -1.640,   -0.174,    4.876,   -2.230,    0.018,   -3.996,
       -3.580,   -6.101,  -10.002,   -4.760,   -0.487,   -1.686,    5.529,
        7.000,    2.436,    0.750,    4.052,    2.788,   -0.144,   -2.579,
        5.131,  -24.933,    1.986,   -0.413,    1.420,   10.837,   -2.418,
        0.888,  -12.839,   -2.968,   -1.121,   -6.099,   -4.630,   -2.083,
      -11.130,   12.033,   -3.871,   -2.803,    5.930,   -0.317,    2.998,
       15.994,   -2.344,    7.797,   -1.608,   -4.574,    1.928,   -1.522,
        3.092,    4.854,   -1.608,   -7.144,    5.215,   -0.787,  -12.331,
      -13.475,   -4.254,   -0.194,    9.474,    0.627,    3.900,   43.024,
       -3.669,    3.565,    1.751,    0.449,   -4.449,    5.983,    9.857,
        8.503,   -0.644,    5.729,    2.550,   -2.278,    0.991,   -0.829,
       -2.500,  -10.247,   -1.625,   -3.027,    5.451,   -1.306,    0.813,
       -0.376,   -0.417,    0.750,    2.923,   -0.608,   -2.012,    0.746,
        2.159,   -0.891,   -0.489,    0.608,    0.840,   -0.651,    1.438,
       -0.772,    0.111,    2.902,    0.676,   -0.524,    0.620,   -1.302,
       -0.802,   -0.589,    0.610,   -1.089,   -0.643,   -0.665,    0.739,
        3.008
    },
    { -11.605,    5.077,   -2.681,    0.714,    4.452,    3.428,   -4.392,
       -2.989,    1.083,    3.253,   -6.201,   -1.168,   13.406,  -11.483,
       11.329,    1.657,   -8.953,   -3.334,   -1.522,    3.954,   10.293,
        0.626,    5.946,   -8.720,   -5.045,  -11.536,   -2.984,   -6.572,
       -4.444,   -2.019,  -10.305,    8.756,    9.061,   -2.314,    1.968,
        4.940,   -0.506,    1.548,   15.847,   -3.210,  -18.483,   -2.904,
        1.217,   -3.416,   -7.881,    0.158,    7.536,   -6.324,   -6.119,
        1.365,   -5.013,   -2.299,   -0.870,   -1.588,    3.405,    3.777,
        1.774,    9.283,   -6.588,    7.969,  -18.007,   -0.400,    2.804,
        0.921,   -5.161,   -0.474,   -0.876,   -2.305,    9.275,   -0.079,
        1.639,  -11.950,    3.172,   -5.024,   -1.987,    3.583,    2.045,
       -1.375,   -6.296,    0.813,  -45.359,    3.288,    4.280,    2.294,
       -0.273,   -3.654,    5.270,   -5.391,   -1.912,    5.709,    6.146,
       -0.782,   -2.791,   -8.194,    2.331,   11.905,    3.770,    5.204,
        3.914,    2.805,   -8.256,    0.110,    9.727,   -2.184,   -2.782,
       -6.721,   -0.345,    1.859,  -12.414,    5.994,   -0.157,   11.167,
        1.424,   -1.278,   -7.606,   -2.392,    5.820,   -1.999,  -10.343,
       -2.642,  -21.338,    6.371,   13.619,    2.188,    0.890,    0.696,
        1.541,   -2.310,   -2.519,    4.206,   -2.105,   -4.733,    3.980,
       -2.946,   16.575,    1.986,   10.994,   -4.404,   -2.735,    3.974,
      -13.621,    1.953,   -1.315,    4.277,    0.779,  -10.665,    2.087,
        2.442,    3.391,    2.936,    1.651,    9.018,    0.494,    3.679,
        2.674,  -11.908,    1.684,   -0.027,    1.485,   -3.819,   30.655,
       -1.458,    7.096,   -0.728,    9.595,    1.256,    4.616,   -8.139,
       -0.596,    1.620,    0.460,   -6.017,    2.080,   -0.687,  -11.598,
       -0.635,   -0.206,    5.203,    9.410,    1.633,   17.183,  -11.566,
       -4.665,    6.347,  -10.321,   -4.095,   -0.363,   -1.560,   10.479,
       -6.715,   -3.330,   -0.716,   -0.846,    1.970,   -9.064,    5.969,
        1.514,    1.398,    2.218,    4.405,  -30.838,   -2.193,    6.231,
       -0.272,   -3.049,    7.373,   -2.542,    0.547,   10.182,   -6.372,
       -4.087,   -1.542,    4.460,   -2.295,   -5.528,    0.875,    5.120,
        3.014,   11.824,   -1.780,   -7.666,    6.491,   -1.581,   -4.279,
        6.180,  -10.887,   -0.494,   -6.370,    2.116,   -4.359,    0.915,
        9.374,    1.853,   -4.464,    4.886,   -8.513,   -0.948,   -2.088,
       -0.694,    0.358,    0.076,   -6.875,    5.877,    3.090,   -5.638,
       -5.299,    3.095,    3.781,    0.047,   -8.086,    4.912,    0.923,
      -11.275,    2.345,  -11.788,  -15.134,   -6.159,    4.181,    8.763,
       -3.234,   12.267,   -0.849,   -7.407,   -0.683,    0.995,   -3.808,
        5.289,   -9.384,   16.048,   -4.759,   -7.446,    0.871,   -5.033,
        3.512,    0.426,   -1.864,   -0.051,   -0.040,   -6.416,    9.131,
       39.310,   -7.156,    2.719,   -0.180,    9.178,    2.031,    2.513,
       -7.808,    3.333,   -2.018,    3.442,   -2.264,    1.736,   -0.065,
        7.562,    0.019,    3.067,  -17.648,   11.329,   -2.908,  -10.904,
        5.159,   -0.995,   -5.561,    0.820,   -0.780,   -1.414,   -3.278,
       -2.304,   -1.915,   -0.315,    4.099,    3.585,    3.058,    9.676,
       14.443,    5.593,   -4.824,    3.984,   17.241,    6.454,   -2.645,
       -6.251,   -0.771,   -2.390,   -1.768,    5.894,   -1.569,   -5.251,
        5.143,   12.643,    8.999,    0.015,    4.421,   -8.032,    2.109,
      -11.419,    5.964,   -5.090,    2.819,  -38.457,    3.744,    7.046,
        5.395,    5.472,   12.501,    1.436,   -4.473,  -11.297,    3.498,
        3.888,   -4.943,    4.684,    2.104,    6.795,   -8.890,   -1.331,
        6.130,    8.852,   -3.372,   31.032,   -2.390,   -2.495,  -12.311,
       -1.408,   -3.817,   -5.071,  -10.030,    8.479,   -3.521,   -0.389,
       -3.682,   10.166,   -0.306,    1.176,    7.564,   -2.111,    8.300,
       -9.956,  -13.051,  -23.454,   -5.358,   -5.631,    6.179,   -5.174,
        0.118,    0.165,    4.670,    4.859,    2.274,   -4.577,    3.445,
       -5.696,    2.277,   -5.900,   -6.462,   -4.379,    3.978,  -16.640,
        4.862,   20.652,   -0.925,   -0.285,   -2.532,    0.333,    3.777,
       -4.113,   10.032,  -10.794,    3.084,    6.380,    2.685,   -3.439,
       11.046,   -1.363,   -6.497,   -7.586,   10.589,   14.539,   -3.117,
       16.871,   -9.474,    2.531,    1.877,   -2.541,   -4.570,   -0.570,
        2.391,   -0.667,   -0.460,    0.403,    4.419,   -1.371,    0.282,
        8.889,   13.356,   -4.075,    1.525,   -5.563,    2.984,  -23.746,
      -12.413,    3.926,   -1.295,    0.862,    1.858,   -5.249,   -6.353,
       -0.460,  -12.347,   -1.562,    7.604,  -13.270,    6.791,    2.820,
        3.109,    3.274,    4.124,  -10.962,    4.336,   16.671,   -5.284,
       -7.429,   -4.956,   -0.256,    0.126,    0.059,    3.869,   12.236,
        6.999,    1.399,    1.465,    8.701,    3.592,   -8.850,    3.950,
        1.416,   -5.351,   -5.073,    3.548,  -17.675,   -9.294,    0.304,
       -1.510,   -6.606,    4.963,   -2.900,   -1.360,    3.558,   -7.518,
       -1.392,    7.928,   -2.325,   -3.075,   -4.759,   -7.798,    4.245,
       -7.350,   11.101,    1.854,   16.022,   -1.962,    1.378,    1.043,
        2.265,    0.097,    1.705,   -0.988,    9.431,   -0.809,   -0.961,
      -11.054,    1.588,    6.664,   -5.726,    9.456,    0.601,   -0.022,
        3.660,   -1.045,   -2.998,    7.355,   -1.517,    0.734,   -3.842,
       -2.863,   -6.178,   -9.477,   -6.167,    0.115,   -2.115,    5.158,
        8.298,    6.167,   -0.866,   -2.044,   -0.703,    0.472,   -1.889,
        4.204,  -23.468,    3.093,   -3.139,    0.557,   11.133,    2.148,
       -2.365,  -11.633,   -0.505,   -1.130,   -5.526,   -3.991,    0.700,
       -7.943,   -0.154,   -2.787,   -4.090,    4.601,    2.000,    3.843,
       21.979,   -4.187,    5.674,   -0.106,   -7.258,    4.463,   -1.666,
        3.666,    9.237,   -0.362,   -9.758,    6.670,   -0.400,   -4.346,
      -10.142,   -3.782,  -10.850,   12.391,    1.326,    5.996,   39.552,
       -2.224,    3.206,    0.491,    0.892,   -1.909,    5.676,   11.977,
        5.243,   -0.607,    0.562,    0.893,   -2.232,   -1.185,   -4.893,
       -3.249,  -10.696,   -7.337,   -3.175,    7.979,   -1.216,    0.887,
       -0.392,   -0.482,    0.781,    2.719,   -0.645,   -2.050,    0.677,
        2.808,   -0.805,   -0.572,    0.579,    0.893,   -0.664,    1.170,
       -0.812,    0.139,    2.630,    0.731,   -0.563,    0.608,   -1.373,
       -0.646,   -0.425,    0.595,   -1.121,   -0.599,   -0.636,    0.665,
        1.945
    },
    { -13.341,    6.074,   -2.020,    0.710,    3.521,    3.468,   -4.810,
       -3.382,    0.298,    3.689,   -7.456,   -0.792,   14.531,  -13.044,
        9.269,    3.762,  -10.552,   -3.381,   -1.300,    4.354,    3.733,
        0.705,    4.767,   -7.427,   -5.513,  -10.204,   -2.704,   -3.854,
       -3.957,   -1.553,   -9.754,    7.510,    7.655,   -6.339,   -3.020,
       -3.527,    3.283,   -0.051,   11.745,   -2.098,  -15.043,   -1.126,
       -2.243,   -2.998,   -2.651,    1.413,    6.731,  -11.585,   -6.279,
        1.345,   -2.663,   -0.153,   -0.624,   -3.905,    4.596,    4.550,
        3.509,    3.999,   -2.474,    8.748,  -20.218,   -1.187,    3.988,
        2.583,   -8.842,   -0.156,    0.413,   -0.107,   12.349,    0.178,
        4.533,  -13.327,    2.966,   -2.607,   -0.720,    4.998,    4.648,
        0.323,   -5.101,   -1.874,  -45.010,    5.814,    0.770,    2.961,
       -5.363,   -3.267,    4.426,   -6.233,    0.714,    2.406,    1.540,
       -2.218,    5.948,   -0.970,   -0.396,    9.639,   -0.967,    5.596,
        5.370,   -2.290,  -12.516,    0.605,   11.634,   -2.087,   -3.500,
       -8.377,   -0.378,    1.824,  -15.257,    7.207,   -1.022,   13.847,
        1.655,   -2.384,  -11.854,   -4.630,    4.878,   -2.548,  -11.593,
       -2.731,  -19.711,    5.662,   12.525,    2.380,    0.961,    1.104,
        1.342,   -2.467,   -2.608,    3.938,   -1.356,   -4.388,    3.734,
       -2.234,   18.424,    2.775,   10.573,   -4.460,   -2.595,    4.630,
      -11.085,    2.658,   -1.737,    3.440,    0.337,   -9.585,    1.364,
        2.325,    2.115,    3.144,    1.128,    8.173,    0.011,    1.862,
        9.099,  -11.327,   -0.507,   -1.227,    0.499,   -4.203,   30.261,
       -1.206,    6.701,   -0.119,    7.727,    1.062,    4.507,   -6.343,
        0.587,    2.059,   -0.443,   -7.656,    1.540,   -3.594,  -11.442,
        2.067,   -4.931,    5.659,   10.639,    0.577,   18.412,  -13.840,
       -5.824,    5.602,  -10.138,   -4.685,   -0.134,   -3.595,   14.109,
       -5.282,   -3.680,   -1.719,   -1.543,    3.908,   -4.516,    7.897,
       -1.087,    3.031,    2.604,    5.529,  -27.157,   -3.551,    4.247,
        1.053,   -0.052,    5.080,   -2.137,   -1.267,    9.102,   -5.837,
       -3.198,    0.095,    3.934,    0.468,   -9.869,    5.517,    5.219,
        1.190,    8.962,   -1.244,   -7.653,    4.839,   -1.787,   -3.364,
        4.064,   -8.187,   -0.116,   -5.224,    0.754,   -3.581,   -0.361,
        8.437,    1.277,   -0.665,   -1.386,   -7.508,   -1.166,   -1.988,
       -1.004,    1.302,    0.001,   -6.647,    4.986,    2.519,   -4.756,
       -4.456,    2.582,    3.300,   -0.414,   -7.845,    4.051,    0.852,
      -10.298,   -0.327,  -11.971,  -13.132,   -2.180,    3.398,    7.270,
       -2.661,   12.634,   -2.373,   -6.822,    0.455,   -3.619,   -2.800,
        5.614,   -8.202,   12.140,   -3.888,   -3.979,    3.739,   -4.589,
        2.550,    3.750,    9.205,   -5.659,   -3.006,   -7.229,    9.910,
       39.925,   -5.221,    3.294,    0.224,    7.489,    2.723,    3.026,
       -7.981,    4.040,   -1.838,    2.391,   -3.050,    0.433,   11.126,
        7.624,    5.207,    0.211,  -16.476,    9.701,   -0.284,   -9.947,
        2.656,   -1.097,   -4.554,    1.886,   -0.826,   -1.011,   -2.370,
       -1.430,   -2.060,   -2.577,    4.015,    1.310,    2.499,   10.076,
        4.166,    2.314,   -2.821,    3.567,   13.355,    2.795,   -7.490,
       -8.262,   -6.522,   -3.366,   -3.021,   -1.992,   -4.837,  -11.103,
        4.109,    9.275,    6.261,   -0.815,    0.127,   -4.137,    8.716,
       -3.754,   -2.635,    1.046,    5.525,  -40.931,    4.715,    7.811,
        6.311,    5.349,   10.873,    1.758,   -4.303,  -11.425,    4.535,
        5.410,   -3.958,    5.239,    2.748,    5.474,   -6.989,   -9.226,
        5.920,    7.052,   -2.582,   27.059,    0.447,   -0.005,  -13.737,
       -2.689,   -5.045,   -4.398,   -9.329,    9.391,   -2.747,    0.713,
       -5.592,    9.554,   -2.312,    1.175,   -2.349,   -0.776,    9.939,
      -11.927,  -14.403,  -23.421,   -7.318,   -5.226,    6.897,   -4.442,
        0.755,   -1.358,    6.945,    4.805,    2.071,   -3.971,    1.648,
       -6.275,    2.800,   -9.304,   -7.455,    1.035,    5.496,  -14.707,
        3.490,   26.962,   -1.865,   -1.253,   -4.134,    2.775,    5.349,
       -4.238,   11.137,  -13.181,    2.094,    9.534,    2.335,   -3.982,
       14.304,   -5.574,   -5.507,   -1.417,   12.407,   15.874,   -2.123,
       21.175,  -11.035,    3.694,    2.086,   -2.815,   -4.096,   -0.684,
        2.018,   -1.780,   -0.773,    1.026,    5.299,   -1.183,    0.477,
        8.316,   20.576,   -3.528,    2.152,   -6.915,    3.272,  -22.379,
      -12.226,    3.983,   -1.519,    0.466,    2.155,   -4.130,   -3.814,
       -1.268,  -11.570,   -1.293,    8.303,  -13.376,    9.437,    3.455,
        0.825,    4.397,    3.182,  -10.849,    2.637,   15.885,   -4.931,
       -9.829,   -2.634,    0.994,    4.681,    0.672,    4.190,   13.294,
        8.362,    2.040,    0.130,    9.276,   -2.637,   -9.088,    9.920,
       -0.225,   -1.733,   -3.204,    1.450,  -14.666,  -11.460,   -0.160,
       -0.968,   -3.766,    5.119,   -3.434,   -1.403,    1.370,   -7.256,
       -3.338,   10.638,   -0.772,    4.065,   -5.520,   -4.183,    5.154,
       -5.520,   11.178,    4.789,   21.944,   -1.996,    1.530,    1.809,
        4.243,   -0.005,    2.918,   -3.125,   14.441,   -1.273,   -1.786,
      -16.809,    2.382,    6.723,   -9.860,   13.014,   -0.270,   -1.628,
        5.854,   -1.045,   -0.532,    6.391,   -0.019,    2.013,   -5.734,
       -4.550,   -6.343,   -9.150,   -7.616,    0.133,   -1.213,    6.388,
        8.475,    6.907,    6.602,   -3.076,    1.378,    1.005,   -3.748,
        4.691,  -23.882,   -0.786,   -0.422,   -1.489,    9.299,    2.413,
       -2.218,   -6.164,   -2.984,   -1.221,   -3.951,   -2.372,   -1.178,
       -9.103,   -6.741,   -0.634,   -3.487,    8.585,    1.565,    2.092,
       23.162,   -2.001,    3.801,   -1.097,   -9.071,    8.292,   -1.132,
        5.364,    8.153,   -1.171,   -9.441,    5.539,    1.072,   -3.573,
      -11.996,   -7.088,  -16.642,   10.913,   -0.213,    7.127,   46.945,
       -2.026,    3.668,    3.546,    4.885,   -0.659,    1.658,   13.172,
        6.448,    2.951,    1.882,    0.423,    3.192,    0.401,   -6.649,
        0.057,   -0.362,   -5.495,    1.390,    8.361,   -1.655,    0.877,
       -0.507,   -0.522,    0.869,    2.902,   -0.620,   -2.220,    0.948,
        3.222,   -0.821,   -0.762,    0.549,    0.930,   -0.598,    1.730,
       -0.784,   -0.010,    2.735,    0.645,   -0.553,    0.698,   -1.095,
       -0.734,   -0.587,    0.735,   -1.066,   -0.677,   -0.773,    0.728,
        1.164
    },
    { -16.524,    8.025,   -0.928,    0.389,    6.405,    3.145,   -5.924,
       -3.987,   -0.247,    3.585,   -7.574,   -1.913,   15.648,  -13.813,
        7.007,    0.779,   -8.312,   -3.398,   -0.614,    3.745,    1.528,
       -1.923,    3.731,   -8.353,   -3.112,   -8.358,   -2.000,   -4.157,
       -2.203,   -1.961,   -6.037,    6.263,    6.592,  -11.066,   -1.258,
       -6.061,    1.153,   -0.959,    9.758,   -1.847,  -20.690,   -3.495,
       -1.321,   -3.905,   -1.879,   -0.073,   11.714,  -14.609,   -7.323,
        3.164,   -0.525,    1.296,   -1.490,    1.022,    8.081,    5.201,
        8.412,    6.252,   -8.164,   10.990,  -25.256,   -1.546,    4.288,
        2.107,   -6.243,   -1.406,   -1.379,   -1.655,   14.547,   -0.781,
        5.657,  -16.365,    2.617,   -0.941,   -7.676,    7.406,    1.026,
       -0.625,   -7.241,   -0.093,  -43.025,    0.971,   -6.323,    1.308,
       -8.412,   -1.576,   -0.627,   -0.906,    1.155,    3.319,    1.915,
       -1.727,    4.038,    2.837,   -8.502,    9.017,   -2.763,    6.955,
        7.102,   -0.372,  -13.110,    0.806,   11.966,   -2.832,   -4.514,
       -8.726,    0.186,    2.108,  -16.516,    8.906,   -0.319,   15.858,
        1.163,   -2.471,  -13.780,   -4.541,    7.064,   -3.882,  -13.547,
       -4.006,  -20.474,    6.814,   12.224,    2.032,    1.216,   -0.083,
        1.679,   -2.474,   -1.658,    5.189,   -3.091,   -4.050,    3.070,
        0.215,   16.670,    3.218,   13.120,   -4.807,   -2.760,    4.598,
       -9.265,    2.024,   -2.370,    2.153,    1.281,   -9.624,    0.879,
        3.290,    2.657,    3.345,    1.644,    7.684,   -0.081,    2.661,
       10.355,  -12.325,    7.036,   -0.890,    0.979,   -5.577,   29.783,
       -1.277,    7.226,   -0.821,    8.026,    2.003,    5.301,   -7.195,
        0.342,    2.447,    0.685,   -7.635,    2.116,   -2.991,  -11.713,
       -0.827,   -2.843,    5.164,    9.596,    1.361,   16.987,  -12.822,
       -6.383,    4.317,  -10.496,   -1.985,   -1.451,   -4.477,   10.288,
       -4.774,   -2.587,    0.857,   -1.175,    2.458,   -7.533,   10.253,
       -2.230,    2.644,    1.514,    5.839,  -33.062,   -4.491,    9.839,
        1.346,   -2.905,    6.791,   -2.484,    0.413,    9.437,   -5.990,
       -4.294,   -0.870,    5.680,    1.222,   -6.805,    5.886,    8.073,
        1.349,   12.111,    0.449,   -7.646,    6.116,   -0.345,   -3.213,
        4.893,   -9.539,   -0.617,   -5.069,    0.352,   -3.848,   -0.095,
        9.261,    0.977,   -1.043,    0.128,   -7.641,   -3.801,   -3.327,
       -0.759,    1.302,   -0.270,   -6.674,    5.315,    2.886,   -5.438,
       -4.454,    3.009,    3.131,   -1.245,   -7.522,    4.900,    0.797,
      -10.922,   -3.383,   -8.744,  -17.571,   -2.653,    3.954,    7.573,
       -3.615,   14.338,    0.333,   -5.292,   -0.800,   -2.055,   -3.749,
        3.807,   -6.144,   13.649,   -4.445,   -2.639,    3.261,   -4.527,
        2.150,    2.490,   15.347,  -13.767,   -3.610,  -10.245,   10.235,
       37.924,   -4.561,    1.623,    1.720,    9.502,    2.446,    2.834,
       -8.909,    2.279,    1.113,    2.844,   -0.727,   -0.455,    7.259,
        8.024,    4.947,   -3.998,  -16.396,   10.165,   -1.111,   -9.019,
        3.646,   -3.089,   -3.357,    1.015,    1.603,   -1.101,   -1.785,
       -2.205,    0.367,   -3.233,    3.564,    1.215,    0.661,    6.179,
        9.133,    3.638,   -1.202,    3.080,   12.944,    3.692,   -9.080,
       -6.703,   -3.015,    0.741,   -1.305,  -10.283,   -7.619,  -11.253,
        3.577,   10.084,    4.756,   -6.849,    1.495,    4.858,    8.094,
        1.401,   -7.089,    1.843,    5.075,  -37.016,    4.240,    7.998,
        3.291,    3.694,   10.169,   -0.803,   -6.102,   -7.654,    3.857,
        4.034,   -5.577,    2.464,    1.682,    6.977,  -14.009,   -6.008,
        3.793,    7.213,   -2.150,   24.596,   -0.497,    1.405,   -9.270,
        1.766,   -4.023,   -4.267,   -6.984,    3.026,   -0.890,    3.139,
       -1.424,    8.045,    3.757,    3.008,    1.069,    5.273,    9.487,
       -5.770,  -13.402,  -24.769,   -4.909,   -5.973,    5.177,   -4.973,
       -0.053,   -2.854,    7.749,    3.056,    1.001,   -5.391,    1.467,
       -5.233,    2.310,   -9.149,  -13.875,    5.393,    3.944,  -13.677,
        2.026,   26.528,   -0.821,   -1.345,   -4.088,    0.685,    4.996,
       -4.293,   11.530,  -10.860,    1.564,    7.886,    2.505,   -4.352,
        5.875,   -1.268,    4.604,   -4.858,   11.287,   15.052,   -2.365,
       25.518,  -14.353,    5.107,    2.265,   -4.268,   -5.652,   -1.870,
        3.712,   -3.161,   -1.116,    0.375,    6.805,   -1.720,    0.092,
       10.682,   20.812,   -4.807,    2.165,   -8.963,    4.790,  -22.985,
      -10.636,    3.725,    0.947,    1.217,    2.633,   -2.696,   -4.974,
       -0.618,  -10.097,   -1.862,    5.545,  -10.831,    6.760,    2.775,
        1.203,   -4.802,    1.409,  -11.477,    3.898,   18.770,   -3.480,
      -10.698,   -4.610,   -0.328,    4.637,   -0.601,    4.048,   10.880,
        8.364,    2.014,    3.122,   12.370,   -5.839,   -8.026,    2.006,
        3.641,   -3.859,   -2.214,    2.388,  -16.484,   -9.491,   -0.935,
       -2.784,   -4.057,    4.534,   -4.086,   -1.863,    2.719,   -7.776,
       -3.960,    9.120,   -1.929,   -1.847,   -7.598,   -6.078,    0.303,
       -7.543,   12.915,    2.986,   22.602,   -2.050,    2.114,    1.425,
        3.441,    0.114,    2.225,   -1.809,   13.565,   -1.882,   -2.264,
      -16.725,    2.298,    9.130,   -6.955,   10.280,    4.794,   -0.430,
        6.020,   -1.420,   -1.606,    9.948,    0.646,    1.291,   -5.004,
       -6.350,   -7.305,  -10.550,   -7.560,    0.285,   -3.462,    5.934,
       10.008,    7.189,   -0.661,   -4.342,    8.404,   -0.585,   -2.846,
        4.937,  -24.180,    0.971,   -0.356,    1.212,    9.272,    2.208,
       -1.661,   -8.730,   -2.917,   -0.067,   -3.148,   -4.299,   -0.908,
       -5.640,   -5.635,   -3.424,   -4.929,    6.657,    0.522,    2.120,
       22.321,   -1.839,    4.344,   -0.417,   -7.680,    8.582,   -1.554,
        3.488,    6.310,   -1.905,   -7.906,    6.585,   -0.091,   -5.669,
      -13.863,   -5.605,  -15.631,   10.722,    0.279,    6.296,   46.714,
       -1.361,    3.487,    3.238,    1.931,   -1.155,    3.738,   13.825,
        8.580,    1.927,    2.581,    1.205,    2.433,   -1.294,  -12.386,
        2.247,    2.976,   -4.648,    6.240,   -1.488,   -2.366,    0.814,
       -0.468,   -0.423,    0.832,    2.381,   -0.507,   -2.329,    0.812,
        2.302,   -0.859,   -0.568,    0.533,    0.715,   -0.553,    1.514,
       -0.813,   -0.088,    3.116,    0.575,   -0.590,    0.700,   -1.137,
       -0.760,   -0.601,    0.587,   -1.067,   -0.541,   -0.914,    0.903,
        2.672
    },
    { -19.082,    8.309,   -4.538,   -1.322,    4.749,    4.937,   -6.794,
       -3.888,    1.660,    3.392,   -8.417,   -2.570,   18.110,  -11.406,
        9.423,   -6.237,  -10.526,   -2.029,   -1.131,    4.840,    2.107,
       -0.345,    1.118,   -8.527,   -4.431,   -7.900,   -3.048,   -2.360,
       -0.108,   -2.892,   -6.511,    8.259,    6.157,   -9.150,   -4.320,
        0.057,    5.269,    0.956,    9.468,   -1.875,  -19.665,   -2.741,
       -2.232,   -1.579,   -6.352,   -0.252,   11.012,  -12.163,   -5.449,
        1.851,   -0.128,   -0.972,   -0.954,    1.538,    2.079,    5.637,
       -1.909,    1.338,   -7.412,    8.920,  -27.712,   -2.168,    4.932,
        1.685,   -5.973,   -0.374,   -0.647,    0.609,   17.263,   -0.225,
        4.280,  -21.567,    0.333,   -1.501,   -1.983,    6.943,    7.749,
        0.509,  -10.074,   -1.808,  -42.460,   -0.289,   -4.514,    1.114,
       -6.102,    1.815,    1.179,    4.831,    2.249,   -2.095,   -5.031,
       -5.246,    3.790,   -0.637,   -9.537,    7.331,   -4.822,   -3.250,
        3.775,   -2.426,  -10.867,    0.833,   11.430,   -2.631,   -3.734,
       -8.459,   -0.410,    2.355,  -15.773,    6.999,   -1.367,   14.191,
        1.320,   -4.801,   -8.024,   -5.101,    9.124,   -3.384,  -11.538,
       -3.081,  -26.423,    8.240,   17.381,    1.946,    0.733,   -0.632,
        1.231,   -2.952,   -1.798,    5.262,   -1.786,   -6.167,    4.071,
       -2.615,   21.701,    4.489,   10.966,   -5.467,   -3.143,    5.884,
      -10.718,    3.049,   -2.903,    3.758,   -0.639,  -11.027,    1.200,
        3.426,    4.292,    2.942,    0.098,    7.683,    0.741,    3.663,
       12.247,  -14.440,    4.253,   -0.664,    1.494,   -5.538,   30.158,
       -1.082,    8.605,   -1.114,    7.701,    0.864,    4.720,   -6.253,
       -0.141,    2.220,    0.345,   -6.937,    2.651,   -4.366,  -11.674,
       -0.748,   -9.629,    6.292,   11.955,   -0.751,   15.756,  -12.960,
       -1.905,    4.868,  -11.586,   -4.723,    1.026,   -4.170,   10.560,
       -4.342,   -3.183,   -1.366,   -0.264,    0.770,   -6.316,    9.135,
       -1.238,    2.829,    3.027,    4.911,  -31.946,   -4.482,    8.854,
        0.092,   -0.251,    5.391,   -4.080,   -1.561,    8.868,   -5.911,
       -3.558,   -1.418,    4.673,   -1.608,   -6.517,    6.337,    8.907,
        0.356,   10.361,   -0.229,   -6.824,    5.065,   -1.859,   -3.922,
        4.962,  -10.227,   -0.563,   -6.190,    1.050,   -4.256,   -0.677,
        9.760,    1.834,   -0.827,    1.136,   -2.333,   -3.243,   -1.643,
       -0.965,    1.218,    2.088,   -7.280,    5.014,    4.216,   -5.315,
       -5.552,    2.813,    4.060,    0.087,   -9.500,    5.481,    2.221,
      -12.647,   -4.291,  -11.338,  -11.088,   -3.191,    2.766,    8.851,
       -2.810,   12.257,    0.918,   -5.672,   -1.756,    0.841,   -3.471,
        3.951,   -7.574,   12.738,   -6.774,   -6.528,    3.305,   -6.216,
        3.745,    4.908,    5.286,  -16.586,   -1.092,   -7.172,    9.637,
       32.040,   -4.984,    2.875,    0.818,    5.713,    2.296,    3.431,
       -6.349,    2.518,   -1.035,    0.904,   -1.208,   -0.477,   -0.685,
        4.239,    1.266,    2.014,  -13.639,    9.526,   -1.788,  -19.250,
        6.880,   -4.001,   -8.586,    2.200,    3.206,   -1.769,   -2.827,
       -5.564,   -1.383,   -5.575,    6.256,    0.642,    6.256,    4.631,
        9.756,    8.469,   -2.408,    5.171,   21.205,   -0.859,   -3.427,
       -8.344,    1.352,    4.674,   -3.715,   -4.288,  -14.115,   -6.760,
       -1.001,   11.343,   -0.052,  -18.662,   -7.478,    7.747,   -1.772,
        1.117,   -4.567,   -0.358,   -3.987,  -30.929,    4.754,    5.311,
        2.530,    2.149,    6.804,   -2.150,   -3.428,   -7.718,    1.528,
        2.456,   -3.369,    4.436,    1.162,    5.376,  -17.117,   -3.824,
        2.682,    4.971,   -2.157,   22.181,   -5.509,    2.604,  -10.864,
       -0.335,   -7.140,   -4.116,   -8.758,    5.339,   -3.270,    1.315,
       -0.429,    6.199,    3.824,   -3.566,    3.200,   -0.820,   13.992,
       -9.289,  -14.581,  -25.745,   -6.944,   -4.691,    4.672,   -7.179,
       -0.226,   -3.582,   10.133,    4.916,   -0.560,   -4.277,    0.622,
       -5.419,    1.219,   -4.906,   -8.222,    0.927,   10.172,  -15.653,
        3.523,   24.366,   -1.113,   -0.956,   -3.782,    1.559,    4.778,
       -3.263,    9.732,  -11.305,    1.684,    7.030,    2.245,   -3.471,
        4.572,   -4.689,    3.856,    1.599,   11.048,   14.259,   -2.272,
       25.424,  -13.122,    2.853,    2.372,   -3.297,   -2.884,   -1.101,
        3.583,   -1.995,   -0.692,    2.074,    5.214,   -2.017,    1.389,
        8.665,   29.670,   -4.577,    1.108,   -8.697,    3.928,  -27.998,
      -15.956,    3.748,    0.011,    1.409,    3.735,   -1.028,   -5.838,
       -0.162,  -10.521,   -4.158,    5.736,  -14.815,    5.345,    1.980,
        1.678,  -10.157,   -0.839,  -14.198,    6.251,   20.867,   -4.663,
      -12.221,   -1.177,    0.785,    7.289,    0.164,    3.188,   14.938,
        9.533,    3.433,    0.374,   11.795,   -8.039,   -0.661,    1.922,
       -1.615,   -3.595,   -2.487,    0.813,  -23.004,  -10.306,    0.633,
       -3.704,   -8.639,    5.602,   -5.341,    0.583,    2.171,   -7.631,
       -3.737,   10.385,   -2.838,   -1.650,  -11.269,   -6.913,  -14.099,
       -8.290,   12.356,    5.283,   16.597,   -1.428,    1.243,    1.296,
        2.698,   -0.909,    1.863,   -1.341,   11.256,   -0.663,   -1.935,
      -11.846,    1.727,    6.691,   -3.967,    5.441,    2.081,   -0.058,
        3.829,   -0.644,   -0.938,    8.527,   -3.217,    0.343,   -6.319,
       -4.078,   -7.140,  -11.351,   -6.474,    0.753,   -1.902,    5.417,
       10.714,    7.370,   -1.488,   -3.168,   11.246,    0.410,   -2.650,
        5.003,  -26.349,    5.748,   -2.783,    2.485,   14.397,    2.963,
        0.401,  -16.429,   -3.347,   -1.151,   -7.989,   -3.999,   -2.253,
       -0.885,    2.006,    2.759,    1.479,    6.908,    0.818,    4.077,
       20.356,   -1.068,    4.395,   -1.158,   -8.826,    8.049,   -2.331,
        4.193,    5.367,    0.213,   -8.141,    5.756,    0.457,   -7.066,
      -11.676,   -6.455,  -16.124,    8.407,    0.231,    6.273,   50.786,
       -2.243,    3.605,    3.780,    6.064,    0.719,    6.167,    7.980,
        8.691,   -5.760,    3.907,    1.291,    3.001,    0.334,  -12.207,
        1.405,    3.552,   -0.116,   10.647,    1.904,   -0.238,    0.712,
       -0.496,   -0.394,    0.957,    2.922,   -0.579,   -2.281,    0.827,
        2.619,   -0.874,   -0.648,    0.643,    0.736,   -0.649,    1.205,
       -0.848,   -0.148,    2.894,    0.560,   -0.564,    0.755,   -1.313,
       -0.608,   -0.370,    0.568,   -1.073,   -0.733,   -0.729,    0.726,
        1.343
    },
    { -23.198,   10.203,   -4.143,   -0.101,    6.115,    6.327,   -6.612,
       -2.785,    2.119,    2.909,   -8.410,   -2.019,   16.360,  -12.937,
        6.709,  -13.312,   -9.233,   -2.761,   -1.438,    2.519,    2.077,
       -1.962,    2.533,   -3.802,   -4.294,   -6.421,   -1.437,   -0.773,
       -0.390,   -3.098,   -7.763,    5.544,    6.269,  -10.653,   -6.223,
       12.841,   12.896,    2.005,    6.348,   -0.228,  -19.408,    4.736,
       -0.940,   -4.441,   -6.390,   -0.562,    7.568,  -12.527,   -5.289,
        1.492,    0.872,   -0.106,   -1.282,    2.059,   -0.043,    8.653,
       -8.188,    4.284,   -4.661,    6.465,  -31.808,   -3.030,    3.553,
        2.227,  -10.640,   -3.116,   -0.311,   -0.324,   21.396,   -0.502,
        4.363,  -20.091,    2.181,   -5.987,   -3.986,    3.864,    5.650,
       -0.811,   -9.190,    0.067,  -42.897,   -3.241,   -0.254,   -7.183,
       -4.825,   -3.369,   -7.438,   -3.192,   -0.776,   -3.466,    0.955,
       -4.518,    2.439,   -5.804,   -5.114,    9.129,   -1.763,   -1.302,
        6.871,   -2.687,   -8.707,   -0.216,   13.023,   -1.957,   -3.567,
       -9.804,   -0.062,    2.796,  -17.607,    8.586,   -0.350,   16.887,
        1.323,   -6.938,    0.759,   -0.539,    1.105,   -3.519,  -13.738,
       -5.856,  -30.477,    8.007,   16.075,    3.219,    2.352,    1.315,
        1.715,   -3.770,   -3.277,    7.300,   -3.128,   -3.279,    5.700,
       -8.319,   28.215,    3.239,    6.268,   -6.874,   -1.570,    5.907,
      -15.045,    4.451,   -1.565,    5.593,    1.860,  -16.468,    2.539,
        4.935,    3.710,    4.634,    1.572,   13.239,    1.300,    4.644,
       15.359,  -14.662,    4.694,   -1.717,    1.465,   -6.615,   27.517,
       -1.370,    8.445,   -1.174,    9.172,    0.032,    3.763,   -8.144,
       -0.708,    1.778,   -0.247,   -6.911,    1.591,   -3.625,  -11.413,
       -0.587,  -11.526,    5.814,    9.278,   -0.082,   12.465,   -8.770,
       -2.809,    3.047,   -8.609,   -2.817,   -1.428,   -3.340,    8.424,
       -3.855,   -3.420,   -0.772,   -1.617,    1.604,   -8.197,    5.158,
       -3.509,    1.969,    3.294,    4.846,  -32.720,    1.273,    7.928,
        0.143,   -4.200,    6.479,   -4.292,    0.407,   12.466,   -6.806,
       -3.637,   -1.295,    5.310,   -0.395,    0.098,    9.484,    0.305,
        0.327,   13.410,   -2.945,   -8.715,    8.902,   -0.310,   -4.558,
        8.333,  -16.053,   -0.901,   -7.977,    0.671,   -5.784,   -0.391,
       15.195,    1.452,   -1.934,    3.615,   -3.248,   -9.376,   -5.079,
       -3.265,    2.345,    1.156,   -4.119,    3.403,    1.817,   -2.740,
       -2.688,    1.743,    1.775,   -0.987,   -4.854,    2.378,    0.862,
       -6.933,   -1.781,   -4.581,   -8.695,   -2.630,    1.126,    5.017,
       -1.211,   12.426,   -1.699,   -7.009,   -1.723,   -1.185,   -4.466,
        3.775,   -6.567,   13.720,   -5.278,   -7.038,    3.793,   -5.515,
        6.077,    9.040,    0.109,  -16.269,    1.691,   -4.982,    6.096,
       31.483,   -5.437,    3.700,    0.170,    3.846,    1.714,    3.260,
       -5.000,    1.120,   -1.137,    0.847,    0.056,   -1.007,    1.245,
        0.319,    1.305,   -2.516,  -13.641,   10.405,   -2.006,  -16.434,
        5.814,   -2.363,   -6.945,    3.098,    2.689,   -2.454,   -2.752,
       -4.802,   -3.462,   -4.895,    5.146,    1.479,    4.059,    1.351,
        9.544,   11.584,   -4.753,    4.786,   19.918,   -3.361,   -3.782,
       -4.903,    4.558,   11.195,    4.555,   -0.509,   -7.482,   -1.047,
       -2.229,    4.280,   -5.798,  -17.906,    0.362,    6.053,   -1.356,
       -6.849,   -5.174,    2.395,   -1.596,  -33.207,    3.930,    8.067,
        2.847,    2.863,    8.202,    0.326,   -6.247,   -7.623,    3.061,
        2.973,   -3.292,    4.026,    1.626,    9.289,  -12.279,   -4.441,
        1.595,    5.251,   -1.113,   22.721,   -6.264,   -1.373,  -11.471,
       -3.257,   -2.031,   -5.314,   -6.206,    6.353,   -5.994,    2.330,
       -3.940,    7.852,    7.642,    0.798,    6.352,  -13.508,   13.813,
      -10.833,  -16.194,  -27.945,   -7.905,   -5.487,    5.531,   -5.682,
       -0.760,   -3.439,    8.701,    5.119,    0.581,   -6.560,    2.738,
       -5.887,   -0.567,   -6.475,   -6.720,    2.143,   11.543,  -14.867,
        3.488,   22.483,   -1.800,   -1.863,   -2.732,    0.410,    4.836,
       -2.590,    8.702,  -10.539,    2.481,    6.473,    3.069,   -2.296,
       13.665,   -5.887,   -2.622,    1.563,    9.488,   12.982,   -1.208,
       24.341,  -13.808,    3.717,    2.148,   -3.119,   -3.990,   -0.789,
        2.056,   -1.777,   -1.101,    1.879,    5.327,   -1.812,    0.374,
       10.984,   25.450,   -8.696,    2.037,   -8.778,    4.757,  -30.604,
      -14.083,    2.685,   -0.376,    0.315,    2.092,   -1.357,   -5.227,
       -2.908,  -10.281,   -3.950,    9.644,  -16.512,    5.010,   -2.143,
        2.202,   -9.566,   -2.419,  -18.897,    6.291,   19.845,   -4.808,
       -9.825,   -3.196,    1.091,    5.200,    0.333,    5.401,   15.514,
        8.272,    6.024,    0.711,   12.904,   -6.586,    1.849,    3.775,
       -5.742,   -5.947,   -4.633,    1.317,  -22.072,   -9.401,    1.003,
       -2.322,   -5.740,    1.992,   -4.848,    0.247,    3.889,   -7.259,
       -5.388,   10.227,   -4.315,   -1.231,   -8.327,   -6.311,  -13.805,
       -8.812,   12.975,    5.293,   12.279,   -1.466,    1.071,    0.992,
        2.057,   -0.736,    1.076,   -2.150,    8.792,   -0.256,   -2.291,
       -9.589,    1.051,    4.643,   -2.588,    4.164,   -3.038,   -1.391,
        3.156,    0.450,   -1.787,    7.119,   -1.517,    1.791,   -6.463,
       -4.987,   -5.528,  -10.751,   -6.916,   -0.253,   -0.494,    6.237,
        9.055,    8.703,   -4.797,   -0.662,    4.944,   -0.218,   -3.938,
        6.177,  -28.017,    2.696,   -0.655,    2.420,   12.809,   -0.178,
       -0.201,  -14.534,   -3.967,   -1.377,   -3.986,   -4.407,   -2.814,
        0.597,   -7.279,   -2.738,   -0.231,    5.549,   -2.671,    5.418,
       18.673,   -1.002,    6.839,    1.430,   -8.872,    5.374,   -0.002,
        4.559,    2.922,   -2.502,   -9.700,    7.237,   -2.332,  -14.556,
       -7.878,   -6.748,  -11.172,   10.498,    2.650,    6.078,   50.473,
        1.304,    9.648,    1.566,   -1.396,   -0.757,    1.403,    5.141,
       10.227,    2.008,    4.278,   -0.497,    3.717,   -0.240,   -8.223,
       -0.681,    1.930,   -7.216,    5.362,    3.811,   -0.888,    0.750,
       -0.546,   -0.440,    0.860,    3.458,   -0.568,   -2.464,    0.796,
        2.365,   -0.740,   -0.537,    0.651,    0.840,   -0.601,    1.515,
       -0.731,   -0.260,    2.590,    0.662,   -0.564,    0.788,   -1.500,
       -0.536,   -0.504,    0.515,   -0.962,   -0.620,   -0.645,    0.764,
        2.069
    },
    { -21.904,   10.006,   -5.025,    0.011,    5.898,    5.767,   -5.901,
       -2.829,    1.193,    2.892,   -8.379,   -0.117,   18.006,  -14.194,
        8.048,  -14.034,   -8.392,   -0.959,   -0.327,    3.181,    3.233,
       -0.026,    1.251,   -7.048,   -6.316,   -5.568,   -2.598,   -1.932,
       -0.725,   -7.342,   -8.930,    6.965,    8.109,  -10.532,   -7.074,
       17.482,    8.851,    2.524,    8.413,   -1.036,  -24.881,    0.155,
       -1.595,   -3.083,   -8.696,   -4.482,    7.063,   -9.792,   -1.276,
        3.887,    2.196,   -0.692,   -1.883,    2.646,    0.937,    4.447,
      -12.621,   12.159,   -6.360,    3.876,  -29.677,   -0.658,    2.232,
        0.645,   -7.767,   -1.361,   -0.797,   -1.230,   19.748,   -0.260,
        5.256,  -19.424,    2.118,   -6.340,   -2.987,    3.265,    7.133,
       -2.673,  -11.779,   -0.447,  -47.070,   -9.783,   -3.609,   -6.646,
        0.393,   -2.275,   -4.413,   -3.246,    3.989,   -6.366,   -2.142,
       -3.916,   -3.057,  -10.271,   -8.185,    7.869,   -1.216,    1.838,
        0.292,   -1.952,   -5.114,    0.432,   12.129,   -2.295,   -4.319,
       -9.325,   -0.322,    2.217,  -15.079,    6.678,   -1.063,   14.457,
        1.366,   -4.923,    2.235,   -1.825,    2.167,   -2.111,   -9.762,
       -3.349,  -28.097,    7.615,   16.316,    2.444,    1.981,    0.604,
        1.827,   -3.813,   -1.790,    5.715,   -1.081,   -5.705,    4.845,
        2.141,   18.198,    5.279,   10.718,   -6.209,   -4.976,    5.282,
      -16.256,    3.021,   -3.264,    5.584,    1.084,  -17.225,    1.892,
        4.766,    3.888,    5.851,    3.544,   15.216,    1.309,    3.345,
       18.868,  -10.179,    2.144,    0.149,    2.171,   -9.442,   30.509,
       -0.493,    7.706,    0.190,    6.808,    1.028,    5.396,   -5.624,
       -0.548,    1.412,   -0.017,   -6.931,    2.016,   -1.536,  -10.644,
       -0.638,   -4.214,    5.669,    9.897,    0.708,   13.473,   -8.605,
       -3.286,    3.684,   -7.067,   -3.044,   -0.450,   -1.930,    7.372,
       -4.606,   -2.731,    0.293,   -1.191,   -2.757,   -5.206,   12.741,
       -4.544,    2.140,    2.379,    3.616,  -34.443,   -1.375,    8.838,
       -0.825,   -7.572,    5.826,   -4.149,   -0.708,   15.941,   -7.006,
       -3.573,   -0.885,    5.946,    0.836,    3.642,    9.614,    2.917,
        1.098,   12.999,    0.266,  -11.315,   12.533,   -2.089,   -6.907,
