//-----------------------------------------------------------------------------
// Network: hzz2e2mu_noiso
// Inputs:
//                                                  Offset       Scale
//    ele1_pt                                    5.457e+01   2.070e+01
//    ele1_eta                                   6.609e-03   1.083e+00
//    ele1_phi                                  -4.322e-03   1.811e+00
//    ele2_pt                                    3.542e+01   1.114e+01
//    ele2_eta                                  -3.348e-02   1.092e+00
//    ele2_phi                                  -2.274e-02   1.791e+00
//    ele3_pt                                    2.307e+01   8.608e+00
//    ele3_eta                                   2.855e-03   1.140e+00
//    ele3_phi                                   6.449e-02   1.800e+00
//    ele4_pt                                    1.365e+01   6.274e+00
//    ele4_eta                                   1.215e-02   1.176e+00
//    ele4_phi                                  -2.963e-03   1.799e+00
//    worst_vertex                               4.767e+00   9.663e+00
//    second_worst_vertex                        1.942e+00   3.756e+00
//    mZ                                         8.596e+01   1.215e+01
//    mZstar                                     3.393e+01   1.507e+01
//    mbestH                                     1.400e+02   1.418e+01
//
// Created: Sun Jun 24 15:26:45 2012
//-----------------------------------------------------------------------------
#include <cmath>
#include <vector>
#include <iostream>
//-----------------------------------------------------------------------------
// Make following visible only to this programming unit
namespace nshzz2e2mu_noiso {
  // NOTE: Network indices start at 0
  static const int nnetworks=200;
  static const int ninputs  =17;
  static const int nhidden  =30;
  static const int nparams  =571;

  static const double mean[ninputs]={
  5.45700e+01,
  6.60900e-03,
 -4.32200e-03,
  3.54200e+01,
 -3.34800e-02,
 -2.27400e-02,
  2.30700e+01,
  2.85500e-03,
  6.44900e-02,
  1.36500e+01,
  1.21500e-02,
 -2.96300e-03,
  4.76700e+00,
  1.94200e+00,
  8.59600e+01,
  3.39300e+01,
  1.40000e+02
  };

  static const double sigma[ninputs]={
  2.07000e+01,
  1.08300e+00,
  1.81100e+00,
  1.11400e+01,
  1.09200e+00,
  1.79100e+00,
  8.60800e+00,
  1.14000e+00,
  1.80000e+00,
  6.27400e+00,
  1.17600e+00,
  1.79900e+00,
  9.66300e+00,
  3.75600e+00,
  1.21500e+01,
  1.50700e+01,
  1.41800e+01
  };

  static const double weight[nnetworks][nparams]={
    { -48.266,   29.790,  -10.464,    1.890,   22.721,   38.034,    3.619,
       17.043,  -31.349,   10.936,    8.738,    1.732,   -3.092,  -19.168,
       -9.003,   -3.661,   -2.771,  -15.738,   37.463,   11.131,   -9.749,
        5.954,  -17.784,   10.377,   -9.099,   -4.576,   14.250,   26.170,
       33.317,   11.878,  -16.405,    3.193,   -8.878,    7.564,   24.210,
       32.403,   -4.073,    8.387,   26.201,   24.237,   -1.046,  -43.469,
       17.451,    4.752,    5.931,    9.835,   12.996,   -9.790,   14.636,
       26.808,    2.818,    0.045,  -14.180,   17.370,  -24.568,   72.828,
       20.203,   14.858,  -14.704,  -15.446,  -19.723,  -19.222,  -26.678,
      -16.089,  -24.225,   -3.195,  -25.371,   11.845,  -27.551,   -5.775,
       11.989,   -5.782,   61.883,    6.669,    1.678,   -2.878,   -0.868,
       19.284,    2.343,  -13.894,  -18.181,   -1.790,   15.358,    5.740,
        5.148,   -0.600,   38.637,  -31.824,   30.789,   15.382,  -12.838,
       15.629,  -15.594,   20.398,   -4.113,  -33.750,   11.826,   23.490,
       17.918,   14.272,    7.313,  -34.965,  -12.902,  -33.992,  -32.378,
      -15.254,  -13.700,  -35.096,  -97.693,   13.855,    6.157,  -22.130,
        3.228,   15.555,  -12.371,  -29.678,   -9.499,   28.892,   -8.022,
        2.313,   25.953,  -22.436,   11.383,  -15.755,   17.450,    2.492,
       23.021,  -19.048,   -5.147,   -2.216,  -10.679,   39.761,   -2.243,
      -13.413,  -20.287,   -1.596,    1.772,  -13.422,   -2.923,   29.434,
       21.364,    3.533,   -2.978,   23.870,   18.924,   -8.492,   54.819,
        7.306,  -11.648,  -20.141,    2.096,   27.262,   28.013,    4.678,
       13.857,    2.069,  -23.833,  -16.173,  -22.727,    5.047,   33.843,
      -50.899,    2.018,  -24.636,   -3.134,    6.426,   23.706,   -3.480,
       -2.811,   21.289,    7.544,    2.905,   39.562,  -19.607,   -1.617,
       12.471,  -15.291,  -19.635,  -17.510,   -5.784,  -29.433,   -9.552,
       -6.332,   -4.654,  -12.674,   20.384,  -12.707,  -13.002,   22.598,
      -18.660,  -12.148,   13.278,  -10.362,  -15.580,  -10.631,  -20.780,
       46.918,   18.648, -108.225,   20.987,  -27.754,   13.455,   22.250,
        9.496,   16.102,   29.073,   39.662,   -6.197,   -9.842,  -30.252,
       13.038,   37.289,    2.122,    2.239,   21.684,  -21.817,  -99.134,
      -13.996,    4.548,    7.072,   11.810,   11.233,    4.367,   18.349,
        4.232,    8.833,   -0.444,   -7.826,  -15.038,  -20.032,   -6.130,
       20.388,  -14.602,   54.954,  -47.104,   22.947,  -10.284,    0.790,
      -11.443,   17.407,   17.779,    1.100,  -11.001,   14.527,  -11.923,
       -4.269,   -6.550,   39.458,  -42.895,   -9.864,  -22.089,  -12.051,
       -8.190,   -5.700,   -3.566,  -40.162,   15.708,   23.227,    2.411,
      -16.988,   -1.722,    1.733,  -12.929,  -10.281,   25.432,   50.598,
       12.766,   18.716,   32.054,   28.237,   -3.709,   -0.146,    3.871,
      -23.546,   12.132,   23.304,   -2.329,  -17.626,   -0.855,   -5.130,
       25.227,   -2.669,   19.713,    6.157,  -19.076,    2.096,   32.399,
       29.715,  -20.624,  -39.218,   67.531,  -19.884,   24.559,    4.655,
        1.621,    5.073,  -14.346,  -26.005,   18.623,    5.908,   46.104,
      -17.978,   24.507,   10.248,  -10.060,  -21.593,  -28.456,    8.666,
      -10.325,   40.431,    9.382,  -15.742,  -11.961,   11.659,   -3.936,
      -21.127,   -8.405,  -25.846,   -5.689,   23.503,    9.369,   -6.121,
        0.212,  -26.139,  -60.281,    8.275,    2.420,   -8.920,  -26.871,
      -12.393,    9.418,   20.677,   -3.509,   37.371,  -14.900,  -22.411,
       43.407,   -3.576,   33.377,  -22.278,   12.798,   12.279,   -6.131,
       -9.363,   25.244,  -11.063,  -22.375,  -38.154,    4.102,    3.186,
       19.553,   -0.091,   -4.974,  -28.535,   -6.836,    3.603,  -10.629,
      -12.572,  -14.282,    0.538,  -39.428,  -14.343,   23.969,   23.096,
       -7.478,   14.116,  -26.838,    0.474,    5.333,   22.918,  -19.040,
       -9.506,  -11.487,    7.621,   -7.728,  -25.850,    9.068,  -29.694,
       95.273,  -12.915,  -33.097,   15.375,    4.162,   14.384,    1.700,
       18.857,  -15.259,   -8.667,    5.554,    3.213,   -9.826,   18.101,
      -52.195,  -44.229,   43.522,   -0.637,  -31.823,    0.638,   16.566,
        1.999,   -3.639,   13.669,   -0.570,   15.942,   20.755,    0.334,
        3.439,  -49.582,    4.453,   -2.762,   -2.569,    3.383,   -3.013,
       -3.283,  -35.833,   11.734,   10.483,   31.717,  -10.802,   14.585,
        4.863,   65.044,   -1.244,   -4.560,   -0.895,    2.472,  -16.697,
        2.329,   -5.548,  -53.439,   18.892,  -17.664,  -36.074,   13.113,
      -19.968,   12.292,   -9.509,    7.497,   -3.938,   -4.415,    9.326,
        7.805,  -40.049,  -11.947,   18.038,  -51.368,   -4.358,  -14.052,
       39.153,  -13.294,  -21.001,    3.139,   -7.315,   23.578,    2.849,
       19.047,    4.721,   14.481,  -48.959,   -8.131,   10.121,   66.952,
        9.597,   18.803,   22.857,  -16.128,   21.664,   17.527,   26.227,
       -7.019,    5.082,    3.555,    4.708,    7.475,    2.401,    2.339,
       -4.335,    0.428,   11.377,   -5.079,   -0.726,  -57.125,  -24.396,
       22.279,   10.858,  -18.199,  -17.167,  -17.094,   51.446,  -12.332,
       45.287,  -36.556,  -12.603,  -12.691,   26.934,  -35.164,   10.814,
      -20.408,    4.210,   -3.237,    0.714,  -27.864,  -13.140,   -0.459,
      -93.837,   12.445,   17.952,   -5.157,   -7.994,   41.766,   -5.204,
       -8.629,    6.587,  -42.848,   -5.829,   20.897,   37.039,   -6.783,
       70.612,  -13.144,   24.557,   27.484,    1.149,    4.450,  -16.848,
       15.301,   27.270,   45.751,   16.991,   46.178,  -19.733,   -5.595,
        8.837,   11.173,   -9.068,   13.177,   10.827,   52.182,  -22.153,
       -5.140,   -0.276,    0.873,    0.006,   -0.346,    0.669,    0.733,
        0.522,    1.289,   -0.630,    0.675,    0.584,    0.510,    1.881,
       -0.842,   -0.880,   -0.579,    0.625,    0.637,   -0.581,   -0.656,
        0.631,   -0.527,    0.571,    0.711,   -0.644,    0.748,    0.750,
        1.839,   -0.626,   -0.762,    0.516
    },
    { -50.282,   30.764,  -11.382,    3.628,   22.652,   38.411,    4.115,
       16.270,  -30.442,   12.353,    7.889,    1.987,   -3.278,  -25.421,
       -3.728,   -6.480,   -2.451,  -15.208,   38.271,    1.774,   -5.148,
       -2.658,  -20.440,    7.826,   -2.921,   -2.833,   13.548,   19.329,
       23.095,    6.785,  -19.554,    8.163,   -6.633,   19.446,   16.496,
       39.259,   -1.989,    0.079,   26.605,   20.450,    9.222,  -42.188,
       20.772,    1.963,    5.220,    3.232,   15.620,  -12.683,   12.076,
       36.283,    1.680,   -3.759,  -18.820,   11.151,  -24.548,   79.639,
       23.225,   19.274,  -14.272,  -16.362,  -20.336,  -18.584,  -30.958,
      -15.637,  -25.978,   -3.774,  -27.623,   17.805,  -22.983,   -2.555,
       14.428,  -10.506,   70.614,    7.573,    1.596,   -2.355,   -0.010,
       21.053,    4.830,  -15.284,  -18.166,    0.059,   14.867,    5.140,
        3.820,    3.944,   35.212,  -36.768,   35.160,   18.084,  -10.995,
       17.392,  -19.314,   22.092,   -4.364,  -39.477,   10.945,   20.674,
       24.877,   14.934,    2.529,  -32.337,  -12.789,  -34.706,  -32.137,
      -14.312,   -6.303,  -38.739, -100.027,   10.298,    7.610,  -20.869,
        5.285,   11.066,  -14.507,  -25.075,   -7.747,   29.486,   -7.039,
        3.648,   30.214,  -30.133,   21.567,  -15.054,   12.695,   -0.524,
       26.253,  -21.787,   -4.010,   -0.848,  -15.478,   43.129,   -3.773,
      -15.614,  -20.896,   -0.847,    3.644,  -17.680,   -2.134,   36.090,
       27.500,    2.957,   -4.238,   26.942,   15.816,   -6.658,   49.401,
        5.896,   -7.735,  -21.256,    0.803,   22.981,   28.371,    3.198,
       14.337,    2.898,  -20.718,  -21.162,  -27.677,    3.876,   31.384,
      -47.858,    0.655,  -28.791,   -7.343,    9.588,   28.607,   -3.177,
       -0.172,   21.132,    8.910,    2.968,   42.617,  -21.727,   -1.876,
        5.485,  -14.887,  -23.631,  -18.569,   -4.103,  -35.418,  -11.784,
       -7.178,   -5.766,  -25.016,   21.346,  -15.175,   -6.211,   30.742,
      -21.474,  -15.139,   12.129,  -12.458,   -3.666,  -15.139,  -17.694,
       47.504,   18.924, -119.123,   25.527,  -24.577,   15.365,   20.644,
        6.125,   14.175,   29.699,   42.306,   -9.539,  -14.227,  -33.620,
        8.167,   33.998,   12.189,    2.604,   26.446,  -22.661, -100.404,
      -14.180,    5.510,    5.863,   17.759,    9.138,    2.684,   16.453,
        2.350,   13.008,    6.332,   -7.534,  -18.312,  -19.672,   -1.813,
       18.961,  -17.230,   56.213,  -51.986,   24.276,  -11.934,   -2.316,
      -14.833,   20.608,   18.327,    4.012,  -12.350,   14.167,  -14.437,
       -5.723,   -5.514,   37.560,  -42.307,  -10.919,  -22.137,  -12.913,
       -9.442,   -8.421,   -3.603,  -43.601,   19.029,   25.749,    1.436,
      -14.832,   -1.490,    0.672,  -12.909,  -10.042,   26.434,   55.587,
       15.278,   22.303,   31.681,   28.540,   -2.770,   -1.722,    3.755,
      -24.292,   12.486,   26.053,   -2.116,  -14.018,   -1.547,   -6.828,
       26.975,   -5.130,   16.693,   10.981,  -23.095,    4.094,   31.378,
       26.909,  -22.085,  -38.673,   63.438,  -19.241,   21.757,    4.048,
        1.534,    7.837,  -12.367,  -20.768,   17.877,    3.760,   43.422,
      -21.410,   22.308,    6.490,   -8.652,  -23.871,  -25.000,   10.612,
       -8.676,   35.618,    6.605,  -13.645,   -8.129,    8.746,   -0.312,
      -19.770,   -3.922,  -32.904,   -2.139,   33.889,    9.800,  -11.443,
      -11.069,  -10.692,  -58.602,    8.092,    0.384,   -6.808,  -25.012,
      -11.739,   11.225,   22.294,   -4.784,   36.268,  -14.230,  -20.695,
       42.803,   -1.565,   39.912,  -22.269,   11.655,   12.981,   -3.682,
      -11.669,   25.900,  -13.522,  -25.096,  -40.998,    3.435,    3.422,
       18.028,   -1.816,   -5.976,  -25.979,   -6.256,    4.528,    4.524,
      -12.234,  -14.678,    3.519,  -40.755,  -15.325,   25.844,   24.389,
       -9.258,   15.110,  -27.073,   -0.078,    7.216,   22.733,  -24.414,
      -10.367,  -11.114,    9.244,    6.673,  -27.108,    6.740,  -33.750,
       99.358,  -10.025,  -33.508,   16.967,    8.466,   11.662,    5.393,
       12.249,  -13.720,  -10.739,    4.055,    5.745,   -7.962,   20.347,
      -44.807,  -39.312,   49.743,    2.870,  -35.283,    5.020,   18.998,
        1.273,   -5.320,   14.326,   -1.260,   18.427,   20.837,   -1.007,
        3.782,  -53.848,    2.478,   -5.425,   -7.361,    5.646,   -2.147,
       -6.652,  -41.480,   11.571,   11.825,   30.496,  -10.713,   15.809,
        6.290,   64.077,    0.359,   -6.222,   -1.306,    1.985,  -17.277,
        4.122,  -15.763,  -54.931,   18.546,  -15.254,  -39.130,   14.323,
      -21.395,   13.046,  -10.497,    9.696,   -2.855,   -3.731,    8.508,
        6.718,  -39.007,  -12.949,   17.914,  -61.445,    1.380,  -15.635,
       39.219,  -14.251,  -20.668,    1.632,   -5.816,   22.004,    6.063,
       21.703,    1.016,   13.689,  -51.098,   -7.796,   14.830,   65.286,
        7.701,   17.945,   30.667,  -15.864,   17.860,   20.070,   29.084,
       -6.656,    5.383,    4.513,    6.602,    7.188,    3.313,    4.344,
       -3.620,    0.729,   11.343,   -7.350,   -0.050,  -66.025,  -27.285,
       24.333,   11.742,  -21.314,  -18.495,  -15.656,   46.040,  -10.873,
       50.004,  -33.818,  -10.568,  -16.106,   28.009,  -34.208,   13.237,
      -16.356,    1.482,   -4.962,    2.408,  -29.639,  -14.331,   -1.270,
      -96.919,   14.623,   13.040,   -2.009,  -12.973,   44.820,   -4.679,
       -8.796,    5.367,  -40.392,   -7.747,   23.857,   35.081,  -15.262,
       64.579,   -6.235,   24.799,   27.640,    1.487,    4.232,  -14.074,
       16.612,   31.387,   53.456,   17.582,   39.309,  -21.969,   -7.126,
       16.965,    6.689,   -5.103,   31.247,    0.830,   53.414,  -28.349,
        1.735,   -0.195,    0.917,   -0.133,   -0.416,    0.586,    0.716,
        0.536,    1.025,   -0.660,    0.678,    0.559,    0.483,    2.239,
       -0.900,   -0.856,   -0.629,    0.743,    0.628,   -0.598,   -0.613,
        0.659,   -0.611,    0.651,    0.690,   -0.739,    0.688,    0.760,
        1.749,   -0.577,   -0.722,    0.486
    },
    { -48.213,   29.607,  -10.847,    1.430,   20.422,   40.313,    2.800,
       16.412,  -31.937,   11.561,    9.763,    0.752,   -3.340,  -19.281,
       -3.098,   -2.993,   -1.070,  -15.854,   31.700,   -3.768,   -3.289,
       -5.958,  -27.993,   -2.043,    7.019,   -1.095,   25.250,   18.210,
       21.840,    5.682,  -24.339,    0.139,   -4.460,   25.413,    8.203,
       37.659,   -6.695,   -0.088,   28.966,   22.114,   15.705,  -43.371,
       15.448,    1.138,    5.017,   -1.312,    9.824,  -11.520,   12.067,
       36.445,    4.292,   -3.652,  -17.154,   13.703,  -26.000,   75.306,
       26.664,   18.367,   -9.025,  -16.670,  -20.313,  -15.349,  -36.914,
      -16.530,  -26.657,   -3.453,  -27.328,   15.583,  -21.855,   -2.309,
       15.071,  -10.803,   82.159,    8.930,    2.413,   -1.880,    0.465,
       24.651,    5.556,  -19.061,  -18.851,   -0.608,   22.029,    4.642,
        7.137,    0.281,   37.857,  -39.714,   44.064,   20.868,  -10.275,
       23.437,  -21.346,   19.148,    2.779,  -37.636,   14.846,   27.300,
       16.066,   15.638,   -0.842,  -33.235,  -16.253,  -21.775,  -31.658,
      -13.614,   -7.746,  -39.662, -106.321,   13.208,    9.209,  -19.167,
        5.621,   14.151,  -16.099,  -26.526,   -9.707,   28.272,   -9.571,
        4.834,   32.991,  -34.798,   25.019,  -15.592,   15.534,   -2.992,
       26.988,  -23.246,   -9.880,    0.242,  -16.611,   55.028,   -6.070,
      -19.328,  -25.979,   -1.496,    7.189,  -21.450,   -3.649,   39.978,
       26.807,    7.208,   -1.019,   30.245,   12.079,   -6.879,   44.289,
        4.825,  -10.445,  -15.254,    1.423,   21.951,   22.784,    2.122,
       11.746,    0.514,  -18.152,  -12.791,  -30.874,    5.211,   27.690,
      -43.344,    2.723,  -30.213,   -6.965,   10.101,   28.509,   -2.003,
       -0.687,   25.350,    8.866,    2.182,   44.733,  -25.341,   -3.179,
       10.334,  -12.819,  -24.870,  -22.204,   -3.970,  -42.358,  -12.789,
       -5.429,   -4.046,  -21.854,   21.461,  -13.760,   -5.625,   35.277,
      -23.381,  -18.275,   13.879,  -10.053,  -12.720,  -23.992,  -26.601,
       47.856,   20.441, -121.749,   23.946,  -31.886,   11.337,   28.364,
        7.730,   18.003,   29.313,   39.418,   -5.942,  -17.326,  -30.079,
       16.011,   35.939,    5.278,    1.097,   33.756,  -26.811,  -96.261,
      -15.668,    7.422,    6.769,   15.543,    8.292,    5.088,   19.835,
       -0.514,   11.644,    5.216,   -5.718,  -18.361,  -15.516,   -1.668,
       15.425,  -15.909,   54.985,  -45.096,   25.017,  -13.809,    2.257,
      -11.746,   19.197,   19.768,   -0.445,  -13.739,   15.935,  -13.486,
       -1.132,   -4.605,   52.345,  -33.177,  -17.272,  -20.115,  -13.314,
      -11.352,   -8.906,    0.126,  -53.163,   28.767,   30.006,    3.753,
      -19.093,   -9.655,    2.069,  -13.552,   -8.955,   34.868,   55.847,
       14.085,   17.855,   39.413,   27.173,   -6.791,    2.608,    8.125,
      -23.524,   16.226,   19.261,   -2.771,  -17.297,    1.177,   -6.437,
       28.618,   -4.653,   16.872,    9.053,  -29.584,    1.691,   30.039,
       29.079,  -18.075,  -32.564,   59.685,  -16.657,   18.493,    2.754,
        1.685,    4.937,  -14.364,  -20.556,   15.352,    4.929,   39.663,
      -15.656,   19.955,    5.252,   -8.140,  -14.818,  -25.897,    7.249,
      -11.270,   35.949,    9.154,  -16.210,   -7.237,   13.216,    1.919,
      -21.706,   -4.499,  -30.084,   -3.383,   28.242,   13.125,   -9.594,
       -8.723,  -16.130,  -47.787,    9.436,   -2.753,   -5.897,  -26.146,
       -6.742,    9.608,   15.069,   -8.222,   33.504,  -15.384,  -12.809,
       38.245,   -6.854,   40.047,  -22.372,    9.627,   15.321,   -3.120,
       -9.797,   24.342,  -12.836,  -24.500,  -39.837,    3.547,    2.322,
       21.592,   -0.173,   -5.110,  -29.191,   -6.652,    4.383,    2.402,
      -14.088,  -14.209,    0.791,  -37.065,   -9.874,   25.002,   24.856,
      -13.426,   14.854,  -28.366,    6.380,    7.013,   25.337,  -25.297,
      -12.283,   -9.657,    4.451,   18.924,  -26.494,   11.261,  -35.897,
       98.292,  -13.254,  -34.398,   17.973,    7.911,   12.142,    5.173,
       16.370,  -14.820,   -9.033,    2.138,    7.366,   -7.403,    7.003,
      -51.744,  -46.117,   48.045,    1.542,  -40.840,    3.691,   19.378,
        1.440,   -2.626,   15.549,   -0.186,   17.947,   24.520,   -0.312,
        2.580,  -59.725,    5.772,  -20.970,   -4.022,    2.922,   -2.684,
       -5.106,  -41.212,   15.809,    9.008,   30.947,  -12.687,   17.700,
        3.619,   67.161,    0.095,   -6.912,   -2.214,    1.669,  -16.566,
       -0.026,  -19.899,  -56.795,   20.958,  -17.937,  -38.649,   14.422,
      -20.584,   11.839,  -10.209,    8.122,   -2.476,   -5.402,    8.295,
        7.569,  -36.620,  -11.512,   16.872,  -61.993,    0.598,  -14.309,
       37.757,  -13.285,  -22.203,    1.423,   -4.376,   22.074,    3.088,
       19.741,    0.583,   13.918,  -49.407,   -7.995,   14.334,   62.000,
        8.127,   16.815,   31.733,  -15.846,   18.548,   20.122,   28.718,
       -7.270,    4.823,    2.944,    4.236,    8.469,    1.910,    4.476,
       -5.294,   -0.492,   10.797,   -6.660,   -0.388,  -63.955,  -29.971,
       24.369,   14.407,  -21.556,  -19.682,  -22.422,   48.792,  -14.016,
       55.717,  -37.754,  -11.219,  -13.966,   29.005,  -37.548,   12.237,
      -15.344,    4.241,   -3.605,    8.360,  -31.857,  -15.119,   -0.368,
      -91.244,    9.959,   12.896,   -2.708,   -7.109,   41.911,   -3.327,
       -7.981,    5.574,  -44.415,   -5.305,   22.717,   37.352,    1.195,
       70.294,   -7.500,   22.996,   29.920,   -0.284,    2.082,  -13.463,
       16.513,   24.595,   46.808,   14.922,   40.885,  -17.191,   -3.549,
        9.723,    4.937,   -9.462,   32.514,  -17.377,   52.925,  -27.947,
       -2.442,   -0.760,    0.840,   -0.145,   -0.345,    0.567,    0.725,
        0.445,    1.197,   -0.728,    0.656,    0.606,    0.535,    1.765,
       -1.085,   -0.909,   -0.503,    0.654,    0.591,   -0.557,   -0.642,
        0.565,   -0.614,    0.772,    0.633,   -0.700,    0.714,    0.787,
        1.705,   -0.588,   -0.823,    0.471
    },
    { -45.909,   25.500,   -5.861,    2.891,   19.296,   34.915,    1.999,
       17.481,  -31.952,   12.101,    9.316,    0.537,   -2.251,  -17.375,
       -9.252,   -2.175,   -2.211,  -14.851,   24.079,  -11.372,   -9.645,
       -3.400,  -29.726,  -13.693,   -0.441,  -18.411,   35.721,   19.466,
       28.085,    3.113,  -24.655,   -6.817,   -7.171,   28.444,    0.056,
       35.887,   -7.545,    7.559,   26.396,   15.986,   15.109,  -37.196,
       14.676,    5.325,    3.597,    1.045,    6.473,  -11.987,    8.921,
       32.430,    9.887,   -0.784,  -13.505,    5.333,  -32.628,   70.768,
       23.246,   16.004,  -14.761,  -17.601,  -21.030,  -13.517,  -32.413,
      -17.319,  -26.388,   -3.614,  -27.724,   -1.182,  -27.554,   -2.326,
       12.221,   -8.282,   89.177,   11.643,    3.863,   -3.163,   -1.298,
       26.280,    5.025,  -19.430,  -19.717,    0.230,   22.269,    3.745,
        6.751,    7.556,   39.500,  -42.623,   47.387,   20.241,   -8.924,
       24.660,  -21.575,   19.492,    3.001,  -36.460,   15.225,   24.801,
       21.652,   14.880,   -0.698,  -34.897,  -13.176,  -14.462,  -38.331,
      -18.262,   -8.987,  -37.311, -112.533,   12.772,    7.628,  -20.585,
        7.642,   13.794,  -15.947,  -37.029,   -8.424,   31.648,   -7.632,
        0.832,   35.319,  -36.762,   27.156,  -15.686,   21.405,    0.161,
       24.532,  -22.864,  -13.940,    1.136,  -19.411,   56.680,   -4.693,
      -17.324,  -25.080,   -0.151,    7.133,  -20.815,   -3.326,   32.378,
       26.078,    6.808,    1.526,   26.132,   14.591,   -2.735,   41.982,
        1.370,  -14.365,  -18.005,   -1.031,   26.833,   21.820,    2.162,
       12.949,    3.420,  -16.425,   -0.483,  -23.787,   13.825,   27.980,
      -44.935,    3.561,  -30.747,   -9.276,   11.467,   29.587,   -6.031,
       -0.867,   25.508,   11.275,    3.826,   48.246,  -24.430,   -3.422,
       10.292,   -8.217,  -24.877,  -19.677,   -7.210,  -47.793,   -8.719,
       -1.994,   -6.642,  -16.633,   17.722,  -18.629,   -8.718,   38.573,
      -26.130,  -18.103,   12.365,  -12.719,  -21.756,  -32.777,  -26.599,
       50.316,   22.799, -118.869,   26.799,  -33.523,   12.682,   24.440,
        8.207,   17.215,   23.850,   37.345,   -6.556,  -16.411,  -27.216,
       13.724,   34.955,   -1.053,    2.891,   31.572,  -21.945,  -91.248,
       -3.347,    6.502,    5.293,    5.601,    5.583,    4.569,   19.450,
        2.933,   10.642,    1.251,   -4.268,  -18.660,  -27.584,    0.953,
       13.895,  -14.925,   56.275,  -35.810,   21.028,  -10.359,   -0.230,
      -13.393,   16.685,   17.818,    1.284,  -10.494,   11.901,  -10.491,
       -6.338,   -4.925,   61.687,  -29.707,  -12.237,  -19.897,  -13.497,
      -18.782,   -8.164,   -9.446,  -60.302,   22.548,   38.066,    0.633,
      -22.063,   -8.015,    4.332,   -7.168,   -3.485,   40.551,   49.722,
       16.409,   13.213,   33.381,   35.817,   -7.459,    2.587,    5.663,
      -28.545,   12.903,   26.724,   -3.933,  -15.700,   -0.368,   -9.509,
       35.045,   -3.436,   19.651,    7.055,  -24.861,    6.972,   38.073,
       34.691,  -19.385,  -32.233,   54.839,  -15.127,   16.538,    6.171,
        2.407,    3.784,  -11.430,  -19.682,   12.963,    1.894,   38.154,
      -17.756,   10.913,    5.159,   -3.284,  -14.789,  -30.490,    6.661,
      -10.356,   37.616,   12.069,  -15.180,   -9.047,   11.060,   -0.804,
      -20.750,   -2.781,  -30.623,   -4.784,   20.827,    8.001,  -12.213,
      -11.582,  -16.452,  -53.807,    4.740,    0.571,   -5.420,  -22.665,
       -4.815,    9.285,   17.370,   -8.125,   33.736,  -12.138,  -18.285,
       39.737,  -12.767,   41.768,  -16.742,    3.713,   15.859,   -4.782,
      -10.626,   26.675,  -14.592,  -28.558,  -42.081,    4.237,    5.423,
       21.654,    0.130,   -4.749,  -29.678,   -7.825,    4.729,   -4.178,
      -13.701,  -17.358,    0.139,  -38.982,   -6.965,   25.618,   27.135,
      -15.972,   11.174,  -29.554,    8.296,    2.160,   22.776,  -28.782,
       -7.993,  -12.828,    4.951,   18.258,  -28.468,   11.334,  -34.090,
      100.160,  -10.676,  -37.375,   22.713,    6.332,   12.601,    5.345,
       21.747,  -13.481,   -8.246,    5.730,    5.123,   -9.900,   -0.941,
      -67.703,  -45.737,   53.920,   -4.335,  -46.376,    5.885,   19.329,
        0.252,   -3.059,   20.253,   -0.343,   20.343,   23.390,    1.211,
        1.335,  -62.074,    4.586,  -28.659,    3.390,    4.530,   -3.137,
       -3.908,  -42.516,   13.557,    8.024,   28.671,   -8.004,   21.805,
        2.583,   70.600,    0.544,   -5.346,   -5.593,    2.550,  -15.095,
        5.492,  -25.245,  -51.809,   22.441,  -20.893,  -40.406,   13.089,
      -23.298,   14.066,   -9.906,   10.611,   -3.811,   -6.280,    9.796,
        8.611,  -41.698,  -12.976,   18.392,  -59.349,   -5.093,  -15.496,
       39.752,  -11.805,  -25.301,    4.829,   -7.500,   20.504,    9.791,
       22.367,    0.270,   12.251,  -52.965,   -9.129,   17.388,   65.308,
        7.698,    9.936,   33.155,  -14.607,   18.899,   16.857,   25.778,
       -7.444,    4.704,    4.625,    6.914,    6.909,    1.632,    3.220,
       -3.330,    1.089,   10.465,   -5.711,   -0.333,  -66.668,  -31.391,
       24.338,   13.202,  -19.621,  -15.033,  -18.940,   51.726,  -12.068,
       54.630,  -39.749,  -10.095,  -14.826,   28.860,  -40.029,    9.485,
      -15.203,    4.914,    8.418,    5.623,  -31.877,  -12.596,   -0.612,
      -86.916,    9.894,   11.792,   -3.191,   -4.825,   36.887,   -4.738,
       -9.607,    9.084,  -40.338,   -2.016,   23.081,   32.756,   -8.790,
       72.578,   -1.459,   23.451,   27.660,   -2.409,    4.481,  -12.683,
       12.929,   24.862,   46.763,   13.901,   38.801,  -18.145,   -5.947,
       11.396,    8.048,   -7.524,   31.739,  -26.323,   50.526,  -25.347,
       -2.354,   -0.295,    0.877,   -0.223,   -0.282,    0.554,    0.687,
        0.503,    1.396,   -0.691,    0.690,    0.565,    0.569,    1.702,
       -0.867,   -0.803,   -0.534,    0.571,    0.597,   -0.683,   -0.692,
        0.697,   -0.531,    0.696,    0.691,   -0.686,    0.711,    0.781,
        1.700,   -0.691,   -0.787,    0.554
    },
    { -43.603,   27.111,   -8.592,    2.558,   20.173,   34.256,    3.273,
       16.278,  -31.405,   10.659,   10.968,    4.165,   -1.370,  -13.073,
       -6.791,   -3.214,   -3.072,  -16.298,   27.991,  -20.690,   -2.676,
       -2.398,  -21.250,  -14.705,  -14.600,  -30.802,   38.114,   13.699,
       45.858,  -10.983,  -12.949,  -11.332,   -1.980,   21.436,  -10.316,
       28.464,   -1.334,    5.983,   19.572,   17.353,    7.567,  -31.763,
       17.901,    8.911,    7.649,    7.448,    9.085,  -14.159,   11.453,
       30.392,    7.278,    0.020,  -10.653,   -0.694,  -32.316,   63.912,
       20.818,   12.733,   -8.982,  -16.867,  -16.166,  -13.520,  -24.477,
      -16.762,  -24.757,   -6.800,  -22.887,   -8.545,  -21.528,   -0.574,
       16.917,  -12.612,   95.516,    9.288,    0.217,   -3.284,   -1.506,
       27.163,    6.402,  -20.641,  -20.901,    0.053,   20.262,    5.527,
        7.441,   15.837,   53.659,  -47.639,   44.774,   23.924,   -5.116,
       25.531,  -17.337,   20.682,    4.851,  -37.449,   12.775,   25.117,
       19.461,   12.474,   -0.964,  -31.329,  -12.831,    6.072,  -41.088,
      -11.888,   -7.616,  -38.978, -117.845,   15.747,    5.307,  -23.689,
        6.506,   15.740,  -17.552,  -37.570,   -7.453,   33.286,   -9.311,
        0.219,   40.166,  -34.286,   31.848,  -15.507,   20.944,    0.959,
       18.628,  -22.380,  -12.397,    0.196,  -17.178,   56.984,   -4.077,
      -18.814,  -25.808,   -1.005,    6.725,  -20.280,   -2.493,   23.418,
       22.928,   10.777,    2.732,   28.614,   14.867,   -4.099,   40.794,
        2.725,  -12.734,  -17.411,    0.532,   28.623,   20.310,    3.118,
       13.685,    6.310,  -15.558,   -1.214,  -19.503,    9.785,   27.140,
      -48.844,    2.596,  -31.998,   -7.974,   10.738,   31.949,   -6.687,
       -0.164,   26.886,   11.383,    4.586,   50.504,  -21.697,   -4.519,
        7.020,  -10.972,  -24.270,  -20.142,   -7.057,  -53.881,  -16.010,
        1.512,   -7.467,  -16.334,   18.289,  -19.527,   -7.656,   35.586,
      -26.001,  -15.613,   13.642,  -11.778,  -25.041,  -34.183,  -27.055,
       52.046,   19.798, -110.812,   21.819,  -30.520,    9.994,   22.412,
       13.674,   18.209,   25.477,   32.743,   -4.781,  -21.547,  -23.830,
       15.511,   32.300,   -3.173,    4.318,   26.673,  -18.130,  -92.507,
       -6.728,    6.682,    4.348,   10.335,    1.398,    5.130,   19.942,
        6.284,   11.366,    2.133,   -5.923,  -19.101,  -31.425,    8.225,
       18.595,  -12.889,   50.579,  -37.934,   18.393,   -9.110,    0.784,
       -9.139,   15.686,   13.299,    1.286,  -10.071,   13.714,   -9.086,
       -2.784,   -3.102,   49.433,  -41.752,   -9.048,  -19.759,  -11.134,
      -14.152,  -11.295,   -4.556,  -61.476,   24.718,   34.112,   -0.916,
      -17.505,   -7.999,    5.655,  -14.514,   -9.879,   39.302,   47.203,
       15.346,    7.475,   34.903,   35.534,   -0.649,    7.009,    5.864,
      -36.252,   11.463,   31.635,   -4.675,  -21.310,    7.454,  -11.684,
       41.290,   -5.650,   25.286,    9.354,  -19.210,    5.234,   46.953,
       43.223,  -21.770,  -32.261,   53.548,  -13.131,   22.434,    3.818,
        3.014,    5.606,  -12.770,  -18.987,   15.070,    4.119,   36.310,
      -19.126,    1.002,    7.394,   -4.495,  -19.028,  -29.206,    8.492,
      -10.055,   39.342,   10.800,  -16.380,   -9.802,   11.449,    0.645,
      -20.217,   -5.916,  -32.412,   -3.309,   23.435,    8.199,  -13.682,
       -8.178,  -19.239,  -52.619,    7.895,    1.550,   -3.321,  -23.842,
       -0.355,   11.368,   12.729,  -13.425,   34.447,  -11.159,  -15.743,
       37.474,   -5.426,   32.860,  -18.275,    4.565,   19.335,   -7.290,
      -11.971,   28.107,  -15.251,  -29.504,  -46.865,    4.756,    3.264,
       25.301,   -1.100,   -3.218,  -32.770,  -10.030,    9.462,  -11.593,
      -14.536,  -18.909,   -2.518,  -37.684,   -9.031,   23.309,   23.353,
       -7.775,   16.164,  -24.412,   -1.474,    3.031,   22.297,  -19.640,
       -8.436,   -9.076,    2.709,    2.959,  -26.664,    8.514,  -30.933,
      108.844,  -10.677,  -39.566,   23.511,    4.079,   13.568,    6.610,
       26.009,  -11.154,   -8.664,    0.868,    5.043,  -12.442,   -0.426,
      -73.833,  -49.274,   56.375,   -4.384,  -45.445,    4.156,   23.122,
        1.947,   -2.107,   15.889,   -0.967,   18.717,   27.151,    0.145,
        3.787,  -64.894,    5.843,  -41.302,    7.851,    2.565,   -4.002,
       -4.207,  -41.957,   15.045,   11.213,   29.923,   -4.547,   13.589,
        1.761,   64.943,    4.202,   -3.557,   -2.365,    6.293,  -16.822,
        8.103,  -31.968,  -43.597,   25.250,  -25.493,  -41.460,   13.049,
      -25.370,   13.753,  -11.973,   11.197,   -5.080,   -5.172,    9.353,
        9.152,  -42.108,  -11.802,   19.284,  -59.829,   -6.251,  -16.709,
       40.693,  -12.491,  -26.143,    3.616,   -5.862,   20.415,    3.906,
       21.715,    1.128,   13.378,  -49.709,   -7.442,   14.985,   60.929,
        8.397,   10.056,   20.757,  -11.861,   24.576,   13.597,   28.087,
       -9.449,    5.817,    4.773,    4.870,    4.050,    4.034,    5.504,
       -2.325,   -1.352,   12.455,   -7.413,   -1.393,  -64.208,  -27.053,
       23.208,   11.539,  -20.547,  -13.832,  -16.992,   41.773,  -10.889,
       45.220,  -32.491,   -9.976,  -12.451,   22.815,  -33.542,    9.911,
      -12.902,    0.022,    5.072,   -7.595,  -25.766,   -9.438,   -2.619,
      -92.817,   11.172,   12.191,   -3.944,   -6.600,   32.430,    0.072,
       -8.248,    7.101,  -41.366,   -0.355,   26.782,   35.712,  -12.067,
       60.981,   -6.008,   22.772,   26.000,   -1.253,   10.303,  -16.166,
       17.434,   27.067,   46.424,   15.338,   44.017,  -20.752,   -1.339,
       14.059,   11.360,   -9.113,   21.694,  -25.681,   47.636,  -25.115,
       -4.867,   -0.503,    0.864,   -0.048,   -0.433,    0.664,    0.808,
        0.597,    1.280,   -0.677,    0.668,    0.571,    0.503,    2.114,
       -0.900,   -0.846,   -0.475,    0.651,    0.675,   -0.689,   -0.763,
        0.606,   -0.539,    0.800,    0.769,   -0.773,    0.740,    0.734,
        1.694,   -0.641,   -0.946,    0.609
    },
    { -45.959,   26.509,   -6.481,    2.838,   18.301,   33.381,    1.878,
       17.431,  -29.546,   13.227,    7.734,    1.100,   -1.827,  -16.277,
      -16.976,   -3.710,   -0.883,  -15.909,   37.418,  -25.514,    4.104,
       -0.507,  -13.623,  -13.929,  -15.065,  -27.771,   43.884,   20.592,
       45.917,  -15.670,  -15.273,  -13.423,    1.935,   14.251,  -12.793,
       22.631,   -3.170,   10.757,   20.879,   18.078,    8.241,  -34.868,
       20.384,    5.771,    7.273,    8.312,   12.933,  -14.153,   15.792,
       26.330,    4.411,   -1.143,  -10.971,    2.393,  -24.094,   55.804,
       14.433,   13.434,   -8.220,   -8.091,  -13.828,   -9.933,  -24.660,
      -15.427,  -14.127,   -2.976,  -16.559,   -9.619,  -20.369,    0.809,
       13.340,  -12.662,   99.499,   12.293,    1.551,   -5.335,    0.512,
       27.431,    2.063,  -22.552,  -23.378,    1.268,   24.134,    6.928,
        7.046,   16.575,   50.881,  -50.635,   47.362,   21.946,   -4.546,
       25.179,  -21.113,   17.933,    5.110,  -35.660,    9.521,   24.527,
       22.290,   17.489,    1.003,  -32.615,  -11.133,    0.779,  -39.264,
       -9.615,   -8.267,  -40.220, -121.336,   12.771,   10.635,  -25.996,
        5.102,   15.155,  -21.233,  -44.433,  -10.357,   29.289,   -6.753,
        3.016,   36.328,  -32.505,   26.282,  -21.130,   19.357,    4.392,
       18.233,  -16.942,  -11.865,   -2.349,  -19.284,   53.923,   -6.269,
      -19.678,  -24.918,   -1.619,    7.700,  -20.129,   -2.895,   13.274,
       26.985,   11.031,    3.242,   29.704,   17.377,   -4.644,   44.042,
        2.627,  -14.884,  -19.831,    1.083,   28.098,   20.276,    1.220,
       12.117,    6.383,  -16.442,   -0.475,  -11.440,   10.779,   27.446,
      -46.620,    2.136,  -34.308,   -8.050,   12.071,   37.075,   -9.733,
        0.576,   25.859,   16.108,    2.588,   58.941,  -24.872,   -2.384,
        8.302,  -16.909,  -27.362,  -18.841,   -8.338,  -49.716,  -10.407,
       -3.687,   -7.730,  -17.489,   21.135,  -17.617,   -9.815,   36.970,
      -24.005,  -16.828,   12.385,  -12.656,  -29.542,  -29.610,  -23.621,
       54.696,   16.225, -103.721,   23.238,  -28.708,    6.878,   21.695,
       12.455,   11.318,   23.541,   30.425,   -5.003,  -18.903,  -27.615,
        9.515,   34.177,   -1.394,    5.349,   31.232,  -25.448,  -92.391,
       -0.498,    6.655,    6.496,    7.037,    4.713,    5.728,   20.436,
        5.760,   11.455,    3.837,   -6.593,  -18.678,  -29.501,   11.586,
       18.712,  -14.126,   52.457,  -48.734,   22.200,  -10.040,   -0.487,
      -11.178,   19.335,   14.576,    3.411,  -14.517,   13.219,  -10.084,
       -2.336,   -3.263,   40.796,  -48.025,   -8.852,  -20.504,  -15.776,
      -11.841,   -7.863,   -6.019,  -62.301,   21.044,   34.258,    3.079,
      -11.754,  -12.325,    5.718,  -15.546,   -3.862,   40.066,   52.401,
       15.345,    6.106,   37.550,   33.347,   -0.525,    2.000,    6.179,
      -38.446,   20.350,   38.194,   -3.073,  -25.317,    0.931,  -10.928,
       47.077,   -5.329,   28.292,   16.277,  -19.605,    5.612,   51.109,
       46.763,  -22.478,  -33.147,   47.638,  -12.336,   20.573,    5.498,
        3.210,    3.967,  -12.201,  -17.661,   13.343,    5.385,   35.318,
      -18.826,   -5.295,    5.403,   -2.541,  -17.029,  -33.917,    9.562,
      -10.370,   38.082,   14.152,  -19.270,  -11.893,   13.381,   -2.774,
      -23.678,   -8.454,  -33.287,   -5.397,   29.392,   -2.473,  -13.766,
       -7.667,  -22.621,  -53.680,   10.769,   -0.514,   -6.121,  -25.238,
       -0.761,    9.986,   16.062,   -7.091,   33.973,  -12.298,  -17.715,
       36.592,   -7.116,   27.803,  -18.517,    7.067,   18.289,   -6.033,
      -11.477,   28.814,  -13.853,  -28.129,  -44.916,    5.457,    2.766,
       24.196,   -1.700,   -4.264,  -33.762,   -8.640,    4.023,  -10.530,
      -15.152,  -17.846,    1.317,  -37.675,  -13.992,   18.334,   21.069,
      -13.343,   13.681,  -21.543,    4.789,    4.177,   19.933,  -18.093,
       -6.613,   -9.260,    4.911,   -6.397,  -26.713,    0.735,  -31.606,
      114.626,  -11.569,  -41.192,   22.406,   10.305,    8.288,    1.527,
       19.735,  -10.627,  -12.993,    9.924,    1.930,   -6.036,    6.721,
      -69.115,  -48.714,   53.044,   -0.415,  -47.124,    5.302,   23.112,
       -0.085,   -0.599,   17.533,   -1.583,   21.564,   27.339,   -0.358,
        4.221,  -66.706,    6.857,  -43.556,   13.685,    2.957,   -5.173,
       -5.244,  -39.384,   10.608,   10.984,   30.156,   -4.689,   13.896,
        5.158,   64.895,    3.590,   -2.830,   -3.820,    3.350,  -14.524,
       22.075,  -32.849,  -39.992,   22.188,  -25.495,  -42.919,   11.311,
      -21.415,   13.000,   -8.583,    7.929,   -5.582,   -3.310,    9.910,
        8.104,  -41.791,  -11.303,   17.491,  -62.455,  -10.846,  -17.867,
       35.980,  -11.760,  -22.368,    4.343,   -6.329,   20.591,    3.370,
       21.197,    1.056,   12.086,  -45.452,   -6.290,   13.180,   57.725,
        8.541,   15.511,   15.506,  -12.523,   21.355,   16.680,   28.911,
       -6.569,    4.690,    5.155,    6.624,    8.416,    2.798,    5.477,
       -3.095,    1.517,   10.417,   -8.980,   -1.453,  -65.421,  -20.929,
       23.010,   11.038,  -19.975,  -11.027,  -13.960,   37.209,   -8.360,
       37.823,  -27.259,   -8.848,  -10.747,   22.157,  -25.067,    6.512,
      -13.393,    2.773,    7.773,   -8.629,  -23.396,  -11.908,    0.981,
      -94.800,   12.815,   11.814,   -4.294,   -7.459,   39.152,   -2.743,
       -5.646,    6.272,  -42.326,   -3.610,   24.923,   37.812,   -0.031,
       53.589,   -0.987,   24.691,   26.250,   -4.674,    6.220,  -17.207,
       17.988,   27.471,   48.856,   14.982,   45.192,  -20.619,   -3.645,
       12.525,   10.135,   -9.369,    7.263,  -14.245,   47.154,  -26.751,
       -4.333,   -0.148,    1.000,   -0.026,   -0.447,    0.631,    0.854,
        0.577,    1.193,   -0.774,    0.716,    0.534,    0.516,    2.060,
       -0.964,   -0.836,   -0.479,    0.584,    0.726,   -0.627,   -0.620,
        0.770,   -0.597,    0.632,    0.728,   -0.736,    0.764,    0.857,
        1.615,   -0.690,   -0.880,    0.658
    },
    { -48.479,   26.297,   -7.774,    2.708,   17.828,   35.327,    1.962,
       16.342,  -30.568,   12.964,    9.720,    1.370,   -0.176,  -18.300,
      -22.248,   -3.659,    0.054,  -17.245,   39.990,  -32.589,   -4.470,
        7.773,   -7.494,  -12.130,  -16.700,  -32.264,   54.872,   24.751,
       39.075,  -19.223,  -20.094,  -18.451,   15.433,   12.354,  -16.864,
       18.567,   -6.586,    9.448,   19.891,   18.365,   10.547,  -36.434,
       22.206,   12.745,    7.071,    7.021,   14.792,  -17.492,   16.741,
       33.973,   -3.325,   -1.008,  -12.676,   -0.938,  -22.214,   58.053,
       12.680,   11.573,  -10.619,  -17.409,  -16.659,  -11.489,  -22.367,
      -12.471,  -11.179,    0.466,  -17.840,   -8.741,  -10.685,    3.004,
        8.457,   -7.932,   97.760,   10.772,    2.002,   -3.559,   -0.476,
       31.134,    6.391,  -21.511,  -25.926,   -0.159,   21.994,    6.530,
        7.893,    8.217,   38.875,  -52.700,   49.902,   24.996,   -6.618,
       23.517,  -19.303,   19.812,    7.966,  -38.652,   11.265,   25.756,
       22.383,   15.828,    2.377,  -32.712,  -12.023,   -3.790,  -38.326,
       -9.862,   -6.975,  -40.052, -118.238,   11.027,    5.276,  -29.502,
       -2.549,   11.688,  -20.404,  -41.157,   -5.845,   29.447,   -7.826,
        6.482,   38.117,  -24.203,   32.098,  -15.658,   20.888,   -0.673,
       18.284,  -18.911,  -14.314,   -0.556,  -18.710,   56.580,   -4.740,
      -15.790,  -27.808,   -0.220,    7.733,  -19.153,   -1.525,   15.289,
       25.678,   14.344,    3.335,   25.963,   16.401,    0.399,   42.850,
        2.412,  -16.081,  -19.615,    1.137,   28.195,   20.179,    0.091,
       12.082,    6.982,  -15.877,   -0.476,  -17.249,    8.048,   26.594,
      -49.568,    1.476,  -37.949,   -7.860,   13.172,   37.164,   -8.620,
        0.176,   25.211,   14.038,    1.688,   59.165,  -21.938,   -2.730,
       11.743,  -14.869,  -29.260,  -22.723,   -5.812,  -44.635,   -7.807,
       -5.091,   -6.936,  -18.975,   19.316,  -13.215,   -6.840,   31.180,
      -23.660,  -15.770,   10.596,  -10.093,  -22.734,  -24.329,  -20.188,
       45.636,   13.005,  -94.793,   26.870,  -27.477,    6.968,   15.809,
        9.872,   10.175,   26.684,   31.240,   -7.116,  -18.853,  -20.836,
        7.513,   34.347,    2.733,    8.257,   33.527,  -29.442,  -93.311,
       -7.874,    5.882,    8.272,   12.043,    6.528,    5.165,   17.559,
        0.276,   11.643,    2.747,   -2.760,  -19.033,  -38.032,    8.910,
       14.320,  -14.176,   53.839,  -53.344,   27.412,  -10.234,   -0.484,
      -12.789,   21.992,   15.971,    3.210,  -15.887,   15.397,  -14.921,
       -4.046,   -3.451,   46.290,  -45.546,  -12.238,  -20.729,  -17.744,
      -17.679,   -5.308,   -9.477,  -60.910,   28.537,   34.248,    4.396,
      -13.148,   -0.714,    6.918,  -12.261,   -6.337,   44.689,   57.501,
        5.637,   11.527,   36.876,   34.150,   -2.564,   -2.392,    6.923,
      -37.494,   19.982,   35.752,   -2.865,  -23.714,    5.109,  -11.610,
       44.675,   -7.876,   24.283,   20.086,  -18.433,    4.657,   46.710,
       47.981,  -19.693,  -31.625,   42.502,  -13.952,   17.943,    8.287,
        2.181,    1.356,   -9.590,  -17.745,   14.110,    7.627,   34.668,
      -14.400,  -11.178,    6.252,   -3.671,  -16.081,  -37.224,   14.316,
      -15.832,   39.152,   13.248,  -22.058,  -15.153,   16.330,    3.664,
      -25.159,   -8.878,  -32.890,   -1.105,   33.128,   -4.008,  -16.203,
       -6.111,  -21.414,  -56.927,   11.449,    0.460,   -4.035,  -24.318,
        0.638,   13.342,   14.347,  -12.245,   35.913,  -11.129,  -16.737,
       38.504,  -16.039,   28.468,  -21.309,    7.316,   18.831,   -5.891,
      -11.481,   27.538,  -14.603,  -25.058,  -43.684,    3.884,    3.342,
       22.640,   -2.265,   -4.693,  -32.578,   -7.845,    4.864,   -9.928,
      -13.899,  -14.978,    0.360,  -39.531,  -11.415,   18.618,   24.245,
      -15.003,   18.398,  -29.732,    2.523,    1.236,   21.526,  -20.726,
      -12.438,   -9.744,   10.868,   -1.957,  -21.145,    9.113,  -36.800,
      107.478,  -13.071,  -36.889,   29.124,   11.025,    3.178,   -0.724,
       18.961,   -8.067,  -10.127,    8.957,   -1.095,    3.208,    2.200,
      -60.221,  -43.723,   49.466,   -1.366,  -48.073,    4.568,   24.326,
       -0.226,    1.768,   16.934,   -0.966,   19.128,   27.888,    2.660,
        5.356,  -67.063,    7.074,  -43.055,   16.638,    8.294,   -2.710,
       -5.923,  -32.695,   13.483,   13.394,   28.394,   -4.492,   11.887,
        3.586,   64.049,    3.671,   -6.726,   -2.914,    3.152,  -16.944,
       30.096,  -23.948,  -45.153,   20.087,  -21.317,  -41.223,   10.354,
      -20.921,   12.862,   -8.136,    7.819,   -5.287,   -7.212,    9.897,
       11.221,  -42.050,  -11.195,   17.412,  -57.044,  -11.047,  -16.030,
       34.338,   -9.746,  -25.468,    5.602,   -7.242,   20.320,    3.918,
       22.568,    0.160,   13.518,  -45.156,   -8.489,   15.114,   58.870,
        8.910,   12.926,   14.002,  -11.317,   22.549,   13.447,   30.843,
       -8.179,    5.208,    4.763,    7.567,    9.305,    2.734,    4.146,
       -5.062,   -0.078,   13.622,   -6.979,   -0.872,  -72.791,  -23.744,
       25.871,   13.012,  -22.510,  -13.126,  -13.950,   33.379,   -7.967,
       34.496,  -25.574,   -7.147,   -8.551,   17.893,  -24.004,    7.600,
       -9.598,    1.091,    5.591,  -12.745,  -21.593,   -8.072,   -0.532,
      -89.991,    9.088,   11.732,   -4.467,   -8.158,   35.546,   -4.525,
       -7.681,    7.888,  -39.167,   -0.475,   24.710,   37.041,    5.531,
       48.330,   -0.430,   20.582,   28.512,   -7.655,   11.609,  -14.639,
       16.067,   27.555,   54.138,   15.995,   49.389,  -22.972,   -1.123,
        7.839,   11.536,  -11.404,   -3.762,   -9.605,   46.979,  -26.803,
       -3.853,   -0.238,    0.899,   -0.124,   -0.421,    0.666,    0.861,
        0.712,    1.227,   -0.652,    0.597,    0.618,    0.478,    2.090,
       -0.955,   -0.892,   -0.535,    0.709,    0.596,   -0.709,   -0.686,
        0.701,   -0.557,    0.586,    0.704,   -0.623,    0.646,    0.795,
        1.694,   -0.698,   -0.862,    0.631
    },
    { -57.228,   30.433,  -11.672,    2.391,   23.087,   41.705,    4.313,
       19.296,  -33.662,   15.086,   12.059,    0.131,   -3.401,  -25.180,
      -23.500,   -4.087,   -1.457,  -19.248,   53.085,  -25.006,  -12.336,
        5.293,  -11.423,   -6.217,   -6.699,  -40.324,   62.085,   21.351,
       40.052,  -15.627,  -18.810,  -17.411,   32.908,    5.996,  -13.130,
       16.458,   -4.929,    7.569,   24.523,   20.740,   12.849,  -41.319,
       23.699,   12.187,   12.376,    7.110,   14.645,  -16.086,   16.458,
       40.852,   -0.775,   -3.148,  -18.341,    0.741,  -22.268,   55.900,
       10.502,    9.331,  -11.566,  -11.759,  -14.430,  -14.249,  -23.351,
      -13.465,  -11.778,    1.102,  -17.690,   -5.808,  -15.807,    2.979,
       10.710,  -11.284,   98.557,   13.716,    3.080,   -4.938,   -3.636,
       33.736,    8.889,  -21.644,  -25.520,    0.366,   21.116,    5.780,
        7.641,   11.290,   33.063,  -50.321,   52.526,   24.114,   -4.657,
       19.979,  -17.767,   17.521,    2.123,  -34.508,   10.658,   22.130,
       20.086,   15.640,    0.992,  -34.777,  -15.501,    0.963,  -27.033,
       -8.240,   -3.273,  -39.659, -123.902,   12.473,    7.449,  -28.447,
       -2.646,   13.566,  -19.795,  -39.836,  -10.079,   31.460,  -11.403,
        3.770,   42.096,  -14.453,   24.590,  -19.310,   19.924,    3.277,
       15.568,  -21.595,  -12.156,   -0.167,  -17.467,   50.625,   -3.434,
      -18.801,  -22.377,   -2.428,    8.650,  -18.260,   -4.054,   14.417,
       25.726,   12.925,    2.214,   26.066,   14.475,    0.604,   42.476,
        1.792,  -12.535,  -17.858,    0.168,   25.604,   16.765,   -1.458,
       13.247,    5.840,  -19.007,    0.746,  -15.633,    7.233,   26.739,
      -43.483,    6.488,  -33.819,   -9.236,   12.388,   36.347,   -6.721,
        0.110,   30.777,   11.467,    6.650,   56.730,  -24.822,   -2.741,
       23.469,  -20.052,  -30.101,  -22.147,   -8.735,  -41.015,  -11.433,
       -4.777,   -6.144,  -20.996,   20.071,  -17.053,   -4.970,   23.919,
      -17.527,  -11.073,    9.640,   -8.370,  -18.448,  -17.383,  -21.307,
       37.002,   19.233,  -99.131,   22.402,  -28.962,   13.870,   12.711,
       11.006,    9.650,   26.159,   23.640,   -6.925,  -11.313,  -17.816,
       17.406,   31.803,    3.501,   10.518,   31.768,  -29.183,  -97.935,
      -10.194,    8.658,    6.452,   14.724,    7.935,    6.757,   18.667,
       -1.297,   11.521,    3.950,   -4.719,  -19.509,  -30.437,    6.880,
       17.080,  -15.518,   56.350,  -55.134,   27.628,  -12.604,   -0.652,
      -14.074,   25.093,   18.175,    3.071,  -19.120,   17.651,  -17.969,
       -2.485,   -2.836,   56.417,  -39.746,  -12.931,  -23.276,  -19.235,
      -18.849,   -8.232,   -0.933,  -57.525,   28.670,   26.579,    3.953,
      -13.409,   -4.484,    3.290,   -9.894,   -5.440,   41.001,   53.030,
        5.534,   18.345,   36.425,   27.423,   -4.839,   -0.557,    3.911,
      -30.123,   22.302,   28.951,    1.206,  -21.898,    8.459,  -10.779,
       36.188,   -5.247,   27.813,   21.019,  -24.026,    4.169,   44.072,
       35.848,  -18.144,  -31.920,   42.183,  -12.316,   15.358,    7.206,
        1.543,    5.040,   -8.041,  -17.489,   10.958,    7.697,   33.654,
      -11.832,   -6.399,    6.706,   -3.748,  -17.073,  -39.963,   16.828,
      -14.352,   40.812,    5.331,  -22.061,  -19.298,   23.098,    0.514,
      -26.859,  -16.593,  -37.636,   -0.354,   43.595,    2.669,  -18.177,
       -2.080,  -22.318,  -57.786,    3.343,    0.903,   -6.490,  -24.815,
       -3.698,    8.594,   20.546,   -5.461,   31.871,  -12.480,  -22.614,
       40.914,   -1.112,   33.178,  -20.743,    2.025,   21.409,   -5.821,
      -10.239,   26.164,  -12.228,  -26.256,  -41.637,    3.348,    4.347,
       24.357,   -1.656,   -6.461,  -30.594,   -7.180,    4.533,   -7.274,
      -14.624,  -15.927,    0.782,  -41.940,  -15.092,   30.689,   28.404,
       -2.245,   15.337,  -29.052,    2.380,    0.797,   25.579,  -28.403,
      -12.020,   -7.534,    1.082,    0.986,  -34.676,    7.100,  -37.700,
      101.527,  -13.732,  -43.809,   23.306,   17.592,    7.141,    1.725,
       19.613,   -4.551,   -2.659,    3.065,    3.704,   -3.232,    0.078,
      -52.921,  -42.204,   46.273,   -1.815,  -51.103,    4.502,   26.814,
        0.497,    0.225,   14.754,   -2.682,   22.355,   27.553,    2.215,
        8.953,  -65.996,    7.668,  -46.684,   12.616,    5.743,   -6.453,
       -7.942,  -30.802,   14.433,   13.402,   30.615,   -5.694,    8.884,
        5.439,   63.227,    5.019,   -4.249,   -0.815,    3.098,  -17.822,
       29.902,   -8.222,  -45.532,   20.232,  -22.306,  -36.497,    9.379,
      -17.899,   11.621,   -7.423,    7.789,   -7.146,   -6.566,    8.522,
        9.848,  -35.647,  -11.348,   15.180,  -54.060,   -2.954,  -14.299,
       31.309,   -9.712,  -29.334,    3.839,   -6.885,   21.488,    2.945,
       22.219,    0.506,   14.300,  -49.125,   -9.082,   14.750,   63.711,
        9.108,   11.585,    9.846,  -14.437,   23.620,   19.107,   35.545,
       -9.564,    5.202,    5.028,    9.037,    8.757,    3.665,    5.224,
       -3.366,    1.485,   13.123,   -9.987,   -1.098,  -82.068,  -38.660,
       30.716,   14.595,  -28.082,  -12.290,  -14.656,   34.769,  -10.771,
       35.183,  -28.461,   -7.656,  -12.188,   22.246,  -27.672,    7.971,
      -11.682,   -0.714,    3.744,   -8.455,  -24.183,   -8.466,    0.879,
      -93.611,    9.961,   11.388,   -3.974,   -9.948,   37.641,   -2.335,
       -6.450,    9.193,  -41.304,   -3.334,   25.157,   35.742,    0.881,
       46.638,   -2.818,   21.925,   29.690,  -12.449,   10.775,  -18.598,
       17.399,   32.914,   56.288,   17.255,   45.947,  -20.557,   -4.906,
       11.302,   10.618,   -9.798,  -20.003,   -5.268,   54.987,  -29.286,
       -1.107,   -0.274,    0.979,   -0.147,   -0.507,    0.617,    0.766,
        0.586,    1.256,   -0.676,    0.656,    0.503,    0.389,    1.697,
       -0.787,   -0.885,   -0.466,    0.691,    0.703,   -0.549,   -0.745,
        0.750,   -0.538,    0.641,    0.779,   -0.603,    0.734,    0.758,
        1.695,   -0.624,   -0.714,    0.544
    },
    { -62.395,   32.065,  -10.304,    3.420,   21.611,   40.472,    3.804,
       23.362,  -36.998,   15.825,   10.965,    3.938,   -1.690,  -38.245,
      -16.702,   -0.081,   -1.935,  -20.764,   61.214,  -26.176,  -12.485,
        1.422,  -12.504,   -8.553,   -5.709,  -28.159,   58.082,   23.490,
       30.183,   -9.812,  -19.787,  -11.844,   31.602,    8.144,   -7.283,
       10.278,   -3.426,    6.971,   26.377,   19.372,   14.564,  -43.503,
       22.042,   12.780,   10.969,    6.567,   16.244,  -15.563,   18.429,
       50.429,    1.395,    0.345,  -18.144,   -1.683,  -15.929,   42.675,
        9.210,    8.492,   -7.793,  -10.115,  -10.222,   -6.099,  -15.189,
      -10.828,   -8.283,   -1.240,  -14.604,   -0.781,  -14.094,   -0.747,
        6.034,   -7.348,   98.019,   10.138,    3.593,   -6.521,   -6.483,
       33.501,    7.202,  -22.379,  -25.284,    1.267,   24.974,    5.518,
        8.261,    4.567,   32.799,  -47.031,   55.117,   26.376,   -3.283,
       16.646,  -20.186,   17.613,    2.156,  -26.672,    8.479,   27.141,
       17.179,   18.566,    0.741,  -36.131,   -8.265,   -3.285,  -29.385,
       -8.625,   -0.464,  -38.033, -115.877,   13.344,    4.244,  -27.930,
       -1.966,   12.816,  -18.993,  -47.315,   -7.361,   27.369,   -4.924,
        6.842,   37.094,  -13.528,   26.396,  -15.514,   17.982,    5.686,
       19.584,  -21.369,  -13.726,    1.715,  -17.340,   57.561,   -5.443,
      -17.569,  -27.076,   -1.412,    6.869,  -20.529,   -2.515,   26.089,
       22.173,   10.337,    1.986,   28.644,   17.522,    0.051,   45.023,
        4.933,   -6.740,  -16.907,   -2.571,   19.679,   16.505,    3.621,
       17.767,    2.693,  -19.940,    0.042,   -4.759,    3.894,   22.844,
      -40.523,    1.843,  -36.937,   -9.556,   13.514,   35.578,   -7.501,
        1.237,   25.108,   13.578,    6.059,   48.482,  -22.608,   -4.481,
       16.533,  -24.614,  -33.017,  -17.831,   -9.721,  -42.323,  -19.150,
       -0.663,   -4.597,  -18.651,   21.081,  -14.845,   -5.654,   23.780,
      -21.996,  -11.294,   13.390,   -6.224,   -9.718,  -18.017,  -20.190,
       37.461,   17.805,  -95.992,   20.552,  -28.373,   11.934,   11.933,
       11.706,   12.748,   28.096,   24.510,   -5.772,  -15.455,  -19.558,
       16.072,   30.758,   -0.299,   10.192,   31.492,  -28.627,  -92.371,
      -17.533,    8.985,    6.912,   15.875,    3.773,    5.574,   17.628,
       -1.180,   10.607,    3.305,   -1.454,  -16.602,  -13.885,   -3.505,
       17.960,  -14.088,   52.293,  -59.225,   30.024,  -12.421,   -0.456,
      -13.814,   25.008,   18.754,    2.358,  -18.374,   16.845,  -16.825,
       -2.646,   -3.207,   52.281,  -51.955,  -12.716,  -22.567,  -19.440,
      -14.115,   -9.702,    4.059,  -53.909,   25.089,   25.080,    3.700,
      -17.668,   -2.097,    8.220,   -7.158,   -8.673,   37.591,   50.791,
        0.279,   21.462,   36.374,   29.355,   -5.873,    3.835,    0.840,
      -26.922,   13.619,   30.942,    0.204,  -17.910,    2.580,  -10.829,
       29.626,   -5.710,   22.815,   12.520,  -24.278,   -0.318,   35.140,
       28.677,  -16.967,  -28.861,   43.241,  -13.283,   16.314,    5.474,
       -0.022,    3.920,  -11.013,  -15.306,   12.410,    8.459,   31.359,
       -5.383,   -7.883,    5.012,   -3.532,  -16.166,  -41.614,   14.311,
      -14.340,   44.455,   11.992,  -22.200,  -16.373,   22.244,    1.847,
      -30.728,   -9.197,  -45.574,   -2.319,   46.438,    6.088,   -6.340,
       -2.700,  -30.746,  -47.412,    1.621,   -2.252,   -4.651,  -21.103,
       -0.201,    9.912,   17.759,   -4.365,   27.061,   -9.099,  -20.265,
       35.797,    4.120,   25.142,  -17.290,    0.648,   18.873,   -4.755,
      -11.946,   28.266,  -14.866,  -28.536,  -45.180,    2.694,    4.445,
       24.058,    0.099,   -5.693,  -30.557,   -8.222,    3.603,   -5.087,
      -16.186,  -18.138,   -0.732,  -48.048,  -23.435,   34.972,   26.938,
       -1.669,   17.290,  -35.825,   -6.023,    0.142,   31.431,  -26.183,
       -7.298,   -9.814,   -4.951,    7.437,  -40.520,    3.057,  -36.023,
      106.361,  -12.035,  -41.117,   21.180,   13.367,    2.661,   -0.622,
       20.672,   -1.962,   -6.415,    0.715,   -1.546,   -1.876,    3.054,
      -49.960,  -42.861,   47.061,   -2.904,  -52.502,   -4.096,   23.794,
        0.372,   -0.268,   17.722,   -0.827,   22.226,   28.407,    2.443,
        4.905,  -68.688,    4.881,  -30.932,   -3.098,    6.890,   -6.630,
       -3.043,  -32.531,   17.488,   13.909,   32.021,   -8.122,   11.795,
        7.646,   68.575,    2.077,   -2.706,    0.786,    2.854,  -18.377,
       21.648,    2.766,  -50.853,   22.722,  -27.876,  -36.282,   10.077,
      -17.994,    9.693,   -7.058,    5.796,   -6.123,   -5.087,    9.506,
        8.333,  -36.444,  -10.110,   13.986,  -53.685,   -2.965,  -13.426,
       32.980,  -11.068,  -26.208,    4.822,   -6.663,   19.202,    5.302,
       20.920,   -0.109,   12.615,  -49.435,   -8.911,   15.898,   64.411,
        8.959,    9.200,   20.343,  -13.039,   20.484,   19.593,   38.584,
      -11.092,    5.892,    4.222,    8.400,    9.933,    4.367,    9.099,
       -3.196,    3.257,   11.237,  -10.139,   -0.269,  -85.352,  -42.583,
       31.606,   15.484,  -27.560,  -15.089,  -13.819,   35.143,  -12.659,
       36.417,  -29.254,  -11.529,   -9.090,   22.399,  -29.624,    5.516,
       -9.365,    0.150,   -0.326,    0.416,  -20.950,   -8.734,   -1.497,
      -86.470,    8.230,   12.409,   -5.739,   -3.383,   38.648,   -3.946,
       -8.891,    8.434,  -38.193,   -8.533,   24.167,   33.037,   -4.526,
       51.621,  -10.050,   23.942,   32.251,   -9.167,   13.805,  -18.419,
       18.307,   31.857,   54.139,   17.879,   46.920,  -21.535,   -4.646,
       16.451,   11.538,   -8.825,  -25.989,   -1.340,   56.084,  -24.762,
       -6.750,    0.069,    0.852,   -0.307,   -0.429,    0.545,    0.849,
        0.514,    1.174,   -0.728,    0.631,    0.592,    0.423,    2.451,
       -0.926,   -0.943,   -0.457,    0.589,    0.591,   -0.661,   -0.821,
        0.757,   -0.484,    0.610,    0.777,   -0.685,    0.721,    0.755,
        1.738,   -0.626,   -0.732,    0.661
    },
    { -66.037,   38.070,   -9.809,    3.381,   25.161,   48.103,    3.187,
       22.319,  -41.102,   17.348,   12.316,    0.172,   -2.189,  -40.630,
      -10.161,   -4.592,   -1.643,  -21.874,   61.024,  -28.410,   -8.877,
        3.987,  -30.411,   -2.210,  -12.574,  -26.944,   58.412,   14.336,
       28.407,  -19.613,  -21.413,  -13.018,   22.019,    6.974,   -9.348,
       10.256,    0.928,    7.054,   20.452,   20.932,   12.243,  -42.562,
       24.254,    9.159,   12.681,    7.866,   14.438,  -14.176,   17.400,
       57.920,    4.317,    0.983,  -15.915,    1.759,  -11.010,   31.110,
        7.247,    9.365,   -4.722,   -7.368,   -9.269,   -6.929,  -13.393,
       -5.205,   -6.503,   -2.044,  -10.865,    4.973,    0.031,   -0.354,
        1.948,   -7.756,   98.739,   10.322,    4.776,   -5.666,   -4.502,
       31.226,    7.501,  -22.733,  -26.616,   -0.010,   20.638,    4.765,
        9.737,    4.873,   32.084,  -56.452,   52.705,   29.279,   -6.162,
       14.862,  -23.857,   18.768,    6.170,  -27.572,    6.140,   27.240,
       17.502,   18.083,   -3.905,  -35.526,  -13.097,    2.665,  -38.710,
       -8.980,   -8.247,  -37.474, -111.492,   10.177,    5.921,  -27.716,
       -0.826,   12.857,  -16.035,  -38.365,   -8.561,   26.719,   -9.297,
        5.651,   37.147,  -22.356,   24.555,  -16.924,   17.382,    4.356,
       25.146,  -27.081,  -17.900,    0.639,  -26.751,   68.722,   -4.868,
      -23.762,  -31.888,   -1.223,   10.202,  -23.712,   -2.864,   28.692,
       25.979,   14.915,    2.163,   34.033,   18.188,   -2.136,   47.763,
        2.746,  -10.344,  -19.469,   -0.646,   25.227,   19.517,    1.888,
       15.493,    6.695,  -19.532,    0.445,   -7.124,    9.201,   27.757,
      -46.176,    3.002,  -32.615,   -6.664,    9.735,   32.573,   -6.864,
       -2.578,   25.790,    9.383,    5.713,   52.495,  -21.362,   -2.645,
       17.239,  -21.494,  -26.681,  -17.664,   -9.059,  -47.804,  -24.006,
        1.062,   -6.957,  -20.238,   20.384,  -17.831,   -2.869,   22.517,
      -23.653,  -11.886,   12.102,   -8.837,   -5.380,  -31.330,  -18.004,
       39.624,   19.954,  -98.935,   26.749,  -22.937,   10.105,   13.851,
       11.001,   14.425,   30.066,   28.672,   -5.705,  -16.030,  -28.839,
       14.092,   32.806,   -3.639,    5.764,   30.192,  -30.080,  -84.827,
      -15.677,    6.592,    6.090,   12.548,    5.007,    6.601,   15.980,
       -1.543,    9.934,    2.662,   -1.705,  -16.082,  -13.607,   -6.144,
       17.510,  -13.130,   48.897,  -65.197,   30.446,  -12.977,   -1.236,
      -14.916,   25.585,   19.162,    3.356,  -18.603,   18.865,  -16.315,
       -3.085,   -3.505,   50.853,  -60.342,  -13.908,  -23.720,  -21.814,
      -16.434,   -8.058,    1.432,  -58.029,   23.388,   25.984,    4.651,
      -15.655,    0.552,    3.553,   -4.594,   -5.600,   41.477,   63.906,
       -1.256,   26.574,   35.281,   29.184,   -4.904,   -1.363,    2.106,
      -21.551,   14.460,   24.218,    0.514,  -13.001,    2.567,   -8.019,
       26.841,   -5.594,   15.525,   12.536,  -24.230,    0.831,   23.971,
       27.835,  -19.159,  -28.347,   47.056,  -11.163,   18.243,    4.446,
        3.596,    4.315,   -8.347,  -14.053,   13.384,    5.458,   33.191,
      -10.828,  -11.464,    6.936,   -0.181,  -18.348,  -36.418,   15.656,
      -10.047,   46.081,   20.525,  -21.217,  -16.125,   19.895,   -2.111,
      -27.964,  -13.662,  -43.461,   -3.872,   51.437,    4.071,  -14.690,
       -1.596,  -34.314,  -47.486,    4.096,   -1.712,   -5.653,  -16.321,
        0.310,   11.599,   17.025,   -6.502,   27.826,  -11.462,  -19.139,
       31.905,    4.369,   14.488,  -13.590,    7.431,    7.585,   -7.874,
      -13.118,   32.218,  -15.126,  -30.938,  -47.908,    4.092,    2.037,
       26.358,   -1.758,   -5.257,  -34.946,   -8.142,    5.032,  -11.857,
      -11.465,  -14.513,   -0.475,  -55.181,  -21.067,   37.402,   29.651,
       -1.191,   16.367,  -39.993,   -6.625,    4.118,   38.211,  -25.884,
       -7.081,  -10.910,   -4.026,    5.792,  -35.938,    2.715,  -42.860,
      111.822,  -12.580,  -38.484,   22.657,   16.448,    6.232,    3.464,
       23.101,   -7.204,   -2.011,    3.838,    5.730,   -3.770,   14.072,
      -45.546,  -47.285,   47.213,   -1.682,  -48.410,    1.885,   22.856,
        1.862,   -4.385,   19.293,   -0.217,   22.723,   25.230,    1.510,
        2.796,  -66.152,    4.746,  -23.056,   -8.346,    2.975,   -3.559,
       -6.056,  -33.519,   11.028,   13.863,   30.543,   -9.794,   10.667,
        2.213,   62.400,    1.634,   -2.806,    0.834,    1.852,  -20.368,
       15.072,    0.154,  -45.455,   24.811,  -22.839,  -37.279,    9.588,
      -20.432,   11.400,   -6.839,    6.710,   -7.102,   -5.505,    9.866,
       10.084,  -37.265,   -9.983,   16.330,  -49.779,   -8.369,  -12.316,
       33.854,  -11.558,  -20.628,    2.034,   -5.179,   15.995,    4.929,
       18.967,    0.519,   11.121,  -41.535,   -8.284,   12.469,   50.404,
        6.715,   14.351,   19.726,   -9.054,   19.180,   10.662,   34.016,
       -9.025,    6.042,    4.700,    8.146,    7.839,    3.588,    5.228,
       -5.572,    1.566,   16.481,   -6.907,   -2.080,  -79.867,  -37.518,
       29.861,   15.261,  -25.741,  -12.393,   -9.566,   37.710,   -9.727,
       31.469,  -29.329,   -9.525,  -10.257,   17.135,  -24.064,    5.059,
      -10.895,    0.144,    4.856,   -3.003,  -20.772,  -10.853,    3.799,
      -86.091,    9.958,   11.995,   -6.725,   -5.986,   37.664,   -6.556,
       -9.139,    7.733,  -36.495,   -8.130,   23.677,   29.873,   -8.304,
       53.377,   -7.307,   27.128,   26.228,  -12.857,   13.413,  -16.227,
       17.716,   25.013,   49.368,   15.623,   43.252,  -21.020,   -4.172,
       15.057,   10.234,   -8.412,  -22.379,   -0.641,   52.604,  -22.478,
       -6.170,   -0.429,    0.859,   -0.169,   -0.417,    0.631,    0.805,
        0.535,    1.295,   -0.713,    0.644,    0.536,    0.467,    1.841,
       -0.838,   -0.886,   -0.447,    0.535,    0.575,   -0.616,   -0.746,
        0.774,   -0.557,    0.688,    0.617,   -0.628,    0.709,    0.743,
        1.855,   -0.530,   -0.779,    0.529
    },
    { -68.736,   37.570,  -11.152,    3.303,   25.957,   50.063,    4.639,
       25.040,  -43.243,   15.852,   15.207,    3.434,   -3.338,  -37.006,
       -9.867,   -2.723,   -3.514,  -23.173,   55.575,  -30.271,  -12.795,
        8.453,  -36.035,   -6.351,  -12.271,  -18.198,   64.100,    9.547,
       32.477,  -20.142,  -21.386,   -5.680,   17.755,   -0.341,  -18.241,
       12.728,    5.853,    8.606,   21.800,   20.867,   10.047,  -38.275,
       23.242,    4.361,    9.729,   10.415,   16.799,  -13.541,   18.723,
       65.034,   14.921,    1.278,  -14.712,    4.257,  -14.939,   39.767,
        7.559,   13.286,   -4.800,  -10.106,   -9.359,   -8.102,  -14.864,
       -8.620,   -6.397,   -2.874,  -15.576,    1.933,    3.487,    0.152,
        2.954,  -11.965,  102.045,   10.764,    2.937,   -0.949,   -5.811,
       29.973,    8.760,  -19.305,  -24.187,    0.356,   20.058,    6.151,
        8.903,   11.715,   44.334,  -58.419,   50.633,   26.471,   -8.854,
       14.186,  -22.549,   17.044,    2.637,  -24.111,    7.835,   29.813,
       14.451,   15.384,   -4.598,  -30.082,   -9.357,    6.839,  -39.765,
      -11.009,   -7.391,  -38.626, -102.754,   12.097,    4.483,  -24.517,
       -0.986,   12.610,  -15.712,  -37.678,   -7.277,   25.260,   -4.248,
        5.201,   30.816,  -23.729,   26.813,  -13.819,   17.697,    3.195,
       22.659,  -27.960,  -16.014,    0.800,  -24.276,   69.963,   -6.450,
      -21.899,  -33.025,   -0.277,   11.152,  -24.608,   -3.168,   21.518,
       32.385,   15.327,    2.028,   35.498,   21.677,   -1.792,   52.660,
        3.094,  -10.034,  -21.564,   -0.330,   26.165,   20.396,    1.374,
       17.934,    6.885,  -21.989,    3.231,   -5.438,    8.820,   29.990,
      -51.017,   -0.434,  -31.239,   -6.445,   10.470,   35.521,   -6.200,
       -1.391,   28.173,    8.941,    7.260,   53.501,  -21.736,   -2.634,
       15.753,  -24.494,  -22.504,  -20.804,   -8.487,  -52.533,  -29.287,
        0.264,   -5.669,  -21.327,   22.676,  -15.908,   -3.761,   21.131,
      -19.225,  -14.821,    9.838,   -7.539,  -13.876,  -41.513,  -21.884,
       40.464,   19.668, -108.950,   23.430,  -17.642,   11.916,   13.478,
        5.055,   17.066,   28.906,   30.320,   -7.734,  -14.419,  -32.053,
       13.875,   33.108,   -4.222,    4.069,   28.678,  -22.369,  -79.342,
      -12.847,    6.011,    5.914,   12.960,    5.292,    4.075,   14.382,
       -1.415,   10.262,    1.522,   -1.111,  -15.717,  -17.631,   -1.262,
       12.102,  -12.839,   46.752,  -67.039,   31.834,  -16.388,    0.463,
      -17.251,   26.595,   25.408,    3.845,  -15.767,   18.644,  -21.081,
       -4.294,   -5.403,   58.778,  -57.698,  -18.229,  -30.665,  -18.149,
      -12.086,   -6.750,   -0.124,  -55.962,   26.318,   23.126,    2.216,
      -13.914,    2.698,    1.765,   -6.876,   -6.167,   37.271,   78.006,
       -4.432,   25.882,   36.253,   22.976,   -6.559,    4.559,    2.478,
      -22.598,   13.076,   23.349,    1.708,  -16.070,    5.461,   -7.135,
       25.413,   -6.161,   15.199,    5.076,  -22.664,    0.801,   28.137,
       27.364,  -25.698,  -25.899,   55.193,  -13.655,   18.015,    7.551,
        2.320,    6.558,   -9.395,  -17.146,   20.431,    7.116,   41.141,
      -18.719,  -19.571,    8.385,   -5.220,  -24.721,  -45.828,   15.262,
      -13.663,   51.613,   22.729,  -20.857,  -13.909,   21.582,   -0.619,
      -28.072,  -13.459,  -45.872,   -5.943,   43.452,   -6.195,  -11.818,
        3.688,  -39.824,  -52.054,    5.284,   -0.535,   -7.738,  -14.752,
       -1.294,   10.457,   20.132,  -11.063,   29.300,  -14.310,  -23.645,
       37.996,    2.347,   17.483,  -21.485,    5.960,   13.466,   -7.101,
      -13.501,   35.758,  -14.026,  -31.079,  -53.546,    7.659,    4.658,
       29.156,   -0.285,  -10.586,  -41.415,   -7.076,    8.263,  -11.226,
      -17.987,  -18.376,    0.308,  -54.418,  -19.992,   33.383,   30.836,
       -0.396,   16.721,  -35.662,   -5.490,    3.060,   37.210,  -25.767,
       -6.252,  -11.770,   -3.278,    2.582,  -36.089,    2.462,  -42.286,
      111.881,  -16.589,  -42.367,   25.288,   14.689,   12.668,    1.072,
       23.080,   -3.554,   -3.143,   -1.124,   -3.560,   -5.758,   21.748,
      -51.196,  -47.530,   44.561,   -0.775,  -48.458,   -0.946,   25.243,
        2.310,    0.354,   16.374,    2.277,   19.525,   24.761,    1.138,
        5.347,  -67.071,    5.628,  -19.347,   -9.430,    9.560,   -3.984,
       -4.888,  -29.024,   11.176,    9.179,   24.214,   -6.668,    7.774,
        0.237,   55.829,    6.689,   -2.789,    1.657,    4.083,  -16.633,
       21.191,   -7.597,  -41.307,   19.011,  -21.330,  -34.982,    9.897,
      -20.166,   12.304,   -6.571,    7.441,   -8.206,   -8.173,    9.961,
       11.187,  -38.644,  -10.784,   17.105,  -44.631,  -10.748,  -14.402,
       36.373,  -12.806,  -22.748,   -1.376,   -4.622,   15.278,    3.706,
       17.185,    2.198,    9.220,  -40.619,   -7.127,   11.943,   48.464,
        7.448,   15.063,   10.497,   -7.946,   16.272,   12.868,   35.812,
       -9.227,    4.698,    3.128,    8.556,    8.810,    3.664,    4.140,
       -1.520,   -0.170,   13.873,   -9.540,   -1.150,  -71.546,  -33.435,
       28.857,   14.522,  -26.683,  -14.283,  -16.016,   36.365,   -8.121,
       32.299,  -29.321,   -7.555,   -4.912,   18.083,  -21.613,    0.954,
       -9.823,    0.457,    3.155,   -3.589,  -20.323,  -11.483,    0.029,
      -87.783,    6.910,    9.797,    0.858,   -2.909,   42.192,    0.244,
      -10.255,    4.007,  -35.498,   -7.003,   20.857,   30.159,  -11.130,
       46.672,   -4.591,   24.171,   22.662,   -3.346,   10.544,  -15.900,
       14.433,   27.520,   42.717,   13.028,   37.959,  -14.888,   -2.225,
       12.961,   11.698,   -7.380,  -20.342,    4.933,   44.404,  -23.146,
       -1.969,   -0.154,    0.928,   -0.261,   -0.490,    0.484,    0.844,
        0.422,    1.151,   -0.742,    0.748,    0.541,    0.397,    2.292,
       -0.999,   -0.973,   -0.596,    0.690,    0.496,   -0.608,   -0.709,
        0.768,   -0.508,    0.631,    0.651,   -0.699,    0.756,    0.625,
        1.732,   -0.582,   -0.694,    0.547
    },
    { -68.002,   36.986,   -9.236,    4.403,   26.026,   47.005,    2.407,
       24.432,  -44.555,   17.821,   12.995,    4.912,   -1.110,  -37.902,
      -13.466,   -5.919,   -2.742,  -22.058,   64.009,  -35.235,   -5.775,
       16.341,  -36.493,  -17.359,   -8.241,   -5.339,   66.497,    4.155,
       32.094,  -16.021,  -26.403,   -1.740,   18.702,   -4.970,  -29.747,
       11.780,    8.977,    2.455,   22.316,   19.136,   16.545,  -43.631,
       22.830,    2.573,    6.367,    8.413,   14.255,  -13.716,   16.650,
       73.274,   19.459,   -2.846,  -15.102,   10.973,  -16.319,   47.024,
        8.101,   12.933,   -4.568,  -11.351,  -13.003,  -12.781,  -14.148,
       -9.570,   -9.546,   -3.898,  -15.484,    0.088,   -2.190,   -4.211,
        1.288,   -8.636,  106.969,    8.669,    2.604,   -5.803,    1.961,
       33.645,    4.828,  -27.871,  -29.659,    0.077,   25.548,    7.542,
       10.373,   14.399,   57.832,  -54.760,   51.890,   26.465,   -6.447,
       17.710,  -14.294,   17.060,    2.278,  -34.802,   11.895,   22.399,
       22.278,   12.121,    3.473,  -35.883,  -14.196,   -1.075,  -33.809,
       -8.317,  -10.041,  -35.229,  -92.505,    8.734,    2.349,  -23.527,
       -2.176,   10.992,  -13.353,  -26.888,   -5.553,   23.076,   -5.171,
        1.745,   33.774,   -6.969,   23.826,  -11.949,   12.134,    3.021,
       23.436,  -25.150,  -18.416,    0.697,  -25.988,   64.715,   -5.908,
      -23.953,  -27.878,   -1.408,   14.116,  -22.965,   -2.007,   17.370,
       42.320,   15.926,    1.313,   33.585,   20.243,   -1.020,   52.735,
        4.078,   -9.939,  -21.540,   -2.855,   30.109,   22.395,    4.679,
       16.903,    5.674,  -21.892,    0.772,  -12.046,   11.150,   31.923,
      -52.226,    2.891,  -32.180,   -8.146,    8.953,   39.034,   -8.304,
       -2.396,   24.178,   10.045,    5.468,   52.977,  -19.873,   -0.475,
       12.826,  -25.365,  -24.350,  -22.378,   -6.301,  -56.142,  -23.868,
       -3.865,   -5.485,  -23.045,   21.256,  -16.531,    0.612,   26.857,
      -26.876,  -12.488,   15.468,  -10.986,  -19.103,  -44.273,  -21.977,
       43.870,   17.716, -102.525,   26.445,  -26.464,    9.355,   12.294,
       11.383,   10.974,   30.058,   31.402,   -5.842,  -15.462,  -26.216,
       11.328,   28.591,  -15.731,    1.353,   28.347,  -22.856,  -77.412,
      -14.193,    7.346,    7.250,   13.467,    4.388,    6.864,   15.529,
       -1.457,    9.862,    2.584,   -2.531,  -15.252,   -6.180,    5.757,
       16.046,  -12.290,   46.663,  -74.123,   38.662,  -20.222,   -0.334,
      -17.912,   32.642,   27.236,    4.840,  -21.548,   23.161,  -22.321,
       -3.187,   -5.774,   64.708,  -56.303,  -19.031,  -32.086,  -22.691,
       -7.684,   -6.427,   -0.342,  -51.902,   25.904,   20.571,   -0.027,
      -12.718,    5.176,   -0.215,   -2.769,   -6.975,   32.401,   81.628,
       -4.499,   29.350,   35.824,   18.032,   -6.121,    1.796,   -0.584,
      -27.374,   17.935,   30.393,    0.934,  -17.634,    7.375,  -10.779,
       28.888,   -5.408,   20.449,   10.395,  -30.361,    2.505,   33.566,
       31.430,  -24.270,  -30.099,   58.416,  -18.705,   18.073,    7.161,
        2.277,    5.286,  -15.827,  -27.209,   14.971,   13.738,   44.222,
      -18.482,  -14.619,    5.686,   -5.151,  -19.711,  -50.172,   18.477,
      -15.159,   48.235,   16.753,  -17.446,  -19.251,   20.177,    0.553,
      -30.134,   -9.350,  -50.537,   -7.955,   41.800,  -18.266,  -12.501,
       -1.465,  -40.541,  -58.220,    6.246,   -1.802,   -8.965,  -22.170,
       -0.004,    9.336,   23.204,   -8.972,   30.634,  -14.320,  -26.491,
       40.857,    3.824,   24.266,  -24.739,    7.467,   13.054,   -9.883,
      -15.466,   38.171,  -20.904,  -39.640,  -57.696,    3.691,    5.348,
       30.246,   -0.093,   -7.112,  -47.057,  -11.596,    7.231,   -5.047,
      -17.366,  -21.760,    0.973,  -46.814,  -22.453,   32.513,   27.584,
       -3.478,   14.921,  -36.508,   -5.943,    5.385,   32.346,  -24.538,
       -8.505,  -11.795,   11.059,    9.494,  -36.933,    3.834,  -38.895,
      106.140,  -13.314,  -36.166,   24.926,   17.873,    1.316,   -4.841,
       23.039,    1.693,   -3.828,    0.348,    1.846,   -1.092,   25.043,
      -56.124,  -39.915,   49.391,   -5.053,  -45.290,    1.317,   21.067,
        1.993,   -2.241,   21.451,    1.499,   21.866,   26.480,    1.470,
        2.913,  -67.676,    3.662,  -13.903,   -2.196,    4.760,   -1.322,
       -3.908,  -31.451,   12.555,   11.173,   26.475,   -5.686,    7.025,
        4.140,   56.595,    6.340,   -3.102,    1.505,    1.881,  -16.162,
       15.837,   -8.313,  -42.552,   19.656,  -24.945,  -32.977,   11.282,
      -17.876,   13.396,  -10.009,    6.476,   -4.281,   -3.714,    8.347,
        7.893,  -37.036,  -11.309,   16.822,  -35.724,  -12.585,  -13.494,
       33.045,  -12.108,  -21.775,    1.020,   -3.992,   14.932,    1.036,
       15.181,   -0.487,   10.675,  -39.096,   -5.847,    9.896,   49.025,
        8.343,   11.417,   11.370,  -10.015,   16.131,   12.610,   29.634,
       -6.781,    3.322,    3.712,    6.734,    9.554,    2.731,    1.899,
       -3.021,   -0.720,   12.025,   -8.768,   -1.221,  -68.529,  -26.031,
       25.327,   13.549,  -22.914,   -8.957,   -3.980,   35.697,  -10.443,
       37.054,  -28.868,  -11.549,   -3.464,   14.796,  -22.865,    2.309,
       -5.214,    0.187,    7.629,   -5.809,  -21.028,   -9.969,   -3.486,
      -83.797,   11.863,   13.165,   -3.041,   -7.400,   33.965,   -0.325,
       -8.137,    9.219,  -38.022,   -4.839,   21.128,   31.931,   -4.052,
       54.367,   -1.967,   22.057,   27.298,   -5.570,    9.542,  -13.281,
       13.172,   20.763,   38.647,   12.400,   37.336,  -14.894,   -2.855,
       10.974,    7.363,   -8.302,  -17.340,    3.946,   38.260,  -16.831,
       -5.351,   -0.089,    0.981,   -0.329,   -0.467,    0.575,    0.751,
        0.505,    1.208,   -0.657,    0.738,    0.570,    0.440,    1.949,
       -0.958,   -0.915,   -0.491,    0.698,    0.532,   -0.620,   -0.797,
        0.805,   -0.588,    0.471,    0.649,   -0.557,    0.710,    0.669,
        1.591,   -0.587,   -0.843,    0.586
    },
    { -65.364,   35.664,   -6.656,    3.307,   22.406,   44.762,    3.102,
       24.219,  -41.761,   17.150,   12.270,    2.404,   -1.931,  -45.612,
       -3.999,   -4.499,   -2.985,  -21.653,   72.237,  -36.158,   -1.235,
       21.317,  -39.375,   -8.595,  -15.172,   -1.792,   64.600,    9.680,
       33.109,  -16.861,  -33.222,   -3.759,   16.847,   -3.097,  -34.878,
       27.520,    7.528,    9.338,   33.042,   29.001,   19.353,  -47.809,
       31.395,    1.805,    4.858,   10.627,   19.645,  -20.776,   20.402,
       74.585,   18.846,   -5.716,  -21.908,   15.052,  -25.996,   51.671,
       12.128,   13.349,   -6.634,  -11.800,  -15.604,   -7.769,  -18.198,
       -9.311,  -10.346,   -4.883,  -16.752,  -10.232,  -14.648,    0.462,
       -0.564,  -11.094,  117.157,   11.428,    1.125,   -6.745,   -0.190,
       34.546,    5.022,  -22.731,  -25.423,    0.535,   33.215,    5.093,
       10.183,   19.234,   59.728,  -56.140,   54.592,   21.461,   -5.144,
       19.248,  -20.209,   19.017,    3.996,  -34.474,   11.177,   21.287,
       22.839,   13.711,    3.116,  -30.065,  -12.435,   -5.349,  -24.536,
       -5.547,   -1.828,  -36.687,  -89.298,   11.766,    3.353,  -26.568,
       -1.214,    6.572,   -6.283,  -27.086,   -5.261,   25.721,   -5.203,
        2.724,   31.671,    0.228,   21.929,  -13.901,   12.301,    5.651,
       21.114,  -23.931,  -14.613,    2.059,  -21.286,   61.779,   -3.873,
      -22.395,  -27.781,    0.430,    9.012,  -24.114,   -2.222,   17.375,
       34.954,   13.677,    1.854,   33.467,   22.427,   -4.191,   55.872,
        6.777,  -11.445,  -21.977,   -1.225,   30.876,   25.691,    4.382,
       18.487,    6.236,  -24.132,    0.842,  -14.454,    3.159,   28.976,
      -53.185,    1.823,  -33.838,   -9.329,    9.368,   33.508,   -7.655,
       -1.387,   27.448,   13.091,    4.187,   52.200,  -22.341,   -3.655,
       14.328,  -25.553,  -30.062,  -22.236,   -5.324,  -59.155,  -25.733,
       -0.752,   -9.310,  -25.471,   27.193,  -20.551,   -2.723,   24.572,
      -29.372,  -25.013,   12.840,  -12.832,  -16.853,  -35.689,  -26.482,
       50.124,   23.481, -101.321,   26.350,  -24.061,    9.910,   10.002,
       11.492,   15.686,   28.011,   24.576,   -6.909,  -19.418,  -25.261,
       13.846,   28.193,  -14.474,    3.809,   27.445,  -19.617,  -81.911,
      -14.651,    8.679,    6.678,   17.385,    5.245,    7.166,   16.879,
        2.255,   10.815,    6.569,   -5.830,  -15.354,    0.899,    3.467,
       18.223,  -16.200,   48.825,  -83.288,   37.598,  -23.101,    2.149,
      -22.693,   35.246,   27.938,    9.506,  -21.817,   26.705,  -24.139,
       -4.177,   -8.849,   66.076,  -57.038,  -18.653,  -42.919,  -23.067,
      -17.015,   -4.130,    0.136,  -47.897,   22.489,   20.858,    6.545,
      -13.586,    8.290,    6.992,    1.857,   -9.678,   35.278,   76.699,
       -0.251,   35.000,   27.432,   32.448,   -7.328,    8.707,    1.711,
      -30.518,   15.255,   37.232,   -0.301,  -20.649,    7.025,   -7.863,
       35.104,   -8.550,   20.674,    9.759,  -32.119,    0.328,   42.379,
       36.551,  -17.773,  -27.731,   56.041,  -16.891,   21.744,    8.061,
        2.881,    7.774,  -13.684,  -25.789,   22.331,   13.272,   47.704,
       -6.853,  -13.471,   16.392,   -9.772,  -24.390,  -46.059,   14.436,
      -15.799,   52.853,   18.232,  -14.391,  -17.011,   22.443,   -4.860,
      -28.593,  -10.011,  -45.620,   -8.503,   42.643,   -7.760,   -5.123,
        3.520,  -40.108,  -62.072,    5.523,   -2.126,   -9.983,  -21.803,
       -0.018,    9.616,   24.239,   -7.967,   30.832,  -16.445,  -26.757,
       44.727,    0.843,   21.681,  -26.531,    7.716,   17.030,   -5.392,
      -16.306,   33.796,  -14.685,  -30.347,  -54.706,    5.607,    4.491,
       30.132,   -0.799,   -7.306,  -40.790,  -10.458,    7.606,    2.867,
      -16.899,  -22.268,    2.285,  -45.427,  -15.455,   27.968,   28.497,
       -2.257,   15.407,  -34.882,    0.589,    0.883,   30.729,  -23.161,
       -6.564,   -6.695,   12.044,   17.521,  -40.450,   -1.530,  -42.093,
      107.005,  -10.625,  -44.090,   26.629,   14.018,    2.776,   -5.058,
       28.783,    1.127,   -8.410,    8.417,    5.376,   -2.349,   14.264,
      -57.343,  -39.690,   47.593,   -7.401,  -43.769,   -0.253,   23.126,
        2.801,    0.035,   18.744,    4.479,   21.295,   27.004,    2.004,
        0.848,  -66.625,    5.107,  -14.744,    7.828,    2.777,   -4.385,
       -3.511,  -35.884,   14.245,    8.715,   24.660,   -8.013,   16.058,
        6.134,   63.080,    0.363,   -1.653,   -4.179,    3.464,  -13.099,
        4.256,   -2.746,  -37.437,   21.163,  -22.622,  -32.819,   11.270,
      -19.979,   11.650,   -6.784,    8.500,   -5.315,   -2.559,    9.715,
        5.579,  -32.332,  -13.852,   14.684,  -27.930,  -20.883,  -10.082,
       27.799,   -9.463,  -20.667,   -1.869,   -4.391,   17.448,    3.530,
       16.083,    2.682,    9.046,  -37.103,   -7.071,    7.404,   47.220,
        7.323,    4.724,   15.133,   -9.306,   19.589,   12.774,   27.722,
       -5.636,    7.108,    3.452,    5.610,    5.374,    2.913,    6.075,
       -3.111,   -0.589,   12.197,   -6.442,   -0.376,  -67.617,  -19.913,
       24.681,   13.450,  -22.428,   -9.673,   -2.446,   37.027,  -11.542,
       38.136,  -29.792,  -10.855,   -6.768,   15.869,  -24.319,    2.992,
       -7.324,    0.901,    2.370,   -8.180,  -25.072,   -6.383,   -5.171,
      -88.642,   12.815,   11.270,   -0.831,   -8.192,   36.574,   -4.282,
      -13.056,    7.094,  -39.716,   -5.382,   25.291,   31.960,   -7.718,
       57.196,   -4.221,   25.393,   31.846,   -3.217,    6.077,  -12.256,
       13.292,   19.184,   37.678,   10.623,   33.094,  -15.850,   -2.208,
        9.616,    6.328,   -7.153,   -5.384,    0.768,   36.038,  -17.888,
       -2.896,   -0.352,    0.882,   -0.213,   -0.443,    0.581,    0.774,
        0.537,    0.990,   -0.644,    0.731,    0.556,    0.386,    1.773,
       -0.849,   -0.792,   -0.430,    0.717,    0.579,   -0.578,   -0.696,
        0.722,   -0.429,    0.519,    0.673,   -0.618,    0.702,    0.825,
        1.753,   -0.616,   -0.788,    0.524
    },
    { -64.206,   33.387,   -6.367,    3.225,   21.975,   44.539,    3.124,
       22.696,  -42.170,   16.195,   13.872,    3.989,   -3.618,  -43.282,
        0.183,   -0.240,   -4.706,  -19.283,   60.285,  -42.665,    0.167,
       19.914,  -34.276,   -0.189,  -12.124,  -10.858,   67.564,   18.150,
       37.570,  -18.284,  -29.016,    0.097,   19.797,   -1.257,  -27.186,
       44.422,    4.565,   12.668,   32.334,   29.422,    9.583,  -54.610,
       31.281,    6.702,    9.966,   12.885,   17.450,  -22.586,   19.924,
       73.483,   14.945,   -0.602,  -14.806,    8.963,  -24.769,   57.182,
       13.163,   11.465,   -9.945,  -10.662,  -16.059,   -9.449,  -16.146,
      -16.816,  -14.340,   -9.661,  -19.078,  -13.023,  -18.738,    5.328,
        8.907,  -12.115,  119.989,   10.426,    3.442,   -4.542,    2.820,
       35.604,    6.242,  -28.334,  -32.663,    0.199,   26.973,    8.162,
        9.844,   18.696,   58.216,  -64.081,   53.227,   33.213,   -7.430,
        8.801,  -15.992,   18.019,    3.812,  -34.359,   12.342,   20.766,
       20.617,   17.990,    4.419,  -32.194,  -12.119,  -13.559,  -12.004,
       -6.676,   -3.158,  -36.896,  -98.068,   14.006,    3.269,  -27.699,
       -1.022,    9.874,   -9.379,  -35.475,   -6.401,   23.401,   -2.093,
        3.032,   35.158,    3.751,   16.303,  -11.292,   15.165,    5.754,
       13.904,  -22.915,  -13.049,    0.529,  -17.877,   55.728,   -3.465,
      -21.369,  -23.743,    1.010,    7.516,  -21.859,   -2.743,    4.473,
       23.354,   13.375,    2.499,   28.239,   20.454,   -2.093,   55.195,
        5.275,  -12.828,  -23.004,   -1.196,   26.038,   21.405,    1.527,
       19.312,    5.783,  -23.478,   -1.535,  -15.798,    6.708,   28.268,
      -50.467,    5.630,  -34.034,   -9.574,   10.067,   33.550,   -6.964,
       -2.784,   28.593,   13.357,    3.771,   51.851,  -26.221,   -3.430,
        9.690,  -11.793,  -26.603,  -22.859,   -4.441,  -62.247,  -29.347,
        1.842,  -10.449,  -25.902,   22.949,  -17.400,   -4.139,   26.818,
      -30.101,  -26.689,   17.945,  -15.717,  -27.553,  -30.475,  -23.114,
       56.506,   26.061, -109.110,   26.918,  -21.285,   12.906,   10.550,
        8.579,   16.563,   30.235,   26.197,   -5.437,  -20.220,  -32.792,
       14.266,   32.353,  -10.510,    2.377,   26.094,  -19.513,  -89.912,
      -13.086,    9.795,    7.077,   17.094,    6.440,    7.801,   19.164,
        2.000,   10.911,    6.825,   -5.914,  -16.404,   -0.277,    9.182,
       24.162,  -17.745,   52.106,  -97.525,   42.840,  -29.339,    2.128,
      -24.924,   39.830,   33.793,    4.336,  -24.734,   30.085,  -23.238,
       -0.263,   -9.522,   68.395,  -55.935,  -25.087,  -52.995,  -23.326,
      -17.170,   -1.095,   -5.114,  -52.003,   31.644,   19.470,    7.620,
      -19.221,    6.233,   -0.245,    4.395,   -7.887,   33.426,   67.239,
       11.179,   20.514,   31.490,   34.004,  -11.518,    4.736,    0.278,
      -33.509,   18.403,   36.060,    3.671,  -24.260,    8.423,   -8.311,
       35.336,   -7.096,   20.593,    3.105,  -26.780,    0.294,   42.648,
       40.666,  -17.831,  -27.834,   49.292,  -16.250,   24.675,    9.467,
        2.727,    0.814,   -5.194,  -24.093,   23.297,    9.532,   46.980,
        2.396,  -13.306,    3.844,   -9.249,  -20.216,  -43.198,   13.778,
      -15.617,   48.136,   11.120,  -16.370,  -14.843,   23.737,    1.345,
      -24.602,  -10.996,  -45.728,   -3.994,   46.618,   -4.119,   -9.942,
       -3.599,  -33.030,  -62.255,    5.054,    0.941,   -5.658,  -23.149,
       -3.598,   10.342,   23.572,   -9.482,   32.327,  -14.677,  -25.400,
       43.772,    3.640,   18.451,  -24.859,    4.844,   17.936,   -4.270,
      -14.664,   33.839,  -19.782,  -31.489,  -51.484,    5.467,    2.714,
       27.246,   -0.715,   -2.684,  -34.098,  -10.597,   10.866,  -11.276,
      -13.626,  -20.566,   -0.914,  -37.232,  -14.930,   19.826,   25.675,
        1.188,   14.818,  -27.575,   -4.118,    0.986,   26.176,  -20.550,
       -3.107,   -6.183,    7.655,   16.818,  -34.470,   -0.797,  -32.150,
      108.553,   -9.190,  -45.386,   22.570,   10.831,    9.024,  -11.331,
       27.749,   -5.816,   -7.340,    9.180,    0.668,   -5.367,    1.754,
      -65.340,  -44.739,   47.555,    2.790,  -45.672,    0.258,   23.233,
        1.439,   -3.481,   19.084,    0.448,   22.952,   25.322,    0.321,
        1.607,  -67.335,    4.365,  -24.326,   15.234,    5.735,   -3.182,
       -3.629,  -38.923,   10.282,   10.216,   26.627,   -9.618,   10.140,
        3.992,   61.992,    2.010,   -3.153,   -4.328,    7.045,  -15.584,
        3.583,  -11.057,  -40.336,   23.075,  -21.954,  -31.492,    9.943,
      -15.933,   10.821,   -6.626,    5.416,   -3.351,   -2.329,    7.803,
        7.949,  -25.522,   -7.668,   13.636,  -31.608,  -28.284,   -7.203,
       24.278,  -10.671,  -22.896,   -0.342,   -5.332,   17.739,    4.992,
       19.128,    0.685,    8.674,  -40.940,   -5.890,    8.736,   49.186,
        8.871,    0.589,   21.420,  -10.654,   19.120,   13.954,   28.513,
       -6.911,    4.704,    3.555,    4.340,    7.465,    4.348,    5.425,
       -2.300,   -0.359,   11.574,   -7.948,   -1.617,  -68.671,  -26.926,
       24.952,   14.503,  -21.562,   -7.895,   -3.835,   38.689,  -11.493,
       41.409,  -29.866,  -11.794,   -9.982,   18.388,  -22.555,    4.909,
       -9.179,    1.648,    7.571,   -3.813,  -22.002,   -7.429,   -3.086,
      -88.303,   11.619,    9.860,   -0.847,   -9.422,   36.029,   -2.682,
      -11.268,    7.103,  -37.672,   -2.895,   25.627,   33.573,   -3.692,
       48.091,   -5.776,   21.124,   31.214,   -2.145,    5.719,  -13.851,
       13.455,   22.550,   41.176,   13.741,   34.576,  -16.119,   -3.630,
        9.649,    7.812,   -5.294,    0.916,    7.191,   37.836,  -21.826,
       -1.331,   -0.143,    0.845,   -0.265,   -0.428,    0.534,    0.790,
        0.635,    1.244,   -0.631,    0.832,    0.572,    0.415,    2.183,
       -0.960,   -0.875,   -0.444,    0.587,    0.560,   -0.584,   -0.580,
        0.610,   -0.507,    0.588,    0.661,   -0.653,    0.673,    0.843,
        1.781,   -0.571,   -0.833,    0.486
    },
    { -55.684,   29.360,   -8.018,    2.848,   20.946,   39.534,    2.969,
       19.019,  -35.567,   15.104,   11.819,    3.321,   -1.809,  -41.155,
        6.832,   -2.936,   -2.890,  -17.626,   55.025,  -43.371,  -17.091,
        7.439,  -25.670,    4.223,   -7.285,  -21.611,   67.791,   12.285,
       37.298,  -18.714,  -34.734,   -1.350,   20.395,    4.772,  -15.127,
       45.436,    7.853,    4.728,   27.135,   26.069,   12.234,  -48.067,
       25.924,   -0.349,    7.516,    9.197,   19.075,  -15.625,   15.844,
       71.297,   14.114,   -5.972,  -16.275,   16.246,  -33.626,   65.022,
       17.997,   14.473,  -12.748,  -13.784,  -15.888,   -8.002,  -27.029,
      -16.559,  -15.964,   -8.393,  -22.276,   -8.548,  -19.182,    9.097,
        3.417,  -15.764,  128.192,    9.859,   -0.470,   -4.986,   -1.895,
       35.939,    6.144,  -20.964,  -27.284,    1.786,   31.203,   10.086,
        8.865,   24.906,   60.009,  -60.138,   61.980,   24.495,   -7.591,
       11.379,  -19.617,   16.040,    6.463,  -27.189,   10.082,   16.499,
       16.458,   12.605,    3.708,  -27.994,  -10.880,  -28.228,    2.836,
      -14.340,   -6.540,  -29.412, -111.359,   18.729,    3.970,  -33.119,
       -1.440,   13.201,  -10.587,  -40.457,   -6.857,   28.367,   -3.126,
        4.318,   40.168,    6.942,   24.367,  -14.116,   18.820,    5.246,
       13.709,  -23.770,  -12.485,    0.903,  -19.786,   54.640,   -1.904,
      -19.048,  -24.334,   -0.922,    6.062,  -20.782,   -2.149,    6.602,
       12.679,   13.177,    2.348,   27.071,   22.073,   -7.434,   57.826,
        3.103,  -11.461,  -27.014,    2.449,   25.576,   22.836,   -0.347,
       15.777,    4.790,  -24.026,    3.519,  -18.520,    7.442,   31.927,
      -50.198,    2.786,  -27.212,   -3.428,    9.568,   29.698,   -8.780,
       -2.217,   26.958,    8.428,    4.492,   47.726,  -19.750,   -3.392,
       13.046,  -12.232,  -20.135,  -20.413,   -7.625,  -60.624,  -35.768,
       -0.987,   -9.886,  -20.112,   20.396,  -14.402,   -5.361,   19.443,
      -28.636,  -25.855,   21.389,  -17.157,  -25.560,  -29.485,  -19.650,
       51.646,   21.673, -114.175,   29.342,  -23.943,   14.999,   10.222,
       10.725,   22.491,   31.731,   31.160,   -4.563,  -12.884,  -31.164,
       16.834,   29.850,  -12.813,   -1.098,   22.963,  -16.448,  -95.658,
      -15.357,    8.594,    6.269,   18.415,    6.417,    6.632,   21.445,
        1.729,   10.955,    4.121,   -6.318,  -18.699,    1.019,    9.966,
       22.310,  -18.180,   58.236, -109.482,   51.716,  -27.211,   -1.900,
      -30.235,   44.440,   34.545,    2.980,  -26.512,   39.456,  -27.414,
      -11.501,  -13.241,   71.078,  -58.571,  -28.620,  -55.751,  -25.226,
      -14.425,   -0.994,   -6.482,  -46.714,   20.610,   18.537,    5.476,
      -12.380,    8.016,    3.809,   -2.020,   -6.647,   33.504,   63.762,
       10.463,   19.272,   26.660,   32.233,  -10.717,    1.926,    1.486,
      -33.750,   20.838,   32.840,    2.147,  -23.252,    7.950,   -9.165,
       35.052,   -5.668,   25.769,    1.583,  -26.869,    4.658,   44.214,
       40.363,  -15.156,  -23.688,   54.806,  -15.806,   25.318,    6.622,
        0.432,    7.365,  -11.561,  -19.102,   18.993,   10.224,   43.154,
        4.856,   -6.229,    5.922,   -9.981,  -24.860,  -38.477,   11.761,
      -15.696,   51.895,   11.038,  -15.667,  -15.442,   21.078,   -1.719,
      -22.397,   -9.928,  -41.903,   -7.625,   48.842,   -8.199,   -8.362,
       -1.861,  -34.138,  -57.370,    3.187,    3.866,   -8.168,  -23.033,
       -1.826,    9.527,   23.594,   -8.972,   30.955,  -14.798,  -27.148,
       39.877,    3.194,   26.383,  -22.574,    2.782,   20.671,   -6.633,
      -18.497,   37.147,  -14.283,  -29.327,  -53.285,    6.985,    3.007,
       29.014,    3.450,   -6.377,  -37.031,  -11.317,    6.750,  -19.176,
      -12.481,  -22.341,   -1.675,  -35.450,  -16.609,   20.173,   23.979,
        2.617,   12.749,  -26.128,    2.242,    3.753,   23.545,  -22.905,
       -8.583,   -2.816,    2.171,   26.353,  -39.801,   -6.843,  -28.965,
      107.426,  -11.175,  -38.945,   28.606,    6.113,   13.465,   -6.206,
       27.261,   -1.815,  -14.156,   14.232,  -12.965,   -4.760,   -3.015,
      -67.161,  -52.104,   47.057,    2.803,  -41.983,    0.745,   17.913,
        1.245,   -0.429,   18.590,   -1.749,   18.583,   27.852,   -0.089,
        3.976,  -63.301,    4.410,  -29.774,   18.771,    1.790,   -4.261,
       -0.853,  -41.168,    7.384,   11.659,   27.949,   -5.928,    8.409,
        2.502,   62.311,    2.734,   -8.416,   -3.226,    9.678,  -17.047,
        6.095,  -17.080,  -42.229,   22.552,  -22.934,  -30.145,   10.795,
      -14.629,    7.547,   -7.154,    4.205,   -3.662,   -1.752,    6.046,
        3.155,  -23.456,   -7.334,    9.993,  -26.860,  -30.728,   -9.468,
       25.301,   -9.551,  -22.458,   -0.448,   -4.200,   17.693,    4.040,
       15.603,    0.941,   10.440,  -38.790,   -5.058,   10.286,   49.771,
        7.286,   -2.074,   19.065,  -10.601,   15.849,   15.763,   25.580,
       -6.546,    4.118,    3.026,    5.898,    5.739,    1.218,    5.525,
       -1.909,    0.983,    9.063,   -5.909,   -0.613,  -60.777,  -24.931,
       22.210,   11.433,  -19.015,   -7.231,   -4.102,   44.492,  -14.088,
       45.881,  -34.917,  -12.831,   -8.070,   18.418,  -27.473,    3.882,
       -9.695,    1.434,    2.671,   10.351,  -28.672,   -9.857,   -4.325,
      -91.390,   13.226,   13.417,    0.025,   -6.168,   39.637,   -2.143,
       -7.599,    4.167,  -41.437,   -6.557,   22.706,   33.718,    1.700,
       35.971,   -7.786,   23.442,   28.670,   -2.328,    6.769,  -16.091,
       15.154,   19.621,   46.604,   14.993,   38.214,  -18.413,   -3.676,
       12.924,    6.082,   -5.376,   12.535,    9.686,   43.400,  -30.002,
       -0.302,   -0.184,    0.791,   -0.202,   -0.431,    0.497,    0.775,
        0.658,    1.291,   -0.676,    0.688,    0.486,    0.530,    1.872,
       -1.026,   -0.852,   -0.566,    0.744,    0.581,   -0.569,   -0.680,
        0.610,   -0.428,    0.499,    0.770,   -0.757,    0.674,    0.840,
        1.667,   -0.573,   -0.808,    0.591
    },
    { -52.425,   28.330,  -10.332,    2.344,   20.815,   36.053,    4.151,
       16.480,  -29.459,   14.262,    7.187,    3.434,   -0.948,  -43.629,
        4.940,   -4.650,   -3.208,  -12.544,   47.140,  -48.007,  -13.682,
        4.184,  -29.199,    1.343,    2.504,  -27.915,   60.019,    4.364,
       25.448,  -22.664,  -29.856,   -2.538,   18.424,    6.719,  -11.475,
       36.633,    5.760,   13.434,   29.923,   16.765,    9.638,  -43.997,
       21.751,    5.217,    2.724,    6.815,    7.545,  -15.272,   12.456,
       66.876,   12.049,   -3.049,  -12.451,    9.708,  -34.301,   81.617,
       15.415,   16.461,  -10.495,  -16.234,  -24.906,  -15.643,  -24.549,
      -17.353,  -11.124,  -11.955,  -27.543,   -8.940,  -19.549,   -2.267,
        3.003,  -21.742,  124.134,   10.136,    1.903,   -6.755,    1.951,
       31.565,    6.086,  -23.632,  -29.244,    0.252,   29.223,   10.354,
        9.793,   38.530,   54.056,  -63.221,   53.626,   24.258,   -6.166,
        8.490,  -15.599,   10.196,    5.603,  -25.537,    7.464,   10.898,
       14.579,    8.204,    3.511,  -20.187,  -11.863,  -22.158,   -5.226,
       -9.997,   -8.358,  -26.358, -111.644,   20.609,    8.435,  -30.045,
       -2.135,   10.491,  -10.432,  -42.743,  -10.304,   26.441,   -1.741,
        6.604,   38.355,    8.614,   16.232,  -12.232,   18.683,    6.131,
        9.919,  -20.140,   -9.677,    1.157,  -14.476,   50.879,   -3.886,
      -19.246,  -25.425,   -0.462,    5.310,  -18.987,   -1.981,    1.923,
        7.443,   10.731,    0.696,   28.811,   21.744,   -6.191,   61.005,
        2.703,  -12.721,  -22.997,   -1.528,   31.702,   19.692,    0.804,
       17.161,    4.515,  -25.283,   -1.420,  -13.099,   13.821,   34.541,
      -56.800,    0.195,  -22.776,   -3.036,    3.198,   27.498,   -6.301,
       -2.058,   19.242,    8.115,    2.677,   36.666,  -20.629,   -4.023,
       10.616,  -10.597,  -16.231,  -17.762,   -2.325,  -62.036,  -41.352,
        5.935,   -6.381,  -21.247,   17.181,  -17.009,  -14.969,   13.597,
      -31.023,  -18.629,   32.310,   -9.581,  -29.746,  -23.288,  -18.900,
       59.877,   26.932, -120.696,   27.515,  -31.303,   18.948,   15.274,
        6.997,   20.968,   31.477,   38.626,   -2.703,  -12.571,  -24.246,
       19.595,   35.966,  -21.727,   -1.075,   21.353,  -11.318,  -97.887,
      -14.153,   12.249,    7.384,   17.783,    5.315,    6.600,   17.458,
        1.171,   10.541,    4.455,   -7.276,  -17.171,  -21.487,    5.507,
       22.398,  -14.124,   54.740, -117.937,   53.698,  -31.154,   -1.738,
      -33.048,   49.498,   38.355,   11.687,  -27.999,   33.917,  -23.582,
       -9.411,  -11.293,   70.557,  -70.733,  -24.848,  -58.002,  -31.576,
      -21.158,   -1.205,   -6.320,  -46.107,   23.637,   20.459,    6.278,
      -10.203,    5.935,    0.426,   -1.859,  -11.681,   31.306,   59.591,
       -1.593,   24.716,   28.427,   27.358,  -10.601,    1.508,    3.701,
      -34.724,   17.429,   36.900,    4.758,  -27.407,    6.198,  -11.407,
       35.498,   -7.144,   24.751,    2.081,  -25.700,   -1.624,   45.577,
       44.138,  -18.010,  -23.712,   57.705,  -16.128,   22.025,    6.710,
       -2.300,   10.760,   -6.553,  -23.942,   19.269,    0.207,   43.534,
       -9.284,   -1.545,   13.615,   -8.482,  -31.434,  -42.613,   14.287,
      -21.836,   49.625,   13.186,  -11.129,  -14.813,   17.047,   -1.034,
      -27.932,   -6.272,  -46.449,   -7.836,   45.423,   -0.776,   -5.577,
        1.163,  -34.310,  -62.020,    4.744,    2.566,   -7.810,  -22.560,
       -4.366,   12.219,   23.660,  -10.358,   33.222,  -16.390,  -29.459,
       43.900,   13.785,   16.789,  -27.139,   -0.042,   23.262,   -5.531,
      -14.291,   31.133,  -14.468,  -24.052,  -45.490,    6.273,    4.004,
       26.392,    2.707,   -7.989,  -34.372,   -7.870,    6.704,  -24.435,
      -12.846,  -18.208,   -0.372,  -37.249,  -13.301,   15.652,   26.280,
       -0.962,   21.002,  -25.795,    7.131,    9.209,   28.916,  -27.923,
      -10.577,  -12.006,    7.931,   36.875,  -37.851,    0.164,  -38.800,
      103.350,  -11.557,  -35.533,   25.957,    5.121,   14.131,   -3.099,
       27.376,   -7.281,   -6.336,   15.050,   -7.100,   -3.064,   -3.553,
      -39.344,  -48.245,   42.876,    0.852,  -35.041,    1.771,   17.210,
        2.170,   -1.570,   17.603,   -1.498,   15.133,   24.680,   -0.859,
        4.346,  -58.374,    5.529,  -19.949,   18.181,    0.453,   -3.447,
       -1.084,  -42.218,    8.787,    9.993,   28.347,   -6.818,   15.727,
        4.453,   65.182,    0.901,   -3.182,   -5.663,    4.275,  -14.318,
        5.627,  -21.315,  -43.271,   23.609,  -23.549,  -29.777,    8.958,
      -14.445,    8.768,  -11.331,    4.358,   -3.337,   -0.793,    6.743,
        4.463,  -25.677,   -6.237,    7.908,  -22.152,  -32.589,   -7.261,
       26.484,   -7.992,  -22.475,    0.604,   -6.082,   18.215,    6.351,
       15.166,   -0.012,    5.723,  -31.958,   -4.051,    8.035,   41.724,
        9.090,  -13.094,   18.749,   -8.776,   20.690,   11.328,   23.812,
       -7.433,    5.332,    3.241,    5.065,    5.289,    3.060,    4.785,
       -2.485,    0.886,   10.438,   -6.278,   -0.612,  -63.871,  -27.970,
       22.202,   12.206,  -19.029,  -11.157,   -1.840,   46.695,  -11.979,
       45.631,  -37.118,  -14.151,  -11.741,   19.095,  -27.362,    1.289,
      -10.363,    2.139,   -4.628,   15.571,  -31.851,  -11.230,   -3.156,
     -102.417,   14.930,   14.209,    0.168,   -7.301,   41.864,   -6.619,
       -6.297,   10.592,  -42.062,   -3.048,   25.554,   34.056,  -12.650,
