//-----------------------------------------------------------------------------
// Network: hzz4mu_noiso
// Inputs:
//                                                  Offset       Scale
//    ele1_pt                                    5.412e+01   2.019e+01
//    ele1_eta                                  -2.884e-02   1.064e+00
//    ele1_phi                                   6.874e-02   1.814e+00
//    ele2_pt                                    3.473e+01   1.121e+01
//    ele2_eta                                  -2.780e-03   1.089e+00
//    ele2_phi                                  -5.353e-02   1.831e+00
//    ele3_pt                                    2.184e+01   8.317e+00
//    ele3_eta                                  -1.095e-02   1.150e+00
//    ele3_phi                                  -1.324e-02   1.826e+00
//    ele4_pt                                    1.275e+01   5.938e+00
//    ele4_eta                                  -1.191e-02   1.172e+00
//    ele4_phi                                   2.921e-02   1.814e+00
//    worst_vertex                               6.219e+00   1.279e+01
//    second_worst_vertex                        2.128e+00   4.208e+00
//    mZ                                         8.367e+01   1.704e+01
//    mZstar                                     3.457e+01   1.573e+01
//    mbestH                                     1.382e+02   1.430e+01
//
// Created: Sun Jun 24 15:25:46 2012
//-----------------------------------------------------------------------------
#include <cmath>
#include <vector>
#include <iostream>
//-----------------------------------------------------------------------------
// Make following visible only to this programming unit
namespace nshzz4mu_noiso {
  // NOTE: Network indices start at 0
  static const int nnetworks=200;
  static const int ninputs  =17;
  static const int nhidden  =30;
  static const int nparams  =571;

  static const double mean[ninputs]={
  5.41200e+01,
 -2.88400e-02,
  6.87400e-02,
  3.47300e+01,
 -2.78000e-03,
 -5.35300e-02,
  2.18400e+01,
 -1.09500e-02,
 -1.32400e-02,
  1.27500e+01,
 -1.19100e-02,
  2.92100e-02,
  6.21900e+00,
  2.12800e+00,
  8.36700e+01,
  3.45700e+01,
  1.38200e+02
  };

  static const double sigma[ninputs]={
  2.01900e+01,
  1.06400e+00,
  1.81400e+00,
  1.12100e+01,
  1.08900e+00,
  1.83100e+00,
  8.31700e+00,
  1.15000e+00,
  1.82600e+00,
  5.93800e+00,
  1.17200e+00,
  1.81400e+00,
  1.27900e+01,
  4.20800e+00,
  1.70400e+01,
  1.57300e+01,
  1.43000e+01
  };

  static const double weight[nnetworks][nparams]={
    { -14.040,   17.056,   14.581,    8.778,   -9.838,    5.193,    6.262,
       -3.644,   -0.965,    2.363,   -7.436,    0.468,    7.869,   20.422,
        8.062,  -19.725,   -9.219,    0.157,   67.884,    2.700,   -1.769,
      -19.433,   10.240,   -6.863,    0.823,   10.433,   -2.306,   15.326,
       -1.283,   -7.052,   -1.675,   -6.526,  -11.100,    1.320,   14.158,
      -14.006,  -38.658,    5.281,   -7.413,   -7.831,    5.560,  -17.973,
       -5.460,    7.994,   -5.761,  -23.730,  -11.653,   -1.077,   -6.526,
        8.761,   16.336,  -17.668,    0.131,   -7.796,   -7.609,    6.215,
       -5.279,   16.191,   14.357,   -3.243,    8.944,    6.719,    5.658,
       -1.091,    0.347,   -0.231,    4.277,    7.867,    0.973,   -7.284,
      -10.650,   -5.202,  -46.460,    2.680,    1.672,   -2.706,    1.947,
       -1.984,    1.133,   -1.185,   -0.403,   -6.809,   -9.145,   -4.159,
       -3.068,    1.671,    8.984,   32.204,   -7.712,    0.064,  -15.673,
       -4.759,    4.723,    4.028,    5.381,  -17.724,   -6.108,    8.858,
        5.446,   11.985,    7.221,    8.817,    6.044,  -19.682,    9.607,
       -2.684,  -12.185,    5.390,  -27.519,   -2.705,    0.747,   -6.362,
        2.194,   10.394,    0.840,   -4.848,    3.045,   -3.920,   -1.402,
       -9.302,    0.652,   14.731,   11.563,  -23.583,  -12.000,   10.503,
      -24.727,   17.456,  -13.925,    9.774,   -7.100,    5.393,    4.948,
      -11.171,    4.533,   -0.055,    3.504,    3.426,   -2.593,   15.268,
       14.234,  -10.271,   10.971,   -4.512,  -37.654,    9.203,    6.124,
       17.168,  -13.131,   11.167,    7.517,   -5.200,    8.025,   12.588,
       17.283,   -6.195,   -3.271,   19.069,  -15.449,   -0.141,    3.479,
       19.630,  -34.040,   -2.844,   -7.956,    3.248,   -4.416,    2.313,
       -3.433,    2.652,   21.914,    3.207,   -2.618,  -27.155,    4.205,
       -8.662,   -5.064,   -1.401,    1.293,    3.371,   38.313,  -11.615,
        7.621,   -3.884,    2.397,   21.720,  -16.369,   -7.220,   -2.767,
       16.389,   -8.264,   23.297,    5.596,   21.660,   15.066,    4.894,
       -5.874,    7.142,  -38.466,  -11.425,  -27.021,    8.733,    4.235,
      -15.449,    4.124,    2.447,   20.688,  -16.266,   23.760,  -13.543,
        6.952,  -15.941,    4.891,   -3.482,  -12.742,    6.506,  -43.165,
        0.280,    6.434,   -5.931,    3.848,    9.988,  -18.797,   -4.595,
        2.613,   -1.568,    5.414,  -17.660,    6.955,    4.602,    3.460,
        3.973,   12.892,   15.839,  -37.071,    1.311,   11.007,   11.212,
        7.085,    8.057,    5.491,   -5.239,  -12.874,    8.893,   -5.098,
        6.252,   12.958,    1.793,   -1.577,   -7.287,    9.403,   15.847,
       25.581,   18.628,    5.090,    7.541,  -15.216,    5.221,   -1.435,
       -2.309,   -1.778,   15.982,   12.247,   12.068,    5.233,   11.541,
        8.302,   12.221,  -13.224,   -6.555,    9.706,   -8.689,   -0.649,
       -4.388,    3.732,   12.671,   -8.855,   -0.187,    4.369,   15.105,
       -0.637,   17.090,   11.587,  -18.009,   -0.494,   -1.137,    2.407,
       -9.395,   30.598,    6.305,   16.451,  -15.334,   12.599,   24.188,
      -14.193,   -7.899,   12.010,  -12.067,    5.751,   17.823,   -7.291,
      -16.489,   11.941,    1.038,   -6.236,   14.084,   40.012,  -14.372,
        7.917,    0.395,    3.588,   11.365,   -2.361,  -11.743,   -4.780,
        2.653,   -3.634,  -10.638,   -3.246,   15.234,    8.134,   -2.941,
      -10.887,   12.954,   13.894,    1.604,   -0.626,  -20.539,   -0.300,
       -6.811,   17.971,   -4.116,   -8.699,    0.097,   -5.885,    9.813,
        1.164,   -9.077,   -4.887,    0.969,    3.359,    0.569,  -16.815,
        2.405,   10.971,    0.121,    6.303,    8.704,   -0.436,    0.856,
       12.252,   -4.244,    0.814,  -36.257,   -0.868,    1.232,    3.892,
       -7.643,    3.628,   -8.336,   23.587,   -4.174,   12.196,   -3.530,
       -2.454,    9.287,   -0.308,    3.075,   17.397,   12.609,  -12.493,
      -24.073,    3.946,   19.584,   -7.275,   15.003,   -2.525,    3.581,
       57.058,   17.594,    3.785,    0.273,   -0.703,    9.160,    0.103,
       -6.104,   -3.459,   -6.161,   12.835,   -9.507,   -7.881,   16.635,
       22.999,   -5.802,   31.091,   -1.807,   -9.440,   -7.679,   -0.890,
       17.901,   10.684,   -3.205,   16.318,  -10.864,    7.355,   -7.800,
      -15.660,  -12.641,    0.738,   14.874,    2.729,    2.284,   -6.364,
      -10.050,   13.839,  -19.059,   -3.648,   -9.427,   17.327,   -5.217,
      -10.930,    1.483,   -0.041,   -3.080,    1.568,   -3.096,   -2.881,
        0.864,   -2.588,    6.978,    0.230,    7.360,   88.672,   -0.547,
        5.627,   -3.537,    4.998,    5.538,  -12.039,   -4.417,   -0.502,
       -6.147,  -18.792,    4.596,  -24.372,  -12.667,    2.632,   13.968,
      -15.840,   -1.974,   40.118,    0.828,    0.002,    0.452,   -0.582,
        0.091,   -0.175,    0.117,    0.264,   -0.131,   -0.621,   -0.169,
       -0.280,    6.549,    0.271,    4.297,    1.173,  -39.194,   -7.276,
        4.184,   -3.420,   -1.196,   -3.095,    0.822,    0.366,    2.352,
       -1.752,   -2.627,    1.991,   -0.087,    0.070,  -45.124,  -11.167,
        0.736,   -2.663,   -4.002,   -1.282,   28.823,    8.596,   -9.383,
      -14.250,   -3.741,   -5.860,  -10.600,    3.473,    2.632,  -17.516,
       15.987,   17.018,    4.001,    0.800,   20.667,    8.760,   -9.690,
      -20.938,   20.546,    6.024,   13.554,  -16.243,   -7.190,  -10.892,
       -0.983,    2.771,   -4.407,   -2.431,    8.316,  -11.934,  -29.867,
        8.040,    6.122,   -8.748,    7.888,   21.997,    6.880,  -13.553,
        3.282,    6.024,    0.766,    3.354,   -8.571,   22.789,    6.258,
       -2.171,  -16.100,   -9.452,    5.109,   10.469,   -7.090,   -3.781,
       13.982,   -3.924,   -0.962,    1.323,   -0.875,    0.442,   -1.267,
        0.655,   -1.139,   -0.607,    0.740,    0.771,   -0.757,   -0.294,
        0.395,    0.790,   -0.632,    0.655,    0.423,   -1.336,    0.624,
        0.757,   -0.699,    0.640,   -0.600,   -0.671,    1.750,    1.232,
        1.252,   -0.250,    0.411,   -0.367
    },
    { -14.219,   16.766,   13.234,    9.121,  -11.940,    7.063,    6.931,
       -4.891,   -0.372,    0.468,   -9.852,    0.055,    9.780,   25.027,
        7.820,  -24.824,  -10.086,    4.033,   67.363,    0.256,    1.227,
      -20.490,    3.404,   -9.443,    0.277,   10.913,    2.446,   13.251,
       -7.209,   -8.303,   -1.873,   -2.027,   -1.326,   -0.311,   13.011,
      -11.663,  -44.933,    3.802,   -7.189,   -7.608,    5.523,  -20.699,
       -5.992,    6.949,   -6.029,  -28.703,  -10.292,   -1.170,   -7.883,
       10.777,    9.473,  -17.444,    2.484,  -10.219,   -7.105,    4.401,
       -4.343,   15.131,   13.941,   -4.905,    7.421,    5.437,    5.623,
       -0.836,    1.238,    0.585,    2.939,    7.144,    0.511,   -6.045,
      -12.167,   -4.881,  -36.659,    0.345,   -0.521,   -1.070,   -1.671,
        1.085,    0.796,   -0.745,    0.731,   -1.388,   -7.560,   -4.872,
       -1.541,    1.650,   17.772,   29.121,  -10.644,    0.960,  -13.465,
       -5.493,    3.285,    1.810,    5.290,  -15.823,   -8.337,    8.382,
        6.025,   12.195,    8.252,    9.418,    6.698,  -19.483,   19.843,
       -2.303,  -12.022,    3.528,  -30.695,   -3.708,   -2.334,   -5.059,
        6.164,   13.823,    2.732,   -7.431,    0.682,   -3.710,    1.100,
       -8.514,   -0.216,   11.850,   14.110,  -24.852,  -13.727,   10.946,
      -28.453,   19.287,  -12.126,   10.461,  -17.365,    1.071,    2.933,
       -7.541,    4.023,    1.528,    5.442,    2.904,   -1.665,    9.942,
       22.213,  -13.482,    4.699,   -0.053,  -38.124,    7.698,    6.775,
       17.218,  -14.364,    8.910,    5.103,   -5.508,    8.989,   11.573,
       16.776,   -5.257,   -4.332,   18.084,   -9.807,    4.516,    3.370,
       18.688,  -36.016,   -3.554,   -7.984,    5.550,   -3.680,    1.807,
       -1.257,    1.870,   25.219,    5.353,   -2.611,  -30.166,    5.114,
      -11.569,    4.511,    1.435,    1.741,   -0.375,   37.131,  -11.694,
        5.091,   -3.042,   -2.207,   22.401,  -18.988,   -8.001,   -6.072,
       16.132,  -10.026,   24.168,    5.776,   25.548,    7.255,   11.105,
       -4.137,    6.068,  -47.492,  -15.328,  -23.644,   15.611,    7.423,
      -20.694,    5.324,    0.810,   21.165,  -14.760,   27.650,  -15.522,
        2.906,  -14.179,    8.064,   -4.565,  -13.234,    8.114,  -46.538,
       -4.748,   -0.861,   -0.674,   16.244,   15.431,  -18.547,   -8.665,
        2.226,   -3.453,    2.862,  -16.891,    4.294,   -0.722,   -0.277,
       -7.061,   12.456,   20.123,  -42.146,   -0.982,    9.531,    8.903,
       10.236,   10.893,    6.563,   -2.756,  -14.334,   10.176,   -4.197,
        4.182,   12.950,    1.312,  -10.797,   -7.843,    9.539,   12.183,
       18.419,   17.089,    0.379,    3.666,  -10.870,   10.624,   -2.609,
        3.444,   -3.159,   12.677,    9.164,   10.390,    4.596,   13.260,
        6.151,   14.466,  -12.182,   -8.250,    6.343,   -7.614,   -1.089,
       -2.955,   -1.485,   11.627,   -6.585,    2.273,    1.963,   12.931,
       -1.611,   16.328,    8.962,  -21.482,   -7.232,   -1.608,    3.253,
       -8.630,   23.436,    2.396,    7.589,  -11.935,    8.544,   22.970,
      -13.487,   -9.684,    4.178,   -4.988,    1.315,   21.419,   -6.814,
       -8.339,    4.349,    1.250,   -5.583,   19.798,   50.052,  -18.078,
        7.093,   -0.852,    4.357,   14.752,   -2.055,  -15.105,   -4.876,
        4.403,   -4.481,  -12.778,   -4.392,   23.740,    5.905,   -1.408,
      -13.342,   15.742,   10.194,    4.199,    0.169,  -19.735,    1.112,
       -6.722,   17.799,   -2.527,   -9.327,   -0.776,   -5.119,   10.221,
       -1.022,  -11.078,   -6.664,   -0.333,    1.688,    0.503,  -10.267,
        1.942,    8.013,    0.619,    3.911,    5.694,   -0.571,    1.499,
        7.974,   -3.104,    0.952,  -25.533,   -0.310,    1.633,   12.113,
       -4.172,    1.784,   -7.131,   20.752,   -3.591,    9.877,   -2.745,
       -1.394,    7.953,   -0.825,    2.092,   14.899,   10.850,  -10.425,
      -20.157,    2.171,   22.580,   -5.039,   14.802,   -0.732,    3.319,
       62.027,   22.403,    4.656,    0.134,   -1.010,    7.655,    1.855,
       -6.086,   -3.811,   -7.084,   13.106,   -7.090,   -6.742,   18.403,
       27.455,   -5.810,   34.248,   -4.165,   -9.184,   -9.869,    1.026,
       18.179,   10.227,   -5.786,   18.017,   -9.733,    6.150,   -6.170,
      -12.387,  -11.782,    0.235,    5.925,    5.752,    3.145,   -6.456,
       -9.956,   12.584,  -21.223,   -3.770,   -9.468,   19.897,   -5.241,
      -11.171,    1.631,    4.957,   -5.562,    0.389,   -4.311,   -5.860,
       -1.824,   -8.643,    0.279,   -0.863,    6.605,   88.083,    3.053,
        8.955,   -2.691,   12.189,    3.555,   -8.795,  -14.607,   -2.468,
       -5.171,  -14.072,    5.702,  -23.017,  -15.147,   13.368,   15.517,
      -10.651,   -6.259,   42.958,   -0.092,   -0.812,    0.628,   -0.272,
        0.514,   -0.102,   -0.572,    0.633,    0.322,   -0.111,   -1.743,
        0.046,    4.511,    3.269,    4.872,    1.932,  -41.974,   -7.628,
        3.815,   -2.884,   -1.683,   -4.100,    0.549,    0.624,    4.113,
       -1.922,   -2.958,    0.627,   -0.329,   -0.005,  -47.000,  -13.580,
        0.702,   -3.159,   -4.766,   -6.421,   22.886,    6.472,   -8.688,
      -10.439,   -2.282,   -6.128,  -12.736,    4.733,    1.207,  -22.309,
       11.394,   14.144,   -1.501,    3.579,   17.399,    8.120,   -5.601,
      -20.701,   11.818,    3.424,   12.827,  -12.712,   -6.886,   -7.477,
        2.741,    1.383,   -1.876,   -2.213,    7.359,   -8.626,  -30.220,
        3.617,    2.810,   -7.877,    5.587,   32.186,    5.363,   -9.009,
        6.466,    9.870,   -1.251,    7.021,  -12.531,   26.263,    7.986,
       -0.072,  -21.642,   -7.285,   22.482,   -3.478,  -12.772,   -2.237,
       13.421,   -3.765,   -0.736,    1.157,   -0.800,    0.446,   -1.430,
        0.554,   -1.366,   -0.732,    0.825,    0.729,   -0.565,   -0.164,
        0.569,    0.866,   -0.599,    0.551,    0.493,   -1.244,    0.631,
        0.796,   -0.604,    0.678,   -0.472,   -0.520,    1.640,    1.177,
        1.235,   -0.375,    0.404,   -0.480
    },
    { -13.494,   16.466,   13.587,    8.903,  -13.641,    7.519,    6.797,
       -4.303,   -0.297,    1.102,  -11.530,    0.559,   10.308,   34.184,
        5.850,  -22.589,   -9.634,    3.079,   64.176,   -4.434,   -0.418,
      -20.484,    1.456,   -8.725,    0.711,   12.889,    5.071,   11.641,
       -6.266,   -8.297,   -1.635,   -4.325,   -5.262,   -0.537,   12.738,
      -11.543,  -48.779,    6.620,   -6.885,   -8.613,    4.115,  -20.637,
       -8.071,    6.707,   -6.513,  -30.286,   -8.372,   -3.231,   -9.241,
        5.264,    9.157,  -19.375,    3.672,  -11.239,   -7.302,    5.947,
       -3.147,   13.676,   18.781,   -1.354,    9.566,    6.085,    2.684,
       -4.533,   -0.179,    0.085,    0.857,    6.704,    0.053,   -8.421,
      -13.568,   -3.879,  -35.404,   -1.452,   -0.253,   -0.347,   -3.669,
        0.563,    0.917,    0.250,    3.642,   -0.177,   -3.428,   -6.432,
       -1.593,    3.446,   19.568,   28.180,  -12.229,    0.053,  -13.121,
       -5.057,    4.008,    3.013,    5.232,  -16.337,   -5.887,    6.617,
        6.244,   12.397,    8.983,    8.955,    6.599,  -14.917,   17.271,
       -2.028,  -10.227,    3.654,  -29.109,   -3.511,   -2.154,   -3.632,
        5.283,   12.234,    3.848,   -8.565,   -0.098,   -5.486,    0.171,
       -8.706,    0.706,   13.796,   15.067,  -24.035,  -14.359,   10.573,
      -26.911,   19.964,  -12.579,    9.422,  -18.276,    2.112,    0.573,
       -6.831,    2.958,    2.178,    6.910,    1.535,   -1.376,   13.544,
       23.570,  -13.631,    5.847,   -1.197,  -36.514,    5.243,    6.471,
       17.135,  -12.243,   10.363,    7.665,   -6.362,   11.119,   10.367,
       17.461,   -8.172,   -4.682,   16.433,   -8.228,   -1.427,    4.065,
       19.499,  -36.910,   -2.793,   -7.567,    4.155,   -3.819,    0.694,
       -2.561,    2.148,   24.030,    4.759,   -2.677,  -29.782,    4.867,
      -13.659,    6.867,    3.355,    3.786,   -0.147,   33.856,  -12.692,
        7.512,   -5.974,   -2.372,   24.764,  -15.600,   -3.778,   -2.593,
       14.983,   -7.945,   22.425,    8.197,   19.472,    2.449,    6.969,
       -7.978,    5.450,  -46.953,  -15.402,  -19.995,   18.311,    3.840,
      -18.913,    7.000,   -3.615,   18.989,  -15.292,   22.724,  -15.009,
       -1.708,  -18.779,    4.030,   -7.068,  -13.414,    5.805,  -47.514,
       -5.964,    1.242,   -1.554,   12.511,   12.019,  -18.356,   -7.361,
        3.121,   -2.590,    1.380,  -20.384,    6.039,   -6.343,   -1.459,
       -8.175,   10.082,   24.668,  -41.039,    1.344,   12.956,    7.402,
       12.167,   12.105,    7.981,   -3.652,  -14.750,    7.000,   -8.517,
        1.855,   13.873,    8.589,   -5.644,   -6.264,   10.327,   15.097,
       17.689,   12.254,    1.113,    5.551,   -9.092,    8.620,   -0.813,
        2.093,   -2.537,   11.064,    7.975,    9.930,    3.047,   12.792,
       10.691,   16.880,   -8.949,   -9.712,    5.310,   -6.647,   -0.128,
       -1.624,   -0.473,    8.770,   -6.159,    1.668,    4.368,   10.921,
       -3.547,   14.185,    9.669,  -20.369,   -7.779,    0.430,    2.589,
       -6.318,   19.867,    0.262,    7.024,  -14.964,    7.625,   20.244,
      -14.525,   -6.651,    2.510,   -9.790,    0.143,   21.196,   -6.548,
       -8.435,   -0.836,    1.797,   -4.040,   15.664,   53.163,  -17.668,
        7.072,   -3.071,    3.454,   14.761,   -1.845,  -16.408,   -4.882,
        3.999,   -4.345,  -12.201,   -5.351,   24.956,   10.485,   -2.607,
      -15.598,   18.804,   14.041,    3.607,   -1.488,  -23.229,    1.208,
       -5.642,   20.507,   -5.039,  -10.652,   -0.578,   -9.170,   12.876,
        0.296,   -8.800,   -4.727,   -2.666,    3.223,    2.801,  -11.443,
        1.202,    8.261,   -0.539,    3.535,    6.119,    0.052,    2.010,
        8.476,   -4.634,    0.256,  -26.497,   -0.898,    2.380,   11.345,
       -4.211,    0.853,   -6.447,   19.442,   -0.819,    9.005,   -3.129,
       -3.535,    6.419,   -1.553,    1.110,   15.095,    9.820,   -8.872,
      -18.396,    1.753,   19.797,   -3.835,   13.147,   -0.984,    3.449,
       60.964,   22.159,    4.654,    1.117,   -0.674,    8.016,    1.601,
       -6.473,   -3.398,   -6.134,   13.850,   -7.123,   -7.112,   17.430,
       26.017,   -5.201,   33.584,   -5.435,   -9.621,   -7.443,   -1.825,
       17.481,   12.169,   -3.687,   20.805,   -8.792,    7.569,   -7.432,
       -9.422,  -15.069,   -1.003,    0.459,   11.166,    4.223,   -7.490,
      -14.160,   12.505,  -22.665,   -3.200,   -9.956,   20.275,   -5.950,
      -11.793,    3.478,    5.858,   -5.657,    0.946,   -4.319,   -6.114,
       -6.181,  -10.448,    1.265,   -0.997,    5.312,   86.130,    4.195,
        6.767,   -1.634,   10.919,    3.499,   -7.106,  -11.222,   -0.387,
       -6.025,  -15.212,    5.056,  -22.088,  -15.622,   13.021,   15.636,
      -11.226,   -6.720,   41.340,    0.866,   -0.923,   -0.668,   -0.712,
        0.862,   -0.132,   -0.949,   -0.357,    0.010,    0.050,    0.045,
       -0.147,    3.384,    2.748,    2.921,    1.762,  -40.551,   -7.845,
        4.864,   -2.850,   -1.421,   -4.092,    0.432,    0.273,    3.616,
       -2.064,   -2.808,    1.360,    0.042,   -0.039,  -46.336,  -17.504,
        1.131,   -2.930,   -5.244,   -8.079,   18.389,    9.688,  -10.477,
       -9.086,   -2.261,   -6.937,  -11.894,    2.716,    2.046,  -20.920,
        7.091,   10.529,   -1.298,    3.123,   16.553,    3.261,   -7.724,
      -19.971,   10.815,    3.418,   12.755,  -15.445,   -5.645,   -7.638,
        4.034,   -0.106,   -1.423,   -0.664,    7.042,   -9.505,  -28.010,
        2.998,    3.868,   -9.122,    4.901,   31.888,    8.165,   -6.147,
        4.024,    5.978,   -0.957,    8.054,  -10.101,   26.698,    9.756,
       -1.449,  -25.113,   -8.957,   25.629,   -8.846,  -11.605,   -5.711,
       13.198,   -4.089,   -0.850,    1.487,   -0.713,    0.273,   -1.455,
        0.566,   -1.320,   -0.607,    0.877,    0.944,   -0.561,   -0.213,
        0.374,    0.687,   -0.481,    0.481,    0.424,   -1.460,    0.591,
        0.690,   -0.589,    0.629,   -0.482,   -0.730,    1.628,    1.239,
        1.292,   -0.348,    0.410,   -0.368
    },
    { -16.033,   17.074,   15.855,    8.553,  -12.609,    6.975,    5.441,
       -5.094,    0.018,    3.253,   -9.688,   -0.700,    8.595,   28.003,
        0.192,  -23.432,   -9.794,    2.280,   61.069,    3.847,   -0.155,
      -19.602,    2.977,   -5.311,    6.156,    9.524,    0.602,   10.085,
       -3.439,   -9.929,   -0.746,    0.123,  -14.105,   -0.006,    9.468,
       -7.466,  -42.079,    6.790,   -6.332,   -7.592,    3.556,  -19.545,
       -6.335,    8.653,   -4.495,  -26.602,   -9.948,   -0.877,   -9.367,
        2.205,   12.926,  -17.631,    2.292,  -11.348,   -9.298,    6.797,
       -2.739,   11.929,   15.629,   -5.159,    4.831,    3.279,    5.756,
        1.264,    5.327,   -0.778,    0.535,    1.595,   -3.085,   -6.018,
      -10.824,   -8.402,  -35.071,    0.608,   -1.034,   -0.901,   -4.811,
        0.366,    0.550,   -0.239,    1.833,   -1.283,   -7.515,   -5.194,
        0.232,   14.063,   17.384,   30.138,  -10.611,    3.021,  -16.852,
       -6.523,    5.412,    4.176,    7.872,  -21.911,   -7.166,    9.681,
        7.398,   14.619,    9.841,   10.493,    6.842,  -11.109,   10.810,
       -1.858,  -13.319,    4.306,  -28.106,   -2.566,   -2.504,   -5.188,
        4.532,   12.504,    5.405,   -7.482,    0.990,   -3.988,    0.202,
       -9.231,    0.284,   14.905,   17.687,  -24.027,  -13.155,   11.098,
      -29.572,   25.266,  -16.626,    9.427,  -15.180,    3.762,    3.470,
        0.926,    1.004,   -1.635,    3.422,    5.346,   -5.575,   11.665,
       16.447,  -11.578,    5.349,   -7.663,  -36.982,    5.088,    5.646,
       15.465,  -13.512,   13.364,    4.726,   -6.888,   11.785,   10.764,
       16.030,   -9.118,   -0.933,   17.739,   -1.608,    3.064,    1.194,
       22.001,  -32.365,   -4.630,   -7.310,    3.570,   -3.728,    0.512,
       -1.455,    1.404,   21.703,    3.922,   -2.959,  -24.554,    4.264,
       -8.982,    0.886,    0.255,    4.083,    0.314,   25.628,  -10.680,
        2.930,   -2.338,   -1.304,   20.096,  -14.158,   -6.652,   -2.208,
       11.385,   -2.991,   15.747,    3.875,   17.328,   -0.582,    8.632,
       -5.162,    4.087,  -32.271,   -8.277,  -11.245,   15.092,    8.473,
      -18.671,    6.637,   -4.609,   20.145,   -9.289,    8.678,  -18.313,
        5.651,  -21.866,    0.086,   -4.188,   -8.013,    6.065,  -45.577,
       -5.310,   -2.977,   -2.020,   11.691,   16.404,  -20.121,   -1.791,
        2.535,   -2.074,   -0.638,  -15.288,   -3.429,  -21.419,   -1.364,
       -6.685,    7.385,   20.629,  -30.065,    1.372,    7.794,   11.407,
       10.419,    9.409,    6.102,   -5.540,  -12.130,    7.931,  -11.638,
        6.697,   11.375,   10.703,   -2.706,   -6.046,   11.270,   16.095,
       18.533,   20.644,   -0.031,    7.794,  -13.851,   16.082,   -4.385,
       -0.153,   -3.179,   14.342,   10.548,    7.959,    1.373,    1.963,
       17.182,   15.952,   -9.915,   -7.204,    5.640,   -6.168,    0.420,
       -3.174,    1.804,   10.083,   -8.120,    0.363,    3.430,   10.947,
        0.794,   13.257,    8.376,  -16.873,   -1.562,   -1.410,    1.766,
       -5.912,   20.005,    1.121,    8.702,  -15.586,    9.410,   27.468,
      -15.397,   -5.704,   -2.191,  -10.756,   -3.065,   20.511,   -9.865,
      -15.679,   -9.209,    1.505,   -1.284,   17.178,   59.492,  -20.569,
        6.674,   -1.593,    3.469,   18.992,   -1.284,  -16.405,   -6.521,
        5.904,   -5.498,  -12.793,   -5.468,   23.789,    8.660,   -3.037,
      -17.291,   19.347,    9.539,    1.696,   -2.046,  -19.736,   -0.245,
       -4.221,   19.205,   -4.073,   -8.864,   -1.695,   -5.968,    8.552,
        0.110,  -19.800,   -0.383,    0.734,    2.413,    0.861,  -15.140,
        1.409,    9.602,    0.215,    5.066,    5.862,   -0.502,    1.196,
        8.972,   -4.532,    0.637,  -29.340,   -1.823,    2.597,    1.992,
       -6.017,    3.387,   -7.159,   21.798,   -1.890,   10.089,   -3.939,
       -7.063,    7.853,   -0.848,    2.363,   16.484,   11.130,  -11.415,
      -22.058,    2.935,   19.084,   -2.053,   16.713,   -1.342,    4.751,
       53.831,   21.091,    4.126,   -0.352,   -2.268,    9.694,    0.588,
       -7.335,   -4.818,   -7.850,   12.962,   -7.937,   -7.974,   15.042,
       12.278,   -5.286,   33.257,   -3.578,  -10.684,   -9.340,   -2.155,
       20.603,   12.098,   -0.304,   22.268,  -12.960,    6.515,   -4.916,
      -10.471,  -13.594,   -1.008,   -6.356,    9.889,    5.341,   -6.841,
      -14.524,   21.339,  -27.752,   -2.364,  -11.835,   27.860,   -3.792,
      -15.038,   -1.629,    7.884,   -8.179,   -0.410,   -8.161,   -5.729,
        7.573,  -15.372,   -0.258,   -0.486,   13.652,   88.355,    8.205,
        6.708,   -3.151,    5.689,   11.726,   -5.232,   -6.948,   -2.896,
       -2.962,  -18.067,    2.873,  -21.438,  -14.597,    3.988,   15.311,
      -12.357,   -5.304,   35.636,    1.394,   -0.783,   -0.478,   -0.274,
        0.859,   -0.394,   -0.812,    1.391,    0.489,    0.282,   -1.602,
       -0.091,    1.980,    2.550,    3.454,    1.731,  -35.793,   -7.432,
        4.285,   -2.832,   -0.961,   -3.507,    0.226,    0.359,    2.883,
       -1.586,   -2.335,    1.108,   -0.314,    0.187,  -46.354,   -9.835,
        1.156,   -2.263,   -5.116,   -1.087,   14.468,    6.405,  -14.119,
       -6.332,    2.733,  -10.395,  -15.487,    1.066,    1.604,  -22.750,
       13.215,    7.253,   14.102,    2.636,   21.595,    2.881,   -8.156,
      -19.117,   19.158,    6.761,   14.302,  -19.590,   -5.507,   -7.610,
        6.638,   -1.569,   -3.260,   -3.334,    8.830,  -12.040,  -25.523,
        4.542,    4.839,   -7.495,    5.327,   31.557,    8.282,   -7.086,
        4.160,   13.460,  -11.575,    0.342,   -6.529,   32.864,    7.600,
       -0.846,  -19.883,   -8.976,   22.868,   -8.648,   -4.935,   -8.411,
       14.104,   -3.391,   -0.647,    1.379,   -0.727,    0.262,   -1.221,
        0.659,   -1.140,   -0.779,    0.702,    0.921,   -0.655,   -0.161,
        0.326,    0.786,   -0.484,    0.568,    0.567,   -1.370,    0.613,
        0.704,   -0.599,    0.615,   -0.502,   -0.618,    1.265,    1.304,
        1.227,   -0.413,    0.538,   -0.315
    },
    { -11.142,   14.480,   11.932,    6.540,   -9.468,    4.986,    4.833,
       -1.608,   -0.316,    1.019,   -7.736,    0.256,    8.283,   24.022,
        7.117,  -19.271,   -9.423,    1.472,   61.351,    6.017,   -1.762,
      -21.988,    4.395,   -6.774,    2.582,   11.255,    0.314,    9.465,
       -1.677,  -10.160,   -2.650,   -7.954,  -12.693,    0.203,    8.119,
      -10.451,  -43.460,    6.907,   -6.042,   -6.832,    6.438,  -18.932,
       -5.870,    8.236,   -7.646,  -26.898,  -12.831,   -2.677,   -8.331,
        6.544,   12.836,  -19.968,    4.006,   -9.375,   -6.644,    7.788,
        0.006,   13.502,   19.323,   -7.122,    7.607,    4.485,    6.916,
       -1.195,    1.401,   -3.154,    2.701,   -1.149,    4.931,   -3.140,
       -7.904,   -9.010,  -33.514,    0.764,    3.517,    0.190,   -1.719,
        1.058,   -0.007,    0.904,   -0.355,    0.132,   -4.852,   -8.233,
       -2.758,   16.668,   20.071,   32.111,   -6.668,   -4.734,  -14.024,
       -5.427,    4.252,    3.199,    7.355,  -20.824,   -7.935,   10.173,
        8.582,   16.289,    9.550,   10.490,    7.748,   -2.724,    7.884,
       -5.062,  -14.412,    5.376,  -29.781,    0.026,   -0.794,   -5.998,
        3.743,   11.832,    2.893,   -7.669,    1.557,   -5.860,    1.124,
       -8.394,    0.312,   14.790,   11.369,  -25.352,  -14.259,   10.616,
      -36.622,   24.710,  -14.742,   14.389,  -19.190,    2.451,    3.351,
       -5.342,   -2.863,    2.515,    8.893,    3.787,    0.278,    8.426,
       11.383,  -16.144,    5.112,   -4.829,  -32.836,    5.139,    5.068,
       13.495,   -9.956,    9.843,    4.967,   -7.958,    9.411,    9.231,
       15.929,   -6.186,   -2.948,   16.892,   -6.099,    3.119,    1.945,
       17.082,  -32.454,   -3.028,   -6.679,    3.117,   -2.486,    1.621,
       -2.412,    3.440,   22.147,    3.293,   -2.439,  -26.557,    3.922,
       -5.760,   -7.882,   -2.458,    1.451,    0.049,   22.127,   -6.691,
        3.050,   -1.994,   -3.714,   14.707,  -10.765,   -2.687,   -2.472,
        7.707,   -3.763,   15.068,    4.096,   16.779,   -0.038,    4.589,
       -5.715,    4.346,  -23.193,   -7.408,  -13.803,    8.624,    0.297,
       -6.294,    3.280,   -3.102,    9.407,   -6.154,   11.129,   -9.126,
        2.346,  -17.118,   -4.112,   -0.372,   -7.402,    2.961,  -40.801,
       -5.594,    2.913,    2.470,    9.831,   12.086,  -11.853,   -0.319,
        2.683,   -0.957,   -1.388,  -16.735,    0.471,  -23.387,    1.079,
       -8.195,    6.552,   16.254,  -36.021,    0.614,    9.267,   11.262,
       10.864,   10.099,    6.503,   -5.035,  -15.501,    8.202,   -8.239,
        8.046,   10.143,    3.641,  -13.259,   -8.157,    9.568,   14.075,
       21.247,   29.939,   -0.692,   10.244,  -20.004,   15.211,   -2.610,
        3.104,   -3.684,   14.218,    7.952,   11.569,    0.284,   -1.727,
       23.639,   17.386,   -8.931,  -10.762,    8.935,   -4.022,   -2.890,
       -3.010,    2.706,    8.777,   -5.769,   -2.634,    7.603,   12.106,
        2.950,   15.430,   10.198,  -14.230,    3.061,   -2.351,   -0.123,
       -9.177,   17.092,   -1.116,    7.236,  -11.266,   12.423,   23.608,
       -9.588,   -3.503,    0.544,   -9.483,   -0.179,   18.357,   -9.248,
      -19.795,  -11.767,    0.919,   -5.132,   13.418,   64.358,  -22.972,
        9.202,   -0.649,    4.212,   21.147,   -2.631,  -19.005,   -8.357,
        8.064,   -5.372,  -15.124,   -7.083,   23.094,   11.337,   -3.210,
      -16.264,   19.310,    8.082,    4.226,   -0.283,  -21.594,    0.625,
       -7.581,   20.201,   -2.925,  -12.081,   -1.616,   -5.489,   10.074,
        1.926,  -16.994,   -8.681,    0.047,    3.125,   -1.641,  -19.371,
        0.964,   12.015,   -0.318,    5.221,    8.825,   -0.658,    2.313,
        9.497,   -5.495,   -0.013,  -36.284,   -1.280,    8.106,   -2.457,
       -5.630,    4.301,  -10.193,   19.405,   -1.267,   10.092,   -4.010,
       -3.533,    6.695,   -0.869,    1.063,   14.822,    8.957,   -9.374,
      -19.719,    2.212,   21.375,  -12.119,   10.986,   -1.633,    4.015,
       51.667,   20.419,    3.492,    0.361,   -3.212,    8.935,    0.376,
       -6.802,   -3.221,   -6.127,   12.946,   -8.143,   -9.038,    9.707,
        9.521,   -5.869,   33.196,   -4.100,  -11.520,   -9.429,   -3.974,
       19.317,   12.796,   -4.030,   20.931,   -8.221,    9.139,   -5.906,
       -6.194,  -10.497,    0.807,   -6.366,    8.030,    3.085,   -8.514,
      -15.578,   24.931,  -29.775,   -2.556,  -11.296,   28.167,   -8.011,
      -16.439,   -2.161,    5.542,   -7.429,    1.414,   -7.086,   -5.702,
       18.862,  -14.418,    0.005,   -1.243,    9.814,   79.906,    6.698,
        7.469,   -2.849,   -5.079,    7.434,   -5.647,   -4.533,   -9.241,
       -5.809,  -15.558,    6.556,  -19.750,   -9.267,    6.495,   16.919,
      -11.682,   -2.809,   41.401,    0.805,   -1.294,   -0.790,   -0.139,
        0.775,   -0.544,   -1.703,    0.597,    0.058,    1.367,    0.156,
       -0.733,    3.613,   -2.107,    3.260,    1.212,  -42.044,   -6.471,
        4.307,   -2.222,   -0.823,   -2.413,    0.376,    0.041,    2.000,
       -1.520,   -1.795,    2.168,   -0.201,    0.519,  -36.325,  -12.141,
        2.666,   -1.875,   -4.251,   -0.699,   14.278,   10.222,  -17.233,
       -3.006,    3.068,  -12.814,  -17.704,    1.011,    2.368,  -26.347,
       14.859,   10.417,   17.348,    3.965,   19.446,    1.227,   -8.067,
      -20.007,   19.915,    6.060,   15.410,  -20.364,  -10.523,  -13.467,
        6.929,    4.471,   -5.599,   -3.273,   10.086,  -10.577,  -16.932,
       -5.594,   -0.755,  -11.524,    5.910,   27.546,    5.235,   -4.674,
        3.939,   12.224,  -14.908,    1.031,   -8.304,   32.436,    6.378,
       -2.079,  -15.690,   -8.326,   17.946,   -5.770,   -0.713,    0.651,
       13.773,   -3.243,   -0.760,    1.049,   -0.765,    0.336,   -1.548,
        0.603,   -1.260,   -0.722,    0.781,    0.858,   -0.643,   -0.239,
        0.555,    0.746,   -0.499,    0.530,    0.505,   -1.211,    0.603,
        0.736,   -0.645,    0.636,   -0.450,   -0.560,    1.049,    1.224,
        1.128,   -0.422,    0.538,   -0.484
    },
    { -11.843,   14.804,   13.564,    6.679,   -9.005,    4.781,    4.347,
       -2.785,   -0.688,    2.456,   -9.020,    0.292,    7.295,   25.158,
        2.507,  -18.249,   -7.649,    1.282,   71.136,    4.013,   -1.098,
      -24.576,    6.829,   -9.176,   11.613,   13.087,   -2.374,   11.139,
       -4.097,   -8.107,   -2.407,  -11.665,   -9.622,    2.769,   10.977,
      -11.319,  -41.738,    5.891,   -8.500,   -7.380,    5.151,  -19.685,
       -6.046,    6.307,   -4.933,  -25.561,   -7.175,   -0.592,   -7.027,
        5.696,   16.657,  -16.845,    1.044,   -9.091,   -2.068,    7.156,
        1.663,   12.865,   16.934,   -5.397,    4.925,    5.664,    4.619,
       -1.365,    1.004,   -4.117,    0.766,    3.912,   11.762,   -8.182,
       -9.879,   -6.034,  -40.167,   -6.213,    0.005,    2.653,    2.901,
        1.631,    0.061,    2.522,   -2.196,    1.225,   -7.585,   -8.554,
       -4.162,   10.818,   16.281,   31.634,   -7.952,   -0.855,  -18.342,
       -4.860,    4.779,    3.118,    7.360,  -22.116,   -6.817,    6.694,
        7.031,   15.479,    8.973,   11.691,    6.651,  -18.229,   11.809,
       -3.095,  -13.111,    6.349,  -30.526,   -1.948,    1.611,   -9.675,
        4.160,    9.418,   -1.008,   -8.565,    2.963,   -4.683,    2.568,
       -8.101,   -1.290,   16.761,    3.967,  -26.550,  -14.285,    9.275,
      -41.449,   25.577,  -16.787,    9.796,  -22.580,    3.180,    2.866,
       -3.118,   -0.651,    1.071,    8.138,    5.982,   -3.933,    2.567,
       11.646,  -15.409,    4.920,   -2.847,  -28.531,    5.538,    3.541,
       11.799,  -10.124,    9.974,    4.385,   -4.374,    7.330,    9.105,
       13.008,   -4.126,   -3.515,    9.838,    2.543,    0.363,    2.930,
       14.042,  -39.412,   -3.903,   -9.538,    4.221,   -3.184,    1.573,
       -1.523,    2.092,   27.540,    4.655,   -2.693,  -31.211,    4.687,
      -10.761,   -5.571,   -0.011,    3.221,    1.819,   20.764,   -7.381,
        3.265,   -1.945,    1.484,   14.644,  -10.235,   -4.240,    0.445,
        9.332,   -2.107,   13.896,    4.145,   14.291,    0.462,    3.492,
       -5.565,    2.839,  -24.970,   -8.777,  -12.293,    7.365,   10.646,
       -4.039,   11.156,   -2.256,   -3.814,   -8.621,    6.613,   -8.792,
        5.757,  -20.464,    0.195,    4.915,   -4.110,   -0.252,  -31.772,
       -7.701,   -0.776,    0.398,    6.040,   13.521,  -10.141,   -1.464,
       -0.128,   -2.129,   -1.314,  -12.213,    0.623,  -22.948,    1.263,
       -4.993,    5.323,   14.420,  -38.912,   -0.463,   10.411,    9.865,
       14.352,    8.028,    6.428,   -3.997,  -13.660,   11.094,  -11.109,
        9.396,   10.993,    2.620,  -20.202,  -10.977,   10.177,   14.829,
       18.587,   19.202,   -0.967,   10.323,  -18.871,   18.529,   -5.231,
        1.691,   -6.015,   12.509,    8.776,   11.845,   -0.203,    0.824,
       20.131,   16.749,  -10.489,  -11.182,    9.775,   -6.813,   -2.917,
       -4.721,    5.940,   11.321,   -8.305,    0.062,    9.074,   16.541,
        3.356,   15.833,   11.158,  -16.898,    1.569,   -3.709,   -0.980,
      -12.448,   16.428,   -1.496,    6.792,   -7.945,   14.247,   21.026,
       -6.902,   -5.018,    3.369,  -11.606,   -0.336,   17.887,   -8.813,
      -21.444,   -8.495,    0.691,   -4.484,   13.684,   54.051,  -18.817,
        7.336,   -0.291,    4.741,   17.646,   -1.352,  -16.492,   -6.319,
        6.017,   -5.799,  -13.592,   -6.659,   23.173,    3.501,   -2.878,
      -13.794,   17.282,   11.769,    0.734,   -3.602,  -24.548,    0.490,
      -10.208,   22.819,   -2.788,  -11.981,    1.288,   -6.310,   16.146,
       -0.245,  -14.006,  -11.696,    0.267,    5.071,   -5.227,  -17.120,
        2.991,   13.088,    0.058,    6.083,    7.494,   -0.397,    4.212,
        9.411,   -4.590,   -0.086,  -36.297,   -1.227,    6.689,    4.209,
       -7.372,    2.557,  -10.174,   18.429,   -2.740,    7.574,   -2.404,
       -2.955,    5.714,    0.328,    2.790,   13.844,    7.895,   -7.931,
      -16.133,    2.115,   23.737,  -11.141,   11.418,   -2.662,    2.268,
       53.053,   18.884,    4.652,    0.174,   -3.250,    8.647,   -0.303,
       -5.060,   -3.566,   -7.103,   13.710,   -8.670,   -6.314,   17.111,
       14.559,   -6.896,   29.668,   -2.950,  -11.501,   -6.382,   -3.293,
       22.265,   11.876,   -8.306,   16.997,   -7.317,    8.343,   -4.666,
       -8.695,  -13.944,   -0.112,   -2.603,   11.530,   -3.185,  -15.559,
      -16.642,   23.611,  -33.228,   -3.723,  -13.116,   27.637,   -7.302,
      -17.565,    2.808,    8.707,   -9.386,   -0.368,  -10.149,   -7.560,
       18.359,  -20.592,    0.136,   -0.519,   11.223,   77.503,    7.592,
        8.021,   -0.911,    4.047,    1.406,   -3.046,   -8.979,   -2.513,
       -6.098,  -15.656,    3.817,  -21.273,  -11.052,    4.757,   14.307,
       -9.869,   -0.771,   47.696,    1.502,   -1.568,   -1.249,   -0.683,
        1.191,   -0.250,   -0.515,    0.336,    0.466,    0.602,    0.655,
       -0.444,    6.238,    2.848,    3.758,    1.256,  -46.767,   -5.773,
        3.269,   -1.118,   -1.569,   -2.779,   -0.609,   -0.441,    3.176,
       -0.729,   -1.953,    1.137,   -0.636,    0.513,  -35.879,   -5.136,
        0.930,   -2.864,   -2.938,    0.387,   13.853,    8.352,  -10.531,
       -6.060,    2.681,   -9.594,   -9.799,   -1.875,    0.198,  -16.974,
       16.620,    4.405,   15.377,    8.049,   25.121,   -5.917,   -8.478,
      -19.400,   19.415,    8.078,   19.334,  -24.635,   -9.213,  -11.851,
       10.339,    0.816,   -3.324,   -0.205,   12.425,  -10.978,   -6.361,
      -13.074,   -0.596,  -17.271,    8.648,   25.762,    7.047,   -7.780,
        4.487,   11.764,  -11.610,   -2.903,  -11.039,   29.878,    4.522,
       -2.267,  -13.971,   -6.660,    4.949,   -0.621,   -8.197,   -2.803,
       15.242,   -3.808,   -0.846,    1.170,   -0.801,    0.349,   -1.377,
        0.509,   -1.155,   -0.762,    0.728,    0.767,   -0.590,   -0.166,
        0.382,    0.631,   -0.519,    0.508,    0.548,   -1.191,    0.522,
        0.717,   -0.755,    0.574,   -0.512,   -0.647,    1.439,    1.274,
        1.073,   -0.404,    0.519,   -0.451
    },
    {  -8.970,   13.666,   12.544,    6.559,  -10.438,    4.819,    3.736,
       -0.907,   -0.167,    1.884,   -6.795,    0.112,    7.371,   30.525,
       -0.071,  -15.666,   -6.950,    0.998,   74.410,    5.441,   -1.523,
      -25.907,    3.774,   -8.908,    5.744,   10.261,   -1.230,   10.361,
       -0.343,   -7.861,   -2.014,  -17.075,    8.296,   -3.505,   10.369,
      -11.745,  -34.833,    3.994,   -7.198,   -5.036,    5.471,  -15.730,
       -2.931,    7.124,   -3.233,  -21.659,   -8.822,   -1.044,   -6.372,
        5.727,    6.214,  -17.487,    0.271,   -6.865,   -7.829,   10.760,
       -1.966,   19.163,   21.303,   -5.224,   11.520,   13.776,    4.365,
       -1.646,    0.446,   -0.402,    3.710,    4.394,   19.439,  -11.792,
      -17.649,   -9.442,  -42.311,   -2.793,   -3.825,   -2.134,    0.497,
        0.694,   -1.623,   -0.421,   -0.715,   -3.381,  -17.846,   -0.553,
       -3.604,   11.469,   13.702,   28.729,   -4.913,    5.056,  -19.778,
       -5.844,    3.483,    6.293,    9.474,  -18.716,   -7.238,    6.417,
        5.365,   17.494,   10.494,   13.531,    8.571,  -28.058,    7.630,
       -5.657,  -14.356,    6.438,  -22.563,   -4.507,   -2.600,   -6.395,
        2.896,    8.475,    2.356,   -6.123,    2.264,   -2.278,   -1.426,
       -6.619,   -0.732,   19.304,    3.942,  -21.532,  -12.050,   10.060,
      -33.689,   24.484,  -17.685,   13.235,  -13.028,    8.389,    3.693,
       -1.317,   -1.810,   -2.730,   -0.890,    5.851,   -1.185,    1.285,
        7.881,  -14.518,   12.011,   -9.189,  -24.325,    5.728,    5.359,
       13.172,  -12.266,    7.376,    4.072,   -6.237,    4.232,   11.510,
       12.883,   -3.604,   -2.078,   15.077,   -4.247,   -0.143,    2.849,
       14.569,  -49.245,   -3.831,  -12.875,    4.640,   -6.262,    1.379,
       -2.868,    0.272,   33.976,    4.097,   -2.685,  -40.233,    6.641,
      -16.481,    4.344,   -0.682,    5.311,    3.837,   25.549,   -6.748,
        2.645,   -3.966,    0.341,   17.268,  -13.163,   -5.313,   -0.814,
       10.161,   -4.928,   17.551,    4.165,   16.533,    5.505,    5.795,
       -6.127,    5.320,  -26.040,  -12.314,  -19.484,    7.976,   -1.782,
       -3.562,   -0.329,  -11.641,   -2.877,   -6.031,    9.316,  -11.530,
        6.627,  -13.773,    7.876,    1.970,    4.096,    1.516,  -26.178,
       -6.206,   -0.456,    0.025,    3.808,   10.892,   -8.188,    0.466,
        0.549,   -2.538,   -3.737,   -7.441,    1.135,  -27.197,    0.235,
       -5.572,    5.284,    9.583,  -45.834,    3.706,    9.070,   12.151,
       12.284,   16.271,   12.765,   -3.255,  -15.470,    6.648,  -10.728,
        5.922,   10.433,    3.760,  -12.279,  -10.295,   14.000,   17.594,
        8.749,   13.439,   -0.072,    9.813,  -13.673,   11.032,   -4.047,
        0.198,   -1.179,    7.855,    8.776,    6.862,    1.043,    0.306,
        1.118,   16.556,   -7.259,   -8.991,   11.172,   -9.630,   -1.773,
       -7.651,    3.825,   15.501,  -11.664,   -1.163,   10.365,   18.592,
        3.287,   17.858,   13.278,  -28.079,    1.698,   -3.938,   -0.509,
      -12.808,   11.498,    0.233,    6.547,   -6.981,    6.113,   18.649,
       -5.618,   -1.904,    1.157,   -9.927,   -2.084,   15.172,   -7.214,
      -15.737,  -13.762,    3.757,   -4.881,   12.915,   41.343,  -15.157,
        7.366,    0.029,    2.152,   11.322,   -2.381,  -11.093,   -7.301,
        3.780,   -3.034,   -9.978,   -5.919,   21.953,   -1.088,   -7.404,
      -14.217,   17.869,    6.704,    4.527,   -5.157,  -22.107,    0.657,
       -8.519,   19.471,   -7.122,  -11.065,    1.518,   -3.030,   16.164,
        1.246,  -21.116,  -12.954,    2.292,    3.991,   -5.033,  -17.984,
        2.559,   12.589,    1.474,    5.438,    6.053,   -1.531,    1.597,
       10.499,   -5.660,    0.766,  -34.676,   -1.537,    0.894,    8.099,
       -6.920,    3.956,   -8.484,   23.804,   -3.239,   10.644,   -4.370,
       -5.626,   10.043,   -1.226,    2.706,   20.357,   13.191,  -13.300,
      -25.787,    4.802,   19.318,   -5.442,   18.014,   -1.828,    4.195,
       45.239,   14.809,    6.204,   -0.294,   -0.273,    4.000,   -0.223,
       -5.656,   -1.913,   -5.707,   11.420,   -4.413,   -3.843,    5.265,
       22.616,   -3.669,   27.904,   -1.369,  -12.940,   -8.310,   -1.310,
       17.868,   12.430,   -5.788,   13.917,   -6.487,    7.801,   -4.904,
       -7.543,  -12.472,   -2.019,   -7.919,   15.257,   -2.941,  -11.917,
      -15.683,   21.593,  -33.370,   -0.988,  -11.464,   24.690,   -8.076,
      -16.027,    2.481,    3.962,   -9.133,   -1.501,   -8.931,   -5.565,
        8.662,  -13.489,   -3.956,   -2.164,   13.987,   82.386,   -1.997,
        5.734,   -4.629,    9.758,    3.796,  -11.608,  -13.152,    0.264,
       -5.641,  -13.718,    5.433,  -20.788,   -7.458,    0.927,   11.324,
      -14.190,   -1.695,   44.148,    1.069,   -0.519,   -0.605,   -0.150,
        1.368,    0.192,   -0.774,    0.713,    0.417,    0.089,   -0.674,
       -0.245,    2.777,    1.836,    3.234,    1.629,  -44.857,   -7.611,
        5.322,   -3.530,   -1.461,   -4.577,   -0.324,    0.271,    5.084,
       -1.978,   -2.818,    2.813,   -0.858,    0.942,  -48.749,  -18.363,
        2.630,   -4.189,   -5.781,   -1.908,   10.837,    7.181,   -4.770,
       -0.068,   -0.893,   -0.372,  -10.950,    2.607,   -2.312,   -4.343,
        5.067,    5.529,   14.694,   -1.306,   14.791,   -8.076,   -6.547,
      -16.737,   14.699,    8.371,   17.260,  -21.491,   -6.696,   -9.747,
        6.650,   -1.679,   -7.161,   -2.941,    8.276,   -7.443,    0.485,
      -17.807,   -2.897,  -15.578,   10.575,   16.243,    5.734,   -4.437,
        4.357,    9.262,   -8.180,   -0.067,   -8.735,   21.328,    3.220,
       -3.656,   -9.527,   -5.441,   -3.842,   -1.905,   -5.452,   -1.614,
       12.327,   -4.382,   -0.981,    1.508,   -0.750,    0.431,   -1.667,
        0.451,   -1.261,   -0.661,    0.675,    0.787,   -0.742,   -0.207,
        0.301,    0.783,   -0.531,    0.697,    0.518,   -1.019,    0.373,
        0.859,   -0.773,    0.590,   -0.506,   -0.624,    1.310,    1.165,
        1.120,   -0.385,    0.523,   -0.356
    },
    { -18.186,   18.711,   15.995,    7.143,  -10.964,    4.840,    5.400,
       -3.800,   -1.668,    2.541,   -6.564,    0.994,    8.349,   21.509,
       -5.058,  -18.909,  -10.182,    1.559,   73.120,    7.621,   -2.213,
      -22.819,    3.361,   -7.409,    7.671,   11.069,   -0.929,   11.777,
       -2.109,   -7.965,   -1.787,   -7.887,   13.087,    4.643,   10.956,
      -13.339,  -29.856,    4.646,   -6.608,   -6.750,    3.647,  -14.282,
       -3.666,    7.260,   -3.105,  -20.474,   -7.637,   -2.347,   -6.610,
        4.628,   22.293,  -14.491,    0.274,   -7.364,  -18.031,   10.544,
       -8.672,   22.133,   27.862,   -6.942,   15.792,   10.695,    6.828,
       -6.135,   -0.759,    0.987,    1.044,    0.597,    5.144,  -13.604,
      -18.851,   -8.958,  -44.104,   -8.117,   -5.058,    0.816,    5.524,
        1.725,    3.537,   -0.781,   -2.861,   -4.717,  -17.273,   -1.452,
       -4.100,   11.901,   15.095,   31.301,    4.050,    0.938,  -12.970,
       -3.941,    0.989,    4.561,    4.283,  -17.776,   -6.088,    6.346,
        7.745,   14.255,    8.690,   12.204,    5.222,  -13.293,   10.792,
       -7.649,  -13.359,    6.524,  -22.991,   -0.300,   -2.028,   -5.587,
        2.840,    9.239,   -0.159,   -5.245,    2.120,   -3.437,   -0.397,
       -5.953,   -1.794,   17.778,   -0.879,  -20.213,  -11.453,    7.951,
      -32.350,   21.923,  -19.106,   14.672,  -12.239,    5.494,    3.166,
       -1.536,    2.832,   -1.129,    5.584,    9.080,   -2.796,   14.183,
       20.893,  -19.768,    6.647,   -4.623,  -29.874,    5.941,    8.267,
       12.329,  -13.072,    9.239,    4.330,   -5.626,    6.117,    9.414,
       12.950,   -5.451,   -5.912,   15.620,    1.226,   -5.860,    2.373,
       17.544,  -44.290,   -6.045,   -8.888,    3.918,   -4.093,    0.639,
       -4.797,    6.305,   27.116,    5.297,   -3.179,  -33.620,    5.549,
       -8.930,  -13.859,   -0.984,    1.137,    2.146,   30.493,   -5.773,
        3.389,   -1.786,    0.040,   19.410,  -13.664,   -5.515,   -1.767,
       13.589,   -9.394,   18.565,    5.713,   13.588,   16.031,    6.465,
       -5.157,    6.415,  -31.344,  -16.346,  -26.429,    5.670,    4.295,
       -2.924,    7.909,   -6.455,   -4.991,   -7.709,    6.740,   -5.008,
        8.069,  -12.103,    0.748,   -8.442,   -1.024,    3.070,  -31.311,
       -3.548,    5.117,    3.854,    4.599,    9.953,  -15.802,   -4.053,
       -3.503,    4.686,   -4.156,   -8.916,    1.037,  -14.761,    4.737,
      -13.478,    5.308,   15.486,  -48.183,   -0.232,   14.762,   12.831,
        9.978,   12.079,   10.049,   -2.686,  -13.180,    7.703,  -16.870,
        9.978,   13.117,    5.902,    0.039,  -18.512,   17.831,   20.709,
        7.085,   19.655,    3.157,    6.625,  -12.142,    6.704,   -2.062,
       -2.277,   -3.088,    8.767,   10.766,    8.905,    2.733,   -4.615,
       -7.944,   15.402,   -8.749,   -8.087,   10.097,   -6.640,   -2.736,
       -7.453,    7.845,   15.633,  -13.885,   -5.125,   13.667,   19.240,
        2.189,   14.932,   12.772,  -34.069,   -0.338,   -3.496,    4.389,
      -13.236,    5.497,   -3.075,    5.129,   -6.244,   10.334,   13.727,
       -4.720,   -2.331,   -1.658,   -8.781,   -3.172,   13.792,   -7.838,
      -12.394,  -11.333,    7.595,   -1.995,    8.162,   39.140,  -14.366,
        7.873,   -0.889,    0.437,   10.764,   -1.941,  -11.017,   -5.461,
        2.443,   -3.860,   -9.894,   -5.472,   17.907,    5.390,   -4.710,
      -12.800,   15.482,   13.721,   -1.819,   -1.756,  -23.627,    7.346,
       -7.597,   24.451,   -7.001,  -13.946,   -0.071,   -1.706,   15.924,
        0.727,   -9.014,   -9.955,    0.647,   -0.016,   -4.284,  -19.132,
        1.578,   12.362,    1.417,    6.033,    8.933,   -0.915,    0.664,
       11.473,   -6.196,   -0.615,  -37.902,   -0.390,    6.829,    0.458,
       -7.132,    4.043,   -8.653,   26.810,   -1.947,   12.991,   -5.907,
       -4.648,   12.257,   -1.686,    4.009,   21.342,   13.859,  -14.549,
      -27.480,    5.247,   15.626,   -1.359,   17.160,   -0.373,    3.544,
       38.716,    9.595,    2.629,    0.543,    3.731,    4.246,    1.118,
       -4.162,   -0.697,   -3.430,   14.295,   -6.685,   -4.263,    2.592,
       27.693,   -3.957,   21.972,   -3.716,  -10.499,   -4.244,    0.031,
       11.021,    7.138,   -3.589,   10.322,   -4.131,    6.393,   -4.813,
       -6.262,  -10.816,   -0.579,   -3.326,    8.884,   -1.598,   -9.044,
      -10.509,   19.342,  -23.111,   -4.413,  -10.864,   22.142,   -4.177,
      -11.525,   -1.191,    3.055,   -5.690,   -2.242,   -5.142,   -6.870,
        3.694,    4.038,   -3.338,   -3.315,   16.511,   75.830,    1.999,
        6.210,   -2.780,    7.370,    0.759,   -8.613,  -12.576,   -0.557,
       -5.621,  -12.619,    5.599,  -16.387,   -7.443,    5.898,    9.260,
      -12.940,    1.396,   40.063,    0.428,   -1.672,   -0.874,    0.473,
        1.249,   -1.209,   -2.953,    1.149,    0.170,    0.706,    0.095,
        0.357,    0.030,   -0.398,    4.457,    1.868,  -41.619,   -9.027,
        6.305,   -3.703,   -1.626,   -3.890,    0.631,   -0.110,    3.302,
       -1.620,   -3.231,    3.695,   -0.543,    0.217,  -51.711,  -20.074,
        3.362,   -3.797,   -5.673,   -4.930,    2.525,    9.131,   -3.970,
       -1.527,    3.021,   -7.912,  -11.293,   -7.982,   -2.877,   -8.982,
        3.973,    4.308,    9.080,   -4.260,   18.334,   -6.119,   -3.497,
      -14.214,   13.463,    8.080,   14.025,  -20.058,   -4.852,  -11.138,
        6.594,    0.256,   -7.899,   -2.931,    4.725,   -9.765,    0.476,
      -12.288,    2.652,  -15.766,   10.888,   10.709,    3.907,   -4.334,
        2.094,    5.765,   -8.742,   -0.602,   -9.070,   24.984,    4.612,
       -1.496,  -11.238,   -3.517,  -12.980,   -7.695,    0.378,   -3.399,
        7.413,   -4.829,   -0.818,    1.344,   -0.727,    0.345,   -1.752,
        0.514,   -1.367,   -0.838,    0.569,    0.755,   -0.621,   -0.205,
        0.326,    0.714,   -0.579,    0.614,    0.490,   -1.269,    0.590,
        0.878,   -0.650,    0.562,   -0.702,   -0.732,    1.620,    1.169,
        1.372,   -0.345,    0.546,   -0.408
    },
    { -17.734,   16.403,   14.414,    6.763,  -10.167,    4.650,    5.135,
       -2.018,   -1.355,    0.482,   -5.674,   -0.834,    8.346,   12.823,
       -2.750,  -18.648,   -8.900,    0.302,   76.915,    6.205,   -4.189,
      -24.894,    6.097,   -6.870,    5.603,    8.918,   -1.734,    9.483,
       -1.818,  -11.613,   -1.158,   -3.085,   -0.217,    3.761,   12.165,
      -12.407,  -29.742,    4.742,   -4.786,   -6.308,    4.535,  -14.861,
       -5.028,    5.882,   -5.479,  -19.836,   -7.879,   -1.242,   -6.317,
        8.502,   16.566,  -15.515,    0.201,   -6.951,  -18.422,    8.037,
       -4.487,   17.659,   20.151,   -4.317,    8.849,   10.436,    3.639,
       -0.999,    4.891,    1.322,    3.890,   -6.244,   -4.960,   -8.549,
      -21.819,   -8.191,  -42.264,   -4.131,   -5.716,   -3.306,    3.557,
       -1.268,    0.281,    1.237,    3.700,   -4.527,  -19.237,   -2.642,
       -0.715,   10.434,   19.093,   28.164,   -3.517,    3.013,  -11.917,
       -4.533,    2.493,    4.395,    7.829,  -16.811,   -6.307,    8.347,
        7.154,   14.775,   10.647,    9.348,    8.196,   -4.996,    7.772,
       -3.599,  -15.163,    4.295,  -16.643,   -3.352,    0.809,   -3.098,
        2.871,    6.761,    0.559,   -4.094,    1.190,   -1.127,   -0.723,
       -5.644,    1.246,   22.797,    6.248,  -17.718,  -10.994,    8.584,
      -34.147,   25.822,  -23.501,   14.672,  -13.064,   12.036,    1.317,
        2.934,    0.726,   -1.647,    4.625,    7.634,   -6.779,   35.885,
       18.946,  -20.060,    9.706,   -7.999,  -33.472,    6.100,    7.265,
       15.695,  -10.127,    8.336,    3.238,  -10.717,    4.931,   11.867,
       16.974,   -4.795,   -5.703,   -3.297,   13.097,   -4.602,    5.846,
       16.619,  -39.284,   -4.980,  -10.387,    4.321,   -2.939,    1.746,
       -2.766,    1.611,   26.120,    3.795,   -4.403,  -30.810,    6.352,
       -7.367,  -11.329,   -3.466,    2.972,    2.068,   29.616,   -8.111,
        9.477,   -0.466,    1.970,   18.231,  -19.452,   -2.489,   -4.289,
       13.639,   -9.430,   20.687,    4.158,   16.646,    5.382,    3.953,
       -9.038,    6.135,  -27.985,  -20.737,  -22.430,   11.189,   13.932,
       -4.146,   10.206,   -2.755,   -0.608,   -7.110,    6.031,   -7.936,
        2.839,  -13.279,   -5.445,  -15.357,    2.623,    3.788,  -33.122,
      -13.945,    3.101,    5.858,    2.838,   17.308,  -19.687,  -12.521,
       -6.358,    2.263,   -7.179,  -16.804,   10.192,    7.327,    1.363,
       -9.307,   17.540,   12.937,  -47.113,    2.768,   14.554,   12.225,
        5.397,   12.114,   10.139,    2.915,  -10.921,    9.350,  -15.483,
        6.171,   11.936,    7.082,   -1.920,  -15.356,   17.610,   20.784,
       12.620,   15.240,    2.114,    6.948,   -9.189,    9.786,   -1.108,
       -1.741,   -3.324,   12.872,   12.675,    9.906,    3.620,   -3.291,
       -4.931,   14.065,  -12.377,   -9.676,    8.019,   -8.936,   -2.599,
       -5.114,    7.917,   15.696,  -10.560,   -6.720,   11.128,   20.589,
        5.170,   20.316,   13.415,  -36.990,   -4.093,   -8.523,    2.667,
      -13.690,   14.621,   -3.993,    4.000,   -9.946,   11.428,   21.990,
       -3.190,   -3.687,    0.901,  -10.989,   -4.285,   13.862,   -8.804,
      -10.604,   -7.254,    0.559,   -1.324,   12.381,   34.164,  -10.573,
        4.437,   -1.549,    2.137,    9.781,   -1.909,   -9.978,   -3.711,
        2.227,   -2.683,   -8.434,   -3.488,   18.090,    8.428,   -0.916,
       -8.068,   11.052,   18.364,    0.096,   -0.549,  -24.816,    5.662,
       -8.576,   27.101,   -6.688,  -11.288,   -1.098,   -4.212,   13.876,
       -1.020,   -1.700,  -12.667,    2.539,   -0.755,   -3.093,  -13.336,
        1.366,    8.635,    0.089,    5.539,    7.085,   -0.670,    1.505,
        8.715,   -5.005,   -0.771,  -28.738,   -1.077,    8.086,    0.676,
       -5.083,    3.283,   -6.591,   23.502,   -3.876,   12.184,   -4.093,
       -3.113,    8.698,   -0.802,    2.392,   18.233,   12.290,  -13.185,
      -24.544,    3.146,   16.469,   -0.399,   18.102,   -0.826,    2.977,
       32.135,    8.327,    4.442,   -0.055,    2.168,    2.029,   -1.638,
       -2.982,   -0.717,   -3.242,   11.543,   -5.887,   -4.146,    4.452,
       25.770,   -1.838,   14.509,   -2.644,   -9.209,   -7.217,   -4.512,
       15.325,    8.417,   -3.776,   13.189,   -3.937,    6.853,   -1.860,
       -5.204,  -10.700,   -1.563,   15.066,  -11.718,   -3.219,  -10.139,
      -14.303,   19.141,  -27.463,   -3.357,  -13.851,   22.888,   -5.755,
      -14.901,    3.595,    5.779,   -7.610,   -3.278,   -7.165,   -5.120,
        3.094,    5.709,   -3.613,   -1.814,   12.246,   64.747,   -1.377,
        3.935,   -3.864,    6.962,    3.895,   -9.056,   -5.162,   -0.469,
       -7.290,  -14.031,    3.596,  -18.879,  -14.556,    8.571,    9.054,
      -11.132,   -2.010,   40.364,    0.778,   -1.455,   -0.275,   -0.140,
        1.278,    0.275,    0.048,    0.586,    0.465,   -0.512,   -0.062,
       -1.194,    0.699,    6.542,    4.412,    1.107,  -40.975,   -7.015,
        4.771,   -3.084,   -1.553,   -3.169,    0.144,   -0.218,    3.575,
       -1.864,   -3.039,    3.011,   -0.004,    0.253,  -43.908,  -13.842,
        2.032,   -3.504,   -4.164,  -10.093,    1.104,   13.689,   -5.643,
       -1.923,    5.008,  -10.516,  -16.287,   -9.085,   -2.837,  -13.792,
        5.992,    9.471,    3.487,    4.240,   27.633,   -3.642,   -7.481,
      -15.244,   15.116,    6.062,   11.828,  -18.794,   -6.621,   -7.490,
        5.967,   -1.266,   -3.978,    1.669,    6.273,   -8.951,   -7.419,
       -8.000,    0.470,  -13.225,    6.731,    8.479,    4.891,   -4.134,
       -0.655,    3.085,   -5.786,    1.333,   -9.086,   24.982,    3.628,
       -3.694,  -14.439,   -4.292,  -18.962,  -10.933,   -0.340,    0.735,
        8.586,   -4.123,   -0.768,    1.453,   -0.675,    0.392,   -1.691,
        0.509,   -1.434,   -0.831,    0.829,    0.788,   -0.566,   -0.264,
        0.414,    0.745,   -0.647,    0.713,    0.384,   -1.529,    0.507,
        0.797,   -0.701,    0.565,   -0.652,   -0.559,    1.262,    1.288,
        1.332,   -0.430,    0.405,   -0.434
    },
    { -11.419,   15.372,   12.949,    6.544,   -9.619,    5.289,    3.640,
       -3.154,   -1.051,    2.054,   -5.676,    0.831,    6.329,   21.395,
        6.202,  -16.269,   -9.235,    1.087,   76.288,    3.213,   -1.188,
      -26.836,    5.443,   -7.110,   10.330,   11.906,   -0.027,   11.534,
       -2.607,   -9.172,   -1.121,   -7.327,  -12.023,    1.735,   13.709,
      -11.593,  -26.593,    5.361,   -5.362,   -4.144,    5.087,  -15.704,
       -3.022,    4.911,   -1.429,  -17.044,   -4.503,    2.240,   -6.357,
       10.152,   14.337,  -11.423,    1.434,   -9.288,  -14.923,   10.869,
       -5.711,   19.990,   19.044,   -5.118,   11.014,    7.542,    5.526,
       -0.938,    1.623,   -0.017,    3.990,   -8.731,    7.039,   -9.341,
      -16.221,   -7.037,  -39.067,   -4.932,   -3.988,   -3.124,    4.864,
        2.096,    0.228,   -0.736,    3.525,   -0.397,  -18.786,   -3.920,
       -0.846,    4.726,   16.333,   20.224,   -4.939,    3.297,  -15.856,
       -6.952,    2.255,    5.239,   13.134,  -21.789,   -6.999,   10.060,
        9.631,   20.376,   11.309,   12.448,    9.502,   -2.546,   -0.482,
       -6.970,  -17.633,    6.128,  -16.661,   -0.902,   -1.481,   -3.638,
       -0.500,    8.346,    2.758,   -4.376,   -0.398,   -0.804,    1.339,
       -6.395,   -0.406,   17.859,   16.649,  -17.286,  -11.893,    7.389,
      -32.770,   22.047,  -21.451,   11.853,  -10.968,    6.966,    3.756,
       -0.956,   -1.429,    0.697,   -0.320,    2.382,   -1.734,   36.089,
        9.063,  -22.505,    9.328,   -1.314,  -42.836,    4.781,    5.258,
       21.213,  -16.988,   15.348,    5.026,   -4.167,    6.339,   15.631,
       17.547,   -4.737,   -5.135,   -6.782,    9.907,   -4.459,    6.948,
       17.415,  -40.711,   -5.705,  -10.346,    5.230,   -3.110,    1.191,
       -2.574,    2.490,   30.980,    5.893,   -4.720,  -36.046,    6.670,
       -0.497,   -0.670,    1.692,    5.276,    0.452,   24.763,   -7.739,
        6.442,   -2.152,   -3.713,   18.638,  -12.160,   -4.712,   -2.888,
       11.970,   -7.497,   18.768,    4.588,   16.837,   -9.491,    7.427,
       -5.507,    4.238,  -33.249,  -20.737,  -23.693,   10.125,    5.717,
       -2.741,   10.177,    4.746,   -5.026,   -7.074,    4.310,   -7.429,
        5.840,   -8.468,  -10.260,  -11.774,    2.449,    2.592,  -33.296,
      -13.271,    1.748,    6.762,    0.102,   16.296,  -23.315,  -13.933,
       -2.514,   -0.149,   -8.785,  -17.978,    8.615,    7.322,    1.663,
      -14.770,   18.815,   14.216,  -49.966,    2.370,   16.870,    9.860,
        4.270,   10.519,   10.462,    2.467,   -9.354,    6.914,  -13.532,
        1.600,   11.395,    0.272,  -15.385,  -12.492,   14.825,   19.684,
       13.822,   16.653,    0.001,    5.733,   -9.511,    8.828,   -2.531,
       -2.563,   -3.704,   12.968,   10.870,   11.465,    1.743,    3.325,
        5.666,   15.653,  -10.745,   -7.847,   11.666,   -9.050,   -3.937,
       -6.738,    7.074,   16.240,  -13.021,   -5.137,   12.754,   22.599,
        3.612,   23.244,   17.513,  -23.906,  -12.211,   -7.315,    1.737,
      -14.414,   14.094,  -10.938,    0.300,  -11.860,    7.677,   24.634,
       -3.966,   -0.625,    1.262,  -12.921,   -1.201,   13.170,   -9.691,
       -8.563,   -7.092,   12.945,   -2.810,    9.335,   44.646,  -15.515,
        9.057,    0.212,    3.811,   13.460,   -2.393,  -13.808,   -6.811,
        3.190,   -3.802,  -10.544,   -3.688,   20.595,    4.159,   -2.988,
      -11.651,   12.993,   17.979,    1.956,   -0.259,  -24.379,    4.593,
       -8.985,   24.456,   -8.761,  -13.487,   -1.443,   -2.334,   17.462,
       -0.328,    5.376,  -13.906,    4.949,    2.375,   -6.317,  -19.362,
        1.067,   11.564,    1.068,    6.067,    7.211,   -0.836,    0.472,
       11.287,   -5.827,    1.485,  -36.142,   -1.561,    3.639,   -1.282,
       -8.508,    3.150,   -7.884,   22.637,   -2.888,   11.322,   -4.592,
       -3.914,   10.090,   -1.280,    2.181,   17.717,   11.257,  -11.611,
      -24.360,    4.349,   20.467,   -7.130,   18.354,   -1.013,    3.605,
       38.340,    5.898,    4.030,   -1.075,    1.317,    5.336,   -1.530,
       -4.510,   -0.506,   -4.150,   10.189,   -5.189,   -4.059,   15.745,
       21.513,   -2.648,   21.982,   -2.151,  -10.466,   -9.901,   -6.418,
       21.261,    8.536,   -6.367,   16.971,   -4.109,   11.564,   -1.802,
       -6.582,  -16.941,    0.078,   17.681,  -14.939,   -9.844,  -11.741,
      -17.910,   21.334,  -31.123,   -3.660,  -14.735,   29.957,   -6.040,
      -15.916,   -2.333,   10.992,  -10.247,   -0.873,   -9.240,   -6.108,
        0.709,   -7.471,   -0.452,    1.993,   13.495,   72.473,    8.329,
        4.992,   -1.968,    7.292,    2.804,   -6.998,   -9.754,    0.280,
       -5.490,  -10.568,    4.587,  -18.485,   -2.361,    2.660,   17.057,
       -6.334,   -9.454,   42.709,    0.823,   -2.048,   -0.876,   -0.329,
        1.735,    0.298,    0.023,    1.108,    0.293,    0.139,   -0.176,
       -0.415,    5.962,   -5.340,    4.370,    1.324,  -44.011,   -5.633,
        3.451,   -2.709,   -0.753,   -2.513,    0.123,   -0.351,    2.076,
       -1.076,   -1.913,    2.408,   -0.198,    0.196,  -34.706,   -7.882,
        1.186,   -2.668,   -3.251,  -10.292,    1.913,    9.618,  -10.330,
       -6.419,    7.701,  -12.639,  -16.270,   -4.566,   -3.582,   -9.634,
        2.947,   11.520,    3.444,    4.845,   28.453,   -3.491,   -9.974,
      -13.491,   16.018,    5.355,   10.360,  -21.361,   -5.229,   -8.682,
        5.032,   -0.052,   -4.208,    1.391,    5.386,   -8.014,  -12.578,
        2.230,    7.795,   -9.656,    4.330,   13.580,    5.156,   -4.520,
        0.797,    3.857,   -4.763,    2.255,   -8.545,   24.886,    4.079,
       -4.198,  -15.555,   -4.047,   -9.412,   -1.196,   -0.376,   -0.921,
       10.730,   -3.764,   -0.736,    1.436,   -0.695,    0.414,   -1.148,
        0.521,   -1.275,   -0.836,    0.644,    0.782,   -0.487,   -0.374,
        0.432,    0.737,   -0.520,    0.609,    0.386,   -1.362,    0.577,
        0.844,   -0.782,    0.524,   -0.642,   -0.642,    1.396,    1.118,
        1.322,   -0.445,    0.348,   -0.370
    },
    { -13.756,   18.412,   16.372,    8.614,  -12.147,    6.296,    4.808,
       -3.148,   -1.997,    2.428,   -7.248,    1.446,    9.206,   30.778,
        6.064,  -19.544,  -10.981,    2.064,   80.484,    4.566,   -3.875,
      -22.491,    8.071,  -13.015,   10.060,   15.779,   -2.990,    9.769,
       -3.614,  -14.631,    0.518,   -4.987,  -15.710,    0.838,    5.826,
      -13.600,  -26.432,    1.673,   -5.017,   -3.163,    2.735,  -15.525,
       -3.031,    2.023,   -3.815,  -16.803,   -5.240,    1.222,   -5.515,
       10.172,   19.127,  -13.615,   -1.096,   -6.096,   -9.758,    7.896,
       -4.995,   21.772,   18.622,   -6.229,   10.807,    9.341,    8.188,
       -0.965,   -1.750,   -1.198,    4.023,  -10.632,   18.022,  -14.863,
      -14.087,   -5.904,  -34.611,   -5.830,   -2.151,   -1.306,    2.838,
       -0.259,   -0.479,    1.414,    2.957,    0.038,  -18.547,   -5.269,
       -0.635,    6.832,   24.974,   21.460,   -3.573,    4.020,  -13.291,
       -5.714,    3.241,    5.343,    7.329,  -22.280,   -7.328,    9.279,
        6.134,   16.319,   11.290,   14.871,    8.793,   -1.911,   -0.662,
      -12.657,  -18.082,    8.349,  -22.110,   -0.174,   -3.010,   -5.469,
        1.425,    9.766,    1.533,   -6.809,    2.910,   -1.255,    5.007,
       -7.324,   -1.194,   10.455,   21.709,  -18.318,  -10.900,    3.749,
      -30.350,   20.650,  -15.678,   11.120,  -13.975,    4.384,    3.868,
        2.119,   -0.598,    5.739,   -0.837,    2.320,    1.755,   18.789,
        7.714,  -19.564,   10.891,   -2.940,  -39.366,    5.434,    6.752,
       14.940,  -14.804,   12.763,    3.069,   -9.698,    4.469,   12.735,
       16.955,   -3.286,   -6.323,   -8.094,   13.944,   -8.467,    3.599,
       20.747,  -40.022,   -5.532,   -9.357,    5.006,   -3.270,    3.341,
       -2.891,    2.453,   29.163,    5.665,   -1.801,  -34.811,    4.838,
       -1.513,   -8.704,   -1.971,    4.125,    1.368,   27.964,   -3.677,
        4.947,   -2.528,   -5.696,   17.442,  -13.805,   -5.107,    0.864,
       13.180,   -5.260,   17.606,    4.569,    9.989,   -8.324,    4.582,
       -7.734,    3.668,  -31.923,  -19.053,  -21.287,   10.682,    0.895,
        0.807,    9.060,    3.828,   -5.562,   -9.190,   -2.707,  -10.812,
        4.900,   -8.421,   -9.945,   -4.516,   11.178,    4.991,  -33.548,
       -7.728,    5.626,    5.343,   -0.851,   15.567,  -23.734,   -4.232,
       -5.350,    2.585,   -8.398,  -12.048,    4.146,    9.401,    3.694,
       -7.475,   15.741,   20.543,  -52.076,    7.416,   13.255,   10.232,
        7.316,   12.182,   12.088,   -7.143,  -12.284,    7.332,  -12.880,
        4.013,   14.051,    4.719,  -22.419,  -14.047,   14.800,   20.827,
       17.163,   13.501,    1.308,    5.263,   -8.814,   10.246,   -2.053,
        2.159,   -2.565,   11.842,    8.958,    9.280,    2.838,   16.492,
        3.957,   16.499,  -11.542,   -7.678,   11.214,   -5.421,   -5.453,
       -4.569,    6.156,   13.760,   -9.509,   -3.933,   11.281,   20.068,
        2.644,   19.383,   14.644,  -17.823,   -9.947,   -4.614,    2.536,
      -12.987,   11.837,   -3.206,   -1.819,   -7.605,    3.514,   21.747,
       -3.777,   -3.976,    2.056,   -7.953,   -2.161,   13.579,  -10.061,
       -5.233,  -17.230,   11.504,   -4.150,   13.924,   49.849,  -18.275,
        7.146,   -0.800,    3.646,   15.716,   -1.163,  -14.032,   -6.127,
        4.351,   -4.962,  -12.697,   -5.901,   21.841,    5.538,   -1.197,
      -12.273,   15.077,   20.535,    2.882,   -1.432,  -25.231,    3.944,
       -8.401,   26.749,   -8.686,  -14.616,    1.403,   -3.869,   16.588,
        0.503,   -4.608,   -2.067,    5.865,    4.507,   -7.374,  -16.861,
        1.247,   13.348,    0.659,    7.486,    7.322,   -0.402,   -0.122,
       13.819,   -5.951,    1.050,  -41.640,   -1.210,   12.115,    4.751,
       -9.807,    3.413,   -8.399,   22.283,   -2.922,   11.365,   -4.233,
       -2.085,    8.481,   -1.879,    1.971,   17.004,   11.115,  -10.748,
      -21.258,    3.670,   22.252,   -9.483,   13.292,   -2.290,    3.607,
       37.787,    6.539,    3.495,   -1.376,    1.588,    5.437,   -0.307,
       -1.662,   -0.230,   -3.736,    8.959,   -7.391,   -4.037,   24.415,
        8.858,   -1.938,   22.283,   -3.655,   -8.085,   -7.474,   -5.007,
       19.957,    8.460,   -4.743,   18.820,   -5.996,    8.168,   -3.374,
       -6.900,  -15.961,   -0.704,   13.552,   -8.843,  -10.606,  -10.282,
      -18.589,   24.937,  -30.752,   -5.494,  -13.069,   28.802,   -6.037,
      -17.824,   -6.580,    9.750,   -9.524,   -2.414,  -10.514,   -8.561,
       11.643,  -14.958,    0.389,    6.768,   13.421,   74.297,    8.758,
        5.450,   -0.595,    4.706,    2.455,   -6.463,   -6.761,    0.269,
       -6.016,  -12.784,    4.433,  -18.852,    4.522,   -6.156,   14.915,
       -8.527,   -7.788,   45.361,    0.224,   -1.333,   -0.772,   -0.626,
        1.662,   -0.408,   -0.863,    1.445,   -0.050,   -0.116,   -0.935,
       -0.670,   12.111,   -4.106,    4.773,    1.578,  -44.781,   -4.296,
        2.246,   -1.942,   -0.950,   -2.177,   -0.180,   -0.431,    2.493,
       -1.049,   -1.445,    1.737,   -0.524,    0.697,  -27.361,   -7.617,
        1.599,   -1.763,   -3.150,   -5.931,   -2.577,   11.169,   -9.210,
       -5.159,    5.377,  -12.638,  -12.567,   -8.339,   -3.511,   -9.098,
        7.748,   13.199,   10.655,    4.658,   25.048,   -9.119,   -8.360,
      -17.372,   17.521,    6.858,   15.087,  -19.753,   -2.357,   -8.235,
        7.611,   -3.111,   -4.434,    2.066,    6.314,   -9.168,  -16.572,
       -0.052,    4.021,  -14.601,    5.988,   17.875,    3.544,   -6.089,
        1.294,    3.911,   -8.042,    1.448,   -9.301,   22.179,    1.242,
       -4.540,   -9.003,   -2.215,   -4.883,   13.925,    0.667,   -1.572,
       12.365,   -3.805,   -0.969,    0.989,   -0.678,    0.377,   -1.327,
        0.562,   -1.123,   -0.914,    0.698,    0.766,   -0.465,   -0.236,
        0.443,    0.689,   -0.635,    0.672,    0.336,   -0.979,    0.546,
        0.915,   -0.752,    0.560,   -0.670,   -0.668,    1.528,    1.201,
        1.263,   -0.359,    0.477,   -0.500
    },
    { -16.621,   17.152,   15.215,    8.614,  -13.073,    6.223,    5.769,
       -5.749,    0.796,    2.483,  -10.894,    0.795,    9.015,   24.725,
        3.488,  -22.926,   -9.349,    2.409,   92.182,    8.750,   -4.921,
      -21.212,   10.279,  -10.837,    3.917,   20.831,  -10.203,    7.916,
        2.929,  -17.381,   -1.970,   -1.572,   -8.892,    2.479,    3.358,
      -17.921,  -23.249,    0.424,   -6.564,   -4.141,    4.415,  -14.224,
       -4.649,    1.780,    0.358,  -15.109,   -9.158,   -1.640,   -1.705,
       17.516,   19.392,  -12.597,   -1.814,   -4.236,  -12.270,    7.955,
       -3.695,   19.147,   14.351,   -5.291,   10.174,   12.888,    5.462,
       -0.685,   -1.358,   -3.476,    4.358,   -8.685,   15.710,   -9.764,
      -16.621,   -6.434,  -32.911,   -4.452,   -3.766,   -1.327,    3.082,
        0.480,   -0.471,   -1.302,    1.372,   -1.062,  -18.209,   -2.333,
       -0.586,    8.689,   30.023,   23.488,   -4.184,    4.880,  -14.996,
       -3.038,    4.586,    5.916,    8.174,  -21.780,   -6.988,    6.922,
        7.514,   16.542,   10.556,   12.065,    6.255,   -9.563,    5.058,
       -7.679,  -14.648,    6.447,  -18.513,    4.303,    1.716,   -5.701,
       -0.255,   10.060,    0.633,   -4.735,    0.089,   -4.309,   -0.437,
       -7.532,   -2.345,   21.649,   17.293,  -19.065,  -13.342,    7.084,
      -25.354,   17.853,  -13.011,   11.156,  -12.436,    5.237,    3.732,
       -1.097,   -2.237,    2.758,   -2.270,    1.360,   -1.097,   15.634,
       12.049,  -16.483,    9.267,    0.098,  -34.186,    5.028,    7.720,
       15.268,  -12.514,   12.842,    3.159,   -7.532,    2.900,    9.968,
       16.108,   -2.558,   -3.945,   -0.535,   13.016,    0.833,    4.752,
       20.512,  -33.749,   -2.425,   -7.106,    3.930,   -3.823,    2.674,
       -1.848,    3.156,   23.596,    2.800,   -2.800,  -28.490,    3.821,
       -7.812,   -6.778,    0.061,    5.030,    1.387,   25.233,   -4.585,
        3.441,   -1.917,   -2.701,   15.389,  -10.490,   -4.914,    1.043,
        8.551,   -2.529,   15.965,    4.018,    6.173,    2.249,    1.714,
       -9.866,    6.667,  -24.990,  -17.352,  -13.788,   11.013,   -2.840,
       -0.223,    8.488,    4.189,   -4.535,   -5.989,   -2.203,  -13.049,
        5.311,   -3.322,  -12.687,   -5.148,    8.504,    3.804,  -35.785,
      -15.611,    8.656,    9.252,    3.208,   13.810,  -22.658,   -7.661,
       -5.086,    5.315,   -9.257,  -11.654,    8.058,   22.473,    8.102,
      -11.121,   20.168,   21.409,  -55.935,    2.669,    9.978,    9.338,
       11.465,   17.706,   14.204,    0.700,  -16.438,    4.238,  -16.741,
        5.720,   14.097,    5.808,  -23.506,  -14.906,   17.093,   15.581,
       26.762,   20.499,   -3.106,    8.267,  -11.051,   17.840,   -2.294,
       -1.319,   -4.720,   13.620,   10.670,   12.117,    1.560,   23.200,
        5.179,   13.870,  -12.593,   -9.739,    7.227,   -8.916,   -5.011,
       -4.263,    7.366,   11.854,  -10.006,   -2.676,    8.580,   17.861,
        1.890,   19.716,   12.100,  -21.754,  -14.665,   -2.748,    5.975,
       -9.975,   23.284,   -2.868,    3.388,  -10.113,    0.020,   28.616,
       -9.802,    0.252,    5.334,   -6.273,    0.254,   19.037,   -3.244,
       -8.769,  -12.038,    1.472,  -10.155,   14.553,   50.246,  -16.846,
        6.865,   -1.391,    3.487,   14.148,   -2.432,  -15.315,   -3.986,
        4.867,   -4.042,  -12.878,   -4.592,   27.597,    4.835,   -0.879,
      -12.197,   14.774,   20.611,    0.340,   -1.888,  -28.964,    2.634,
       -8.047,   30.427,   -8.949,  -14.382,    0.686,   -5.527,   14.987,
        1.947,  -16.379,   -4.682,    7.234,    4.734,   -7.476,  -16.087,
        1.307,   13.405,   -0.240,    7.745,    8.922,   -0.518,    2.025,
       16.065,   -6.543,    0.776,  -45.211,   -0.091,   12.298,   17.640,
       -8.826,    0.861,  -10.501,   26.288,   -2.045,    8.248,   -4.566,
       -3.041,    8.083,   -0.891,    2.497,   14.971,    9.238,   -9.134,
      -19.001,    3.222,   33.425,   -0.586,   13.764,   -0.413,    2.083,
       37.472,    6.485,    2.418,   -0.768,    1.437,    4.799,   -0.416,
       -2.816,   -0.617,   -4.007,    7.755,   -4.875,   -2.697,   28.863,
        6.951,   -2.546,   19.460,   -1.316,  -11.812,   -5.787,   -2.419,
       17.307,    8.298,   -5.718,   16.484,   -2.885,    6.046,   -3.184,
       -8.879,  -12.093,   -2.196,    7.333,   -6.817,   -5.373,   -7.159,
      -20.067,   19.466,  -29.330,   -3.231,  -10.356,   26.368,   -4.745,
      -13.264,    0.006,    9.502,   -6.231,   -1.569,   -9.493,   -5.443,
        7.175,  -14.749,   -4.261,   -4.505,   13.945,   75.502,    5.652,
        6.586,   -1.225,    7.822,    2.191,   -9.010,   -8.187,    0.831,
       -5.847,  -13.090,    3.088,  -19.774,    9.284,   -7.129,   16.649,
       -8.081,   -6.670,   45.031,    0.695,   -1.150,   -1.036,    0.639,
        0.530,    0.041,   -1.377,    1.514,    0.216,    0.727,   -0.131,
       -1.127,    8.790,   -1.784,    4.602,    1.254,  -43.846,   -5.596,
        4.108,   -2.045,   -0.611,   -2.349,   -0.098,   -0.273,    1.929,
       -1.134,   -1.786,    1.499,   -0.513,   -0.132,  -33.246,   -7.492,
        2.493,   -1.732,   -3.288,   -5.808,    2.385,   10.689,   -8.476,
       -8.498,    8.555,  -11.765,  -12.070,   -6.025,   -2.765,  -10.001,
        2.932,   10.808,   17.859,    3.259,   26.639,   -2.975,  -11.693,
      -19.493,   18.866,    3.479,   19.020,  -20.801,   -1.741,  -11.922,
        6.554,    1.310,   -5.043,    0.077,    8.243,  -12.968,  -13.526,
        3.184,   13.175,  -14.488,    6.591,   22.802,    5.031,   -9.814,
       -1.487,    4.150,   -5.717,    0.515,  -11.364,   29.164,    2.535,
       -3.761,  -13.889,   -5.190,   -5.120,   10.541,    4.666,   -2.670,
       15.820,   -3.426,   -0.714,    1.000,   -0.759,    0.397,   -1.394,
        0.520,   -0.841,   -0.739,    0.716,    0.868,   -0.715,   -0.360,
        0.545,    0.619,   -0.595,    0.639,    0.464,   -1.199,    0.656,
        0.867,   -0.736,    0.691,   -0.559,   -0.649,    1.677,    1.228,
        1.255,   -0.364,    0.394,   -0.396
    },
    { -12.571,   15.458,   12.128,    6.632,  -11.365,    5.625,    4.507,
       -3.869,   -0.194,    0.383,   -8.997,    0.142,    8.524,   20.052,
       10.402,  -19.257,   -6.852,    1.242,  102.278,    7.426,   -3.939,
      -14.311,   16.243,  -12.845,    1.057,   20.613,   -9.528,    4.896,
       -0.818,  -22.921,   -1.237,    3.303,   -7.476,   -1.515,    7.678,
      -15.402,  -30.116,   -1.272,   -6.316,   -4.931,    5.633,  -14.053,
       -0.929,    5.371,   -1.228,  -17.779,  -10.345,   -3.581,   -3.460,
       12.525,   18.291,  -13.440,   -1.897,   -8.492,  -13.517,   10.160,
       -0.661,   13.579,   14.652,   -3.446,    6.146,    9.904,    1.925,
       -1.025,   -0.407,   -1.780,    1.758,  -11.528,    3.565,   -8.863,
      -13.751,   -7.668,  -36.958,   -7.873,   -6.621,   -1.254,    7.393,
        1.822,   -3.216,   -1.342,    1.789,   -3.154,  -15.121,   -3.804,
       -2.677,    9.814,   31.585,   25.574,    0.284,    1.248,  -12.195,
       -3.438,    3.455,    2.781,    7.329,  -17.924,   -7.297,    5.917,
        6.869,   13.293,    8.264,    8.994,    7.163,  -12.230,   15.785,
       -6.163,  -11.400,    5.452,  -21.330,    4.666,    1.326,   -4.153,
        1.970,   11.784,    2.551,   -5.765,   -1.707,   -4.624,   -0.038,
       -9.883,   -0.584,   33.723,   15.136,  -23.834,  -16.362,    8.225,
      -23.690,   19.174,  -14.603,    9.718,  -11.209,    4.266,    3.627,
        0.903,    0.741,    3.182,   -0.929,    1.760,    2.822,   26.115,
        6.744,  -16.292,   10.426,   -4.339,  -28.487,    3.893,    5.242,
       13.137,  -10.771,    9.956,    4.861,   -6.765,    4.680,    8.546,
       12.933,   -3.712,   -3.624,    4.650,    1.537,    0.855,    3.608,
       15.697,  -29.761,   -3.407,   -8.012,    4.056,   -1.285,    2.654,
       -2.408,    2.109,   21.922,    2.904,   -3.577,  -25.450,    4.643,
       -3.162,   -3.723,   -2.298,    4.513,   -0.972,   22.605,   -6.287,
        5.699,   -2.455,   -2.151,   14.323,   -8.779,   -4.534,   -1.418,
        8.252,   -2.710,   14.150,    2.880,    3.737,   12.725,    4.078,
       -7.098,    4.650,  -25.985,  -16.400,  -16.003,   11.474,   -4.600,
       -2.459,    8.523,    6.580,   -3.131,   -4.862,   -1.474,  -11.007,
        4.573,   -2.444,  -13.710,   -6.735,    9.200,    0.848,  -38.421,
      -14.953,   13.731,    6.711,    1.297,   13.122,  -18.656,   -2.012,
       -6.555,   -1.662,  -10.129,  -10.274,    5.589,   22.034,   10.663,
      -14.275,   18.590,   24.355,  -55.682,    3.377,    5.988,   16.371,
        5.638,   16.126,   10.090,   -3.608,  -15.189,   14.098,  -10.111,
        7.817,   13.988,    0.712,  -17.695,  -17.321,   12.419,   24.174,
       29.570,   21.106,   -4.434,    6.875,  -11.043,   19.807,   -4.178,
       -2.234,   -5.215,   15.287,   11.087,   14.401,    2.222,   19.955,
        9.850,   16.108,  -15.131,   -9.825,    9.971,   -8.639,   -5.644,
       -4.247,    8.399,   11.517,   -9.163,   -0.979,    8.883,   17.520,
        2.418,   20.432,   12.071,  -20.634,   -8.125,   -2.590,    6.024,
      -11.830,   29.334,   -2.648,   -1.715,  -11.386,   -7.271,   35.677,
       -6.201,   -1.947,    1.896,   -5.120,    9.681,   15.190,   -3.182,
       -5.792,  -12.847,    9.532,   -8.546,   11.365,   49.816,  -16.165,
        9.140,   -0.708,    4.830,   11.734,   -3.063,  -14.046,   -6.214,
        1.809,   -3.740,  -10.935,   -4.617,   22.402,   17.653,   -2.286,
      -13.713,   15.297,   15.302,    1.892,   -1.459,  -27.036,    5.897,
       -9.203,   25.918,  -11.046,  -14.783,   -1.603,   -2.892,   17.198,
        1.117,  -10.857,  -10.367,    6.115,    2.638,   -6.110,  -13.926,
        1.809,   12.661,    0.296,    5.381,    8.462,   -0.132,    1.281,
       10.442,   -5.836,    0.371,  -37.057,   -0.519,    7.018,   15.382,
       -9.449,    1.632,   -8.454,   28.762,   -3.478,    8.689,   -4.856,
       -2.386,    9.053,    0.239,    0.199,   18.015,    9.097,  -10.533,
      -21.885,    2.696,   30.624,   -0.901,   13.718,   -1.156,    4.558,
       37.384,    6.227,    0.848,   -1.407,    0.440,    5.440,   -1.838,
       -0.771,   -0.959,   -5.281,    7.045,   -3.909,   -2.975,   22.794,
       17.941,   -4.055,   19.669,   -3.727,   -7.897,   -5.162,   -4.563,
       12.376,    6.808,   -1.837,    9.204,   -3.059,    5.756,   -4.197,
       -6.016,   -9.594,   -2.697,    8.903,   -0.145,   -4.715,   -6.700,
      -16.204,   17.698,  -26.454,   -3.969,  -14.000,   24.984,   -6.033,
      -15.526,    2.343,    3.314,   -6.925,    0.003,   -7.491,   -4.326,
       -4.922,   -2.504,   -3.416,   -2.078,   10.328,   76.645,    6.341,
        5.468,   -1.696,    5.446,    1.653,   -8.839,   -8.076,    0.656,
       -5.816,  -12.178,    4.612,  -19.884,   11.072,   -7.271,   16.710,
       -9.139,   -5.836,   37.252,    1.232,   -0.945,   -1.321,   -0.297,
        1.692,   -0.331,   -0.424,    0.607,    0.058,   -0.179,   -0.890,
        0.087,    7.369,    2.315,    3.816,    1.611,  -35.655,   -6.622,
        4.690,   -2.797,   -1.141,   -3.206,    0.582,    0.340,    3.053,
       -1.081,   -2.502,    1.539,   -0.438,    0.172,  -40.640,  -12.566,
        1.982,   -2.373,   -4.970,   -1.244,    5.389,   10.521,   -7.333,
       -3.469,    5.661,   -8.413,  -15.367,   -5.640,   -3.785,   -7.444,
        3.618,   10.420,   23.206,    2.655,   29.025,   -3.371,   -8.509,
      -17.856,   24.765,    5.393,   22.162,  -22.394,   -8.351,  -21.398,
        1.506,    3.657,  -10.966,   -0.414,   14.630,  -17.072,   -1.680,
       -1.174,   10.603,  -15.125,    9.971,   17.762,   -0.854,  -10.466,
        0.234,    6.010,   -5.017,    0.809,  -10.830,   25.935,    1.847,
       -4.225,  -12.122,   -2.887,   -3.543,    2.355,   -1.082,   -3.778,
       18.007,   -4.394,   -0.996,    1.375,   -0.626,    0.485,   -1.646,
        0.550,   -0.954,   -1.023,    0.719,    0.798,   -0.769,   -0.292,
        0.535,    0.816,   -0.622,    0.733,    0.480,   -1.296,    0.716,
        0.861,   -0.567,    0.655,   -0.620,   -0.740,    1.809,    1.271,
        1.247,   -0.468,    0.431,   -0.439
    },
    { -10.549,   12.245,   10.657,    5.686,   -9.947,    4.781,    3.310,
       -3.358,    0.366,    1.445,   -6.735,   -0.115,    6.518,   24.220,
        4.763,  -14.088,   -6.946,    1.505,   92.293,   10.161,   -7.485,
      -11.191,   16.699,   -9.719,   -0.368,   14.053,   -6.075,    6.267,
       -1.702,  -20.866,   -2.616,    9.515,   -1.072,   -1.943,   10.571,
      -13.684,  -35.878,    0.262,  -10.759,   -6.710,    2.110,  -11.865,
       -6.012,    6.386,    1.499,  -18.916,  -10.114,   -3.764,   -3.455,
       -3.336,   17.133,  -13.925,   -1.212,   -6.628,  -16.559,   13.015,
       -4.120,   20.495,   21.391,   -4.600,    9.640,    9.800,    3.502,
       -3.072,   -1.982,   -2.316,    0.983,   -9.481,    3.981,  -12.318,
      -17.239,   -6.915,  -34.290,   -7.107,   -3.164,   -0.127,    6.682,
        0.714,   -0.972,   -0.576,    0.502,   -2.523,  -18.084,   -2.957,
       -1.153,    8.268,   35.362,   22.561,   -0.319,    2.143,  -10.463,
       -4.064,    2.998,    3.592,    5.705,  -18.174,   -5.968,    6.330,
        6.851,   13.557,    9.936,   10.182,    7.319,  -14.263,   29.022,
       -3.459,  -12.853,    5.349,  -29.549,    2.394,    4.849,   -7.084,
        0.668,   12.074,   -0.720,   -8.432,   -1.922,   -6.145,    0.930,
       -7.494,   -2.864,   36.754,    6.526,  -28.998,  -19.610,   11.252,
      -42.169,   28.455,  -20.217,   14.645,  -17.231,    6.607,    5.639,
        3.006,   -1.755,    8.184,   -0.224,    5.841,    2.214,   22.376,
        3.738,  -24.803,   13.864,   -5.186,  -33.801,    6.532,    7.545,
       12.396,  -10.133,    9.072,    4.362,   -5.650,    7.351,    7.983,
       13.186,   -6.466,   -3.018,    3.641,   -1.469,    3.477,    1.245,
       16.138,  -32.921,   -3.649,   -7.915,    5.104,   -3.018,    1.601,
       -3.094,    2.674,   24.618,    4.975,   -3.711,  -29.973,    4.196,
       -1.979,    2.415,    0.569,    2.913,    0.147,   21.004,   -9.425,
        5.044,   -3.708,   -0.250,   14.073,   -8.641,   -4.785,   -2.427,
        9.844,   -3.817,   13.466,    2.307,   -1.515,   19.543,    1.892,
       -5.911,    6.611,  -30.658,  -19.071,  -18.282,   10.570,   -7.099,
       -4.019,    5.707,    2.087,   -3.071,   -8.872,   -0.357,  -12.610,
        3.738,    1.606,  -12.812,   -4.013,    7.631,    4.287,  -36.970,
      -15.322,    9.745,    5.878,    7.703,   13.717,  -13.216,    1.916,
       -2.499,    1.321,  -12.654,  -11.715,    5.007,    6.084,   14.896,
       -9.099,   21.069,   17.550,  -58.775,    4.440,    5.161,   17.813,
        6.043,   16.812,   12.475,   -3.074,  -20.463,   13.382,   -6.836,
       14.110,   14.103,   -2.047,  -15.609,  -16.372,    9.234,   22.380,
       29.531,   22.966,   -2.107,    7.025,  -11.879,   18.278,   -3.312,
       -3.515,   -4.051,   14.964,   13.347,   14.479,    2.320,   11.768,
       17.388,   18.935,  -12.338,  -11.994,   10.220,  -11.348,   -2.553,
       -5.732,    9.038,   13.935,  -11.912,   -1.738,    7.933,   18.237,
        2.891,   18.926,   11.737,  -33.546,    1.246,   -4.747,    2.214,
      -10.035,   28.273,   -5.193,   -1.684,   -8.685,    0.615,   33.113,
       -7.759,   -3.916,    4.904,   -5.162,    4.290,   17.982,   -6.552,
        1.775,  -16.839,    4.267,   -7.941,   16.447,   51.501,  -17.865,
        8.791,   -0.929,    4.699,   15.099,   -0.792,  -14.842,   -5.958,
        5.343,   -3.551,  -12.983,   -4.361,   17.924,   11.633,   -1.204,
      -14.681,   15.477,   15.112,    1.278,   -2.100,  -23.681,    5.531,
       -8.182,   22.677,   -8.901,  -13.463,   -1.451,   -0.393,   17.329,
        2.478,   -2.766,   -5.189,    0.426,   -1.809,   -3.323,  -14.961,
        2.084,   10.826,   -0.113,    5.323,    6.373,   -1.260,    0.530,
       10.639,   -3.991,   -0.466,  -31.851,   -0.408,    5.786,    0.145,
       -5.992,    4.021,   -6.952,   27.878,   -4.042,   12.531,   -4.963,
       -2.642,    8.515,   -1.272,    3.003,   17.369,   10.865,  -11.130,
      -23.051,    3.502,   30.001,   -6.095,   13.492,   -2.409,    3.578,
       37.512,    6.259,    0.374,   -0.487,    0.127,    5.774,   -1.343,
       -1.602,   -0.558,   -4.332,    8.963,   -4.563,   -3.465,   13.491,
       20.571,   -3.730,   23.030,   -5.083,   -8.795,   -6.298,   -5.198,
       14.260,    7.674,   -2.383,    9.994,   -3.406,    6.256,   -2.993,
       -7.376,   -9.583,   -1.258,   -0.231,   -0.760,   -5.079,   -5.645,
      -12.736,   16.942,  -27.606,   -3.240,  -14.277,   26.945,  -12.956,
      -17.189,   -1.308,    1.872,   -6.024,    1.914,   -3.296,   -7.720,
       -5.549,   -7.040,   -5.002,   -8.461,   15.391,   81.568,    4.092,
        7.021,   -3.785,   12.206,   -1.644,   -8.305,  -13.965,    1.538,
       -5.624,  -13.000,    6.498,  -20.752,    7.504,   -4.568,   18.726,
       -7.210,   -7.629,   34.870,    0.728,   -0.780,   -0.939,    0.295,
        0.647,    0.169,   -0.713,    0.460,    0.323,    0.067,   -0.521,
       -0.822,    4.646,    1.336,    3.009,    1.043,  -34.270,   -6.286,
        5.044,   -2.999,   -1.114,   -3.027,    0.673,    0.001,    2.430,
       -1.853,   -2.296,    2.585,    0.058,    0.566,  -40.593,  -10.880,
        1.062,   -3.502,   -3.427,    5.021,    3.073,    9.345,   -4.869,
       -0.765,    3.248,   -4.670,  -12.246,   -5.779,   -1.305,   -8.113,
        4.625,    8.139,   27.122,    6.706,   17.417,   -3.837,   -4.667,
      -18.034,   20.751,    4.892,   20.508,  -28.181,   -7.738,  -16.313,
        4.807,    3.868,  -10.491,   -2.919,   12.339,  -14.196,    4.771,
      -12.411,    9.782,  -16.595,   10.745,   15.537,    1.086,   -6.215,
       -2.587,    1.916,   -6.024,   -0.539,   -9.410,   23.278,   -0.544,
       -2.695,  -10.636,   -2.578,   -3.605,    6.518,    2.998,   -0.767,
       12.295,   -3.528,   -0.833,    0.972,   -0.699,    0.423,   -1.366,
        0.543,   -1.036,   -1.031,    0.768,    0.736,   -0.588,   -0.458,
        0.515,    0.694,   -0.754,    0.626,    0.406,   -1.411,    0.621,
        0.934,   -0.612,    0.678,   -0.666,   -0.609,    1.521,    1.360,
        1.238,   -0.413,    0.407,   -0.505
    },
    { -11.395,   12.021,   11.235,    6.048,   -9.595,    4.208,    3.707,
       -2.087,    0.853,    0.877,   -7.920,   -0.325,    7.076,   20.966,
        4.421,  -16.114,   -7.130,    1.518,   78.598,    1.161,   -2.420,
       -9.811,   10.625,  -14.358,    1.341,   20.277,   -3.066,    1.452,
       -0.203,  -14.961,   -3.899,    4.776,    5.891,   -0.709,    6.777,
      -16.492,  -32.924,   -0.203,   -8.901,   -4.495,    5.800,  -12.709,
       -7.692,    7.782,    0.150,  -18.953,  -10.730,   -1.974,   -2.058,
       -3.850,   29.890,  -12.128,    0.009,   -9.142,  -19.799,   10.934,
       -7.871,   26.241,   25.298,   -6.573,   13.754,   10.442,    5.875,
       -2.292,   -2.686,   -0.389,    3.979,  -15.301,    3.028,  -18.192,
      -18.456,   -7.237,  -36.848,   -4.121,   -5.399,   -2.907,    5.059,
       -2.339,   -2.191,   -1.503,    4.616,   -7.380,  -11.309,   -2.883,
       -3.523,   15.576,   38.517,   31.882,    1.043,   -4.377,  -13.222,
       -7.312,    2.821,    3.338,    6.632,  -14.519,   -7.333,    5.388,
        5.239,   12.599,    8.846,    7.539,    7.927,  -28.726,   27.294,
       -2.665,  -11.563,    5.018,  -35.371,    3.804,    1.246,   -7.984,
       -1.545,   16.479,    2.035,   -5.591,    1.099,   -3.855,   -0.217,
      -10.799,   -3.262,   33.544,    9.422,  -29.508,  -21.273,    9.637,
      -54.467,   33.488,  -25.365,   21.149,  -19.523,    8.183,    5.536,
        0.560,    0.627,    4.327,    2.894,    3.698,    2.589,   23.402,
        8.324,  -28.830,   15.386,   -7.774,  -43.093,    7.170,    5.346,
       18.672,  -14.585,   14.740,    6.202,   -7.124,    7.386,   14.086,
       20.046,   -3.349,   -5.848,    5.275,   -0.651,    0.319,    5.608,
       21.035,  -33.766,   -3.839,   -7.249,    4.124,   -2.580,    1.987,
       -2.605,    3.152,   22.009,    4.243,   -3.148,  -26.816,    3.408,
       -8.892,   -7.908,   -2.512,    2.611,    0.717,   26.670,  -11.816,
        4.377,   -4.192,    2.185,   19.257,  -11.908,   -8.413,    0.028,
       12.348,   -2.938,   16.675,    3.861,    6.606,   18.458,    3.629,
       -7.576,    5.629,  -27.753,  -17.477,  -18.589,   11.185,   -4.323,
       -2.872,    9.444,    2.469,   -4.641,   -8.881,    3.124,   -9.444,
        5.973,   -0.428,  -15.960,   -7.378,    6.094,    4.391,  -33.307,
       -8.663,    6.862,    2.107,   11.117,   11.604,  -14.366,   -9.051,
        0.001,    1.748,   -5.849,  -14.320,   11.473,   -2.886,   17.826,
       -3.633,   19.210,   19.804,  -59.020,    9.749,    8.770,   20.389,
        4.533,   14.982,   11.823,   -4.622,  -17.618,   14.855,  -10.438,
       11.912,   15.869,   -0.104,  -15.789,  -15.478,   13.186,   23.153,
       24.903,   25.011,   -0.038,    6.901,  -10.401,   12.209,   -2.213,
       -2.443,   -3.734,   15.853,   11.849,   13.459,    1.600,    8.903,
       13.367,   13.801,  -13.704,   -9.563,    7.107,   -8.158,   -1.743,
       -4.366,    6.253,   12.139,   -8.932,   -5.349,    7.317,   14.468,
        5.903,   18.434,   10.405,  -33.225,    1.646,   -6.190,   -1.894,
       -8.548,   21.127,   -4.022,   -1.165,  -10.960,    6.376,   28.991,
        0.780,   -5.433,    3.880,  -10.345,   -6.721,   16.445,  -15.871,
        5.414,   -8.169,    2.821,    4.826,   17.766,   47.740,  -18.066,
        7.671,    0.494,    4.274,   13.977,   -0.476,  -13.355,   -6.272,
        5.452,   -3.833,  -10.191,   -4.900,   20.634,    2.475,    0.298,
      -13.019,   13.423,   19.500,    1.140,   -1.020,  -22.879,    2.752,
      -10.274,   19.740,   -5.874,  -11.243,    0.798,   -3.460,   16.131,
       -0.162,   -4.656,    9.440,    2.834,    1.753,   -5.140,  -21.360,
        2.713,   12.417,    1.305,    6.645,    9.157,   -0.994,    0.918,
       10.141,   -5.565,   -0.191,  -35.599,   -0.603,    3.062,   -4.449,
       -7.827,    4.051,   -8.852,   22.533,   -3.110,    8.514,   -2.545,
       -4.751,    6.876,   -1.395,    4.621,   16.223,   10.033,  -10.852,
      -19.065,    2.281,   22.789,    1.110,   13.238,   -1.024,    4.113,
       40.017,    8.474,    1.876,   -1.976,    0.626,    3.920,   -2.568,
       -1.413,    0.567,   -5.626,    9.695,   -5.596,   -4.875,    7.712,
       28.186,  -10.202,   20.314,   -3.675,  -10.290,   -7.792,   -6.783,
       14.893,    9.592,   -0.359,    9.551,   -3.882,    6.749,   -3.515,
       -5.444,   -9.085,   -1.889,   -2.760,   -3.215,   -4.237,   -2.968,
      -13.928,   17.324,  -28.983,   -4.210,  -13.051,   25.036,  -10.548,
      -16.945,    0.292,    1.441,   -4.853,    4.031,   -2.940,   -8.524,
        3.470,  -11.761,   -2.747,   -6.594,   12.869,   78.838,    8.703,
        6.633,   -1.556,    5.209,   -2.029,   -5.763,   -7.472,    2.062,
       -4.052,  -14.500,    6.910,  -22.395,    9.110,   -5.108,   20.715,
       -7.066,   -7.661,   29.741,    0.432,   -1.090,    0.074,    0.308,
        0.877,   -0.105,   -0.599,    0.952,    0.362,   -0.193,   -0.367,
       -0.541,    5.191,   -0.176,    4.181,    1.087,  -29.288,   -6.880,
        3.053,   -2.292,   -0.807,   -2.603,    0.459,    0.460,    2.945,
       -1.003,   -1.950,    0.926,   -0.338,   -0.130,  -37.202,   -9.986,
        0.455,   -2.305,   -3.888,    6.029,    7.899,    7.421,   -3.673,
       -0.106,    3.823,   -4.379,  -14.546,   -4.345,   -0.735,   -6.268,
        4.986,    5.786,   24.123,   18.013,   19.108,   -4.363,   -4.105,
      -11.180,   20.727,    4.882,   14.640,  -20.587,   -7.803,  -15.707,
       -0.061,    7.202,   -7.942,   -4.338,   10.601,  -10.447,   10.374,
      -18.801,    1.843,  -14.237,   11.061,   15.360,    3.663,   -7.388,
       -1.260,    3.667,   -6.202,    1.873,  -11.359,   25.169,    0.047,
       -4.451,  -10.645,   -5.452,   -1.163,   -0.223,   -3.606,   -1.703,
       15.784,   -4.000,   -0.975,    1.213,   -0.784,    0.475,   -1.528,
        0.583,   -1.143,   -1.016,    0.788,    0.857,   -0.751,   -0.318,
        0.380,    0.898,   -0.559,    0.751,    0.340,   -1.459,    0.666,
        0.892,   -0.541,    0.698,   -0.603,   -0.606,    1.514,    1.238,
        1.225,   -0.445,    0.493,   -0.558
    },
    { -16.932,   15.296,   13.026,    7.875,  -12.018,    6.050,    4.315,
       -5.912,    0.372,    2.196,   -9.071,   -0.582,    8.340,   20.900,
       -0.799,  -18.716,   -8.531,    1.729,   64.658,    2.240,   -1.369,
      -11.594,    6.600,  -11.157,    3.012,   16.159,   -1.007,    4.181,
        0.929,  -14.318,   -5.617,   -2.540,    3.340,   -0.523,    5.701,
      -15.470,  -33.376,    0.695,   -8.263,   -5.631,    6.565,  -14.709,
       -7.733,    6.584,   -0.221,  -21.159,  -10.384,   -3.948,   -2.775,
        4.219,   24.852,  -10.681,   -0.581,  -10.432,  -16.941,   13.535,
       -5.936,   20.510,   20.726,   -4.787,   11.054,   11.430,    6.493,
        0.201,    0.634,   -2.372,    3.625,  -14.926,    0.146,  -14.205,
      -16.478,   -8.769,  -44.013,   -8.565,   -4.503,   -2.635,    8.039,
       -2.476,   -3.250,   -0.576,    3.441,   -4.119,  -19.099,   -3.567,
       -1.453,    7.721,   39.493,   28.258,   -3.325,    1.266,  -17.283,
       -5.433,    3.261,    3.610,    5.695,  -17.772,   -6.500,    7.302,
        6.383,   12.660,    9.530,   10.422,    7.447,  -19.148,   10.441,
       -3.368,  -12.332,    4.689,  -26.641,    2.251,    1.329,   -7.496,
       -1.487,   10.766,    3.096,   -5.555,    0.948,   -1.079,   -0.181,
       -6.815,   -2.451,   30.175,   10.854,  -24.174,  -17.588,    7.667,
      -42.048,   24.833,  -21.883,   16.555,  -12.964,    7.684,    4.819,
        3.832,    2.833,   -0.519,    2.916,    4.587,   -0.480,   22.700,
        8.708,  -23.657,    9.842,   -6.316,  -47.246,    8.117,    3.859,
       20.874,  -17.677,   16.340,    4.932,   -9.149,   11.283,   13.937,
       22.491,   -5.439,   -4.327,    2.360,    5.434,    1.411,    3.767,
       24.485,  -34.393,   -3.613,   -7.548,    3.808,   -2.705,    1.676,
       -1.947,    3.335,   22.786,    2.781,   -4.569,  -27.910,    3.482,
       -8.951,   -1.216,    1.762,    4.955,   -1.301,   34.460,  -15.634,
        6.485,   -4.697,    3.291,   26.295,  -14.535,  -10.919,   -3.061,
       14.852,   -4.701,   19.365,    6.700,    4.518,   19.585,    4.005,
       -9.708,    8.399,  -36.080,  -20.286,  -20.987,   12.697,   -5.282,
       -5.412,    8.672,    0.948,   -2.859,   -8.695,    2.610,  -12.504,
        7.349,   -3.724,  -24.654,   -6.376,    8.730,    3.430,  -28.681,
       -7.088,    4.869,    0.769,    3.698,   11.729,  -15.771,    1.836,
        0.989,    1.322,   -3.415,  -13.185,    1.945,  -15.739,   21.473,
       -7.758,    7.444,   14.163,  -59.634,    6.416,    7.684,   15.173,
        1.149,   16.078,    8.748,   -1.309,  -15.944,   11.197,   -9.080,
        8.690,   13.981,   -7.954,  -20.683,  -15.579,    8.171,   25.140,
       18.137,   22.638,   -1.291,    6.881,  -11.068,   14.508,   -2.643,
        1.858,   -3.374,   13.535,   10.593,   11.066,    1.660,    6.356,
       -2.358,   11.398,  -11.426,  -12.014,    9.099,   -7.108,    0.900,
       -2.602,    6.797,   10.500,   -7.235,   -4.961,    5.475,   16.831,
        5.053,   17.275,   10.704,  -24.448,   -1.098,   -7.620,   -1.797,
       -7.673,   20.197,    2.308,    2.773,   -9.875,   -4.592,   30.498,
       -7.247,    4.177,    2.641,  -11.015,   -4.807,   10.726,  -11.202,
      -13.366,   -1.927,    9.456,   -4.888,   11.805,   51.789,  -17.781,
        7.419,   -1.496,    3.787,   17.852,   -1.134,  -16.429,   -4.923,
        4.531,   -4.491,  -14.577,   -5.406,   16.922,   10.817,   -1.129,
      -12.696,   15.970,   11.101,    0.015,   -2.852,  -19.636,    5.138,
       -4.159,   18.270,   -8.049,  -13.050,   -2.330,   -2.280,   15.496,
        1.763,   -0.530,    0.136,    1.805,   -0.214,   -4.670,  -19.061,
        2.122,   11.081,    0.046,    6.186,    8.699,   -0.289,    1.289,
       10.764,   -6.111,    0.362,  -36.111,   -1.072,    5.226,   -3.669,
       -6.340,    4.202,   -9.559,   26.266,   -3.290,    6.430,   -2.267,
       -4.965,    8.781,   -0.722,    2.594,   18.529,   10.889,  -10.958,
      -18.995,    1.811,   18.188,   11.696,   13.458,    1.757,    3.061,
       41.054,    9.843,   -0.726,   -1.351,    2.191,    7.043,   -0.976,
       -4.512,    0.516,   -5.861,    9.788,   -3.890,   -1.943,    6.525,
       43.036,   -9.229,   17.750,   -1.858,   -8.677,   -9.019,   -8.229,
       21.432,   14.440,   -1.788,   14.156,   -7.386,   10.220,   -6.920,
       -6.857,  -13.371,   -1.244,    6.609,    2.344,   -2.743,   -6.094,
      -16.371,   17.507,  -27.413,   -2.630,  -13.533,   24.131,  -11.100,
      -16.565,    0.711,    0.097,   -6.600,    3.118,   -3.981,   -7.536,
       10.734,  -21.407,   -4.396,   -4.292,   10.079,   74.864,    7.118,
        7.713,   -3.947,    3.379,    4.676,   -6.858,  -12.660,   -1.075,
       -5.964,  -10.986,    0.923,  -17.514,    8.109,   -9.972,   15.448,
       -7.943,   -2.296,   31.621,    1.071,   -0.850,   -0.596,    0.175,
        0.672,   -0.315,   -1.004,    0.703,    0.350,   -0.226,   -0.257,
       -0.987,    1.276,    4.130,    3.494,    0.730,  -30.995,   -7.002,
        4.493,   -2.957,   -1.340,   -3.489,    0.562,    0.441,    3.168,
       -2.022,   -2.526,    1.172,    0.112,    0.075,  -43.254,  -13.123,
        1.082,   -2.610,   -4.552,    2.642,   10.767,    8.741,   -3.408,
       -3.525,    4.092,   -3.205,  -13.277,   -5.947,    0.101,   -4.822,
        4.176,    7.561,   10.868,   13.523,   17.161,   -6.459,   -1.602,
      -10.728,   14.867,    4.858,   18.954,  -17.341,   -6.051,  -11.159,
       -0.793,    3.694,   -3.680,    0.781,    8.689,   -9.095,    2.236,
