//-----------------------------------------------------------------------------
// Network: hzz4e
// Inputs:
//                                                  Offset       Scale
//    ele1_pt                                    5.433e+01   2.140e+01
//    ele1_eta                                   3.752e-02   1.089e+00
//    ele1_phi                                  -5.357e-02   1.802e+00
//    ele2_pt                                    3.538e+01   9.819e+00
//    ele2_eta                                  -3.257e-03   1.122e+00
//    ele2_phi                                   2.114e-02   1.848e+00
//    ele3_pt                                    2.391e+01   7.982e+00
//    ele3_eta                                   1.131e-04   1.096e+00
//    ele3_phi                                   1.088e-02   1.826e+00
//    ele4_pt                                    1.511e+01   5.941e+00
//    ele4_eta                                   3.690e-02   1.135e+00
//    ele4_phi                                  -1.816e-02   1.818e+00
//    worst_iso_X_ele                            3.522e-01   1.277e+00
//    second_worst_iso_X_ele                     8.386e-02   1.423e-01
//    worst_vertex                               3.081e+00   4.505e+00
//    second_worst_vertex                        1.574e+00   1.434e+00
//    mZ                                         8.560e+01   1.105e+01
//    mZstar                                     3.657e+01   1.580e+01
//    mbestH                                     1.413e+02   1.398e+01
//
// Created: Thu Jun 21 09:22:15 2012
//-----------------------------------------------------------------------------
#include <cmath>
#include <vector>
#include <iostream>
//-----------------------------------------------------------------------------
// Make following visible only to this programming unit
namespace nshzz4e {
  // NOTE: Network indices start at 0
  static const int nnetworks=200;
  static const int ninputs  =19;
  static const int nhidden  =30;
  static const int nparams  =631;

  static const double mean[ninputs]={
  5.43300e+01,
  3.75200e-02,
 -5.35700e-02,
  3.53800e+01,
 -3.25700e-03,
  2.11400e-02,
  2.39100e+01,
  1.13100e-04,
  1.08800e-02,
  1.51100e+01,
  3.69000e-02,
 -1.81600e-02,
  3.52200e-01,
  8.38600e-02,
  3.08100e+00,
  1.57400e+00,
  8.56000e+01,
  3.65700e+01,
  1.41300e+02
  };

  static const double sigma[ninputs]={
  2.14000e+01,
  1.08900e+00,
  1.80200e+00,
  9.81900e+00,
  1.12200e+00,
  1.84800e+00,
  7.98200e+00,
  1.09600e+00,
  1.82600e+00,
  5.94100e+00,
  1.13500e+00,
  1.81800e+00,
  1.27700e+00,
  1.42300e-01,
  4.50500e+00,
  1.43400e+00,
  1.10500e+01,
  1.58000e+01,
  1.39800e+01
  };

  static const double weight[nnetworks][nparams]={
    { -28.849,   20.945,   42.384,   14.307,    5.250,   -1.542,   12.201,
       20.285,    0.824,   12.568,   -3.433,  -51.495,   10.949,  -16.411,
       24.116,  -15.083,   38.043,   -1.700,    2.729,  -11.130,  -27.224,
       21.119,   -1.016,   19.772,   -2.508,   25.626,   -3.709,   43.663,
       12.567,   21.077,   -7.387,  -17.765,  -29.255,   17.233,  -26.453,
      -19.848,   26.280,  -20.320,   -1.169,    5.599,   13.282,    0.216,
       15.308,   18.195,  -42.209,  -13.131,   -0.374,   -2.362,    7.751,
       23.649,  -19.349,  -26.605,   13.100,    4.862,  -45.525,    1.945,
       -4.336,  -15.625,    2.616,  -34.808,  -18.137,    0.892,   36.003,
       -6.726,  -34.854,   47.536,  -22.805,  -22.278,    3.454,  -11.561,
       -7.736,   40.875,  -16.380,  -29.543,  -33.543,   -3.946,    0.964,
       30.344,   -7.270,  -37.070,  -23.816,   22.689,    0.748,    5.951,
       26.943,   19.491,    4.783,   25.215,   24.706,   22.660,   -5.235,
       -4.015,  -11.579,  -19.400,  -31.961,  -28.546,   21.074,   -1.753,
      -21.754,  -16.817,    1.215,    0.167,   23.219,   -2.430,  -16.289,
        6.395,   19.312,   -3.377,    7.795,    0.041,   13.654,   -3.251,
      -10.252,  -12.131,   10.635,  -33.103,   19.570,  -72.810,    1.749,
        5.393,   42.497,  -15.986,  -17.747,   33.986,  -29.193,   -6.908,
       11.569,  -23.419,   34.889,   24.950,   -7.629,  -16.474,   25.856,
       -5.348,    0.805,  -13.547,   16.785,  -16.605,  -10.481,   14.084,
      -67.876,  -10.306,    0.766,  -17.945,   18.944,    6.761,   -7.605,
        2.171,   -8.868,   37.251,   -9.616,    6.615,  -34.419,   18.447,
      -30.196,  -38.146,   21.037,   10.776,  -12.758,  -13.902,  -30.841,
        0.652,    1.591,   25.527,  -13.467,  -10.492,  -32.720,   -7.011,
       12.816,   -1.574,   -4.353,   -0.575,   -8.253,  -24.020,   22.540,
       -2.533,    8.760,    5.262,   15.373,   -7.940,   20.176,  -18.232,
        6.906,   10.280,    1.346,    1.186,   18.698,  -20.341,    6.789,
       -8.421,    4.173,  -10.236,  -10.074,   -0.557,  -10.104,   -5.569,
       22.250,   38.823,   -9.914,   27.374,    9.087,  -25.822,   -1.155,
      -20.979,   -1.824,   -2.354,  -20.964,   -8.256,   29.702,   -8.823,
      -15.796,  -38.473,   -0.049,  -20.805,   22.160,   -0.907,   -2.477,
        9.192,   -2.365,   21.534,   42.323,  -15.369,   43.826,    3.074,
      -16.936,  -65.823,   -4.499,  -18.293,    6.373,    0.664,   -0.330,
        9.368,    9.065,   17.911,   18.531,  -30.087,    0.465,    8.006,
       -0.246,    7.375,   16.560,    1.807,  -14.920,   -7.583,    2.373,
       15.764,   17.950,    9.441,    3.641,   -7.414,  -12.425,    2.696,
       12.659,   15.652,   21.157,   24.595,   26.568,    9.179,  -26.814,
        0.688,  -31.385,   19.521,    1.916,    7.286,   28.951,   13.793,
       14.978,  -14.233,   27.551,   14.217,  -10.401,    5.478,  -17.245,
       -3.556,  -23.556,   28.481,   -1.272,   13.871,  -10.532,   21.998,
        8.443,  -16.095,   -9.781,    3.754,   17.367,    4.753,   -6.006,
       10.660,   -0.103,    7.081,   -3.560,   28.170,  -16.383,   36.989,
       10.209,  -33.860,    4.661,  -37.875,    8.543,   28.777,  -66.418,
      -12.632,    3.257,   -4.574,  -30.351,   -9.784,   -8.593,   12.045,
      -12.050,   -1.881,   -4.534,    3.665,   18.240,   57.460,   16.167,
       -3.015,   23.677,    2.354,    6.699,   46.151,   -5.207,  -19.236,
        8.942,    2.652,   -5.132,  -15.927,  -14.866,    6.936,   -5.954,
       13.883,   13.837,    9.050,    5.586,  -10.919,  -14.398,   36.182,
      -16.723,  -48.661,    4.238,   21.182,  -40.594,   14.280,   17.839,
        2.269,   -6.377,   -1.227,  -20.026,   -8.533,    4.776,   -1.813,
       18.961,  -33.412,    0.667,  -16.957,  -13.288,  -28.665,   14.606,
        3.222,   26.535,  -30.965,   30.403,    3.377,   16.587,   27.506,
       14.342,  -15.257,  -10.701,   -2.239,   -0.239,   11.678,   15.223,
       24.813,   18.608,  -13.413,   10.020,  -22.104,  -27.455,  -11.782,
        2.823,    1.067,   25.718,  -20.611,   -0.139,    9.899,  -19.460,
      -21.957,   11.274,  -13.738,    9.436,    9.608,   14.279,   -6.974,
      -19.293,   17.516,  -12.633,   18.289,  -40.124,   43.046,   16.101,
       19.877,  -31.826,   15.811,    3.912,   11.417,   17.645,  -47.690,
       -8.409,    4.212,   18.464,    7.603,   15.816,   38.668,    2.329,
      -17.914,    6.971,  -14.800,    4.249,   -1.976,   -7.442,   -8.784,
       19.154,   22.912,    4.273,   -9.571,  -11.339,   -4.007,  -12.620,
      -11.528,   15.023,   -7.654,   -5.998,  -11.734,  -10.149,    2.934,
      -10.590,  -12.726,   50.340,   13.575,    0.560,    9.011,  -49.549,
       32.302,    1.229,   20.638,  -12.425,  -15.497,    2.256,  -17.097,
        6.456,   -7.025,  -10.159,    4.658,    4.130,   24.255,  -37.109,
       -4.162,   -5.981,   20.578,  -26.634,   -7.052,  -53.582,    0.148,
       16.781,    0.354,   -5.306,  -10.080,    0.115,   -4.854,    7.891,
        9.377,   18.743,   17.729,    2.595,    7.726,    5.949,   19.033,
       -0.507,   -8.061,    3.577,  -15.934,  -34.077,    7.195,   44.424,
       -3.006,   -9.173,   18.046,   -0.864,  -22.622,   24.660,   -5.086,
       29.972,  -20.240,  -39.650,    7.779,    0.387,   21.364,    3.759,
       -3.590,  -25.005,  -21.886,   40.502,   -5.069,    5.750,   -2.306,
       -4.514,   13.327,   -2.703,   -2.723,   35.542,  -11.045,   -7.794,
      -50.522,   -4.895,   37.464,   -0.138,   -5.600,   -3.497,    5.279,
        6.997,   -2.419,  -49.342,   -5.497,  -18.174,   21.033,    5.533,
      -45.411,  -11.138,   17.650,    1.533,  -24.107,    5.661,    4.245,
      -28.904,  -32.876,  -34.609,   15.684,    3.149,   32.668,  -22.688,
       -9.957,   63.003,  -10.035,   30.328,    8.531,   -4.306,   20.696,
        2.473,   -5.845,  -82.698,   11.585,  -19.122,   25.024,   -1.938,
      -10.293,   -7.617,   -4.979,   -9.604,  -22.202,  -18.113,   13.250,
       43.784,   -9.570,    8.013,   -3.269,  -25.414,   39.179,   -9.554,
       22.070,   28.788,  -43.807,   18.468,  -11.062,  -28.693,   -7.200,
       -0.118,  -22.020,    3.684,    4.091,   17.663,  -27.040,  -79.975,
       12.984,    3.511,   -7.477,    9.198,   -4.914,    3.684,   16.856,
       -3.648,   -4.265,   -0.199,    4.709,   -7.472,    8.470,   13.114,
      -21.760,   16.892,  -10.700,   -1.266,   60.245,   -1.818,    0.686,
       -0.646,    0.909,   -0.685,    0.820,   -0.672,   -0.816,   -0.790,
       -0.914,   -0.711,   -0.733,   -0.729,   -0.628,   -0.870,    0.684,
       -0.889,   -0.732,    0.618,    0.540,    0.929,    0.714,    0.671,
       -0.969,   -1.278,    0.607,   -0.986,   -0.421,   -0.855,    0.748,
       -1.015
    },
    { -31.508,   21.312,   42.027,   14.389,    5.850,    1.679,   12.107,
       19.896,   -1.441,   14.860,    0.200,  -55.306,   11.899,  -15.858,
       19.575,   -6.012,   33.795,    0.868,    3.513,  -12.549,  -24.675,
       22.665,    0.652,   23.038,   -2.611,   22.717,    0.903,   43.426,
       13.116,   22.534,   -5.117,  -17.113,  -25.530,   21.389,  -32.732,
      -20.684,   26.812,  -18.131,   -1.052,    2.817,   12.932,    1.789,
       15.467,   17.192,  -39.544,  -10.922,   -0.524,   -5.646,    4.856,
       20.355,  -17.805,  -25.424,   10.229,    4.392,  -43.768,    1.103,
       -2.283,  -12.315,    5.085,  -34.697,  -21.520,    0.112,   37.066,
       -5.836,  -32.419,   44.560,  -23.590,  -21.704,    6.581,  -13.778,
       -9.679,   29.725,  -19.826,  -29.465,  -33.192,   -8.215,    8.756,
       28.508,   -4.607,  -33.939,  -21.225,   21.330,    1.825,    5.992,
       23.996,   16.759,    6.478,   18.388,   19.166,   19.941,   -2.709,
       -2.679,   -8.908,  -13.089,  -31.063,  -31.116,   18.902,   -3.498,
      -17.290,  -14.495,   -2.777,   -2.175,   21.320,   -2.896,  -17.525,
        6.992,   17.190,   -5.883,    7.432,   -1.293,   14.769,   -3.345,
       -9.100,  -13.029,   13.418,  -29.935,   16.132,  -61.961,    0.377,
        5.472,   42.589,  -17.889,  -21.782,   33.144,  -29.415,   -3.428,
        9.947,  -21.101,   35.753,   24.196,   -7.681,  -14.999,   27.667,
       -9.691,    3.510,  -11.840,   16.366,  -16.935,  -10.414,   12.494,
      -76.098,  -13.016,    3.363,  -17.658,   18.728,    6.454,   -9.240,
        5.426,  -10.936,   42.624,  -10.437,    5.285,  -37.286,   20.660,
      -40.041,  -36.864,   22.315,    8.412,  -18.409,  -11.731,  -29.875,
       -0.754,    0.791,   31.134,  -11.011,  -12.479,  -36.928,  -11.364,
       15.574,    2.073,   -3.128,    1.814,  -11.103,  -18.116,   29.043,
        0.173,    9.745,    8.729,   16.002,   -7.797,   20.182,  -14.115,
        3.937,    8.534,    3.612,   -0.553,   13.772,  -18.046,    7.856,
      -10.575,    7.138,  -10.959,   -9.870,   -2.508,   -2.543,    7.816,
       17.236,   35.829,   -8.114,   24.174,    4.941,  -24.170,    0.209,
      -20.799,   -3.838,   -0.283,  -18.622,   -9.895,   29.378,   -9.311,
      -12.448,  -38.173,    0.638,  -20.528,   16.278,   -7.506,    2.905,
        7.195,   -4.157,   22.259,   42.802,  -16.016,   45.990,    5.267,
      -17.687,  -67.456,   -4.613,  -19.160,    6.491,    2.120,    1.598,
       10.654,   10.350,   14.185,   22.679,  -37.148,    0.257,    7.142,
       -2.930,    9.164,   16.806,    3.604,  -17.352,   -8.234,   -0.122,
       15.986,   17.808,    8.858,    4.324,   -9.026,  -12.445,    4.854,
       10.405,   27.199,   17.781,   35.059,   22.338,    7.381,  -27.350,
        3.321,  -34.047,   24.888,    5.169,    6.997,   29.737,   10.085,
       15.274,  -11.861,   28.787,   15.248,  -10.302,    3.665,  -18.821,
       -1.595,  -31.127,   26.745,   -1.358,   13.331,  -11.027,   21.339,
        6.110,  -12.321,   -9.130,    4.519,   14.268,    3.366,   -4.413,
       11.307,    1.509,    9.013,   -4.170,   27.301,  -16.869,   35.478,
        1.206,  -33.033,   10.437,  -35.009,    6.717,   27.867,  -51.648,
       -7.826,    4.000,   -4.101,  -23.873,   -8.033,   -4.382,    6.055,
      -10.809,   -0.946,   -0.606,    3.276,   15.866,   54.461,   12.020,
       -0.722,   23.762,    3.868,    5.059,   36.961,   -4.763,  -16.845,
        7.702,    4.300,   -5.084,  -14.159,  -12.639,    5.309,   -8.239,
       12.576,   13.314,    8.815,    6.346,   -9.453,  -10.778,   37.304,
      -21.001,  -44.699,    1.541,   22.043,  -40.286,   14.222,   19.384,
        0.870,   -5.280,   -0.582,  -20.385,   -8.131,    5.893,   -2.064,
       18.801,  -35.340,    0.468,  -16.463,  -13.191,  -26.500,   12.997,
        0.779,   25.877,  -30.368,   20.989,    0.588,   13.910,   21.494,
       11.185,  -16.360,   -9.869,   -0.171,   -2.349,    9.175,    9.663,
       21.500,   16.152,   -4.558,   -0.306,  -26.231,  -27.528,  -11.437,
        4.200,    2.232,   23.962,  -20.119,    1.201,    8.735,  -18.498,
      -22.140,    9.726,  -14.105,    8.024,    7.671,   15.766,   -5.580,
      -18.316,   13.476,  -12.489,   17.636,  -40.607,   39.441,   10.370,
       21.535,  -31.481,   14.404,    2.364,   11.675,   17.948,  -49.130,
       -8.733,    0.545,   18.574,    4.816,   13.832,   42.090,    4.436,
      -11.140,    5.473,  -13.489,    3.975,   -5.093,   -3.460,   -9.502,
       20.165,   20.006,    3.386,   -9.871,  -12.135,   -2.624,  -12.423,
      -13.271,   18.667,   -9.960,   -7.312,  -11.593,  -10.406,   -2.375,
       -7.149,   -7.703,   50.683,   14.452,   -1.065,   12.923,  -44.784,
       27.632,    0.618,   17.989,  -11.185,  -12.643,    1.745,  -15.557,
        5.272,   -5.714,  -10.616,    4.473,    3.540,   17.688,  -30.976,
       -3.576,   -3.757,   20.808,  -19.822,   -7.760,  -61.722,   -1.929,
       21.647,   -3.188,   -8.492,   -8.810,   -0.099,   -3.364,    5.957,
        9.631,   18.567,   21.649,    2.417,    8.111,   10.736,   19.724,
       -1.407,   -6.990,    4.064,  -16.431,  -26.081,    7.886,   38.569,
       -1.816,   -5.031,   20.803,    0.322,  -18.502,   21.958,   -7.422,
       24.707,  -18.754,  -34.081,    3.592,    4.204,   36.715,   -7.689,
       -1.136,  -20.165,  -23.333,   45.202,   -5.072,    6.870,   -1.520,
       -5.316,   14.690,   -2.676,   -1.063,   36.497,  -11.900,   -9.229,
      -53.916,   -5.582,   45.765,    3.763,   -6.614,   -2.420,    3.487,
        7.377,   -2.918,  -43.221,   -6.956,  -14.976,   21.928,   17.570,
      -39.629,   -3.565,    8.041,   -2.831,  -16.216,    3.008,    3.889,
      -24.777,  -32.191,  -24.118,   10.594,   -3.205,   28.833,  -15.964,
      -12.200,   63.757,   -9.205,   30.316,    7.804,   -3.857,   22.225,
       -1.097,   -9.334,  -88.454,   10.266,  -16.870,   28.892,   -3.478,
      -15.131,  -10.856,   -7.709,   -9.242,  -22.765,  -17.159,   12.051,
       47.182,  -10.446,    9.688,   -1.638,  -26.444,   39.608,   -9.824,
       21.564,   27.137,  -47.853,   20.126,  -11.934,  -29.868,   -5.099,
       -3.501,  -23.019,   15.734,    3.476,   12.585,  -28.873,  -81.836,
       13.864,    2.259,   -9.853,   14.430,   -2.924,    4.374,   15.430,
       -2.127,   -3.390,    0.946,    3.058,  -10.149,    1.414,   11.292,
      -16.585,   16.544,  -14.874,   -2.330,   61.117,   -1.875,    0.732,
       -0.631,    0.852,   -0.774,    0.856,   -0.716,   -0.790,   -0.754,
       -0.874,   -0.765,   -0.704,   -0.859,   -0.602,   -0.913,    0.697,
       -0.967,   -0.678,    0.578,    0.631,    1.005,    0.750,    0.713,
       -0.926,   -1.282,    0.669,   -1.011,   -0.441,   -0.938,    0.736,
       -0.925
    },
    { -23.620,   20.155,   33.133,   12.161,    6.291,    0.915,    8.959,
       17.599,    1.132,   11.555,   -0.364,  -45.768,    9.246,  -15.405,
       17.168,   -2.182,   28.075,   -1.580,    2.567,  -12.496,  -23.125,
       24.887,    0.493,   22.265,   -0.188,   24.623,   -5.129,   44.491,
       12.977,   21.642,   -9.824,  -18.080,  -25.911,   19.580,  -32.128,
       -8.268,   26.232,  -21.826,   -2.475,    6.203,   14.947,    6.333,
       12.394,   16.288,  -37.408,   -8.362,   -0.558,   -2.564,    4.614,
       20.617,  -15.883,  -23.663,   11.023,    0.764,  -38.504,   -1.650,
        0.056,  -14.134,    4.658,  -37.886,  -19.975,    0.101,   31.209,
       -5.325,  -28.669,   40.878,  -18.081,  -19.029,    2.862,  -12.777,
       -5.076,   29.220,  -16.645,  -34.236,  -35.962,    1.133,    2.002,
       25.060,   -6.439,  -30.041,  -20.682,   20.171,    1.407,    5.777,
       22.105,   15.745,    6.141,   20.454,   20.247,   18.768,   -4.078,
       -2.755,   -9.742,  -14.412,  -27.080,  -30.411,   19.560,   -2.065,
      -17.689,  -14.287,   -3.284,   -1.591,   18.439,   -1.787,  -14.061,
        4.636,   13.516,   -3.245,    5.426,   -0.525,   11.766,   -1.746,
       -7.983,   -7.540,    7.829,  -28.884,   16.094,  -51.866,   -1.026,
        6.800,   44.966,  -17.408,  -20.880,   34.739,  -33.018,   -5.219,
       11.057,  -21.437,   39.522,   26.787,  -11.217,  -18.084,   29.854,
      -14.150,   -0.215,  -11.533,   15.898,  -14.406,   -7.176,   12.517,
      -72.977,   -8.304,    0.993,  -17.705,   24.055,    9.812,  -11.229,
        2.264,   -8.235,   41.448,   -7.183,    2.098,  -36.539,   24.242,
      -34.101,  -44.825,   19.465,    9.416,  -19.413,  -11.037,  -39.342,
        0.861,    2.736,   39.726,  -18.273,  -15.493,  -49.665,   -8.731,
       19.836,   -1.118,  -10.281,    0.625,  -13.648,  -21.123,   39.098,
       -0.179,   14.190,    6.576,   21.682,  -10.121,   18.004,  -16.664,
        9.610,    5.650,    3.970,   -3.605,   15.350,  -18.722,    7.721,
      -10.629,    6.538,  -12.269,   -9.910,   -9.086,   -6.772,    9.409,
        9.311,   38.049,   -8.603,   22.579,    8.511,  -26.768,    0.281,
      -22.696,   -3.393,   -1.583,  -20.715,   -9.036,   31.474,  -11.712,
      -13.792,  -42.123,   -0.217,   -9.668,   15.051,   -8.073,    1.763,
        4.981,   -5.177,   22.338,   42.622,  -18.929,   48.629,    2.567,
      -21.359,  -68.881,   -4.628,  -17.857,    5.585,    0.891,    0.031,
        9.955,    9.426,   19.217,   19.958,  -33.963,   -4.267,   11.836,
       -1.473,    7.515,   20.897,    5.634,  -20.746,  -10.564,   -1.182,
       18.317,   23.015,   11.029,    2.851,  -11.171,  -15.510,    6.702,
       12.741,   31.210,   25.087,   36.665,   30.202,   10.866,  -32.275,
        1.894,  -32.768,   21.789,    7.517,    7.666,   31.628,    8.351,
       16.313,  -11.199,   29.566,   13.860,  -11.296,    5.060,  -17.641,
       -0.867,  -27.728,   32.535,   -0.974,   14.406,   -9.898,   21.375,
        6.760,  -19.417,  -11.652,    4.933,   17.141,    5.970,   -4.628,
       13.553,    2.236,    4.035,   -4.865,   29.267,  -16.074,   42.219,
       -2.615,  -27.752,   13.319,  -37.051,    4.191,   32.157,  -51.456,
      -10.877,    3.294,   -4.855,  -20.380,   -7.561,   -6.485,    5.804,
       -8.308,   -0.412,   -2.112,    0.970,   14.414,   45.911,   11.065,
       -3.073,   21.999,    4.177,    4.557,   36.242,   -5.740,  -18.668,
        6.561,    0.715,   -1.350,  -10.978,  -11.694,    2.413,   -4.271,
       12.016,   11.013,    8.251,    6.407,  -11.302,  -13.472,   41.668,
      -17.870,  -39.312,    4.622,   19.380,  -42.521,   14.478,   20.090,
        1.336,   -6.684,   -3.318,  -22.963,   -8.713,    6.412,   -2.950,
       20.087,  -34.702,   -1.913,  -16.308,  -15.510,  -20.906,   12.181,
        0.146,   27.279,  -31.612,   20.820,    1.412,   11.866,   20.565,
       10.473,  -13.621,   -8.286,   -1.569,   -0.402,   10.129,   12.884,
       19.466,   13.979,   -5.544,    0.996,  -21.351,  -26.580,   -9.904,
        1.354,    2.973,   20.043,  -17.431,   -0.089,    7.858,  -15.783,
      -17.997,    7.709,  -11.108,    5.235,    5.168,   13.688,   -3.713,
      -14.514,    9.944,   -4.775,   13.365,  -34.287,   32.678,    8.359,
       17.277,  -32.728,   16.508,    5.725,   11.786,   18.561,  -50.523,
       -9.179,    0.382,   21.264,    5.731,   10.882,   37.725,    3.789,
       -7.518,   -2.079,  -18.098,    1.032,   -3.976,   -2.749,   -5.232,
       17.873,   21.956,    3.534,  -10.016,  -11.319,   -4.005,  -14.395,
      -13.639,   15.724,   -9.848,   -5.836,  -10.403,  -10.109,   -6.472,
       -2.908,  -11.746,   49.741,   14.684,    2.676,    9.682,  -53.448,
       34.484,    0.598,   22.933,  -13.097,  -15.961,    2.578,  -17.518,
        5.948,   -6.094,  -11.478,    5.992,    4.040,   21.880,  -34.741,
       -3.896,   -7.927,   24.267,  -26.826,   -9.964,  -65.167,   -3.779,
       22.763,   -3.554,  -11.336,  -10.069,   -1.644,   -1.339,    8.393,
        9.879,   18.856,   21.741,    1.791,    5.404,   13.662,   20.519,
        0.516,   -6.211,    4.153,  -18.283,  -21.970,    5.950,   36.776,
       -3.901,   -6.225,   17.102,    0.303,  -20.714,   21.323,   -7.877,
       21.533,  -17.505,  -28.832,    5.431,   13.579,   32.087,   -7.854,
       -4.252,  -18.042,  -19.667,   45.560,   -6.683,    4.582,   -1.369,
       -6.206,   16.075,   -2.017,   -0.498,   37.967,  -13.217,  -12.155,
      -56.451,   -5.677,   46.587,   -3.359,   -8.983,    0.278,    2.176,
        6.704,   -1.817,  -38.225,  -17.390,  -15.130,   21.074,   22.856,
      -38.782,   -4.531,    4.646,   -2.901,  -19.042,    2.794,   -3.355,
      -24.386,  -15.238,  -21.113,   12.532,   10.608,   18.777,  -26.914,
       -5.865,   67.713,   -4.664,   30.761,    4.543,   -7.531,   23.386,
       -0.188,  -14.480,  -90.974,    7.670,  -13.168,   27.847,   -0.025,
      -13.648,   -9.026,   -5.486,   -9.936,  -18.078,  -10.301,    9.617,
       43.540,  -10.475,    9.464,   -2.937,  -21.561,   36.042,   -8.659,
       17.387,   27.191,  -42.161,   18.017,  -12.008,  -27.110,   -4.144,
       -0.203,  -15.770,    7.428,    1.581,   14.562,  -23.538,  -88.028,
       13.853,    5.562,   -3.386,   10.647,   -6.738,    6.139,   15.907,
       -4.711,   -3.790,    0.552,    5.324,   -8.072,   -1.994,   16.276,
      -23.049,    8.154,  -11.887,   -0.605,   61.981,   -1.933,    0.831,
       -0.578,    0.905,   -0.794,    0.900,   -0.721,   -0.807,   -0.755,
       -0.968,   -0.653,   -0.599,   -0.830,   -0.593,   -0.986,    0.699,
       -0.959,   -0.808,    0.588,    0.639,    0.964,    0.777,    0.550,
       -1.010,   -1.272,    0.691,   -1.084,   -0.414,   -0.933,    0.838,
       -1.085
    },
    { -24.748,   16.779,   34.907,   10.598,    3.391,   -0.023,   10.349,
       18.866,   -0.169,    9.401,   -3.409,  -43.180,    9.150,  -13.300,
       16.953,   -7.619,   31.847,    0.639,    3.217,  -10.711,  -28.915,
       27.505,   -3.738,   22.886,   -3.467,   26.768,   -0.647,   52.115,
       14.658,   19.777,   -8.734,  -13.191,  -31.969,   19.896,  -31.427,
      -28.009,   27.618,  -19.935,    2.626,   -1.675,   11.705,    2.852,
       14.768,   15.860,  -34.938,   -7.913,   -0.201,   -2.928,    2.574,
       20.312,  -15.577,  -23.710,   10.225,   -4.547,  -31.946,    4.160,
       -5.616,  -13.780,    2.545,  -34.222,  -17.284,    0.870,   34.698,
       -6.825,  -28.940,   39.349,  -17.510,  -18.367,   -0.850,  -13.128,
       -5.823,   30.948,  -18.786,  -19.617,  -34.022,    3.050,    5.160,
       26.189,   -8.001,  -29.077,  -20.049,   20.064,   -0.249,    5.453,
       23.212,   17.412,    5.477,   20.971,   21.404,   18.728,   -4.706,
       -3.098,  -10.175,  -11.997,  -29.156,  -23.892,   16.422,   -1.710,
      -17.570,  -15.252,   -3.444,   -1.925,   15.549,   -1.404,  -12.363,
        5.473,   13.428,   -2.978,    5.218,    0.138,   11.268,   -1.562,
       -7.673,   -8.971,   10.773,  -24.074,   11.535,  -46.438,    0.796,
        4.372,   43.580,  -20.305,  -20.357,   33.627,  -30.219,   -6.652,
        9.467,  -21.784,   38.362,   25.524,   -7.881,  -17.480,   26.009,
      -12.318,   -0.098,   -2.109,   16.688,  -14.786,  -10.860,   13.893,
      -71.428,   -5.546,    5.329,  -14.762,   23.201,    4.111,   -9.554,
        5.799,   -6.291,   41.279,   -7.606,    3.662,  -35.083,   36.733,
      -38.271,  -45.971,   21.042,    6.303,  -17.486,  -11.811,  -48.758,
        2.957,   -0.732,   43.922,  -20.109,  -16.125,  -55.247,  -13.815,
       22.186,    0.412,   -6.738,    4.003,  -13.613,  -23.161,   34.422,
       -1.131,   15.206,    8.433,   21.841,  -10.367,   13.860,  -17.311,
        6.823,    8.410,    2.245,   -5.721,   16.856,  -18.419,    9.361,
      -10.360,    5.348,   -8.956,   -8.741,   -7.017,   -9.615,    5.571,
       10.884,   36.826,   -7.543,   23.134,    7.594,  -28.730,   -1.371,
      -25.603,   -3.619,    0.433,  -22.458,   -9.163,   35.145,  -11.759,
      -15.735,  -47.314,   -0.490,  -19.637,   16.902,   -2.856,   -2.967,
        5.891,   -5.363,   24.745,   43.394,  -18.799,   46.502,    2.108,
      -18.614,  -66.237,   -5.648,  -18.191,    3.474,    0.552,    0.920,
       10.248,    8.632,   17.812,   23.826,  -24.869,   -7.195,   10.107,
       -1.700,    7.842,   20.216,    3.700,  -24.636,  -10.508,   -1.031,
       25.885,   26.226,   14.350,    2.675,  -12.772,  -17.020,    4.737,
       17.196,   32.847,   25.384,   32.944,   37.905,   13.808,  -38.736,
        0.861,  -36.937,   27.737,    7.062,    8.025,   37.510,   10.147,
       18.573,  -13.225,   30.731,   17.174,  -17.053,    8.805,  -20.476,
       -3.293,  -23.834,   26.164,   -0.887,   14.330,  -10.696,   27.929,
        7.269,  -22.640,  -11.146,    4.855,   16.027,    5.221,   -4.076,
       15.771,    0.025,    5.149,   -4.484,   33.759,  -18.660,   46.184,
       -5.039,  -35.512,   16.381,  -43.993,    3.696,   31.822,  -52.700,
      -10.465,    1.160,   -4.988,  -23.250,   -6.356,   -7.813,   10.138,
       -7.986,   -0.995,   -1.727,    4.753,   13.537,   44.579,   10.325,
       -7.191,   23.382,    5.273,    5.182,   33.962,   -2.417,  -16.432,
        7.220,    2.847,   -1.230,  -10.265,  -10.239,    4.384,   -7.526,
       11.372,   10.690,    6.850,    4.812,   -3.049,  -10.893,   46.656,
      -21.972,  -34.492,    3.423,   13.888,  -41.832,   15.622,   23.023,
        2.748,   -7.957,   -0.946,  -23.399,   -8.680,    3.908,   -3.355,
       23.494,  -37.516,    1.071,   -6.535,  -13.689,  -16.373,   12.929,
        3.477,   29.954,  -34.922,   17.481,   -0.368,    9.764,   20.116,
       10.326,  -12.113,   -5.641,   -2.816,    0.911,    6.966,   12.361,
       16.374,   12.585,   -2.121,   -5.851,  -20.655,  -21.001,   -8.123,
        1.482,    1.244,   16.589,  -13.353,   -1.625,    6.627,  -11.236,
      -13.719,    5.720,   -7.143,    4.480,    4.600,   10.415,   -1.840,
      -11.569,   12.871,   -5.019,    9.514,  -28.049,   24.590,    8.125,
       11.491,  -37.101,   17.959,    7.166,   13.713,   20.385,  -56.681,
      -10.055,   -0.647,   23.814,    5.970,   12.813,   40.146,    4.860,
      -13.996,    0.432,  -16.223,    1.978,   -1.541,   -0.393,   -7.053,
       18.149,   19.587,    4.819,  -10.197,  -12.820,   -3.878,  -12.356,
      -11.469,   17.107,   -8.930,   -6.884,   -9.750,  -11.069,   -1.797,
      -10.370,   -9.085,   47.795,   14.616,    1.062,    9.275,  -56.760,
       36.341,    0.864,   24.601,  -14.768,  -16.983,    1.088,  -19.769,
        6.589,   -7.231,  -10.811,    5.171,    4.429,   36.128,  -41.556,
      -11.675,   -3.925,   25.451,  -29.542,   -8.327,  -65.480,   -3.189,
       23.574,   -2.483,   -8.195,  -12.191,   -1.095,   -5.948,    9.179,
       10.709,   21.105,   19.603,    3.054,    8.066,    7.442,   18.329,
        4.056,   -7.764,    3.723,  -19.087,  -23.806,    6.167,   39.442,
       -2.275,   -9.167,   18.282,    1.856,  -21.607,   21.900,   -4.975,
       22.879,  -17.749,  -29.279,    6.855,    7.890,   28.642,   -5.844,
       -3.304,  -17.803,  -20.426,   46.194,   -6.600,    4.154,   -2.325,
       -5.887,   15.370,   -2.496,   -1.161,   39.859,  -14.311,  -12.096,
      -55.431,   -6.354,   39.531,   -0.802,  -14.020,    1.821,    1.924,
        8.158,   -3.611,  -38.431,  -17.872,  -17.693,   18.169,   23.759,
      -36.754,   -7.055,    5.054,    0.278,  -20.663,    6.813,   -2.947,
      -25.566,  -17.687,  -29.970,    7.137,   17.093,   22.731,  -27.384,
       -1.578,   68.594,   -9.971,   32.970,    4.226,   -4.176,   22.913,
       -1.972,  -11.219,  -91.548,    9.483,  -10.716,   25.516,   -1.139,
       -6.463,  -15.900,   -8.517,   -9.461,  -23.859,  -16.443,   10.548,
       32.893,   -7.756,    6.777,   -4.626,  -18.544,   31.173,   -9.413,
       16.832,   21.267,  -37.614,   14.950,  -13.227,  -22.458,  -10.621,
        3.447,  -20.060,   10.291,    2.410,    9.736,  -20.643,  -94.896,
       15.424,    5.481,   -8.255,   12.225,   -5.900,    4.755,   17.951,
       -6.519,   -6.466,    0.367,    7.046,  -10.850,   -6.575,   15.765,
      -24.679,   14.990,  -13.731,    1.514,   65.569,   -2.031,    0.824,
       -0.622,    0.798,   -0.863,    0.788,   -0.772,   -0.840,   -0.657,
       -0.972,   -0.639,   -0.695,   -0.831,   -0.686,   -0.897,    0.709,
       -0.934,   -0.802,    0.628,    0.655,    0.831,    0.824,    0.658,
       -1.049,   -1.284,    0.693,   -1.017,   -0.417,   -0.757,    0.780,
       -1.175
    },
    { -26.588,   20.110,   37.397,   13.030,    6.223,    1.249,   11.627,
       18.649,   -1.859,   11.156,   -0.955,  -47.252,    9.202,  -15.228,
       19.153,   -7.267,   32.334,   -1.195,    3.401,  -12.446,  -27.725,
       27.598,   -1.540,   26.768,   -6.062,   30.119,    2.206,   49.794,
       14.019,   20.469,  -10.864,  -14.563,  -31.942,   19.766,  -28.916,
      -19.853,   22.647,  -22.613,    0.047,    4.347,    8.770,    1.776,
       11.984,   15.515,  -33.387,   -6.845,    1.343,    0.155,    0.218,
       17.193,  -12.928,  -17.729,    9.551,   -7.807,  -32.482,    0.011,
       -0.882,  -12.591,    1.390,  -29.578,  -17.122,   -3.352,   31.650,
       -5.656,  -23.974,   33.733,  -14.334,  -16.767,    0.681,  -11.832,
       -4.751,   26.939,  -14.188,  -29.716,  -31.488,   -5.520,   12.070,
       21.134,   -8.014,  -25.284,  -17.878,   16.134,    3.807,    4.888,
       18.830,   14.000,    5.912,   17.873,   17.678,   16.969,   -3.571,
       -4.811,   -8.197,  -21.760,  -18.566,  -27.428,   17.663,   -1.878,
      -15.680,  -11.665,   -2.141,   -2.021,   14.992,   -1.544,  -12.056,
        5.437,   12.795,   -2.251,    3.908,   -0.161,    8.973,   -1.428,
       -7.303,   -7.670,   11.288,  -28.611,   12.827,  -43.334,    0.186,
        4.347,   42.965,  -18.485,  -24.033,   33.279,  -30.775,   -4.517,
        9.938,  -22.083,   38.672,   25.909,   -7.601,  -14.240,   26.642,
       -9.092,   -0.309,  -14.220,   18.230,  -16.682,  -10.051,   14.315,
      -71.770,   -6.376,    4.257,  -14.045,   26.345,    5.749,   -8.294,
        1.213,   -8.751,   41.768,   -1.976,    5.040,  -34.286,   34.516,
      -38.425,  -37.201,   21.305,    6.817,  -20.757,  -11.733,  -50.504,
        0.923,   -0.017,   48.111,  -16.120,  -22.585,  -53.352,  -18.344,
       27.943,    0.636,  -10.738,    1.644,  -14.528,  -25.745,   30.906,
       -1.161,   10.817,    8.704,   21.361,   -8.281,   16.600,  -20.967,
        5.814,   10.413,    3.172,   -4.858,   16.354,  -19.052,   10.393,
       -7.929,    7.817,  -11.336,   -9.794,    0.860,  -12.816,    1.710,
       19.597,   40.652,   -8.043,   24.528,    9.737,  -31.428,    0.903,
      -28.075,   -3.174,   -4.049,  -25.526,  -11.463,   39.079,  -10.397,
      -16.639,  -47.523,    2.824,  -21.024,   22.181,   -1.281,    1.728,
        7.559,   -7.690,   27.806,   37.623,  -17.744,   42.307,    1.318,
      -16.549,  -63.367,   -5.607,  -17.215,    6.814,   -0.404,    0.429,
       10.618,    7.280,    8.167,   19.245,  -28.791,   -0.515,    9.153,
       -0.691,    7.786,   21.363,    3.815,  -26.160,  -14.182,    2.145,
       23.489,   21.371,   16.651,    3.679,  -13.687,  -16.592,    5.204,
       13.515,   39.807,   26.731,   37.361,   31.231,   12.389,  -41.579,
        2.781,  -44.533,   37.498,    7.664,    8.722,   41.951,   15.854,
       21.836,  -14.273,   38.904,   20.543,  -20.116,    6.603,  -25.825,
       -9.845,  -33.387,   22.495,    3.588,   10.561,  -12.173,   30.258,
        7.182,  -21.483,   -9.968,    6.307,   16.850,    4.500,   -4.336,
       14.764,    0.593,    5.943,   -3.822,   31.892,  -17.910,   42.740,
        1.645,  -38.714,   17.208,  -39.357,    4.934,   31.518,  -47.181,
       -7.856,    2.957,   -2.922,  -21.017,   -7.812,   -5.778,    8.771,
       -7.639,   -0.384,   -1.357,    2.660,   12.608,   43.907,   14.715,
       -6.187,   21.216,    4.972,    5.192,   32.958,   -3.016,  -19.784,
        7.854,    4.596,   -1.437,  -14.449,  -12.889,    7.793,   -7.593,
       11.462,   14.493,   10.183,    5.894,   -2.265,   -9.158,   44.043,
      -16.008,  -44.231,    3.209,   15.963,  -45.064,   19.331,   23.423,
        1.413,   -9.083,   -0.980,  -25.570,   -9.497,    4.797,   -4.495,
       23.644,  -40.138,    1.532,  -11.827,  -20.496,  -27.503,   14.893,
        0.475,   30.484,  -36.129,   18.343,    0.305,   11.080,   17.645,
        6.747,  -12.009,   -7.230,   -0.330,    0.939,    6.452,    9.333,
       13.864,   11.608,   -3.145,   -2.248,  -15.068,  -16.710,   -6.274,
        2.579,    1.498,   13.604,  -12.530,   -1.741,    6.855,  -10.886,
      -15.140,    6.743,   -6.996,    5.423,    5.412,    7.602,   -3.313,
      -11.263,    5.019,   -7.945,   11.666,  -31.367,   26.796,    7.315,
       12.081,  -38.031,   18.857,    5.752,   16.565,   19.458,  -59.674,
      -12.259,    3.953,   25.821,    9.068,   13.101,   43.938,    4.442,
       -6.404,   10.496,  -18.128,    8.417,   -1.211,   -1.567,  -10.999,
       17.586,   22.968,    4.755,   -8.775,  -10.834,   -3.730,  -12.220,
      -14.425,   16.458,   -9.514,   -6.111,  -11.207,   -9.245,   -2.155,
       -8.553,  -11.699,   48.112,   12.168,    0.036,   11.838,  -61.743,
       39.551,    0.125,   26.319,  -17.895,  -18.715,    2.182,  -23.339,
        6.493,   -9.373,  -11.760,    8.740,    4.844,   42.865,  -46.488,
       -6.425,   -9.769,   27.641,  -31.705,   -9.046,  -68.985,   -0.916,
       22.815,   -2.170,   -9.662,  -13.946,   -3.095,   -6.986,    9.860,
        9.770,   23.166,   25.605,    1.663,   10.189,   11.608,   25.671,
        1.623,  -10.125,    0.559,  -16.362,  -23.659,    2.590,   40.829,
       -2.774,   -4.376,   19.693,    4.246,  -25.081,   21.605,   -4.758,
       25.115,  -16.312,  -29.549,   10.345,    9.449,   25.787,    4.056,
       -6.688,  -19.134,  -22.030,   40.201,   -5.468,    3.486,   -0.567,
       -5.609,   14.780,   -1.612,    1.072,   32.361,  -12.064,   -9.862,
      -48.345,   -4.647,   41.792,   -1.969,   -7.764,   -1.159,    1.390,
        4.748,   -3.286,  -39.829,  -20.261,  -17.147,   22.201,   27.461,
      -41.585,   -6.272,    1.084,   -5.030,  -23.645,    7.006,    3.370,
      -24.924,   -6.884,  -34.920,    2.678,   19.283,   23.382,  -22.472,
       -3.995,   74.374,   -4.524,   34.665,    5.569,   -6.353,   21.022,
       -1.526,  -14.051,  -96.800,    9.661,  -15.922,   29.745,   -1.487,
      -14.340,  -10.766,   -6.090,  -11.574,  -22.461,  -11.752,   12.433,
       31.656,   -9.067,    4.378,   -1.821,  -18.326,   29.697,   -5.502,
       12.872,   22.026,  -30.970,   11.410,  -11.285,  -21.829,   -7.597,
        3.172,  -15.140,    6.888,    1.560,   11.602,  -14.585,  -98.442,
       15.152,    4.876,   -6.531,   12.063,   -5.765,    7.963,   18.755,
       -4.436,   -4.744,    0.338,    3.296,  -10.317,   -5.813,   13.988,
      -26.565,   18.404,  -15.362,   -1.353,   69.749,   -2.029,    0.694,
       -0.661,    0.838,   -0.837,    0.842,   -0.817,   -0.777,   -0.758,
       -0.877,   -0.669,   -0.671,   -0.785,   -0.618,   -0.854,    0.764,
       -1.021,   -0.735,    0.574,    0.553,    0.842,    0.827,    0.625,
       -0.988,   -1.312,    0.629,   -1.059,   -0.425,   -0.855,    0.858,
       -1.031
    },
    { -29.023,   19.929,   38.113,   13.547,    4.264,    1.959,   11.829,
       20.257,   -0.270,   13.304,   -0.527,  -51.775,   10.575,  -17.435,
       22.375,   -8.256,   31.258,   -1.034,    2.915,  -11.816,  -27.662,
       27.628,   -1.451,   25.213,   -4.126,   28.647,    0.535,   51.379,
       14.066,   19.906,   -7.933,  -15.475,  -31.952,   13.830,  -39.834,
       -8.314,   24.826,  -21.287,    0.298,    1.200,   10.642,    3.966,
       10.077,   13.934,  -30.213,   -8.328,   -0.005,   -1.522,    4.518,
       18.321,  -16.389,  -19.268,    9.951,  -10.781,  -23.005,   -0.618,
        0.341,  -11.404,    4.551,  -29.569,  -18.485,   -2.848,   27.680,
       -5.009,  -20.012,   31.456,  -11.779,  -17.591,   -3.229,  -11.806,
       -8.683,   21.444,  -13.599,  -23.044,  -36.054,  -10.498,   10.881,
       19.035,   -2.572,  -16.461,  -20.445,   18.747,    4.623,    6.502,
       21.882,   16.455,    7.006,   20.935,   20.898,   20.406,   -3.470,
       -4.233,   -9.852,  -21.490,  -25.395,  -24.843,   18.696,   -1.264,
      -19.139,  -13.995,    0.425,   -3.322,   14.747,    0.501,   -9.568,
        2.776,   11.129,   -3.337,    1.777,    0.641,    9.666,    0.631,
       -5.551,   -6.951,   13.577,  -17.359,   10.768,  -38.056,    0.559,
        3.249,   38.868,  -18.786,  -18.820,   29.077,  -25.047,   -6.129,
        7.523,  -17.299,   34.204,   23.203,   -7.286,  -15.486,   23.666,
       -4.301,    1.208,   -4.471,    7.260,  -11.683,   -8.128,    9.752,
      -67.299,   -5.256,    5.735,  -12.124,   23.712,    3.526,   -9.398,
        1.725,   -8.372,   41.431,   -5.173,    5.236,  -33.715,   27.276,
      -31.551,  -27.362,   18.592,    6.845,  -16.484,  -10.643,  -58.288,
       -0.690,   -1.597,   51.434,  -18.379,  -21.304,  -61.873,  -16.339,
       28.434,   -0.403,  -10.551,    2.440,  -17.214,  -24.615,   30.788,
       -8.592,   13.396,    9.020,   26.579,  -13.403,   17.865,  -20.954,
        2.918,   10.928,    1.926,   -3.051,   18.453,  -25.053,   12.161,
      -10.058,    9.017,  -10.081,  -10.783,    0.076,  -18.474,    4.131,
       22.550,   44.908,  -12.085,   34.058,   12.267,  -24.913,   -2.744,
      -24.096,   -3.828,    0.922,  -23.499,  -12.186,   37.166,  -10.868,
      -19.663,  -46.376,    1.780,  -18.603,   28.742,   -6.167,    2.201,
        7.742,   -2.526,   28.031,   38.875,  -21.158,   46.449,    2.605,
      -19.592,  -66.750,   -3.772,  -15.425,    5.337,    0.041,    0.574,
        9.846,   10.117,   14.370,   16.321,  -28.496,   -5.549,   10.970,
       -2.776,    8.180,   22.990,    4.360,  -24.647,  -12.780,   -0.459,
       20.855,   23.513,   16.240,    5.159,  -13.903,  -18.423,    5.863,
       14.016,   56.133,   23.487,   35.867,   30.444,   10.808,  -41.393,
        6.196,  -51.559,   36.123,    2.909,   11.119,   41.315,   19.239,
       23.680,  -11.957,   40.723,   22.585,  -19.249,    6.698,  -24.751,
       -7.301,  -40.829,   26.224,    3.864,   25.107,  -13.779,   28.798,
        4.239,  -22.139,  -10.360,    5.299,   17.544,    4.056,   -5.117,
       13.436,   -1.224,    4.764,   -6.041,   29.917,  -14.616,   41.336,
       -1.026,  -31.630,    6.966,  -34.108,    6.542,   26.491,  -43.240,
       -8.254,    3.121,   -2.045,  -17.111,   -5.721,   -5.140,    6.436,
       -7.402,    0.495,   -0.316,    2.407,   13.130,   39.948,   11.892,
       -6.823,   18.313,    4.430,    4.428,   29.095,   -2.240,  -22.518,
        9.669,    0.484,   -4.289,  -17.302,  -15.076,    9.040,   -6.486,
       15.252,   14.245,    9.870,    6.134,   -1.945,  -11.360,   45.390,
      -21.108,  -50.222,    1.899,   20.747,  -46.379,   20.903,   27.292,
        5.013,   -8.411,   -1.879,  -25.160,  -10.257,    5.276,   -5.197,
       23.584,  -43.564,    0.071,  -11.909,  -19.900,  -25.389,   14.885,
        1.708,   34.376,  -39.905,   19.872,    2.424,   11.125,   17.796,
        7.131,  -13.121,   -4.727,    0.680,    0.829,    6.533,   14.406,
       14.835,   11.650,    9.561,   -6.002,  -14.646,  -25.860,   -7.715,
        0.084,   -0.127,   17.120,  -15.416,   -2.525,    8.780,  -12.033,
      -17.455,    7.595,   -9.893,    7.802,    5.446,   11.231,   -4.316,
      -13.193,   12.762,  -13.836,   15.568,  -35.059,   31.446,    6.529,
       15.369,  -31.794,   16.625,    4.021,   14.148,   15.093,  -47.755,
       -8.654,    0.469,   20.380,    8.166,   12.957,   37.139,    3.279,
      -15.645,    6.222,  -13.732,    7.568,   -2.314,   -0.849,   -8.238,
       17.886,   22.369,    4.677,  -11.020,  -11.587,   -2.722,  -11.317,
      -14.188,   16.989,  -10.651,   -5.405,  -12.492,  -10.220,   -2.621,
      -10.332,   -9.816,   50.544,   13.714,   -0.808,   12.443,  -71.174,
       42.537,    0.464,   27.924,  -18.286,  -21.210,    2.346,  -23.230,
        9.301,  -10.065,  -15.242,    7.769,    4.854,   33.384,  -48.070,
       -1.971,   -9.508,   36.310,  -34.399,  -10.925,  -79.647,   -1.331,
       27.154,   -1.934,   -7.884,  -17.181,   -3.342,   -7.284,   10.408,
       12.896,   28.685,   28.192,    3.133,   10.152,   12.576,   30.100,
        2.171,  -10.402,    3.186,  -21.623,  -22.087,    1.440,   45.809,
       -5.173,   -8.601,   18.404,    1.656,  -26.303,   19.822,   -5.104,
       21.992,  -18.363,  -31.630,    3.476,   15.510,   30.804,   -2.065,
       -9.367,  -19.586,  -19.201,   36.225,   -4.908,    4.092,   -1.821,
       -4.902,   13.176,   -2.070,    0.855,   29.523,  -11.216,  -10.379,
      -44.430,   -4.436,   31.380,   -0.416,   -8.178,    0.284,    0.820,
        4.922,   -2.443,  -37.887,  -11.431,  -13.979,   24.306,   28.080,
      -41.095,   -6.320,    1.627,   -5.908,  -15.999,   10.224,    3.525,
      -24.119,    1.018,  -44.159,    1.964,    8.860,   23.201,  -23.585,
       -2.785,   66.557,   -7.779,   36.506,    5.171,   -3.203,   19.351,
       -1.520,  -13.187,  -94.563,   10.346,  -11.241,   27.902,   -1.050,
      -10.996,  -10.850,  -12.668,  -11.809,  -19.577,  -14.875,   12.584,
       29.667,   -8.294,    5.170,   -1.926,  -15.959,   27.367,   -8.512,
       13.952,   19.005,  -30.716,   12.427,   -9.322,  -20.018,   -0.386,
       -1.140,  -10.386,   -2.438,    3.206,   10.894,  -16.129,  -98.656,
       15.729,    3.817,   -8.642,   10.112,   -4.492,    6.937,   19.604,
       -5.342,   -6.892,    1.846,    5.920,   -9.992,   -1.094,   16.243,
      -19.318,   10.452,  -13.905,   -1.482,   70.331,   -1.886,    0.808,
       -0.612,    0.719,   -0.919,    0.968,   -0.775,   -0.829,   -0.662,
       -0.932,   -0.653,   -0.784,   -0.775,   -0.669,   -0.961,    0.678,
       -0.912,   -0.725,    0.578,    0.682,    0.946,    0.837,    0.700,
       -0.915,   -1.265,    0.542,   -1.053,   -0.462,   -0.886,    0.826,
       -1.105
    },
    { -28.434,   21.233,   40.204,   14.244,    3.607,    1.176,   11.131,
       20.769,   -2.346,   12.790,   -0.206,  -52.004,   11.236,  -16.591,
       22.213,   -6.448,   31.167,   -0.075,    4.200,  -12.219,  -24.523,
       30.403,   -4.261,   26.292,   -5.191,   29.406,    1.087,   48.119,
       14.254,   20.364,   -6.902,  -17.075,  -30.281,   15.550,  -37.222,
      -13.245,   27.161,  -23.609,   -1.626,    3.314,   10.751,    2.042,
       10.628,   13.470,  -30.347,   -8.535,    2.162,   -0.697,    1.006,
       20.575,  -16.995,  -17.968,   12.762,  -10.675,  -25.430,    1.445,
        5.084,  -12.963,    5.502,  -28.114,  -18.490,   -3.104,   24.757,
       -6.027,  -19.350,   31.426,  -12.541,  -17.994,   -1.412,  -10.916,
       -8.255,   20.572,  -14.179,  -22.920,  -38.305,   -4.653,    8.313,
       20.493,   -2.683,  -16.025,  -21.205,   19.312,    4.183,    6.185,
       21.672,   15.305,    6.650,   21.436,   19.640,   19.255,   -5.068,
       -2.578,   -9.934,  -23.124,  -24.603,  -29.593,   16.920,   -0.555,
      -17.292,  -15.013,    1.488,   -6.577,   13.839,   -3.031,   -7.646,
        3.537,   11.150,   -5.763,    5.158,   -0.305,   10.798,   -1.953,
       -7.569,   -7.147,   10.154,  -15.505,   11.268,  -44.605,   -1.478,
        5.152,   35.800,  -18.118,  -18.071,   29.274,  -25.344,   -2.905,
        9.569,  -18.161,   31.738,   23.379,   -6.836,  -15.003,   23.800,
       -4.021,   -2.340,  -10.644,   11.325,  -12.228,   -9.248,   11.464,
      -62.100,   -8.307,    6.327,   -8.202,   23.433,    3.303,   -7.252,
        0.115,  -10.345,   39.393,   -2.304,    6.981,  -27.483,   20.603,
      -19.673,  -31.396,   17.075,    5.223,  -17.468,   -9.704,  -60.061,
        5.468,   -0.618,   54.334,  -22.221,  -15.651,  -64.849,  -17.133,
       25.589,   -1.592,  -10.370,    2.961,  -16.166,  -21.820,   33.915,
       -3.936,   14.466,   10.583,   27.570,  -11.725,   18.824,  -22.720,
        6.186,    8.618,    1.825,   -5.183,   18.793,  -24.138,   12.491,
      -10.911,    9.476,  -11.836,  -15.339,    1.197,  -25.855,   -4.111,
       25.198,   49.791,  -14.269,   35.916,    7.825,  -22.230,   -1.686,
      -22.209,   -4.936,    2.049,  -19.758,   -8.958,   32.210,   -9.931,
      -15.098,  -41.959,    0.440,  -16.193,   21.998,   -7.017,   -0.743,
        9.758,   -2.953,   24.012,   39.134,  -18.825,   47.153,    3.320,
      -18.182,  -65.208,   -4.088,  -15.118,    5.223,   -1.182,    1.249,
       10.171,    8.560,   14.151,   19.716,  -27.407,   -7.149,   12.653,
       -1.350,    6.220,   27.685,    8.715,  -25.507,  -13.593,   -0.878,
       22.116,   26.550,   14.575,    5.233,  -14.393,  -18.141,    8.568,
       12.533,   64.825,   20.430,   38.102,   38.881,   14.141,  -35.484,
       -1.418,  -49.747,   34.423,    5.041,   10.287,   40.679,   17.685,
       21.384,   -9.946,   35.865,   21.649,  -20.558,    8.040,  -22.749,
       -6.486,  -39.406,   22.190,    4.355,   22.578,  -14.307,   28.107,
        8.624,  -13.663,   -6.168,    3.722,   13.542,    1.072,   -5.110,
        9.659,    2.735,    4.033,   -4.404,   24.775,  -13.800,   48.530,
      -10.496,  -17.620,    4.003,  -32.882,    6.719,   27.396,  -36.410,
       -4.269,    0.995,   -3.725,  -16.944,   -3.520,   -4.995,    4.673,
       -6.917,    0.407,   -0.856,    3.945,   10.282,   35.057,    6.498,
       -3.976,   17.838,    6.872,    3.638,   26.094,   -5.360,  -19.902,
       11.636,    2.000,   -2.668,  -16.695,  -15.129,    8.267,   -7.880,
       14.396,   16.416,    9.995,    6.408,  -10.206,  -15.079,   50.553,
      -25.093,  -49.199,    3.471,   19.823,  -42.110,   14.865,   22.091,
        3.344,   -8.265,   -0.381,  -21.316,   -5.827,    2.665,   -4.052,
       20.260,  -36.043,    2.035,  -12.048,  -18.573,  -20.936,   14.617,
        5.700,   28.754,  -35.808,   25.179,   -0.857,   13.426,   23.986,
       12.078,  -14.861,   -7.542,   -2.945,    0.527,    9.357,   18.695,
       20.320,   16.943,    9.795,   -7.555,  -23.778,  -29.062,   -8.517,
        0.198,    3.715,   19.827,  -17.812,   -2.951,    8.913,  -15.294,
      -20.018,    9.851,   -9.149,    8.682,    7.694,   13.997,   -4.046,
      -13.944,    7.791,   -5.768,   10.467,  -40.272,   35.563,    9.167,
       14.734,  -29.819,   20.857,    7.003,   11.335,   15.209,  -49.063,
      -10.982,    3.456,   17.070,    8.006,   16.243,   38.020,    3.415,
      -12.610,    3.790,  -11.294,    2.263,   -2.447,   -4.956,   -7.993,
       19.793,   25.028,    4.516,  -10.270,  -12.675,   -3.982,  -13.804,
      -17.655,   18.864,   -9.997,   -4.798,  -13.415,  -10.373,   -0.118,
      -16.752,  -14.600,   60.275,   15.570,    0.341,   12.112,  -62.557,
       41.443,   -0.880,   26.025,  -16.857,  -18.184,    3.624,  -21.455,
        7.046,   -8.846,  -12.840,    7.726,    4.701,   28.075,  -46.422,
       -7.239,   -5.443,   26.195,  -35.570,   -8.167,  -88.425,   -1.483,
       28.731,   -3.426,  -15.093,  -13.116,    0.819,   -2.013,   10.260,
       16.040,   28.058,   31.978,    0.890,   10.157,   14.529,   27.165,
        4.149,  -10.763,    0.804,  -23.779,  -25.220,    0.178,   43.161,
       -4.567,   -7.529,   17.255,    2.297,  -22.125,   20.733,   -3.418,
       20.764,  -18.105,  -30.888,    3.678,   12.028,   21.270,    0.909,
      -11.119,  -19.249,  -19.371,   32.972,   -5.344,    2.690,   -1.430,
       -3.999,   12.958,   -2.560,   -1.741,   29.090,  -10.079,   -7.410,
      -41.010,   -3.657,   35.749,   -0.483,  -10.070,   -1.992,    2.623,
        4.824,   -1.507,  -41.323,  -13.476,  -12.434,   23.184,   27.917,
      -41.897,   -3.304,    4.716,   -7.248,  -19.102,    8.868,    3.240,
      -21.499,   -2.797,  -34.661,    5.817,    8.426,   27.673,  -20.259,
       -8.999,   68.626,   -9.392,   34.108,    6.406,   -7.438,   22.095,
        0.594,  -13.723,  -92.959,    8.710,  -12.180,   27.354,   -0.026,
       -9.066,  -12.064,   -6.070,  -12.429,  -20.990,  -14.237,   12.124,
       34.214,   -8.691,    7.706,   -3.047,  -18.507,   29.579,   -6.938,
       17.278,   19.769,  -36.668,   13.277,  -10.480,  -22.887,   -9.561,
        1.742,  -12.720,    1.198,    2.541,   12.912,  -20.242,  -87.972,
       14.897,    5.284,   -6.332,    8.479,   -5.111,    6.118,   18.479,
       -5.795,   -4.331,    0.730,    6.444,   -8.060,   -1.707,   13.762,
      -16.432,   11.292,  -13.485,   -0.611,   62.468,   -2.000,    0.697,
       -0.657,    0.786,   -0.694,    0.911,   -0.772,   -0.832,   -0.637,
       -0.914,   -0.525,   -0.766,   -0.886,   -0.539,   -0.953,    0.744,
       -0.899,   -0.713,    0.645,    0.737,    0.841,    0.716,    0.656,
       -0.916,   -1.368,    0.648,   -1.019,   -0.442,   -0.863,    0.832,
       -0.978
    },
    { -25.132,   19.661,   32.406,   10.703,    4.549,    2.678,    8.843,
       16.676,   -1.875,   11.839,   -0.099,  -44.893,    9.948,  -15.279,
       17.401,   -6.774,   30.369,    0.692,    3.434,  -10.828,  -25.808,
       26.549,   -2.877,   21.700,   -1.404,   27.550,   -2.011,   47.583,
       12.922,   22.852,  -10.988,  -17.853,  -28.090,    7.444,  -34.298,
      -17.214,   29.892,  -18.837,    0.927,    2.605,   10.491,    4.263,
       10.892,   15.258,  -33.846,   -4.191,    1.585,   -3.360,   -0.264,
       23.927,  -20.079,  -20.346,   14.077,   -9.463,  -30.061,   -0.524,
       -0.284,  -15.109,    7.186,  -30.838,  -18.058,   -4.564,   26.151,
       -4.884,  -17.681,   32.452,  -12.316,  -17.322,   -3.735,  -10.886,
       -6.254,   19.973,  -14.537,  -25.001,  -35.034,  -10.005,    8.303,
       17.381,   -4.487,  -15.931,  -23.795,   21.431,    4.108,    5.978,
       23.706,   17.546,    6.471,   19.626,   22.444,   20.367,   -4.041,
       -5.675,  -10.362,  -17.364,  -24.627,  -42.309,   25.822,   -1.021,
      -19.660,  -13.982,   -1.290,   -1.670,   15.621,   -1.150,  -12.387,
        4.737,   13.764,   -2.376,    5.026,   -0.460,   10.575,   -1.943,
       -7.355,   -7.075,    8.507,  -24.100,   10.729,  -47.971,    0.092,
        4.186,   36.543,  -17.794,  -17.407,   30.138,  -25.975,   -5.370,
        9.743,  -16.239,   32.097,   21.614,   -5.801,  -15.279,   23.948,
       -8.967,   -0.548,  -10.426,   17.263,  -13.184,  -11.929,   11.074,
      -49.895,  -13.375,    3.759,  -11.146,   21.930,    6.345,   -9.120,
       -2.801,  -13.865,   29.338,   -5.662,    7.402,  -22.486,   26.920,
      -19.136,  -28.850,   22.705,    7.093,   -9.894,   -7.471,  -68.784,
        4.925,    0.229,   56.039,  -23.903,  -18.426,  -68.671,  -19.258,
       26.508,   -2.703,  -12.799,    3.904,  -16.453,  -20.097,   22.424,
       -8.370,   16.874,    8.429,   27.214,   -7.595,   21.108,  -27.521,
        9.727,    5.256,    5.600,   -1.152,   18.133,  -28.828,    7.562,
      -16.178,   10.484,  -15.600,  -12.383,   -3.235,  -19.464,  -15.243,
       32.507,   54.591,  -20.200,   34.538,    8.606,  -22.190,   -1.577,
      -19.865,   -3.671,    1.577,  -18.684,   -9.684,   28.343,   -9.082,
      -14.544,  -37.231,   -0.376,   -5.734,   14.884,   -3.482,    0.770,
        7.321,   -2.892,   23.542,   35.890,  -17.093,   41.990,    3.983,
      -17.313,  -59.541,   -4.353,  -13.537,    6.249,   -1.023,    2.154,
        8.708,    9.166,   10.866,   16.725,  -26.437,   -5.365,    8.598,
       -1.225,    5.765,   25.282,    7.497,  -25.353,  -12.259,   -0.015,
       22.108,   25.846,   12.164,    4.505,  -14.310,  -15.527,    9.581,
       15.290,   50.702,   25.237,   43.453,   32.587,   11.756,  -38.688,
        4.130,  -42.230,   27.399,    4.829,    8.855,   35.560,   14.529,
       19.098,  -11.179,   33.818,   19.893,  -18.295,    7.999,  -21.201,
       -3.868,  -30.094,   21.286,    6.599,   17.998,  -13.454,   27.662,
        8.027,  -16.685,   -8.738,    4.888,   13.553,    5.862,   -2.085,
        9.293,    1.846,    3.686,   -2.211,   24.817,  -14.530,   49.584,
       -2.034,  -21.404,   12.832,  -31.828,    0.072,   25.778,  -32.265,
       -5.959,    0.371,   -2.736,  -12.570,   -0.891,   -5.107,    1.573,
       -5.240,    0.457,   -0.709,    1.525,    8.183,   35.599,    5.006,
        1.263,   13.455,    2.774,    2.965,   25.467,   -3.278,  -20.146,
       11.147,    3.797,   -1.961,  -16.404,  -13.454,    5.248,   -8.434,
       15.514,   11.735,   11.179,    7.760,   -7.353,   -9.694,   50.860,
      -22.715,  -47.710,    8.568,   21.883,  -37.642,   14.058,   20.262,
        3.671,   -6.021,   -1.911,  -20.694,   -7.911,    4.506,   -4.202,
       17.637,  -32.829,   -1.166,  -10.444,  -12.899,  -25.224,   13.515,
        0.590,   29.343,  -33.352,   30.944,   -3.112,   18.061,   29.837,
       12.247,  -19.499,  -10.538,   -3.617,    1.820,   12.618,   23.504,
       28.200,   22.010,   17.602,  -13.550,  -36.865,  -35.171,  -12.539,
        1.950,    3.140,   21.384,  -18.807,   -2.605,   10.353,  -16.912,
      -21.967,    8.909,  -10.526,    8.202,    6.061,   14.787,   -4.654,
      -16.435,   17.579,  -10.075,   15.535,  -46.450,   38.549,    9.940,
       17.168,  -31.322,   17.869,    7.499,   11.839,   15.031,  -51.262,
      -12.856,    3.744,   18.254,    5.363,   14.178,   39.847,    3.881,
       -8.495,    6.397,   -9.414,   -1.661,   -3.338,   -5.835,   -4.702,
       19.852,   29.181,    4.543,  -11.465,  -14.974,   -4.704,  -14.589,
      -16.405,   20.833,  -10.693,   -7.902,  -12.977,  -13.048,   -4.258,
      -18.646,  -18.019,   62.813,   16.874,    3.507,   11.856,  -61.322,
       37.263,   -0.321,   24.246,  -14.842,  -17.816,    3.106,  -19.026,
        8.646,   -8.585,  -13.089,    4.165,    4.141,   34.277,  -47.358,
       -1.288,   -5.109,   27.265,  -36.099,   -7.658,  -93.055,   -1.417,
       33.013,   -2.527,  -12.724,  -16.943,   -1.810,   -4.665,   10.499,
       15.286,   30.676,   33.329,    1.470,    9.463,   13.615,   31.456,
       -0.728,   -9.871,    8.300,  -27.628,  -27.171,    5.045,   43.255,
       -2.109,   -7.346,   18.342,    2.186,  -18.642,   23.275,   -3.685,
       22.740,  -19.773,  -29.511,    7.428,   14.055,   19.953,   -0.224,
       -4.195,  -17.918,  -21.321,   34.669,   -3.874,    2.974,   -0.044,
       -5.486,   11.977,   -0.983,   -1.414,   29.656,  -10.251,   -7.409,
      -42.246,   -3.869,   34.630,   -0.801,  -10.659,   -1.176,    0.009,
        3.818,   -0.874,  -40.474,   -8.901,  -14.657,   19.165,   21.226,
      -42.117,  -10.567,    1.155,   -4.858,  -22.569,   12.898,    2.985,
      -23.375,  -16.675,  -31.626,   10.238,   11.791,   26.858,  -22.608,
       -7.202,   61.677,   -6.490,   28.378,    5.518,   -4.054,   19.707,
       -0.407,   -9.994,  -80.765,    6.343,  -13.064,   24.660,   -2.909,
       -7.070,  -11.393,   -8.645,   -8.124,  -19.370,  -12.118,    9.173,
       34.428,   -8.857,    6.693,   -4.879,  -17.683,   29.362,   -7.753,
       17.255,   20.662,  -37.462,   11.881,   -8.801,  -23.610,   -2.350,
       -4.926,  -18.666,    7.433,    1.917,   13.514,  -18.793,  -81.851,
       12.372,    3.320,   -6.095,   10.406,   -6.384,    5.533,   15.278,
       -4.536,   -4.789,    1.372,    6.612,   -7.735,   -1.969,   16.746,
      -17.658,    5.425,  -10.292,   -1.150,   57.686,   -1.740,    0.717,
       -0.654,    0.852,   -0.738,    0.776,   -0.771,   -0.880,   -0.772,
       -0.991,   -0.649,   -0.660,   -0.905,   -0.619,   -0.767,    0.742,
       -0.842,   -0.782,    0.701,    0.681,    0.851,    0.808,    0.645,
       -0.922,   -1.333,    0.574,   -1.010,   -0.326,   -0.775,    0.785,
       -0.984
    },
    { -24.901,   12.604,   35.516,   11.370,    2.737,    0.149,   10.792,
       19.115,   -0.398,   11.515,   -1.415,  -45.290,    9.787,  -12.142,
       20.676,   -6.645,   30.483,    0.121,    1.549,   -9.464,  -27.344,
       26.274,   -1.096,   20.776,   -5.229,   24.702,   -2.535,   45.185,
       16.051,   20.260,  -11.443,  -18.105,  -28.783,   10.189,  -34.703,
      -12.340,   21.140,  -15.893,    3.596,    0.493,   13.082,    4.621,
       13.592,   18.166,  -38.076,   -5.428,    1.507,   -1.820,   -2.630,
       23.522,  -19.408,  -19.493,   13.697,   -9.281,  -28.464,    6.334,
        0.799,  -19.279,    4.975,  -33.139,  -15.502,   -1.222,   24.483,
       -5.789,  -18.674,   29.239,  -10.789,  -14.685,   -3.100,   -9.652,
       -6.436,   19.781,  -11.322,  -19.874,  -31.389,   -7.858,    9.770,
       19.506,   -1.947,  -17.809,  -27.632,   26.673,    0.729,    7.956,
       30.993,   24.422,    6.905,   25.785,   28.155,   25.389,   -5.151,
       -6.424,  -11.671,  -26.519,  -36.073,  -35.025,   23.344,   -3.350,
      -23.917,  -17.107,   -3.072,   -1.064,   20.685,   -2.212,  -16.324,
        6.511,   17.059,   -3.393,    8.015,   -1.436,   14.345,   -2.927,
       -9.728,   -7.969,   14.108,  -34.363,   15.082,  -60.888,    0.189,
        5.776,   38.883,  -20.858,  -18.382,   30.643,  -27.970,   -5.572,
        9.803,  -19.610,   34.054,   25.305,   -6.736,  -15.203,   24.085,
       -8.674,    1.555,  -11.070,   14.496,  -11.365,   -7.828,    9.962,
      -51.281,  -11.524,    1.855,  -10.234,   15.321,    5.073,  -10.937,
       -0.478,  -14.299,   29.710,   -5.798,    9.309,  -21.963,   24.597,
      -21.549,  -33.032,   24.567,    8.328,  -11.329,  -10.485,  -61.001,
       -0.630,    1.293,   55.568,  -20.134,  -20.868,  -62.046,  -16.949,
       25.404,   -0.001,  -10.948,    4.902,  -15.539,   -9.554,   30.436,
       -9.690,   21.788,    9.363,   22.659,  -11.171,   28.432,  -22.814,
       11.150,   10.180,    1.891,   -2.492,   21.876,  -25.546,   10.632,
      -16.229,    4.372,  -19.993,  -11.259,   -8.641,  -16.199,   -1.463,
       42.752,   63.526,  -11.915,   35.391,    7.156,  -19.707,    0.372,
      -20.100,   -3.325,    0.207,  -19.083,   -7.418,   28.013,   -9.384,
      -13.190,  -37.791,    0.721,   -9.855,   15.560,   -6.873,    0.812,
        9.392,   -3.089,   21.673,   30.099,  -13.443,   36.092,    2.797,
      -12.084,  -51.448,   -3.926,  -14.155,    5.588,   -0.153,   -0.994,
        7.108,    6.775,    8.280,   19.462,  -23.594,   -8.827,    5.340,
       -1.699,    6.515,   17.913,    4.378,  -22.883,  -11.236,   -0.916,
       18.535,   20.488,   14.585,    3.459,  -12.168,  -14.623,    7.201,
       11.102,   20.957,   28.503,   26.477,   35.548,    9.892,  -35.365,
        1.766,  -40.909,   23.418,    4.620,    6.997,   31.483,   12.569,
       16.920,   -9.625,   30.865,   19.413,  -14.908,    7.528,  -23.581,
       -2.187,  -36.106,   23.409,   11.333,   17.220,  -13.881,   25.979,
        5.303,  -21.498,   -8.755,    4.562,   10.903,    2.132,   -4.447,
       21.269,    1.146,    5.146,   -2.047,   30.988,  -15.028,   46.886,
        1.837,  -27.364,   13.242,  -33.160,    5.345,   22.144,  -34.800,
       -5.338,    2.615,   -2.605,  -14.410,   -7.286,   -3.350,    4.808,
       -6.034,   -1.016,    0.355,    2.000,   11.148,   36.457,    9.241,
       -0.764,   15.686,    3.413,    2.538,   25.338,   -0.317,  -19.992,
       10.136,    4.329,   -7.524,  -19.130,  -14.229,    7.409,   -6.159,
       17.521,   16.967,   10.668,    5.698,    1.776,  -14.330,   51.968,
      -21.409,  -47.483,    6.285,   20.969,  -37.873,   17.713,   22.354,
        4.273,   -7.394,   -1.381,  -20.886,   -6.391,    5.612,   -3.753,
       21.909,  -39.812,   -0.579,   -4.717,  -10.762,  -29.887,   15.548,
        1.057,   27.208,  -34.048,   37.467,   -3.176,   19.834,   30.736,
       17.958,  -24.649,  -11.993,   -6.279,    3.877,   13.661,   22.609,
       32.997,   23.061,   12.052,   -8.945,  -34.641,  -46.432,  -16.989,
        3.737,    5.944,   23.606,  -19.292,   -4.457,    8.892,  -18.188,
      -20.256,    9.920,   -9.056,    7.692,    6.348,   11.402,   -6.551,
      -20.255,   12.801,   -6.590,   20.185,  -50.223,   45.638,   14.990,
       16.193,  -30.153,   16.006,    6.794,    8.890,   14.034,  -50.208,
      -12.320,    5.165,   15.440,    5.748,   13.908,   41.038,    3.969,
       -8.476,    9.619,  -14.111,   -2.230,   -2.764,   -8.256,   -2.689,
       23.681,   32.344,    6.374,  -13.684,  -18.299,   -4.438,  -18.118,
      -20.222,   21.719,  -11.604,   -8.924,  -14.282,  -14.998,    2.531,
      -22.011,  -13.916,   71.326,   20.463,    3.974,   14.033,  -61.264,
       35.422,   -0.219,   22.673,  -14.125,  -16.323,    4.471,  -19.755,
        5.847,   -8.791,  -13.343,    4.983,    3.101,   26.445,  -44.989,
       -6.309,   -6.479,   26.967,  -34.058,   -7.818,  -96.246,   -3.718,
       33.824,   -2.934,  -14.753,  -17.562,   -3.543,   -6.902,   14.627,
       15.102,   27.112,   31.617,    4.538,   10.771,   16.867,   28.781,
        1.471,  -11.476,    6.525,  -23.516,  -25.045,    4.854,   39.414,
       -1.668,    2.728,   17.506,    5.875,  -20.457,   24.473,   -5.962,
       26.067,  -19.638,  -32.097,    8.302,    7.517,   17.953,    7.542,
       -8.503,  -24.825,  -14.570,   30.791,   -2.190,    3.833,   -0.207,
       -0.882,   10.063,   -1.394,   -1.651,   25.147,   -7.838,   -7.882,
      -35.422,   -4.696,   31.221,   -0.761,   -7.946,   -0.199,    1.763,
        7.726,   -2.423,  -38.902,   -6.172,  -14.407,   18.834,   17.198,
      -40.129,   -9.778,    5.408,   -6.140,  -22.138,    8.481,    1.904,
      -23.319,  -11.441,  -24.361,    7.778,    9.872,   32.241,  -23.282,
       -6.912,   59.358,  -11.165,   27.389,    6.831,   -4.273,   20.321,
       -0.604,   -7.770,  -80.031,    8.014,  -12.842,   21.731,   -4.400,
       -9.260,   -2.873,  -13.743,  -15.641,  -14.596,  -12.401,    8.679,
       37.220,   -7.109,    7.896,   -3.240,  -19.700,   34.197,   -7.669,
       15.381,   21.243,  -39.694,   16.330,  -11.023,  -25.003,   -3.932,
       -0.231,  -16.255,   10.337,    4.204,   14.428,  -22.438,  -78.096,
       11.850,    5.409,   -3.825,    7.745,   -6.239,    5.716,   14.342,
       -4.420,   -4.196,    0.889,    6.073,   -7.087,   -2.418,   12.514,
      -19.694,    8.434,  -12.975,   -1.075,   54.689,   -2.036,    0.729,
       -0.517,    0.715,   -0.758,    0.764,   -0.778,   -0.744,   -0.653,
       -0.872,   -0.545,   -0.718,   -0.732,   -0.716,   -0.872,    0.625,
       -0.929,   -0.791,    0.596,    0.646,    0.880,    0.783,    0.673,
       -0.824,   -1.284,    0.542,   -1.127,   -0.461,   -0.827,    0.831,
       -1.237
    },
    { -25.710,   19.965,   36.945,   12.894,    5.847,    0.495,   11.481,
       17.431,    0.197,   10.836,   -1.580,  -48.582,    9.951,  -16.320,
       22.345,   -7.384,   30.218,   -2.880,    3.446,  -10.228,  -29.418,
       27.069,   -1.825,   22.732,   -0.733,   28.276,   -4.455,   42.607,
       16.383,   22.208,  -11.550,  -19.378,  -26.126,    9.087,  -29.880,
      -15.972,   27.188,  -18.427,   -1.122,    3.368,   10.513,    4.893,
       15.144,   18.981,  -40.432,   -4.048,    2.449,   -0.834,   -2.923,
       24.073,  -19.630,  -21.927,   15.500,  -10.159,  -36.637,    0.811,
        2.559,  -16.173,    3.305,  -36.397,  -14.202,   -3.966,   21.401,
       -6.013,  -15.499,   26.762,   -9.316,  -14.703,   -2.850,   -8.735,
       -6.062,   16.082,  -10.689,  -16.782,  -29.644,   -5.940,    8.134,
       15.319,   -2.637,  -13.101,  -28.772,   25.290,    4.074,    7.060,
       33.446,   24.858,    8.734,   25.515,   27.617,   27.208,   -3.184,
       -5.621,  -13.764,  -32.778,  -34.491,  -35.552,   27.391,   -2.785,
      -25.192,  -19.029,   -4.009,   -2.437,   22.662,   -2.224,  -18.641,
        7.661,   18.085,   -4.987,    5.948,   -0.177,   15.239,   -1.842,
      -11.090,  -13.228,   15.127,  -37.163,   19.690,  -64.350,    1.306,
        6.771,   41.861,  -18.267,  -17.926,   29.243,  -26.261,   -3.546,
        7.725,  -18.991,   33.788,   25.090,   -8.258,  -16.493,   25.093,
      -17.440,   11.073,   -7.823,   12.601,  -13.365,   -8.526,   10.875,
      -51.557,   -8.085,   -2.723,  -10.138,   19.396,    7.922,   -7.869,
       -1.166,   -6.981,   31.068,   -5.873,    7.194,  -25.508,   27.190,
      -20.875,  -38.010,   24.156,    4.535,  -12.443,  -10.145,  -51.566,
        4.072,    1.111,   47.218,  -17.532,  -17.692,  -55.347,  -14.502,
       20.171,    0.131,   -6.562,    4.905,  -16.235,   -9.205,   26.123,
       -8.880,   13.149,    9.527,   23.128,  -15.123,   32.720,  -33.666,
       17.052,   13.891,    9.209,    0.073,   26.328,  -33.811,    1.768,
      -20.860,   14.910,  -15.255,  -10.924,   -7.841,  -13.323,   -3.059,
       50.681,   68.773,  -16.646,   39.175,    7.981,  -20.120,   -0.651,
      -19.160,   -3.455,   -0.431,  -18.507,   -9.207,   30.225,   -9.422,
      -14.469,  -39.407,    1.847,  -15.636,   18.615,   -5.877,   -0.984,
        7.418,   -3.299,   22.889,   32.673,  -15.128,   34.208,    2.597,
      -11.455,  -48.922,   -4.165,  -11.359,    5.604,    0.428,   -1.146,
        7.075,    6.241,   21.446,   16.542,  -14.700,   -5.734,    2.918,
       -5.988,    7.947,   15.919,    3.999,  -21.098,  -10.021,    2.378,
       19.474,   19.235,   13.343,    1.530,  -14.382,  -11.707,    5.725,
       11.677,   14.370,   24.604,   21.714,   34.216,   10.435,  -33.583,
       -2.451,  -37.957,   31.657,    3.495,    2.450,   32.920,   11.962,
       15.556,   -9.317,   35.754,   17.928,  -12.801,    3.923,  -20.721,
       -3.473,  -33.445,   22.600,    5.824,   19.522,  -11.538,   22.284,
        4.203,  -22.508,  -10.759,    4.766,   10.766,    4.571,   -3.802,
       22.644,   -0.507,    6.563,   -5.517,   33.622,  -14.506,   37.201,
        2.882,  -27.724,   16.807,  -34.890,    6.547,   26.730,  -40.867,
       -7.123,    2.442,   -2.946,  -17.942,   -7.115,   -5.851,    5.955,
       -6.742,   -0.852,   -1.176,    2.614,   11.345,   37.644,   11.938,
       -3.191,   17.510,    3.691,    5.131,   28.962,   -5.080,  -24.711,
       12.386,    2.217,   -8.728,  -19.867,  -17.479,    9.803,   -7.360,
       17.505,   15.552,   13.359,    6.144,   -3.965,  -20.371,   45.828,
      -19.412,  -51.368,    6.026,   24.958,  -43.873,   17.143,   27.745,
        3.516,   -6.799,   -0.914,  -24.134,   -7.684,    2.987,   -4.243,
       23.382,  -41.894,    1.382,   -1.983,  -20.717,  -23.198,   17.067,
        3.083,   30.988,  -37.823,   46.528,   -6.380,   23.373,   36.800,
       20.097,  -31.576,  -14.961,   -9.253,    5.022,   16.731,   27.951,
       35.279,   26.062,    9.815,   -7.681,  -41.360,  -39.342,  -20.256,
        2.553,    6.253,   24.682,  -17.817,   -2.990,    8.636,  -17.010,
      -21.773,    9.100,   -8.274,    9.034,    6.958,   11.455,   -5.096,
      -17.487,   12.347,   -6.946,   26.263,  -50.469,   39.541,   11.822,
       16.064,  -32.791,   18.290,    9.361,   10.523,   16.783,  -55.277,
      -12.382,    3.352,   17.260,    5.095,   16.581,   43.750,    4.366,
      -12.053,    9.728,  -13.356,   -2.773,   -1.628,   -7.364,   -5.235,
       23.019,   28.143,    6.683,  -15.708,  -16.392,   -5.148,  -16.896,
      -19.103,   24.792,  -12.085,   -8.209,  -18.126,  -17.442,    2.201,
      -24.248,  -13.517,   68.114,   22.346,    3.631,   12.911,  -55.026,
       36.817,   -0.559,   22.674,  -14.974,  -15.914,    1.346,  -18.235,
        7.806,   -7.301,  -12.760,    5.346,    3.336,   24.296,  -37.310,
        1.891,   -8.701,   25.499,  -30.353,   -7.993,  -97.230,   -4.710,
       36.386,   -4.524,  -13.036,  -19.704,   -2.018,   -2.366,   12.110,
       15.072,   27.012,   35.243,    2.636,    7.849,   14.324,   37.023,
       -4.290,   -9.998,    7.874,  -27.508,  -24.747,   -0.817,   35.318,
       -2.073,    1.461,   18.690,    1.568,  -18.733,   21.224,   -9.226,
       21.577,  -12.983,  -31.720,    4.156,    5.052,   19.837,   16.363,
       -6.610,  -24.391,  -15.241,   29.862,   -3.885,    2.996,    0.627,
       -2.301,    9.229,   -0.370,   -1.500,   25.221,   -7.803,   -8.174,
      -35.746,   -3.321,   29.738,   -0.678,   -3.774,   -3.974,    3.595,
        6.580,   -0.982,  -36.805,   -6.761,  -10.552,   13.403,   14.024,
      -40.013,   -8.720,    3.433,   -3.239,  -17.950,    7.244,    1.429,
      -17.225,   -3.576,  -30.020,    5.460,    2.024,   26.874,  -16.849,
      -14.264,   57.995,  -10.913,   28.192,    6.308,   -3.421,   21.498,
       -0.724,   -6.459,  -77.941,    5.106,  -16.056,   19.169,   -1.789,
       -2.977,  -13.307,   -4.935,  -12.198,  -18.048,  -13.113,   11.381,
       42.207,   -9.779,    9.245,   -3.761,  -22.469,   34.605,   -7.651,
       19.653,   22.208,  -40.840,   18.480,   -9.737,  -27.695,   -6.170,
        2.369,  -13.111,    2.880,    5.726,   16.623,  -24.977,  -85.690,
       13.735,    5.134,   -6.020,    9.785,   -4.192,    5.464,   16.752,
       -5.323,   -4.254,    0.121,    5.584,   -8.575,   -0.213,   14.960,
      -22.139,   13.118,  -11.488,    0.177,   59.725,   -2.072,    0.822,
       -0.686,    0.822,   -0.820,    0.967,   -0.788,   -0.792,   -0.708,
       -0.757,   -0.694,   -0.671,   -0.769,   -0.615,   -0.865,    0.760,
       -0.934,   -0.781,    0.644,    0.657,    0.953,    0.720,    0.733,
       -0.897,   -1.286,    0.589,   -1.034,   -0.379,   -0.835,    0.753,
       -1.263
    },
    { -24.210,   22.445,   40.013,   14.270,    3.364,   -1.278,   11.709,
       19.392,   -0.214,   11.722,   -3.845,  -50.078,    9.435,  -12.583,
       25.715,   -6.237,   34.918,   -0.915,    3.559,  -10.147,  -30.844,
       25.669,    0.834,   25.058,    1.522,   26.905,   -2.504,   42.072,
       15.693,   23.534,  -13.830,  -18.452,  -26.698,    9.329,  -27.819,
      -31.677,   31.960,  -24.138,   -5.888,   12.152,    5.982,    3.743,
       12.212,   20.558,  -39.387,   -4.447,    5.067,   -4.516,   -1.524,
       23.454,  -21.580,  -21.019,   15.048,  -10.771,  -37.895,    0.614,
       -0.812,  -15.932,    7.605,  -27.164,  -15.012,   -1.555,   23.273,
       -6.081,  -17.424,   26.985,  -11.934,  -14.882,   -2.570,   -9.597,
       -6.496,   20.018,  -12.148,  -20.430,  -25.532,   -3.371,    7.061,
       18.376,   -2.998,  -15.337,  -26.554,   22.957,    5.037,    5.485,
       27.080,   19.697,    6.906,   21.917,   23.090,   23.413,   -4.068,
       -5.080,  -11.332,  -23.653,  -33.511,  -37.381,   22.690,   -2.570,
      -22.771,  -15.146,   -0.500,   -2.608,   22.285,   -4.150,  -16.968,
        5.817,   18.071,   -1.268,    7.459,   -1.218,   11.925,   -3.407,
       -9.780,  -10.917,   10.447,  -38.693,   20.734,  -70.739,   -1.502,
        5.818,   42.881,  -14.191,  -16.932,   32.418,  -26.744,   -6.389,
       11.963,  -24.387,   34.287,   25.933,   -6.662,  -12.777,   23.036,
      -12.466,    8.766,  -12.786,   16.609,  -15.454,   -9.673,   15.776,
      -58.521,   -8.173,    1.582,  -15.301,   20.987,    1.807,   -8.607,
       -0.905,   -5.346,   35.529,   -3.059,    9.215,  -24.159,   15.180,
      -21.514,  -22.929,   23.919,   13.028,  -14.822,  -11.670,  -48.126,
        3.683,   -2.988,   43.850,  -17.036,  -13.323,  -50.499,  -13.625,
       21.964,   -0.746,   -8.479,    3.685,  -13.287,   -4.866,   17.642,
       -3.225,    9.701,    7.147,   23.386,   -8.547,   32.305,  -28.464,
        9.004,    7.206,   10.872,   -2.811,   23.718,  -37.488,    9.320,
      -20.375,   14.162,  -17.683,  -15.175,   -3.136,  -13.541,    5.664,
       39.447,   65.953,  -17.394,   42.596,    6.780,  -22.511,    0.525,
      -23.145,   -4.317,    0.259,  -19.661,   -8.263,   31.779,  -10.427,
      -15.310,  -41.689,    0.892,  -13.741,   17.982,   -7.825,    0.710,
       10.212,   -2.779,   22.398,   25.216,  -13.514,   28.181,    3.185,
      -10.956,  -42.002,   -3.951,  -10.361,    5.387,    0.740,   -2.748,
        7.788,    5.360,   18.924,    7.208,  -12.693,   -7.307,    3.516,
       -2.556,    6.363,   18.237,    3.604,  -19.323,   -9.800,    0.669,
       21.237,   20.949,   11.022,    0.218,  -11.332,  -16.210,    5.388,
       12.804,   14.898,   22.858,   34.229,   27.216,   12.403,  -28.965,
       -1.927,  -37.653,   29.687,    4.653,    5.375,   38.829,   12.161,
       18.039,  -18.875,   34.131,   18.284,  -11.978,    2.293,  -21.363,
       -6.416,  -27.021,   30.075,    0.355,   16.677,  -12.031,   22.909,
        2.719,  -20.928,  -10.243,    8.896,   11.046,    1.823,    0.397,
       15.176,    4.806,    2.770,   -2.574,   27.889,  -11.373,   36.843,
       -4.921,  -29.114,   10.980,  -27.611,    0.842,   22.668,  -51.100,
       -6.352,    3.639,   -3.068,  -21.184,   -9.680,   -4.161,    6.790,
       -8.621,   -1.479,   -2.021,    3.317,   12.250,   40.108,    6.572,
      -11.469,   24.955,    3.303,    4.357,   34.908,   -9.234,  -28.591,
        8.309,    3.727,   -8.953,  -18.121,  -19.305,    7.037,   -7.278,
       19.869,   20.122,   15.648,    5.567,   -7.968,  -24.924,   53.634,
      -24.519,  -62.293,    4.994,   31.706,  -44.050,   16.495,   26.811,
        1.457,   -7.330,   -0.811,  -23.895,  -10.921,    5.141,   -5.090,
       19.849,  -40.581,   -0.036,   -5.024,  -23.893,  -26.171,   17.998,
        0.428,   31.239,  -32.977,   37.782,   -4.993,   22.367,   32.577,
       20.726,  -27.837,  -11.272,   -7.054,    4.950,   15.923,   24.952,
       30.845,   25.099,    9.180,   -0.175,  -54.260,  -36.185,  -19.265,
        2.096,    4.616,   23.732,  -16.924,   -2.299,    9.797,  -16.589,
      -19.439,    8.540,   -8.055,    8.647,    5.892,   11.506,   -5.044,
      -14.714,   19.393,   -9.379,   22.725,  -44.918,   33.643,   10.356,
       14.830,  -31.918,   15.853,    6.707,    8.681,   19.335,  -51.909,
      -13.185,    3.146,   18.373,    4.645,   18.434,   38.985,    3.030,
      -10.498,    7.710,  -11.901,   -3.024,   -3.787,   -7.804,   -6.723,
       20.091,   26.939,    7.455,  -13.414,  -15.729,   -5.780,  -16.272,
      -16.517,   20.553,  -11.446,   -8.178,  -13.944,  -16.328,    1.529,
      -22.384,  -11.727,   62.367,   21.931,    3.239,   10.838,  -57.766,
       36.923,    0.360,   24.108,  -16.219,  -18.231,    1.595,  -21.483,
        6.650,   -8.151,  -11.952,    6.525,    4.761,   31.943,  -40.527,
       -3.637,   -6.689,   25.471,  -29.463,   -8.781, -103.774,   -0.401,
       38.002,   -2.508,  -15.820,  -21.034,   -2.001,   -4.119,   12.971,
       15.705,   33.284,   35.129,    2.314,    6.965,   15.713,   32.495,
       -0.422,   -9.198,    7.908,  -30.409,  -24.215,    2.895,   37.491,
       -2.783,    0.463,   14.842,    3.971,  -21.661,   24.239,   -6.950,
       22.270,  -16.519,  -29.489,    7.543,    2.649,   17.849,   22.187,
       -4.565,  -26.327,  -12.676,   36.062,   -4.507,    4.303,   -0.500,
       -4.645,   12.268,   -1.805,   -0.265,   30.117,  -10.340,   -7.824,
      -43.667,   -3.611,   37.953,   -1.813,   -5.338,   -0.780,    2.564,
        4.287,   -0.309,  -25.259,   -1.834,   -5.747,   11.564,   15.083,
      -38.462,   -4.061,    6.930,   -6.674,  -11.807,   10.233,    7.331,
      -16.564,   -4.907,  -25.361,   14.463,   -7.615,   20.912,  -20.010,
       -8.644,   54.215,   -6.656,   24.494,    6.592,   -3.160,   20.281,
       -1.289,   -9.637,  -71.411,    6.419,  -13.003,   21.302,   -1.935,
       -7.462,  -10.923,   -8.395,   -8.296,  -17.337,  -11.970,    9.698,
       44.777,  -12.539,    9.144,   -3.716,  -24.676,   37.176,   -9.405,
       20.666,   26.176,  -45.288,   19.958,  -12.044,  -28.935,   -5.793,
        6.353,  -19.852,    7.324,    4.851,   15.042,  -25.706,  -91.000,
       12.317,    2.430,   -5.730,    9.418,   -2.234,    5.453,   18.626,
       -6.055,   -2.573,    0.560,    5.111,   -9.989,   -1.835,   13.927,
      -21.390,    8.128,  -12.258,   -1.942,   64.348,   -2.286,    0.687,
       -0.654,    0.782,   -0.810,    0.915,   -0.835,   -0.742,   -0.630,
       -0.864,   -0.616,   -0.651,   -0.776,   -0.557,   -0.779,    0.571,
       -0.897,   -0.688,    0.615,    0.799,    0.795,    0.782,    0.754,
       -0.939,   -1.341,    0.543,   -1.063,   -0.483,   -0.731,    0.871,
       -1.170
    },
    { -27.239,   22.718,   42.684,   14.559,    9.198,   -0.511,   13.185,
       14.146,   -2.171,   13.788,   -3.282,  -49.909,   10.820,   -8.621,
       26.401,   -7.991,   27.211,    0.172,    7.271,  -10.819,  -31.797,
       29.406,    0.030,   27.816,    2.599,   28.657,   -3.350,   46.219,
       17.915,   26.811,  -13.936,  -18.898,  -29.706,    6.990,  -34.074,
      -25.179,   32.593,  -24.923,   -5.771,   10.600,   10.793,    5.986,
       11.191,   15.643,  -35.450,   -4.766,    3.285,   -4.379,   -0.798,
       22.244,  -16.819,  -18.253,   11.716,  -10.027,  -24.481,    1.462,
       -1.464,  -17.615,    5.667,  -28.515,  -15.297,   -1.259,   26.598,
       -6.277,  -19.896,   31.257,  -14.067,  -16.225,   -4.248,  -11.927,
       -6.213,   22.130,  -15.508,  -19.762,  -32.697,   -6.202,   10.136,
       19.516,   -4.956,  -16.503,  -24.233,   24.446,    3.565,    7.801,
       28.694,   20.919,    7.059,   21.911,   23.835,   23.284,   -4.898,
       -6.298,  -11.203,  -23.075,  -28.759,  -35.745,   22.347,   -1.202,
      -20.100,  -15.599,    3.517,   -2.796,   22.294,   -4.311,  -18.429,
        8.390,   17.793,   -2.397,    6.489,    0.057,   13.298,   -2.522,
      -11.348,  -14.005,   14.608,  -31.686,   19.016,  -76.620,   -1.208,
        6.271,   46.033,  -22.708,  -17.017,   37.943,  -27.220,   -9.738,
       13.807,  -27.648,   39.247,   28.519,   -6.972,  -14.125,   25.665,
      -17.449,    6.416,  -14.336,   15.749,  -18.231,  -11.017,   16.807,
      -56.412,   -7.225,    2.100,  -10.421,   17.258,    4.138,   -8.812,
        4.441,   -7.161,   33.954,   -3.795,    8.212,  -23.776,   21.783,
      -27.827,  -23.636,   24.049,   18.509,  -11.805,  -14.065,  -49.948,
        4.227,    1.056,   42.870,  -16.158,  -13.911,  -49.754,  -14.536,
       17.603,    0.035,   -8.937,    4.614,  -11.192,  -12.192,   17.424,
       -8.996,   15.309,    7.529,   21.580,   -7.325,   33.278,  -31.704,
        5.586,    5.621,   10.437,   -5.286,   22.386,  -31.518,   12.103,
      -22.065,    9.180,  -12.804,  -15.343,    0.475,  -21.807,   10.936,
       25.667,   62.596,  -20.123,   45.887,    7.728,  -23.959,   -0.676,
      -20.600,   -2.662,    0.203,  -19.662,  -10.456,   30.224,   -9.276,
      -13.901,  -39.815,   -0.587,  -11.641,   15.686,  -11.653,    1.564,
        7.195,   -3.925,   23.738,   25.486,  -11.326,   27.399,    2.483,
       -9.181,  -39.773,   -2.856,   -9.397,    4.428,    1.027,    0.640,
        5.971,    4.751,   12.038,    9.669,  -14.868,   -2.864,    3.227,
       -2.306,    5.634,   17.452,    5.833,  -22.907,   -9.556,   -0.700,
       23.983,   20.550,   13.957,    2.337,   -9.733,  -14.683,    5.243,
       12.954,   21.945,   23.830,   29.725,   33.535,   14.045,  -30.955,
       -2.524,  -37.286,   32.407,    6.565,    6.714,   38.765,   14.601,
       17.957,  -13.009,   31.885,   18.806,  -15.971,    4.748,  -21.516,
       -7.325,  -30.988,   30.981,    1.571,   21.933,   -8.899,   19.896,
        2.716,  -20.993,   -9.732,    6.855,   12.101,    3.199,   -3.340,
       22.846,    0.851,    4.310,   -3.034,   34.940,  -12.944,   29.663,
        0.605,  -17.758,   12.997,  -29.758,    7.811,   24.099,  -54.178,
       -8.347,    2.977,   -4.048,  -24.945,   -9.952,   -3.358,   10.246,
       -6.030,   -2.484,   -2.579,    2.670,   13.090,   29.635,   15.794,
       -7.713,   24.447,    9.372,    5.108,   34.353,   -5.238,  -28.697,
       10.240,    6.052,   -6.216,  -22.818,  -18.312,    4.937,   -5.947,
       22.098,   21.011,   13.731,    8.666,   -6.371,  -27.224,   53.356,
      -26.314,  -69.947,    8.128,   31.953,  -40.191,   14.360,   23.816,
        3.003,   -9.543,   -0.135,  -22.169,  -10.258,    5.269,   -4.422,
       18.349,  -38.240,   -0.990,   -9.537,  -14.259,  -29.281,   17.313,
        2.860,   33.430,  -33.944,   30.863,   -2.163,   19.999,   29.765,
       18.519,  -24.291,   -9.714,   -6.601,    4.893,   18.848,   22.217,
       28.025,   20.421,    9.161,   -4.515,  -48.076,  -33.005,  -21.275,
       -0.404,    6.570,   20.057,  -18.046,   -4.482,   10.482,  -21.871,
      -20.475,    7.001,   -9.486,   14.278,    4.708,    8.120,   -8.364,
      -14.870,    8.970,  -13.145,    6.256,  -36.423,   43.666,   13.307,
       15.485,  -33.032,   16.325,    9.757,   10.910,   15.970,  -57.853,
      -11.031,    7.639,   17.793,    3.489,   16.414,   43.515,    2.614,
      -10.973,    9.434,   -4.437,   -4.634,   -3.373,   -9.112,   -4.277,
       19.866,   23.459,    5.689,  -11.837,  -14.162,   -2.698,  -14.543,
      -15.198,   19.425,  -10.490,   -6.758,  -14.117,  -13.793,    2.317,
      -19.974,  -10.962,   59.180,   17.872,    3.838,   10.751,  -65.766,
       41.845,   -2.773,   27.016,  -17.916,  -19.295,    2.294,  -20.661,
        8.026,   -9.577,  -13.736,   10.307,    4.266,   26.948,  -38.810,
       -8.046,   -5.601,   29.952,  -34.399,  -12.516, -109.363,   -3.791,
       36.904,   -3.567,  -16.059,  -19.013,   -3.674,   -6.254,   11.423,
       16.084,   36.301,   40.528,    0.549,   14.248,   15.717,   30.789,
        3.562,  -12.203,    5.559,  -32.306,  -25.594,    5.497,   40.809,
       -1.614,   -2.698,   14.182,    3.230,  -20.622,   22.463,   -8.765,
       25.519,  -14.527,  -36.075,    3.647,    6.538,   21.222,   10.163,
       -7.504,  -28.039,  -12.927,   38.525,   -5.228,    3.869,   -0.399,
       -0.965,   12.127,   -2.480,   -3.051,   30.821,  -10.218,   -9.196,
      -43.653,   -3.872,   40.186,   -3.162,   -4.164,   -2.806,    1.877,
        7.867,   -1.186,  -22.440,   -1.596,  -12.214,   10.550,   15.754,
      -39.938,   -6.207,    5.505,   -2.322,  -17.423,    5.512,    1.932,
      -18.112,   -6.750,  -22.738,   19.815,    5.321,   26.201,  -18.025,
       -8.614,   53.255,   -6.819,   26.552,    6.270,   -8.083,   17.564,
       -0.866,   -8.114,  -71.437,    6.455,  -11.135,   20.655,   -2.267,
      -11.054,   -7.903,   -6.991,   -7.359,  -16.087,  -11.767,    9.840,
       46.249,  -13.636,   10.531,   -5.421,  -26.043,   43.368,  -11.431,
       22.408,   26.740,  -48.703,   19.646,  -13.950,  -32.054,  -11.382,
        1.221,  -20.382,    8.317,    5.604,   17.437,  -26.112,  -90.375,
       14.457,    5.577,   -5.553,    9.134,   -6.151,    6.009,   18.700,
       -5.878,   -3.457,    0.600,    5.851,  -11.298,    2.726,   15.253,
      -11.846,    9.623,  -10.237,    0.058,   63.923,   -1.683,    0.712,
       -0.598,    0.779,   -0.921,    0.948,   -0.849,   -0.928,   -0.637,
       -0.929,   -0.663,   -0.755,   -0.820,   -0.695,   -0.862,    0.693,
       -0.901,   -0.727,    0.669,    0.665,    0.818,    0.895,    0.689,
       -0.884,   -1.326,    0.644,   -0.963,   -0.458,   -0.836,    0.709,
       -1.227
    },
    { -30.191,   24.437,   44.257,   14.411,    8.579,   -0.255,   15.146,
       16.476,   -2.593,   13.498,    0.444,  -54.269,   11.257,  -17.080,
       22.588,   -3.263,   25.683,    1.049,    4.425,  -12.279,  -30.771,
       26.163,    0.592,   25.990,    1.318,   29.443,   -1.158,   49.281,
       17.378,   22.365,  -15.952,  -22.412,  -27.003,   16.761,  -42.910,
      -12.072,   24.251,  -20.146,   -3.611,    6.042,   11.376,    5.892,
       11.866,   16.161,  -35.983,   -5.672,    3.006,   -3.033,   -2.098,
       21.628,  -17.157,  -17.645,   13.383,   -8.721,  -25.721,    2.318,
       -1.187,  -16.337,    5.693,  -30.084,  -16.918,   -2.792,   32.250,
       -7.794,  -18.897,   30.966,  -12.823,  -17.413,   -2.109,  -12.825,
       -8.362,   24.836,  -15.229,  -17.748,  -36.426,   -6.987,   21.031,
       22.136,   -5.823,  -20.921,  -26.391,   23.514,    4.158,    6.245,
       27.985,   20.269,    7.743,   24.574,   25.102,   22.997,   -4.738,
       -4.738,  -12.474,  -30.249,  -32.066,  -32.701,   21.476,   -2.982,
      -22.832,  -16.658,   -2.768,   -1.198,   25.326,   -3.500,  -19.827,
        8.959,   18.638,   -4.038,    7.421,   -1.141,   15.243,   -3.306,
      -11.550,  -18.118,   13.973,  -32.064,   16.927,  -72.679,   -0.769,
        8.638,   46.257,  -22.547,  -15.092,   38.587,  -26.693,   -9.155,
       13.318,  -25.958,   37.694,   27.311,   -4.684,  -13.809,   28.787,
      -11.875,    8.439,   -8.149,   18.024,  -17.208,  -14.062,   13.929,
      -57.269,   -5.771,    2.227,  -10.882,   15.490,    9.373,   -7.782,
        5.323,   -5.827,   34.419,   -1.299,    0.954,  -27.666,   33.120,
      -33.941,  -29.333,   21.926,   10.199,  -18.701,  -10.039,  -51.233,
        6.653,   -5.277,   45.057,  -20.584,  -12.571,  -52.734,  -13.032,
       22.052,   -1.191,   -7.417,    4.005,  -12.437,  -14.359,   25.715,
       -2.835,    6.862,    6.318,   23.227,   -7.189,   25.665,  -31.535,
        8.566,    5.614,    9.058,   -7.523,   23.434,  -33.074,    9.895,
      -22.875,   14.431,  -11.964,  -17.673,   -5.215,  -24.078,   12.995,
       22.752,   67.610,  -14.854,   36.251,    9.272,  -21.290,   -1.072,
      -18.116,   -2.115,    0.216,  -17.321,   -9.343,   28.724,   -7.971,
      -15.872,  -38.543,    1.772,  -14.630,   18.753,   -1.822,   -0.672,
        7.223,   -2.182,   22.403,   27.396,  -10.805,   29.137,    2.076,
      -11.275,  -43.810,   -2.716,  -10.504,    5.085,   -0.191,   -0.994,
        5.630,    5.808,   10.288,   12.903,  -17.086,   -4.384,    4.300,
       -0.538,    4.074,   20.838,    6.056,  -24.433,   -9.981,   -2.670,
       25.148,   25.340,   14.937,    2.727,  -12.843,  -16.961,    5.968,
       16.916,   34.810,   19.794,   39.697,   35.688,   12.312,  -37.707,
        1.681,  -40.781,   26.856,    3.151,    7.667,   36.522,   15.599,
       18.037,   -9.155,   30.581,   19.853,  -18.088,    9.494,  -24.176,
       -2.982,  -33.991,   34.997,   -0.186,   25.481,  -12.893,   22.658,
        8.406,  -19.194,  -10.041,    8.668,   16.371,   -1.399,   -2.676,
       19.808,    2.160,    7.381,   -0.327,   36.108,  -14.676,   25.161,
        3.237,  -16.707,    6.952,  -37.440,    2.386,   28.437,  -61.506,
      -10.903,    0.911,   -5.476,  -26.394,   -9.919,   -6.442,    9.601,
       -9.985,   -0.858,   -3.366,    5.428,   16.558,   36.695,   18.865,
       -4.714,   22.198,    6.818,    7.125,   38.918,   -3.361,  -22.507,
       11.336,    5.250,   -9.562,  -21.180,  -16.431,    9.993,   -8.496,
       19.879,   21.766,   13.846,    6.792,  -11.223,  -15.325,   52.775,
      -24.126,  -63.096,    7.902,   25.560,  -37.190,   12.212,   18.798,
        1.740,   -6.230,    0.981,  -19.550,   -8.608,    4.315,   -3.875,
       15.973,  -34.190,    0.575,  -11.853,  -16.977,  -20.758,   10.965,
        3.719,   28.319,  -29.578,   33.298,   -4.034,   22.522,   27.666,
       14.785,  -27.728,   -7.740,   -7.435,    2.655,   16.193,   22.299,
       24.198,   17.182,   14.392,   -6.224,  -37.835,  -32.071,  -22.351,
       -3.845,    6.902,   27.173,  -19.034,   -2.801,    9.267,  -20.152,
      -23.180,    8.470,  -10.016,   12.937,    4.733,    8.726,   -8.504,
      -16.756,   22.586,   -8.719,   21.274,  -46.434,   43.662,   11.768,
       17.585,  -38.710,   19.925,   13.891,   11.578,   22.101,  -67.409,
      -15.014,    9.029,   22.719,    3.989,   20.504,   46.171,    4.655,
       -4.304,    5.269,   -6.368,    1.587,   -4.817,   -8.956,  -10.246,
       18.712,   21.092,    2.708,  -11.956,  -10.116,   -3.464,  -12.969,
      -13.165,   15.684,   -8.236,   -2.972,   -9.529,  -10.570,   -0.015,
      -15.083,   -6.468,   53.242,   13.880,    0.196,   10.161,  -71.091,
       43.834,   -0.576,   28.259,  -17.870,  -18.958,    1.814,  -23.881,
        9.369,   -9.610,  -13.565,    7.236,    6.239,   32.735,  -50.583,
       -4.707,   -7.378,   31.320,  -36.792,  -12.346, -109.530,   -3.367,
       38.250,   -2.978,  -17.462,  -13.884,   -0.827,   -5.309,   12.545,
       18.161,   32.855,   37.035,    2.107,    9.502,   22.053,   40.125,
       -2.703,  -13.959,    6.795,  -30.577,  -28.849,    5.606,   44.430,
       -2.449,   -3.718,   15.936,    5.787,  -19.193,   26.282,   -7.224,
       29.632,  -14.339,  -37.544,   -2.404,    7.378,   27.711,    9.043,
       -4.223,  -30.920,  -18.729,   37.485,   -4.778,    3.461,   -3.553,
       -2.828,   11.810,   -3.112,   -2.247,   32.265,  -10.459,   -7.328,
      -43.802,   -5.041,   32.751,   -0.929,   -4.898,   -1.258,    1.819,
        7.677,   -3.120,  -24.573,   -1.393,  -17.694,   10.199,   18.515,
      -48.228,   -8.658,    7.173,   -3.671,  -17.839,   11.256,    2.245,
      -27.750,  -18.820,  -26.906,   19.423,    9.282,   17.634,  -25.269,
      -11.822,   54.547,   -6.580,   26.886,    3.281,   -5.037,   17.544,
       -1.825,   -5.873,  -71.562,    4.486,  -12.960,   20.968,   -3.011,
       -5.914,   -8.303,  -11.607,   -8.247,  -18.118,  -13.065,    8.369,
       55.484,  -12.011,   13.343,   -3.984,  -28.285,   49.999,  -12.031,
       26.051,   31.892,  -52.542,   24.278,  -18.570,  -35.745,  -13.250,
        6.640,  -20.211,   11.508,    4.467,   19.265,  -32.111,  -78.111,
       12.950,    2.232,   -3.343,    9.197,   -4.387,    4.700,   16.150,
       -4.465,   -2.676,    2.203,    3.684,   -7.854,   11.181,   14.647,
      -14.320,   10.370,   -8.312,    0.159,   56.387,   -1.708,    0.652,
       -0.523,    0.782,   -0.746,    0.862,   -0.683,   -0.720,   -0.662,
       -0.835,   -0.719,   -0.641,   -0.900,   -0.650,   -0.787,    0.618,
       -0.796,   -0.806,    0.601,    0.594,    0.860,    0.716,    0.645,
       -0.933,   -1.258,    0.553,   -1.004,   -0.448,   -0.777,    0.708,
       -1.048
    },
    { -26.715,   20.745,   38.551,   14.304,    6.783,   -0.040,   13.313,
       16.478,   -1.310,   13.362,   -0.633,  -51.338,   11.804,  -21.312,
       25.558,   -5.615,   26.396,   -0.732,    2.860,  -10.947,  -27.030,
       28.799,    3.180,   27.948,    2.177,   29.150,   -0.426,   56.013,
       19.299,   24.542,  -16.564,  -21.541,  -28.268,   12.483,  -37.001,
        0.040,   24.590,  -18.615,   -3.507,    2.476,   11.111,    6.302,
       10.251,   16.447,  -35.212,   -4.716,    4.095,   -4.334,   -1.069,
       21.624,  -17.664,  -16.711,   13.311,   -9.249,  -25.149,    1.074,
       -3.544,  -15.548,    6.097,  -28.342,  -19.119,   -4.418,   31.664,
       -4.994,  -23.438,   35.417,  -11.870,  -18.757,   -3.651,  -11.872,
       -6.492,   22.584,  -14.360,  -16.817,  -41.348,  -20.310,   17.238,
       22.249,   -3.330,  -18.911,  -23.461,   19.701,    4.035,    5.391,
       23.115,   17.597,    6.250,   20.114,   20.418,   19.626,   -3.912,
       -4.792,   -9.964,  -24.485,  -27.290,  -32.656,   19.674,   -1.542,
      -18.648,  -14.286,   -2.511,   -4.798,   25.051,   -1.785,  -19.009,
        7.045,   18.832,   -5.553,    7.546,   -0.525,   20.019,   -1.794,
      -11.637,  -28.339,   24.039,  -33.757,   20.838,  -72.094,   -0.967,
        6.180,   44.761,  -21.633,  -21.247,   36.588,  -26.060,   -5.760,
       12.017,  -26.191,   37.221,   26.838,   -4.541,  -11.798,   27.370,
      -23.514,   17.283,  -11.299,   13.257,  -15.700,  -12.445,   14.894,
      -54.844,   -5.452,   -0.563,  -12.860,   17.608,    6.013,   -6.762,
        2.146,   -6.140,   31.525,   -3.553,    5.132,  -28.789,   29.418,
      -32.652,  -33.133,   18.056,    2.404,  -15.265,   -9.529,  -51.120,
        5.737,   -2.437,   44.433,  -19.168,  -16.781,  -54.018,  -17.000,
       24.699,   -0.908,   -8.395,    2.473,  -14.555,  -13.098,   24.467,
       -6.018,    8.996,    7.862,   25.554,   -8.909,   28.060,  -28.768,
        9.207,    8.444,    8.819,   -1.787,   22.652,  -34.002,    8.065,
      -19.668,   13.553,  -16.289,  -16.658,   -1.067,  -20.556,   14.873,
       20.141,   60.706,  -18.916,   42.305,   10.620,  -22.307,   -0.629,
      -21.570,   -3.929,   -0.572,  -20.249,  -10.243,   33.225,   -8.310,
      -16.201,  -41.987,    1.716,  -15.041,   22.079,   -1.563,   -2.783,
        7.853,   -2.558,   23.940,   26.905,  -12.891,   31.335,    3.320,
       -9.558,  -45.005,   -2.229,  -13.564,    4.629,    0.426,    0.943,
        6.707,    8.170,   10.006,   12.143,  -21.869,   -3.598,    6.104,
       -1.538,    6.062,   25.657,    5.755,  -24.774,  -10.790,   -1.426,
       24.904,   27.510,   17.391,    2.866,  -12.053,  -21.854,    8.115,
       17.156,   30.787,   32.088,   47.448,   38.276,   11.435,  -43.227,
        3.985,  -35.435,   25.896,    3.648,    8.785,   34.185,   15.937,
       17.955,   -8.929,   29.664,   17.623,  -14.998,    7.760,  -21.717,
       -4.306,  -28.928,   39.138,   -2.209,   20.829,  -12.884,   21.158,
        8.478,  -27.399,  -11.555,    6.829,   16.785,    1.299,   -4.856,
       15.363,    2.662,    5.014,   -3.875,   34.956,  -13.548,   22.604,
        5.247,   -8.597,    6.611,  -37.640,    2.446,   32.041,  -67.112,
      -10.004,    1.737,   -2.586,  -31.693,  -11.430,   -6.446,   12.220,
       -6.722,    0.864,   -2.369,    3.729,   18.453,   33.820,   14.918,
      -10.170,   34.675,    9.349,    7.915,   39.714,   -1.706,  -31.273,
        7.091,    0.122,   -5.004,  -18.016,  -18.101,    9.263,   -6.900,
       17.326,   15.773,    9.553,    7.311,    1.207,  -11.230,   56.680,
      -21.287,  -60.644,    2.567,   27.645,  -28.225,   11.900,   19.817,
        1.568,   -7.582,   -1.721,  -16.874,   -5.228,    3.170,   -3.614,
       12.429,  -29.848,   -0.195,   -2.960,   -6.318,  -14.827,   12.151,
        4.509,   27.637,  -27.934,   29.848,   -2.743,   22.276,   25.792,
       16.306,  -20.753,  -10.273,   -7.058,    0.789,   14.925,   21.488,
       18.940,   16.248,   10.007,   -3.838,  -32.605,  -32.238,  -21.293,
       -2.358,    5.218,   25.593,  -23.820,   -6.059,   10.340,  -21.642,
      -24.027,    9.853,  -11.744,   16.741,    7.226,    8.515,  -11.875,
      -20.202,   25.278,  -24.262,   18.962,  -48.636,   50.132,   15.686,
       20.947,  -37.347,   18.841,   10.728,   10.721,   21.735,  -64.069,
      -13.798,    5.869,   22.127,    4.169,   20.342,   45.367,    5.150,
      -10.776,    8.240,   -3.459,   -4.977,   -2.911,  -10.096,   -8.125,
       18.316,   19.821,    2.615,  -10.229,   -7.922,   -2.965,  -10.934,
      -11.692,   13.537,   -7.053,   -3.138,   -9.375,   -9.665,   -2.236,
      -11.891,   -0.354,   43.166,   12.259,    0.369,    8.116,  -71.154,
       47.904,    0.524,   30.153,  -19.428,  -22.134,    3.812,  -25.825,
        9.374,   -9.518,  -15.139,    8.456,    5.933,   33.559,  -51.427,
       -3.474,   -2.862,   30.628,  -41.797,   -7.766, -105.455,   -4.011,
       40.751,   -3.706,  -13.975,  -19.571,   -0.970,   -4.182,   11.058,
       17.751,   29.866,   33.775,    5.733,    7.747,   15.045,   34.378,
       -0.133,  -11.211,    6.736,  -29.931,  -28.163,    7.735,   47.373,
       -0.990,   -1.661,   14.306,    1.486,  -23.527,   28.249,   -3.629,
       31.988,  -19.698,  -40.175,   -5.199,    9.412,   28.753,   11.164,
       -7.055,  -31.734,  -17.304,   34.315,   -5.768,    4.926,   -2.835,
       -3.626,   10.601,   -2.905,   -3.639,   30.457,  -10.109,   -7.760,
      -42.744,   -4.264,   33.124,   -2.880,   -3.804,   -3.930,    1.635,
        5.295,    1.471,  -26.792,   -6.842,  -13.337,   10.669,   20.115,
      -52.382,   -6.303,    2.663,   -4.135,  -15.798,   12.210,    2.297,
      -26.373,  -20.142,  -36.270,   21.199,    8.630,   20.988,  -25.764,
      -10.530,   56.277,   -7.575,   25.954,    6.181,   -4.264,   20.482,
       -2.722,   -9.700,  -74.304,    6.998,  -14.006,   21.071,   -2.844,
       -4.078,  -12.152,   -4.250,   -9.760,  -16.314,  -12.988,   12.859,
       59.763,  -14.632,   14.160,   -4.996,  -29.969,   51.649,  -11.079,
       30.498,   36.769,  -58.786,   23.437,  -18.828,  -37.032,  -14.998,
       10.911,  -32.962,   12.334,    5.741,   23.230,  -37.016,  -76.609,
       11.412,    4.494,   -4.092,    8.679,   -4.481,    4.727,   16.427,
       -4.231,   -3.265,    0.024,    4.385,   -7.669,    6.540,   10.661,
      -14.441,    9.705,  -10.583,    0.183,   54.380,   -1.904,    0.693,
       -0.594,    0.808,   -0.758,    1.027,   -0.873,   -0.786,   -0.829,
       -0.867,   -0.723,   -0.700,   -0.846,   -0.647,   -0.868,    0.767,
       -0.755,   -0.811,    0.662,    0.632,    0.963,    0.798,    0.673,
       -0.936,   -1.370,    0.676,   -0.977,   -0.425,   -0.861,    0.766,
       -1.149
    },
    { -24.165,   20.256,   36.443,   11.425,    7.749,   -0.943,    9.319,
       14.341,   -2.482,   10.797,    1.042,  -42.606,    9.873,  -19.145,
       25.806,   -6.403,   25.302,    2.187,    6.582,  -15.177,  -29.011,
       31.541,   -4.977,   23.646,    0.482,   32.047,   -1.825,   50.408,
       16.387,   23.383,  -14.164,  -18.258,  -28.756,    9.149,  -38.193,
        5.005,   23.470,  -18.475,    1.481,    0.996,    9.266,    5.858,
       12.961,   16.101,  -35.661,   -6.745,    3.297,   -3.227,    0.170,
       23.062,  -16.769,  -17.479,   12.747,   -9.409,  -29.390,    0.992,
        1.201,  -14.377,    5.860,  -29.635,  -23.815,   -1.935,   26.389,
       -5.428,  -16.807,   36.364,  -15.020,  -18.169,   -2.265,  -13.688,
       -7.251,   24.496,  -15.134,  -27.870,  -42.664,  -11.839,    4.759,
       25.338,   -1.226,  -25.763,  -22.418,   18.270,    3.451,    6.036,
       22.018,   18.616,    7.202,   21.331,   19.678,   20.399,   -3.227,
       -4.639,  -10.629,  -19.550,  -27.986,  -29.887,   18.437,   -2.646,
      -21.617,  -13.569,   -6.653,   -2.530,   28.967,   -4.279,  -22.366,
       10.744,   23.027,   -6.553,    9.950,   -0.342,   17.874,   -4.372,
      -12.751,  -25.392,   19.142,  -40.380,   17.120,  -82.018,    1.981,
        9.243,   41.058,  -20.170,  -17.218,   33.665,  -26.338,   -4.702,
        9.117,  -22.086,   33.582,   25.253,   -3.415,  -13.318,   24.097,
      -19.425,   12.786,   -7.476,   16.643,  -16.083,  -13.245,   14.031,
      -51.926,   -5.534,    1.797,   -8.009,   18.322,    5.702,   -5.664,
        6.265,   -7.446,   33.674,   -3.495,    5.737,  -25.772,   29.572,
      -28.535,  -24.626,   20.698,    3.253,  -15.231,  -12.915,  -60.294,
        5.854,    1.491,   52.302,  -20.959,  -18.796,  -59.991,  -16.514,
       22.133,    0.542,   -9.080,    4.619,  -12.356,  -14.590,   23.911,
      -11.499,   17.622,    5.460,   24.113,   -8.412,   29.900,  -26.236,
       10.650,    7.048,    5.394,   -4.690,   18.910,  -27.526,    8.435,
      -20.082,   11.415,  -16.237,  -16.216,    2.117,  -17.293,   18.271,
       17.986,   56.758,  -13.922,   33.758,    8.941,  -23.261,   -1.377,
      -22.662,   -3.193,    0.476,  -20.234,  -10.207,   33.200,   -7.860,
      -14.013,  -41.779,    2.215,  -16.542,   22.345,   -3.839,   -1.988,
        6.815,   -4.745,   23.635,   29.695,  -14.998,   34.704,    4.256,
