//-----------------------------------------------------------------------------
// Network: hzz4e_noiso
// Inputs:
//                                                  Offset       Scale
//    ele1_pt                                    5.433e+01   2.140e+01
//    ele1_eta                                   3.752e-02   1.089e+00
//    ele1_phi                                  -5.357e-02   1.802e+00
//    ele2_pt                                    3.538e+01   9.819e+00
//    ele2_eta                                  -3.257e-03   1.122e+00
//    ele2_phi                                   2.114e-02   1.848e+00
//    ele3_pt                                    2.391e+01   7.982e+00
//    ele3_eta                                   1.131e-04   1.096e+00
//    ele3_phi                                   1.088e-02   1.826e+00
//    ele4_pt                                    1.511e+01   5.941e+00
//    ele4_eta                                   3.690e-02   1.135e+00
//    ele4_phi                                  -1.816e-02   1.818e+00
//    worst_vertex                               3.081e+00   4.505e+00
//    second_worst_vertex                        1.574e+00   1.434e+00
//    mZ                                         8.560e+01   1.105e+01
//    mZstar                                     3.657e+01   1.580e+01
//    mbestH                                     1.413e+02   1.398e+01
//
// Created: Sun Jun 24 15:25:27 2012
//-----------------------------------------------------------------------------
#include <cmath>
#include <vector>
#include <iostream>
//-----------------------------------------------------------------------------
// Make following visible only to this programming unit
namespace nshzz4e_noiso {
  // NOTE: Network indices start at 0
  static const int nnetworks=200;
  static const int ninputs  =17;
  static const int nhidden  =30;
  static const int nparams  =571;

  static const double mean[ninputs]={
  5.43300e+01,
  3.75200e-02,
 -5.35700e-02,
  3.53800e+01,
 -3.25700e-03,
  2.11400e-02,
  2.39100e+01,
  1.13100e-04,
  1.08800e-02,
  1.51100e+01,
  3.69000e-02,
 -1.81600e-02,
  3.08100e+00,
  1.57400e+00,
  8.56000e+01,
  3.65700e+01,
  1.41300e+02
  };

  static const double sigma[ninputs]={
  2.14000e+01,
  1.08900e+00,
  1.80200e+00,
  9.81900e+00,
  1.12200e+00,
  1.84800e+00,
  7.98200e+00,
  1.09600e+00,
  1.82600e+00,
  5.94100e+00,
  1.13500e+00,
  1.81800e+00,
  4.50500e+00,
  1.43400e+00,
  1.10500e+01,
  1.58000e+01,
  1.39800e+01
  };

  static const double weight[nnetworks][nparams]={
    {  22.821,  -48.505,    2.195,   -8.566,   32.645,    5.161,  -22.746,
       -4.115,   27.534,  -11.018,   15.735,  -34.855,    1.037,    5.655,
      -27.611,   -2.072,  -30.868,    3.446,   30.800,   15.027,   -4.423,
       11.317,   -9.737,   -7.067,   27.406,  -37.588,   36.516,   10.654,
       -8.298,   11.671,    3.512,    6.820,   29.234,    6.211,   11.878,
       46.804,   32.019,   -0.409,   39.776,   24.757,   19.796,   24.913,
        7.662,  -37.950,   29.080,  -28.272,  -25.796,  -14.124,   20.062,
        5.189,    5.317,  -51.393,   -0.061,   23.048,   33.251,   22.810,
        1.850,  -11.720,  -21.110,   29.608,    6.919,  -24.064,   33.130,
      -13.009,   12.827,   19.300,   34.124,  -16.075,  -26.361,    4.568,
       23.347,   19.603,  -14.205,  -33.672,    3.927,  -30.477,  -12.843,
       56.709,  -25.271,   -0.211,   20.007,  -22.161,   -4.328,   19.550,
      -14.785,    5.093,  -25.851,    2.739,    5.633,  -11.898,  -29.914,
      -19.984,  -19.221,   -4.129,  -22.853,  -27.317,    2.763,   28.750,
       19.047,   41.672,    1.969,  -22.112,   14.063,    9.271,  -20.505,
        1.068,   14.859,    9.957,  -13.612,   15.244,  -24.612,   -2.891,
      -13.744,  -17.903,    8.528,   10.768,  -15.176,   27.017,    2.246,
       -3.157,    4.317,   26.414,   -0.050,   25.703,    2.018,   -6.712,
       19.052,   -1.745,   -3.669,  -12.813,  -20.324,   20.902,    6.292,
       25.450,   -9.682,  -19.902,  -18.873,  -30.493,   11.264,    0.335,
        5.509,    4.039,   13.395,  -27.423,    7.299,   13.616,   13.014,
       13.940,   14.193,    9.467,   -6.926,   -6.228,   62.168,   34.209,
       36.149,  -16.491,   -0.806,   11.164,  -60.364,  -41.191,   16.380,
      -37.470,   65.154,   -6.900,  -35.686,    7.949,   28.334,   24.902,
       -8.107,  -17.767,    6.531,   -5.334,    4.667,  -30.663,  -19.926,
       19.888,  -37.041,   30.541,    1.623,   15.582,   -7.651,   16.384,
      -11.515,    7.449,  -15.529,   31.439,   -4.742,   -6.544,  -18.876,
       34.320,  -22.792,    4.874,   24.908,   24.557,  -11.819,  -50.030,
       27.806,  -50.492,  -26.291,   47.144,   -5.102,    5.148,  -20.211,
        1.056,  -10.395,   -2.669,    7.932,   -1.517,  -18.549,   -3.552,
       -1.824,   33.240,  -22.375,   39.976,  -17.460,  -24.827,  -39.879,
        5.239,   -6.439,   -0.112,    5.985,  -17.473,   -3.478,    3.318,
      -40.466,   10.785,   17.947,   62.628,    3.348,    1.369,    2.682,
       -4.472,   -7.573,   -5.523,  -12.432,   23.624,    1.727,    0.813,
       10.762,  -26.686,   14.340,   25.985,  -41.349,    3.297,   41.519,
      -25.471,   62.547,   -0.331,  -28.637,   56.198,    7.787,  -23.470,
       28.684,  -19.570,  -21.845,   -0.667,   -6.856,   -3.857,  -32.181,
       32.179,   27.595,    4.611,  -19.466,  -34.256,   17.936,   -8.174,
       34.207,   -8.163,  -22.317,    6.482,  -52.511,   27.750,   -5.094,
       19.513,   25.417,   21.105,   31.355,  -26.564,   35.229,   39.850,
       10.553,   20.039,  -47.475,  -15.555,    4.355,   19.276,  -27.525,
       42.817,   61.382,  -10.978,    8.441,  -62.000,    9.018,   20.143,
       53.606,   26.027,  -26.072,    0.370,   -0.935,  -18.645,   20.787,
       -0.448,  -11.942,   -5.948,   -8.933,   15.263,  -15.192,   20.704,
       10.131,    1.512,  -14.470,   32.470,   32.824,   14.700,   25.096,
        3.898,   30.893,   -4.612,  -22.609,  -22.266,   23.963,  -65.734,
       21.205,  -40.324,   38.668,  -27.204,  -15.308,    6.118,   10.785,
       21.006,   10.838,   -6.363,  -26.845,   13.171,   -8.344,    9.092,
        5.822,   15.114,    7.297,   -8.646,  -25.934,   19.509,  -31.167,
      -10.239,   -0.918,  -33.356,    5.356,   24.119,   -9.484,   -8.763,
       -3.939,  -11.551,  -51.652,  -18.327,  -23.845,    4.203,   20.912,
      -10.670,  -47.345,   26.656,   -2.396,   43.495,   30.466,  -16.787,
        7.537,  -26.467,   10.814,   46.118,  -21.962,  -42.038,   -4.654,
      -12.407,   10.292,   -6.756,   10.532,   52.198,    0.355,  -17.792,
       74.155,   -0.846,   40.093,    8.067,  -15.204,  -14.504,   -8.826,
       26.211,   32.720,  -14.288,  -13.103,  -22.238,  -11.001,  -69.466,
      -29.817,  -39.964,   18.860,   34.166,   13.468,   20.161,    8.838,
        2.218,   -1.280,   -6.690,   16.260,  -11.836,   13.393,  -14.478,
      -13.435,   -0.004,   -8.722,  -26.483,    5.478,   44.328,  -26.804,
       16.009,   16.792,    7.023,   31.150,  -13.265,  -40.353,  -50.888,
        7.891,    4.374,  -14.004,   -8.266,    3.873,   42.965,   23.481,
      -29.444,  -25.589,    7.460,    2.102,    8.688,   -0.214,  -40.840,
        8.523,   17.720,  -30.095,  -11.303,    7.147,  -12.496,   13.158,
       21.632,   42.114,    0.870,    0.809,   14.461,   62.341,  -20.474,
       -3.355,   -0.900,  -18.077,   17.301,    5.951,   -2.542,   -3.394,
       20.268,   44.944,   -1.642,   -5.425,   -1.513,   18.372,    1.752,
      -59.972,   25.132,    5.890,   13.611,   28.352,   -9.055,   91.515,
       -2.195,   -5.044,    8.969,   10.486,   -3.070,    4.281,   -3.385,
        5.278,    5.566,    2.119,   -0.601,    8.470,    6.573,  -26.871,
       -3.927,   -5.102,  -87.469,   17.380,   26.470,   21.257,   -0.575,
       10.071,   24.669,  -10.876,  -18.906,  -11.164,   -7.262,    0.158,
      -17.894,   -9.963,   10.262,   65.901,   28.216,   17.596,  -23.834,
      -27.647,   18.931,   38.091,   18.808,   -0.261,   31.181,  -45.310,
      -13.316,   23.157,   -8.417,   -7.363,  -10.101,  -23.842,  -40.487,
       50.660,    1.483,   11.336,  -11.180,   19.035,   19.126,  -14.175,
       20.100,    5.677,   45.097,    1.746,   10.217,   10.365,  -42.296,
      -28.908,  -25.997,    7.091,  -38.789,  -29.763,    8.760,    6.852,
      -16.332,   -1.303,   -0.666,   -0.731,   -0.792,    0.807,   -0.528,
        0.638,   -0.856,   -0.653,    0.889,    0.854,    0.676,   -0.582,
        1.114,   -0.670,    0.502,   -0.715,    0.847,   -0.774,   -0.779,
       -0.557,    0.732,    1.158,    0.705,   -0.648,    0.649,    0.649,
        1.163,    0.773,   -0.520,    0.740
    },
    {  18.505,  -49.094,    0.156,   -6.098,   29.920,    6.289,  -21.085,
       -4.919,   23.208,  -10.598,   14.172,  -32.024,    0.003,   -1.453,
      -15.929,   -0.616,  -28.784,    5.565,   32.889,   16.958,   -2.713,
       11.346,  -11.699,   -6.722,   30.405,  -38.472,   37.220,   10.901,
       -6.723,   12.143,    3.016,    5.860,   32.437,    7.597,   11.428,
       49.422,   31.865,    1.065,   38.187,   21.912,   17.549,   22.415,
        7.594,  -40.089,   28.674,  -26.833,  -24.849,  -11.517,   21.726,
        9.710,    2.056,  -52.081,   -0.220,   27.117,   34.048,   20.507,
        3.528,  -11.629,  -21.560,   27.775,    5.311,  -17.839,   37.560,
      -12.998,   12.768,   18.529,   36.754,  -17.213,  -25.734,    3.753,
       19.876,   17.335,  -14.287,  -39.247,    6.178,  -33.387,  -13.534,
       57.550,  -27.087,    0.346,   23.951,  -21.184,   -3.490,   15.421,
      -15.035,    5.244,  -22.854,    1.599,   -2.183,   -7.795,  -29.832,
      -10.809,  -25.375,   -5.398,  -28.529,  -21.589,    3.930,   28.299,
       17.646,   47.926,    0.018,  -21.478,   15.676,   10.871,  -11.460,
        5.440,   21.336,   10.384,  -12.447,   17.795,  -24.076,   -1.228,
      -12.979,  -15.593,   10.384,   10.237,  -16.220,   26.529,    1.080,
       -3.444,    5.669,   28.494,   -1.369,   27.816,    2.946,   -6.814,
       23.165,    0.267,   -1.977,  -14.614,  -22.865,   24.457,    8.217,
       28.347,  -11.803,  -23.068,  -22.145,  -36.629,   13.365,   -0.692,
        8.302,    4.128,   16.200,  -31.889,    3.031,   16.659,   11.765,
       12.339,   14.787,   11.052,   -8.246,   -7.473,   66.206,   34.103,
       32.156,  -17.010,   -0.626,   14.210,  -65.860,  -35.590,   20.606,
      -37.130,   59.685,  -10.847,  -32.657,   10.147,   26.925,   24.388,
       -4.602,  -17.412,    8.272,   -3.005,    4.482,  -35.081,  -19.003,
       18.179,  -36.104,   31.881,    1.459,   14.053,   -7.833,   12.893,
      -10.919,    9.581,  -23.221,   27.807,   -3.816,   -5.812,  -16.218,
       36.757,  -23.151,    3.997,   24.760,   19.674,  -13.187,  -55.843,
       26.741,  -49.296,  -31.293,   47.242,   -5.044,    4.732,  -21.752,
        2.871,  -12.030,   -2.480,    8.201,   -0.502,  -24.939,   -4.994,
       -2.993,   33.655,  -21.586,   41.736,  -17.111,  -24.374,  -41.881,
        2.497,   -6.326,   -1.816,    5.432,  -18.312,   -4.272,    5.939,
      -40.162,    9.407,   17.928,   62.295,    3.216,    2.963,   -4.004,
       -5.691,   -9.378,   -3.421,  -12.110,   20.965,    1.299,    1.187,
        3.232,  -25.289,   15.285,   25.308,  -42.933,    0.473,   42.841,
      -23.362,   61.997,   -0.379,  -34.296,   59.457,    7.784,  -26.273,
       29.616,  -19.071,  -22.062,    3.089,   -6.213,   -0.932,  -33.178,
       33.151,   26.222,    6.849,  -17.485,  -36.771,   20.051,   -4.972,
       28.362,   -8.062,  -20.923,    2.573,  -50.493,   26.664,   -3.590,
       19.946,   19.485,   19.808,   32.977,  -23.283,   34.308,   37.238,
       11.885,   21.145,  -51.099,   -9.488,    4.538,   13.742,  -33.974,
       43.400,   59.600,  -11.652,   -2.235,  -65.310,    4.589,   28.113,
       53.488,   35.820,  -16.571,    3.170,   -3.269,  -25.266,   22.684,
        1.343,  -19.439,   -7.205,   -7.050,   15.776,   -9.331,   17.957,
       12.098,    1.726,  -12.015,   30.852,   29.646,    9.235,   19.196,
        4.764,   26.155,   -4.523,  -20.836,   -9.062,   14.559,  -58.323,
       22.687,  -35.335,   32.653,  -24.530,  -11.773,    6.120,   10.406,
       18.009,   10.343,   -7.839,  -22.653,   10.380,   -6.580,    6.589,
        4.975,   17.541,    5.910,   -7.282,  -21.894,   18.273,  -33.225,
      -13.984,   -0.046,  -35.677,    7.555,   27.722,   -7.331,   -9.062,
       -8.236,  -11.378,  -59.009,  -17.073,  -25.788,    6.931,   25.960,
       -9.943,  -50.191,   29.761,   -2.700,   36.290,   24.644,  -13.143,
        5.596,  -22.708,    7.950,   40.619,  -17.040,  -34.236,   -5.234,
       -9.825,    7.857,  -10.362,   13.425,   45.186,    1.290,  -17.462,
       66.866,   -3.632,   37.071,    6.989,  -13.785,  -15.869,   -8.122,
       24.939,   29.611,  -13.071,   -9.758,  -19.062,  -11.122,  -69.548,
      -26.523,  -35.471,   15.127,   32.311,   17.241,   26.613,   12.534,
        2.517,   -2.326,   -6.290,   21.133,  -12.702,   14.088,  -17.783,
      -16.270,   -3.300,  -10.447,  -37.884,    8.364,   59.132,  -32.115,
       16.075,   11.166,   -3.415,   30.009,  -10.503,  -39.939,  -53.051,
        8.855,    6.347,  -10.886,   -5.882,    7.010,   42.360,   24.473,
      -23.595,  -26.641,    7.759,   -0.329,    9.510,   -2.162,  -44.426,
       10.934,   20.114,  -32.843,  -13.654,   10.591,  -12.968,   14.012,
       22.069,   45.480,    1.265,    0.565,   14.624,   61.611,  -20.689,
       -5.228,    0.129,  -12.574,   13.573,   10.117,   -6.048,   -3.563,
       17.146,   39.719,   -2.931,   -7.323,   -3.459,   17.619,    1.182,
      -57.389,   17.487,   13.177,    8.681,   21.998,   -1.808,   89.484,
       -2.332,   -3.478,   10.915,    8.155,   -4.180,    5.162,   -1.871,
        5.281,    5.496,    0.484,   -0.379,    8.811,    4.092,  -24.137,
       -3.596,   -4.356,  -86.280,   14.702,   21.558,   17.840,   -0.618,
        8.503,   19.761,   -8.959,  -16.345,   -8.624,   -7.282,    0.892,
      -14.680,   -7.985,    6.045,   56.583,   22.470,   14.778,  -20.942,
      -31.485,   16.917,   36.742,   23.695,   -4.691,   32.467,  -46.486,
      -10.184,   23.836,   -5.470,   -6.074,   -5.022,  -22.437,  -34.239,
       47.463,   -1.153,    7.587,  -12.995,   15.657,   16.297,  -15.676,
       20.755,    6.814,   47.567,    5.642,    9.546,   11.296,  -41.314,
      -30.266,  -28.433,    7.806,  -32.798,  -35.015,    8.516,   11.068,
      -17.172,   -1.230,   -0.669,   -0.733,   -0.757,    0.851,   -0.647,
        0.604,   -0.926,   -0.730,    0.779,    0.839,    0.632,   -0.664,
        1.265,   -0.704,    0.430,   -0.683,    0.796,   -0.738,   -0.760,
       -0.559,    0.707,    0.958,    0.804,   -0.698,    0.609,    0.661,
        1.163,    0.738,   -0.525,    0.743
    },
    {  23.001,  -52.401,    2.158,   -7.990,   33.399,    6.336,  -23.475,
       -5.922,   26.891,  -11.700,   16.623,  -36.471,   -0.587,    6.103,
      -23.756,   -1.708,  -31.520,    3.957,   32.932,   17.034,   -5.670,
       10.545,  -11.337,   -9.657,   31.766,  -43.789,   39.459,   12.446,
      -10.792,   15.653,    3.804,   -9.177,   37.115,    9.674,   12.479,
       55.962,   30.492,   -1.253,   42.782,   22.395,   20.720,   22.972,
        6.278,  -41.646,   32.417,  -30.055,  -27.257,   -9.652,   21.223,
       -4.269,    7.782,  -52.047,    1.828,   25.224,   38.537,   24.965,
        2.959,  -14.650,  -19.995,   29.802,    4.543,  -19.603,   38.689,
      -13.875,   12.838,   19.148,   37.455,  -14.992,  -26.571,    3.628,
       23.669,   15.803,  -16.780,  -40.344,    7.214,  -30.543,  -15.791,
       55.956,  -27.110,    1.118,   26.755,  -22.431,   -3.047,   13.958,
      -14.786,    9.107,  -18.791,    4.737,   -4.311,  -10.205,  -26.441,
      -18.896,  -20.660,   -2.972,  -21.830,  -21.476,    4.365,   26.109,
       16.619,   43.645,   -0.414,  -22.082,   11.452,   18.899,  -14.018,
        7.973,   16.035,    8.269,  -15.314,   20.483,  -27.623,   -0.932,
      -14.995,  -17.433,   11.469,   12.034,  -19.729,   30.071,    1.531,
       -4.045,    5.986,   31.674,   -3.049,   32.897,    3.769,   -8.838,
       24.340,   -1.312,   -4.884,  -14.471,  -24.208,   26.852,    9.585,
       30.196,  -14.687,  -25.457,  -23.635,  -37.690,   13.768,   -0.077,
        6.776,    5.032,   17.728,  -34.412,    8.001,   14.290,   13.645,
       14.131,   13.118,    8.414,   -7.964,   -6.815,   63.180,   34.506,
       33.493,  -17.400,   -1.162,   13.132,  -64.049,  -42.481,   18.392,
      -36.912,   62.651,   -8.081,  -36.196,    7.085,   29.448,   24.276,
       -5.102,  -13.242,    9.601,   -7.247,    0.278,  -32.741,  -19.439,
       22.063,  -40.902,   27.902,    2.419,   11.830,  -11.780,   14.760,
      -10.479,    8.739,  -26.842,   23.617,   -2.026,   -5.044,  -12.576,
       35.448,  -23.382,    3.442,   29.815,   21.595,  -11.623,  -53.362,
       26.273,  -48.867,  -28.262,   50.121,   -6.011,    4.092,  -22.201,
        2.285,  -11.778,   -6.088,    6.111,    1.543,  -17.367,   -0.980,
       -2.647,   39.343,  -26.342,   45.097,  -18.520,  -26.277,  -44.335,
        5.969,   -8.764,   -0.280,    6.003,  -18.772,   -4.208,    6.299,
      -44.329,   11.232,   19.592,   68.768,    2.594,    0.542,    3.851,
       -4.279,   -9.098,   -6.013,  -10.639,   24.680,    7.003,    4.427,
        7.077,  -28.651,   14.143,   26.294,  -41.117,    4.289,   42.512,
      -17.809,   65.749,    2.499,  -30.051,   54.487,    6.991,  -27.139,
       34.804,  -28.845,  -26.369,   -0.704,   -5.257,    4.291,  -33.491,
       29.349,   18.974,    4.827,  -12.556,  -36.420,   21.136,  -12.663,
       32.883,   -4.820,  -22.124,    5.811,  -53.734,   34.036,   -1.368,
       18.937,   18.768,   20.589,   33.925,  -17.081,   34.944,   39.605,
        7.096,   23.562,  -52.248,  -11.517,   -5.080,   18.215,  -29.017,
       40.297,   69.708,   -6.229,    0.758,  -72.701,    5.521,   32.680,
       60.849,   34.019,  -30.713,    3.221,    8.399,  -18.593,   22.651,
       15.056,  -16.834,   -1.305,  -12.142,   12.728,   -9.539,   15.512,
       11.176,    0.268,  -10.068,   26.639,   26.058,   11.158,   18.399,
        4.137,   24.581,   -4.555,  -16.086,  -19.172,   18.074,  -54.065,
       13.162,  -29.149,   39.672,  -29.541,  -15.699,    8.095,   11.934,
       22.418,   12.201,   -6.889,  -27.064,   13.494,   -8.835,    8.161,
        6.340,   18.357,    6.167,   -9.211,  -26.323,   19.848,  -33.837,
      -12.923,   -0.579,  -35.528,    7.118,   26.953,   -8.712,   -8.990,
       -6.958,  -11.579,  -57.376,  -19.180,  -25.528,    8.322,   24.707,
      -14.115,  -54.530,   30.009,   -3.703,   36.802,   25.001,  -12.118,
        5.868,  -21.696,    9.742,   34.540,  -16.024,  -30.456,   -4.634,
       -9.845,    7.195,   -7.140,    8.801,   41.311,    2.311,  -15.820,
       63.178,   -1.100,   36.190,    6.883,  -15.519,  -15.283,   -8.249,
       22.923,   27.586,  -12.685,   -9.975,  -17.467,  -10.507,  -62.381,
      -26.942,  -35.778,   15.041,   28.562,   21.836,   33.035,   13.938,
        1.936,   -4.998,   -9.263,   25.743,  -16.935,   20.107,  -23.066,
      -21.143,   -2.779,  -13.563,  -46.037,    9.501,   71.540,  -41.484,
       23.245,   13.210,   -1.182,   32.915,  -13.285,  -44.363,  -53.935,
        7.876,    4.809,  -13.492,   -6.529,    8.131,   45.342,   26.751,
      -26.610,  -25.742,    9.849,    2.619,    6.135,   -5.892,  -41.854,
       13.483,   12.829,  -31.023,  -15.494,    5.732,  -17.104,   13.462,
       24.266,   45.310,    1.781,    1.530,    9.414,   64.593,  -20.884,
       -3.991,   -1.930,  -13.575,   13.888,   10.268,   -3.699,   -4.960,
       14.357,   37.580,   -2.689,   -8.314,   -4.069,   16.433,    2.040,
      -57.230,   16.119,   11.436,   10.178,   24.105,   -6.054,   85.288,
       -1.411,   -4.186,    9.625,    8.859,   -3.283,    3.656,   -2.861,
        5.301,    5.562,    1.244,   -0.559,    7.931,    5.085,  -25.771,
       -3.457,   -4.051,  -81.482,   13.303,   19.850,   15.508,   -0.454,
        7.240,   19.848,   -7.359,  -13.077,   -6.523,   -6.561,    1.034,
      -14.552,   -8.573,    9.346,   48.572,   20.390,   10.644,  -18.191,
      -28.874,   18.043,   31.185,   20.642,   -6.203,   33.590,  -48.570,
       -5.591,   23.146,  -12.005,    0.687,    0.272,  -28.922,  -23.830,
       48.555,   -2.852,    7.371,  -20.254,   17.006,   14.899,  -12.012,
       21.077,    2.683,   44.781,    4.625,   10.937,   13.676,  -41.630,
      -25.054,  -32.405,    8.513,  -35.481,  -32.429,    8.735,    2.934,
      -14.481,   -1.141,   -0.769,   -0.672,   -0.882,    0.864,   -0.508,
        0.565,   -1.014,   -0.680,    0.790,    0.740,    0.644,   -0.683,
        1.093,   -0.632,    0.437,   -0.655,    0.743,   -0.843,   -0.803,
       -0.626,    0.780,    0.968,    0.674,   -0.706,    0.630,    0.641,
        1.197,    0.697,   -0.522,    0.781
    },
    {  19.995,  -59.971,    1.250,   -6.694,   34.468,    4.018,  -22.168,
       -7.804,   30.475,  -10.462,   13.563,  -41.019,    0.884,    5.324,
      -27.955,   -4.389,  -33.148,   11.372,   34.290,   16.192,   -5.327,
       15.778,  -12.078,   -8.689,   35.489,  -46.398,   43.622,   13.871,
      -10.358,   14.778,    3.255,   -6.750,   40.214,    7.879,   14.394,
       60.122,   27.165,   -1.166,   40.371,   24.601,   18.933,   23.053,
        8.405,  -37.172,   29.151,  -28.599,  -27.760,  -10.227,   22.165,
       -2.905,    7.841,  -50.333,   -3.091,   22.238,   38.215,   24.484,
        1.940,  -17.573,  -20.401,   32.897,    3.367,  -23.591,   40.148,
      -14.397,   16.251,   19.912,   39.436,  -24.342,  -30.098,    6.125,
       25.620,   17.292,  -16.256,  -37.622,    4.965,  -32.328,  -23.438,
       55.142,  -29.886,   -0.028,   25.028,  -22.614,   -2.450,   14.544,
      -13.731,    9.390,  -23.155,    6.790,   -1.105,   -9.925,  -26.756,
      -13.482,  -19.688,   -5.606,  -23.418,  -19.441,    4.359,   22.985,
       17.268,   45.817,    5.251,  -27.529,   12.176,   22.908,  -19.198,
        5.465,   19.387,    7.113,  -18.717,   26.030,  -35.547,   -3.096,
      -17.379,  -24.766,   13.280,   13.733,  -22.961,   37.731,    1.467,
       -3.454,    8.098,   37.365,   -7.661,   38.579,    4.140,   -9.228,
       23.524,   -2.877,   -4.307,  -13.091,  -22.935,   23.148,    9.568,
       28.769,  -11.640,  -21.835,  -25.436,  -35.936,   12.237,    0.137,
       11.338,    6.281,   20.068,  -38.162,    6.696,   12.635,   10.493,
       13.595,   15.384,    7.556,   -8.080,   -8.403,   62.169,   32.438,
       32.963,  -17.651,   -1.425,    7.928,  -57.189,  -44.589,   15.332,
      -36.239,   65.523,   -7.831,  -38.976,    7.719,   25.898,   28.566,
       -4.248,  -12.419,    9.231,   -5.400,    1.231,  -34.441,  -20.668,
       25.838,  -46.284,   28.559,   -0.098,   15.719,  -10.501,   15.169,
       -7.813,   13.170,  -21.133,   28.201,   -0.178,   -4.577,  -18.390,
       34.183,  -21.870,    3.617,   23.913,   22.166,   -8.643,  -47.110,
       26.286,  -45.780,  -28.433,   49.548,   -7.168,    3.418,  -20.896,
        2.882,   -8.904,   -3.320,    6.662,    2.101,  -20.338,   -0.312,
       -2.564,   32.920,  -25.553,   42.625,  -17.728,  -25.094,  -49.789,
        6.200,   -9.277,   -2.377,    5.528,  -21.727,   -5.665,    6.058,
      -46.870,   12.605,   20.470,   75.557,    3.058,   -4.456,    3.325,
       -6.272,   -9.672,   -4.721,  -12.368,   20.361,   -0.441,   -2.035,
        7.646,  -28.580,   13.291,   24.887,  -39.686,    0.411,   43.436,
      -24.347,   64.551,   -3.280,  -25.456,   57.777,    8.267,  -27.500,
       31.499,  -29.680,  -27.876,   -1.803,  -11.187,    3.970,  -33.827,
       25.506,   25.299,    5.614,  -16.421,  -37.766,   22.453,  -13.669,
       29.227,   -6.203,  -26.826,   12.524,  -58.556,   26.630,   -3.108,
       21.256,   22.171,   34.414,   30.679,  -26.031,   31.087,   33.801,
       11.021,   23.081,  -51.143,   -8.340,    8.050,   27.314,  -28.831,
       48.464,   75.406,   -6.815,    3.070,  -84.203,    7.271,   34.777,
       63.985,   41.225,  -24.911,    1.305,    3.050,  -30.492,   26.666,
        7.506,  -24.979,   -3.861,  -15.314,   15.302,   -9.503,   17.687,
       10.228,    0.377,  -11.129,   28.497,   27.621,   10.632,   19.886,
        4.973,   30.069,   -4.622,  -19.301,  -16.272,   16.278,  -56.318,
       12.503,  -33.448,   44.590,  -29.095,  -18.115,    8.510,   12.795,
       24.659,   14.790,   -8.126,  -30.344,   14.517,   -9.126,    9.733,
        5.906,   16.824,   10.399,   -9.461,  -26.975,   20.619,  -31.825,
      -12.342,    0.270,  -36.090,    4.853,   26.268,   -9.496,   -6.087,
       -6.851,  -13.697,  -58.550,  -20.580,  -27.705,   14.611,   19.055,
       -8.718,  -50.891,   27.043,   -2.826,   43.017,   28.123,  -14.597,
        6.195,  -25.240,    9.449,   41.186,  -19.377,  -38.359,   -5.203,
      -11.037,    7.354,   -6.476,    9.010,   49.738,    2.779,  -17.200,
       64.837,   -2.020,   35.634,    7.829,  -11.293,  -13.899,   -6.251,
       21.808,   28.401,  -11.972,  -11.634,  -19.320,   -9.953,  -60.607,
      -27.067,  -35.218,   18.436,   30.092,   23.645,   33.075,   15.710,
        5.507,   -2.205,  -10.099,   30.116,  -20.750,   21.157,  -23.120,
      -24.132,   -2.319,  -14.327,  -50.809,    9.452,   77.522,  -44.247,
       22.452,   13.915,    5.547,   35.952,  -13.504,  -40.676,  -56.307,
        7.383,    5.563,  -11.981,   -8.640,   10.790,   43.159,   24.482,
      -23.509,  -34.244,    8.999,    0.650,    6.291,   -4.081,  -42.010,
        8.954,   14.087,  -28.002,  -13.236,    7.515,  -13.790,   14.888,
       20.337,   37.561,    0.147,    2.719,   10.646,   56.450,  -17.331,
       -4.444,    2.988,  -13.505,   17.314,   14.779,   -2.726,   -6.867,
       13.378,   41.559,   -1.598,   -9.741,   -3.661,   18.451,   -0.492,
      -58.995,   18.445,   13.937,   13.423,   26.213,   -8.914,   81.686,
       -2.057,   -3.141,    9.684,    8.578,   -3.686,    4.090,   -2.724,
        5.037,    5.587,    0.977,   -0.271,    6.863,    4.157,  -24.602,
       -3.163,   -4.085,  -77.646,   12.877,   18.883,   16.505,   -0.335,
        6.667,   18.034,   -8.599,  -13.621,   -6.422,   -6.815,   -1.345,
      -15.175,   -9.930,    4.718,   55.894,   23.369,   14.151,  -19.177,
      -30.034,   12.909,   29.936,   16.769,   -4.350,   28.878,  -45.196,
       -7.177,   26.994,  -12.809,    0.185,   -0.826,  -21.538,  -19.699,
       44.338,    0.282,    8.811,  -16.861,   16.092,   19.237,   -6.403,
       18.836,    8.816,   39.391,    2.079,    7.567,   14.922,  -44.201,
      -26.094,  -29.897,   10.645,  -32.097,  -39.713,    0.972,    0.260,
      -10.784,   -1.239,   -0.763,   -0.664,   -0.801,    0.730,   -0.480,
        0.616,   -0.933,   -0.656,    0.755,    0.833,    0.616,   -0.691,
        1.134,   -0.506,    0.523,   -0.644,    0.677,   -0.743,   -0.717,
       -0.554,    0.758,    0.892,    0.633,   -0.601,    0.676,    0.647,
        1.284,    0.690,   -0.497,    0.744
    },
    {  25.747,  -66.039,    3.747,   -8.655,   40.244,    6.164,  -26.833,
       -9.263,   34.974,  -12.022,   17.190,  -45.231,    0.226,   -0.874,
      -25.823,   -6.468,  -40.459,   12.477,   36.609,   19.342,   -8.705,
       15.119,  -16.445,   -7.306,   40.008,  -42.308,   47.307,   11.114,
       -6.607,   13.538,    1.857,   -6.479,   39.336,    7.055,    9.623,
       58.632,   29.008,    1.749,   38.122,   22.622,   15.979,   20.837,
        6.344,  -38.332,   25.569,  -23.835,  -25.853,  -13.023,   20.537,
        0.860,   -0.887,  -49.679,    0.741,   26.169,   44.759,   26.516,
        2.995,  -15.793,  -27.171,   33.865,    5.696,  -20.010,   44.511,
      -14.286,   15.186,   22.881,   42.193,  -11.912,  -32.961,    6.166,
       25.521,   19.720,  -12.951,  -41.545,    2.370,  -34.916,  -24.157,
       46.872,  -23.635,  -11.122,   28.682,  -24.529,   -4.357,   16.543,
      -13.175,   11.764,  -21.150,    6.611,    4.217,   -5.651,  -28.098,
      -13.057,  -17.011,  -11.055,  -25.137,  -19.534,    4.180,   28.406,
       20.791,   46.528,    5.341,  -31.145,   15.593,   26.714,  -25.760,
        9.085,   22.179,    1.625,  -20.146,   28.302,  -33.972,   -1.405,
      -21.313,  -24.987,   15.704,   16.751,  -24.664,   37.985,   -0.470,
       -4.535,    8.410,   41.728,   -3.032,   42.105,    5.121,  -11.207,
       22.859,   -2.716,   -2.509,  -12.551,  -23.630,   24.288,    9.782,
       30.886,  -12.675,  -22.494,  -21.112,  -37.402,   12.751,    0.142,
        7.294,    4.026,   16.145,  -35.178,    9.559,   14.169,   14.725,
       13.657,   14.804,    5.118,   -5.622,   -5.789,   63.792,   31.305,
       37.894,  -15.658,   -0.211,   13.266,  -58.753,  -35.543,   19.890,
      -38.817,   68.223,   -7.097,  -40.055,    6.588,   27.882,   28.427,
       -6.738,  -16.242,    9.256,   -5.682,    3.257,  -36.170,  -22.450,
       31.527,  -45.483,   30.987,    2.247,   15.167,   -7.635,   14.273,
       -8.630,    3.413,  -18.382,   25.184,   -4.477,   -3.196,  -16.320,
       26.969,  -21.889,    2.792,   19.716,   19.979,  -14.764,  -38.418,
       27.267,  -44.023,  -27.501,   47.225,   -6.115,    4.540,  -21.662,
        3.474,   -9.002,   -3.956,    5.841,   -0.376,  -20.044,   -0.929,
       -1.660,   31.910,  -15.644,   41.581,  -18.177,  -25.225,  -47.873,
        6.426,   -9.015,   -1.538,    6.342,  -21.354,   -5.701,    5.564,
      -47.439,   11.848,   20.825,   75.088,    2.888,   -3.283,    2.882,
       -5.102,   -8.623,   -6.353,  -14.625,   24.367,   -0.934,   -1.104,
        3.367,  -29.136,    8.437,   23.635,  -45.734,    2.907,   47.624,
      -20.630,   68.134,   -8.982,  -26.707,   56.550,    7.126,  -23.100,
       42.147,  -27.864,  -41.673,   -1.219,   -7.818,    8.678,  -40.823,
       35.545,   33.777,    8.798,  -20.852,  -41.832,   27.952,   -9.614,
       26.241,  -13.211,  -28.078,   11.212,  -60.423,   28.750,    5.429,
       20.838,   20.646,   35.889,   33.446,  -26.448,   30.737,   36.626,
        4.947,   20.101,  -51.572,  -10.872,    5.674,   29.391,  -24.108,
       46.809,   78.869,   -7.945,    4.320,  -82.075,    6.108,   30.096,
       63.379,   41.725,  -26.493,    2.552,    7.769,  -29.561,   20.455,
        5.559,  -25.044,    3.054,  -12.811,    7.560,  -11.939,   17.351,
       10.624,    3.385,   -9.996,   30.526,   30.636,   10.616,   20.809,
        5.654,   30.190,   -4.407,  -21.450,   -9.646,   17.819,  -59.429,
       16.628,  -36.103,   41.688,  -29.552,  -17.106,    8.497,   13.935,
       20.443,   17.027,   -7.946,  -32.651,   10.456,  -10.836,   13.218,
        6.584,   21.882,    7.194,  -10.703,  -23.458,   21.804,  -34.566,
       -8.810,   -5.295,  -40.154,    6.867,   23.677,  -14.881,  -12.890,
       -0.786,  -16.614,  -59.062,  -20.599,  -30.061,   16.895,    9.948,
       -8.023,  -46.765,   22.527,   -1.716,   46.489,   32.443,  -17.759,
        6.658,  -27.567,    8.972,   49.607,  -21.933,  -43.187,   -7.734,
      -12.981,    8.318,   -6.230,   11.079,   52.636,    1.066,  -18.610,
       72.128,   -3.773,   45.005,    5.131,  -18.925,  -20.031,   -8.496,
       25.998,   33.877,  -15.122,  -11.586,  -22.590,  -10.989,  -68.677,
      -28.431,  -38.796,   14.434,   33.719,   24.573,   37.710,   17.266,
        5.452,   -3.611,  -10.362,   29.030,  -22.485,   21.264,  -24.102,
      -24.197,   -3.999,  -13.577,  -56.473,   13.439,   76.138,  -43.390,
       24.054,   15.659,    6.912,   35.781,  -11.980,  -38.986,  -56.275,
        6.286,    5.068,  -12.357,   -6.881,    9.411,   44.058,   24.451,
      -20.004,  -26.101,    8.829,    4.323,    4.796,   -3.377,  -44.083,
        9.819,   17.519,  -31.016,  -11.712,    9.879,   -9.630,   13.516,
       24.058,   38.797,    2.825,    1.489,   14.353,   56.367,  -16.848,
       -6.691,    3.841,  -13.956,   19.767,   16.148,   -4.296,   -6.950,
       16.389,   44.809,   -3.402,  -13.217,   -5.229,   15.258,    3.001,
      -59.400,   13.967,   15.142,   14.195,   32.513,   -9.912,   82.557,
       -2.837,   -1.792,    8.415,    6.611,   -4.715,    3.747,   -2.117,
        6.001,    5.177,    0.145,   -0.472,    6.577,    7.062,  -22.843,
       -3.220,   -3.953,  -78.266,   12.280,   21.472,   16.759,    0.423,
        5.235,   17.452,   -6.105,  -13.842,   -8.696,   -5.922,   -0.267,
      -12.612,   -7.288,    4.166,   51.444,   22.579,   13.913,  -18.234,
      -27.544,   16.999,   29.549,   18.472,   -2.874,   24.185,  -42.562,
       -6.982,   19.930,  -10.571,    1.262,   -1.284,  -19.542,  -23.492,
       38.958,    4.128,   10.051,  -21.572,   20.721,   17.043,  -12.775,
       22.167,   14.777,   43.152,    0.178,   11.921,   19.972,  -50.941,
      -25.467,  -33.355,   11.566,  -40.629,  -33.009,    9.045,    0.780,
      -17.232,   -1.176,   -0.819,   -0.690,   -0.702,    0.768,   -0.526,
        0.514,   -0.849,   -0.728,    0.793,    0.850,    0.630,   -0.626,
        1.074,   -0.607,    0.403,   -0.726,    0.650,   -0.777,   -0.720,
       -0.551,    0.720,    0.920,    0.630,   -0.663,    0.724,    0.674,
        1.159,    0.659,   -0.592,    0.751
    },
    {  26.324,  -67.894,    0.220,  -11.763,   40.919,    3.809,  -29.909,
       -6.537,   36.715,  -15.140,   15.774,  -45.579,    2.745,    3.227,
      -35.295,   -7.786,  -37.150,    7.929,   38.826,   14.393,   -5.607,
       14.868,  -13.299,   -9.525,   41.697,  -46.496,   48.419,   11.917,
       -6.364,   13.327,    3.266,    1.738,   42.520,   10.893,   10.249,
       63.831,   31.691,    0.688,   41.097,   23.947,   18.694,   17.269,
        9.358,  -37.723,   25.798,  -23.683,  -24.129,  -10.347,   19.933,
        2.769,    0.863,  -51.560,   -0.386,   25.988,   45.673,   28.409,
        2.270,  -16.247,  -28.090,   35.032,    5.930,  -20.181,   41.575,
      -14.266,   19.287,   23.751,   42.637,  -16.825,  -31.152,    3.553,
       24.970,   18.619,  -15.684,  -34.324,   -4.602,  -25.932,  -20.817,
       48.648,  -21.515,   -7.662,   26.870,  -26.103,   -9.884,   18.092,
      -16.338,   22.653,  -27.477,   10.115,   13.127,   -7.960,  -34.123,
      -15.452,  -17.138,  -12.314,  -28.730,  -21.832,    8.202,   33.106,
       21.181,   53.354,    0.174,  -32.524,   13.533,   11.307,  -13.792,
       14.938,   29.485,   -0.438,  -17.985,   25.569,  -30.886,   -2.819,
      -19.943,  -23.500,   13.761,   16.723,  -22.841,   35.804,    0.490,
       -7.182,    8.943,   38.430,   -1.742,   39.262,    3.379,   -8.804,
       19.118,    3.162,   -2.896,  -14.036,  -19.637,   18.574,    6.788,
       26.391,  -11.465,  -21.690,  -20.209,  -29.219,   10.630,   -1.666,
        5.491,    3.861,   16.749,  -32.006,    8.476,   16.309,   17.962,
       14.780,   13.110,    5.658,   -6.489,   -8.847,   62.207,   33.357,
       35.975,  -19.785,   -2.200,    9.607,  -50.436,  -37.538,   18.945,
      -35.464,   68.416,  -10.520,  -35.906,    2.827,   36.303,   26.915,
       -8.631,  -14.993,    8.297,   -6.903,    1.760,  -36.264,  -25.809,
       29.417,  -50.096,   27.354,    3.463,   15.997,   -5.229,   13.501,
      -11.918,    8.416,  -15.117,   26.673,   -2.158,   -5.355,  -11.054,
       29.315,  -20.002,    0.427,   21.515,   20.906,   -6.855,  -41.701,
       25.892,  -45.594,  -28.403,   46.494,   -5.348,    3.657,  -22.839,
        4.413,  -10.800,   -2.864,    6.911,    0.920,  -20.147,   -2.661,
       -1.886,   32.995,  -21.228,   40.709,  -18.053,  -25.635,  -49.671,
        6.634,  -10.412,   -0.390,    7.056,  -21.457,   -5.230,    5.947,
      -47.594,   12.977,   21.565,   77.575,    2.784,   -3.713,    7.891,
       -6.415,  -10.422,   -6.174,  -18.294,   23.590,   -2.965,   -0.372,
        4.073,  -30.185,   12.275,   26.707,  -47.785,    4.499,   52.258,
      -26.952,   74.585,   -6.723,  -28.908,   64.130,    8.594,  -26.675,
       42.874,  -28.723,  -36.132,   -3.784,   -7.671,   10.084,  -45.386,
       41.200,   33.066,    6.459,  -25.390,  -53.169,   29.390,   -8.812,
       26.347,  -10.731,  -24.862,   10.397,  -53.053,   23.368,    4.654,
       22.599,   18.007,   30.868,   29.177,  -28.393,   31.864,   32.465,
       11.931,   16.324,  -46.294,  -11.949,   10.516,   24.555,  -26.359,
       44.530,   71.625,   -8.230,    2.825,  -73.135,   -2.329,   29.395,
       62.286,   38.143,  -24.490,   -0.872,    2.111,  -28.744,   16.566,
        7.532,  -27.532,   -0.584,  -10.745,   14.131,  -13.970,   15.853,
       10.341,    1.933,  -11.668,   33.998,   31.794,   12.813,   20.405,
        4.009,   29.435,   -3.221,  -21.976,  -16.232,   15.347,  -60.327,
       16.183,  -37.993,   44.370,  -28.805,  -20.561,    5.709,   13.284,
       22.547,   17.715,   -9.085,  -31.558,   10.573,   -7.348,   10.563,
        5.420,   31.898,    3.213,   -8.262,  -24.802,   20.023,  -36.971,
       -8.927,   -1.147,  -41.178,    6.908,   24.741,  -13.789,  -10.776,
       -2.469,  -16.572,  -61.909,  -22.234,  -30.470,   19.324,   12.932,
       -8.306,  -53.007,   25.690,   -4.078,   49.234,   34.168,  -18.496,
        6.213,  -31.441,   12.153,   54.549,  -21.598,  -45.774,   -4.605,
      -15.096,   11.268,   -6.752,   11.588,   59.563,    1.338,  -22.921,
       70.222,   -4.575,   40.723,    7.932,  -15.305,  -16.016,   -9.094,
       29.010,   32.145,  -14.042,  -10.687,  -22.521,  -11.409,  -74.335,
      -29.701,  -39.026,   13.705,   34.913,   25.931,   33.916,   20.274,
        6.124,   -1.743,  -10.694,   32.658,  -20.783,   22.049,  -26.947,
      -22.121,   -2.994,  -14.943,  -65.874,   15.060,   80.750,  -52.908,
       23.627,   12.888,    3.255,   31.028,  -11.178,  -36.659,  -44.965,
       10.613,    2.249,  -12.355,   -6.155,   13.181,   38.714,   27.620,
      -17.122,  -28.863,   11.450,   -1.385,    6.945,    0.666,  -35.894,
        9.732,   16.995,  -30.724,  -15.167,   10.057,  -15.839,   15.980,
       21.912,   47.813,    0.896,    0.720,   12.746,   63.840,  -24.983,
       -8.289,   -0.608,  -16.937,   15.936,   11.377,   -2.780,   -8.452,
       21.825,   45.903,   -0.056,  -11.315,   -5.717,   16.726,    1.703,
      -62.783,   20.020,   10.459,   22.412,   33.066,  -14.622,   86.533,
       -1.906,   -0.483,    8.259,    8.263,   -6.277,    2.090,   -0.385,
        7.333,    2.559,    2.402,   -3.223,    8.736,    7.488,  -22.781,
       -3.944,   -5.772,  -83.290,   13.412,   23.753,   17.314,    0.468,
        4.598,   18.449,   -7.594,  -12.145,   -8.653,   -5.463,    0.762,
      -15.333,   -7.495,    6.494,   53.215,   23.785,   13.890,  -20.820,
      -28.184,   16.650,   34.542,   18.728,    1.109,   26.681,  -50.347,
       -4.381,   21.903,   -9.086,    4.138,   -0.261,  -22.530,  -16.683,
       43.865,   -0.987,    4.632,  -22.825,   19.194,   12.739,  -11.886,
       21.916,   12.514,   43.696,   -2.230,   10.075,   18.156,  -50.755,
      -24.043,  -32.377,   11.345,  -52.866,  -28.259,    8.215,   -1.801,
      -13.533,   -1.273,   -0.717,   -0.741,   -0.725,    0.842,   -0.549,
        0.556,   -0.778,   -0.603,    0.822,    0.865,    0.504,   -0.569,
        1.160,   -0.684,    0.385,   -0.703,    0.712,   -0.760,   -0.706,
       -0.605,    0.648,    0.903,    0.650,   -0.574,    0.645,    0.590,
        1.077,    0.680,   -0.578,    0.772
    },
    {  26.365,  -65.192,    1.367,  -11.291,   37.498,   10.155,  -32.275,
       -6.552,   32.182,  -10.974,   18.316,  -43.691,    3.367,    5.866,
      -33.931,   -6.792,  -41.066,   12.068,   47.625,   21.480,   -7.101,
       19.121,  -15.049,  -13.269,   42.678,  -55.149,   63.481,   19.250,
      -13.443,   14.424,    4.126,   -3.018,   52.071,    7.767,   13.746,
       73.532,   28.399,    2.395,   35.962,   21.978,   20.196,   21.080,
        8.601,  -38.139,   26.289,  -25.276,  -22.713,   -9.259,   20.066,
        6.854,    2.426,  -46.357,    0.861,   20.927,   43.198,   26.760,
        3.658,  -17.786,  -24.284,   33.774,    3.621,  -21.441,   43.431,
      -14.376,   14.680,   22.360,   42.569,  -17.666,  -28.176,    5.582,
       27.290,   18.063,  -13.708,  -39.421,   -0.034,  -33.425,  -27.715,
       50.979,  -28.354,  -12.603,   31.412,  -26.508,  -10.500,   18.376,
      -20.804,   27.046,  -36.333,   11.261,    9.698,   -3.175,  -33.843,
      -18.277,  -20.658,  -11.332,  -28.477,  -19.749,    5.410,   33.673,
       17.709,   49.700,    5.371,  -29.982,   12.607,    6.413,  -12.437,
       10.267,   26.932,   -0.224,  -19.024,   26.723,  -36.514,   -1.488,
      -18.779,  -23.519,   13.726,   13.903,  -22.927,   39.533,    1.432,
       -3.100,    6.242,   34.905,    0.671,   38.910,    3.417,   -9.456,
       21.762,    2.196,   -4.409,  -13.349,  -19.310,   21.831,    8.964,
       27.160,  -11.674,  -23.034,  -23.409,  -33.000,   12.998,   -3.224,
        5.897,    6.267,   19.743,  -34.415,    5.665,   16.369,   15.016,
       12.321,   13.214,    6.989,   -7.472,   -9.651,   53.687,   28.857,
       32.662,  -17.836,    0.091,   12.258,  -50.498,  -31.267,   14.458,
      -29.744,   60.723,   -8.965,  -34.786,    5.347,   26.014,   22.131,
       -6.113,  -11.172,   10.957,   -6.324,    5.162,  -30.928,  -21.391,
       29.275,  -47.772,   25.498,   -0.610,   16.883,   -0.909,   11.517,
       -8.640,    8.283,  -15.326,   26.948,   -1.750,   -4.808,  -15.214,
       31.009,  -23.424,   -1.373,   21.219,   34.377,   -6.144,  -43.958,
       24.861,  -39.687,  -26.453,   42.957,   -6.557,    4.023,  -23.571,
        4.025,  -10.808,   -3.337,    4.062,    0.826,  -16.940,   -2.844,
       -0.143,   31.006,  -24.412,   43.426,  -14.285,  -27.484,  -51.925,
        6.711,  -11.391,   -0.362,    8.763,  -23.254,   -4.480,    4.362,
      -51.477,   14.309,   23.040,   84.248,    3.617,    1.443,    3.570,
       -6.526,  -10.807,   -6.094,  -15.755,   32.034,   -1.241,    1.532,
        5.522,  -30.768,   14.254,   31.596,  -52.152,    2.555,   50.299,
      -25.455,   76.819,   -7.927,  -26.020,   67.208,    6.848,  -30.833,
       33.862,  -28.700,  -38.391,   -2.963,   -9.224,   12.508,  -43.178,
       38.606,   32.679,    3.097,  -24.800,  -50.105,   28.070,   -6.799,
       17.695,  -10.545,  -25.153,    6.184,  -52.234,   25.442,    1.801,
       23.558,   12.847,   29.218,   29.704,  -21.402,   33.435,   32.281,
       11.608,   14.059,  -44.060,  -20.031,    9.942,   29.703,  -23.845,
       39.069,   65.336,   -9.585,    2.271,  -59.677,    1.900,   20.978,
       57.492,   29.126,  -25.353,    4.224,    1.840,  -13.503,   17.932,
       12.235,  -24.553,   -7.774,  -10.880,   18.529,  -13.329,   12.222,
       11.249,    0.785,  -12.201,   30.464,   30.814,   12.597,   19.947,
        4.498,   28.254,   -3.485,  -19.966,  -18.214,   18.387,  -59.265,
       14.427,  -34.315,   40.111,  -28.020,  -16.428,    5.625,   11.496,
       19.098,   14.702,   -7.069,  -28.642,   11.383,   -6.560,   10.401,
        5.534,   19.515,    4.110,   -8.367,  -25.400,   18.207,  -40.823,
      -12.893,    0.601,  -42.636,    5.650,   24.978,  -15.009,   -7.860,
       -2.965,  -15.498,  -66.237,  -21.516,  -29.919,    6.441,   15.207,
      -12.678,  -52.905,   26.975,   -4.826,   56.637,   40.492,  -20.704,
        9.975,  -34.762,   12.673,   59.690,  -27.501,  -51.991,   -8.027,
      -16.537,   12.404,   -9.849,   12.505,   67.157,    0.965,  -24.117,
       71.546,   -2.577,   39.890,    7.716,  -17.348,  -16.041,   -9.180,
       26.233,   32.333,  -15.018,  -13.435,  -20.635,  -12.547,  -74.824,
      -30.817,  -39.134,   16.745,   35.185,   22.725,   33.388,   27.040,
        7.801,   -0.522,  -13.527,   31.538,  -21.339,   21.233,  -22.960,
      -22.338,   -3.625,  -15.575,  -71.856,   27.210,   82.254,  -42.047,
       20.923,   11.660,   10.176,   26.217,   -6.866,  -36.126,  -42.353,
        7.758,    3.919,  -10.413,   -5.506,    7.056,   34.925,   21.624,
      -20.106,  -21.953,    4.109,   -1.890,    8.744,   -2.949,  -47.358,
       10.184,   16.509,  -32.894,  -17.708,    6.837,  -18.247,   16.682,
       24.401,   44.961,    1.665,    2.121,   10.147,   67.341,  -22.705,
       -4.787,    3.230,  -20.350,   21.544,   10.654,   -2.440,   -7.835,
       24.122,   51.753,   -1.015,  -10.112,   -4.640,   18.291,    4.324,
      -71.627,   21.252,   10.583,   21.654,   36.617,  -12.967,   89.418,
       -0.202,    1.281,    8.423,   10.236,   -8.548,    2.716,    1.556,
        5.655,    0.615,    2.910,   -1.544,    8.746,    7.105,  -23.677,
       -3.796,   -5.856,  -87.242,   12.006,   18.971,   14.708,    0.366,
        3.773,   17.408,   -7.674,  -11.456,   -7.548,   -6.812,    0.000,
      -13.918,   -6.989,    6.922,   48.828,   21.785,   12.510,  -18.175,
      -26.741,   12.974,   31.031,   18.736,    0.762,   25.860,  -50.076,
       -9.307,   22.982,   -4.543,    6.079,    5.017,  -24.317,   -7.520,
       44.899,    1.449,    9.172,  -21.276,   17.763,   11.644,  -14.659,
       22.283,   16.255,   48.356,    0.148,    7.061,   16.456,  -53.178,
      -25.384,  -30.522,   12.384,  -60.144,  -26.741,    9.690,   -0.237,
      -13.916,   -1.285,   -0.732,   -0.677,   -0.774,    0.821,   -0.568,
        0.634,   -0.872,   -0.726,    0.862,    0.846,    0.696,   -0.494,
        1.275,   -0.702,    0.557,   -0.732,    0.756,   -0.706,   -0.690,
       -0.648,    0.724,    1.093,    0.761,   -0.635,    0.615,    0.672,
        1.113,    0.682,   -0.546,    0.766
    },
    {  26.566,  -63.286,    4.735,   -9.679,   39.140,    4.393,  -28.542,
       -8.244,   31.332,  -12.946,   20.660,  -41.366,    1.146,   -0.406,
      -21.512,   -3.086,  -38.989,    9.117,   56.103,   26.310,   -9.924,
       21.508,  -20.980,  -16.235,   46.990,  -60.427,   76.111,   20.717,
      -16.365,   14.511,    2.637,    4.903,   59.777,   12.274,   19.452,
       80.769,   29.912,   -0.147,   37.030,   20.102,   15.698,   21.673,
        6.603,  -36.998,   28.245,  -24.503,  -25.543,  -11.056,   17.476,
       -1.314,    5.795,  -48.684,    2.900,   20.885,   40.358,   24.188,
        2.397,  -16.142,  -23.754,   36.207,    9.253,  -26.071,   45.175,
      -16.416,   14.777,   22.246,   42.878,  -22.875,  -35.487,    2.043,
       28.923,   22.361,  -17.176,  -51.498,    5.753,  -33.218,  -28.875,
       56.714,  -24.710,   -3.296,   33.304,  -25.044,  -14.163,   20.814,
      -23.108,   33.571,  -45.825,   11.938,   14.258,   -6.818,  -29.116,
      -14.748,  -17.824,   -8.522,  -27.066,  -16.046,    6.288,   30.465,
       16.585,   47.925,    2.030,  -29.977,    9.822,    6.886,   -7.568,
       10.103,   23.484,    3.166,  -21.857,   31.582,  -34.049,   -6.200,
      -18.506,  -26.798,   13.835,   16.763,  -25.276,   37.828,    0.798,
       -3.754,    9.329,   43.863,   -6.516,   43.249,    6.037,  -12.666,
       25.275,   -0.858,   -4.383,  -15.939,  -26.259,   28.756,    9.052,
       31.775,  -12.577,  -25.306,  -23.276,  -39.470,   14.244,    0.501,
        7.139,    3.521,   16.830,  -34.137,    5.899,   15.098,   11.258,
       10.384,   11.357,    4.991,   -6.746,   -7.250,   42.225,   23.233,
       26.777,  -13.405,    1.589,    5.437,  -36.584,  -27.345,   11.189,
      -25.752,   63.596,   -9.041,  -37.076,    5.055,   30.288,   22.839,
       -5.185,  -12.195,    9.748,   -5.778,    6.117,  -30.332,  -22.240,
       34.996,  -48.679,   27.732,    0.339,   14.311,  -10.050,   11.372,
       -6.803,    7.460,  -23.092,   30.513,   -2.566,   -1.334,  -18.135,
       29.258,  -18.679,    1.226,   18.801,   17.733,   -1.815,  -41.751,
       23.118,  -44.340,  -27.410,   46.085,   -5.220,    5.470,  -20.214,
        0.015,   -5.867,   -4.552,    4.636,   -1.748,  -15.755,    0.598,
       -2.441,   23.807,  -16.471,   41.602,  -18.433,  -25.108,  -56.690,
        2.138,  -10.356,    0.141,   10.067,  -23.620,   -0.559,    4.534,
      -55.150,   14.744,   26.666,   88.333,    7.993,    5.318,   -5.229,
       -6.572,  -13.747,   -4.895,  -12.717,   20.079,    2.868,   -1.833,
        6.169,  -30.331,   10.538,   24.194,  -50.481,    5.441,   47.263,
      -27.246,   76.091,   -7.068,  -31.793,   65.738,    5.107,  -24.804,
       32.892,  -27.924,  -36.717,   -3.067,   -6.685,    7.744,  -38.595,
       37.937,   30.416,   -0.293,  -17.159,  -41.111,   21.847,   -2.475,
       14.337,  -11.123,  -23.015,    0.972,  -53.177,   28.949,    1.564,
       29.257,   17.413,   33.619,   32.796,  -25.886,   31.390,   38.102,
       16.546,   15.815,  -46.059,  -17.758,   12.191,   27.515,  -23.452,
       38.085,   58.941,   -6.799,   -2.383,  -58.408,    4.381,   21.743,
       50.205,   25.488,  -20.285,    2.427,    1.174,  -15.676,   20.227,
        3.180,  -20.752,   -8.305,   -7.650,   16.449,  -11.987,   19.212,
        8.575,    0.329,  -12.408,   32.856,   28.144,   10.894,   20.277,
        2.748,   25.274,   -4.534,  -20.852,  -18.188,   18.898,  -56.639,
       18.444,  -34.790,   43.087,  -28.833,  -17.775,    7.954,   11.701,
       23.369,   13.202,   -6.549,  -28.299,   13.535,   -6.762,    7.987,
        5.078,   28.344,    3.465,   -4.880,  -25.746,   16.922,  -40.325,
      -12.656,   -3.853,  -40.458,    7.473,   28.496,  -16.500,   -8.618,
       -3.888,  -13.699,  -65.330,  -20.436,  -27.908,   14.152,   12.831,
       -8.773,  -54.108,   26.380,   -4.373,   60.528,   42.960,  -20.003,
       12.247,  -39.289,   15.749,   58.222,  -28.361,  -54.605,   -9.940,
      -15.269,   13.538,   -7.318,   19.275,   71.472,    4.457,  -24.871,
       79.997,   -2.342,   43.823,    7.455,  -15.775,  -17.892,  -10.412,
       27.879,   36.496,  -15.152,  -14.015,  -24.511,  -13.457,  -69.630,
      -34.755,  -42.173,   18.576,   38.184,   17.943,   37.893,   24.283,
        3.758,    2.143,   -8.544,   27.575,  -17.298,   16.377,  -22.736,
      -20.389,   -4.876,  -17.119,  -74.696,   19.776,   73.961,  -38.475,
       13.892,   10.995,    4.609,   28.534,  -10.104,  -30.272,  -44.445,
        6.599,    5.474,   -8.653,   -5.502,    5.009,   32.246,   18.985,
      -15.980,  -16.082,    6.298,   -2.294,    6.585,   -3.815,  -50.846,
       12.760,   20.472,  -39.630,  -16.704,    9.376,  -17.960,   17.746,
       28.070,   49.633,    1.142,    1.775,   14.984,   72.944,  -27.186,
       -6.486,    5.348,  -23.464,   24.405,   13.912,   -2.300,  -10.812,
       24.796,   56.817,    3.489,  -13.112,   -5.658,   18.204,    4.603,
      -74.611,   23.503,    7.164,   24.238,   39.140,  -13.836,   95.755,
       -2.353,    0.658,   10.626,    9.967,   -5.892,    0.908,   -0.028,
        6.176,    4.899,    2.686,   -0.596,    9.173,    5.213,  -24.106,
       -3.119,   -7.149,  -94.532,   11.217,   18.349,   14.366,    0.379,
        3.999,   14.343,   -6.546,  -11.193,   -7.312,   -5.159,    0.635,
      -11.259,   -5.567,    4.816,   45.300,   20.588,   11.916,  -15.937,
      -27.914,   17.404,   28.637,   18.047,   -1.020,   34.780,  -51.277,
       -6.064,   22.250,   -6.648,    0.385,    3.931,  -25.990,   -2.733,
       46.319,   -3.683,    7.715,  -23.635,   14.923,   13.700,  -14.968,
       19.758,   15.267,   47.614,   -2.144,   10.512,   18.193,  -56.978,
      -28.384,  -30.521,   12.047,  -61.573,  -33.185,   12.276,    0.413,
      -17.374,   -1.190,   -0.685,   -0.696,   -0.816,    0.843,   -0.466,
        0.602,   -0.787,   -0.689,    0.825,    0.917,    0.732,   -0.539,
        1.183,   -0.666,    0.583,   -0.716,    0.682,   -0.751,   -0.767,
       -0.590,    0.750,    1.054,    0.719,   -0.621,    0.729,    0.701,
        1.143,    0.737,   -0.503,    0.700
    },
    {  23.701,  -69.829,    2.376,   -9.659,   39.800,    6.760,  -30.080,
       -4.759,   34.810,  -13.013,   20.039,  -46.705,    1.920,   -2.290,
      -30.195,   -4.841,  -39.900,    6.620,   53.936,   21.727,   -4.743,
       20.334,  -20.767,  -18.348,   45.189,  -54.207,   73.063,   20.627,
      -14.774,   16.175,    4.227,    9.360,   51.029,   15.001,   17.135,
       76.158,   28.113,    2.451,   34.567,   21.705,   17.094,   24.984,
        6.095,  -38.276,   26.454,  -24.488,  -23.247,  -12.122,   19.724,
        3.519,    1.640,  -45.552,    0.998,   22.050,   44.438,   27.748,
        4.326,  -18.494,  -31.245,   36.268,    5.397,  -18.019,   44.283,
      -14.258,   20.665,   21.618,   44.167,  -16.069,  -34.370,    6.528,
       23.761,   18.942,  -17.613,  -51.886,   -2.042,  -40.885,  -29.601,
       58.431,  -29.549,   -2.794,   28.495,  -26.735,   -5.571,   20.798,
      -19.966,   34.446,  -42.459,   14.788,    7.790,   -9.883,  -26.471,
      -12.573,  -17.736,   -7.916,  -26.262,  -13.290,    7.472,   30.221,
       15.393,   46.010,    6.390,  -28.741,   10.480,    7.034,  -11.631,
       10.272,   22.919,   -0.446,  -21.768,   28.250,  -37.494,   -3.638,
      -20.396,  -30.023,   17.463,   16.743,  -25.428,   42.729,    3.279,
       -1.205,   10.676,   41.991,   -5.099,   43.130,    2.539,  -10.282,
       23.946,   -3.049,   -5.470,  -16.274,  -25.592,   29.279,   10.543,
       32.377,  -15.465,  -25.851,  -24.349,  -38.976,   14.059,    2.512,
        5.466,    4.273,   17.919,  -35.888,    5.682,   11.730,   13.709,
        9.494,    9.882,    2.375,   -4.773,   -5.834,   40.539,   19.855,
       22.316,  -14.553,   -1.574,    7.337,  -29.329,  -24.318,   11.191,
      -22.800,   68.568,   -9.999,  -39.979,    8.049,   30.856,   25.774,
       -7.202,  -14.000,   14.887,   -3.365,    3.370,  -38.524,  -23.435,
       27.692,  -53.317,   32.484,    2.172,   17.922,  -12.948,   11.242,
       -9.681,    9.672,  -23.418,   36.528,   -2.614,   -5.659,  -21.875,
       34.991,  -21.373,    3.124,   21.474,   22.978,  -13.273,  -46.942,
       23.950,  -47.343,  -28.898,   42.877,   -5.610,    6.525,  -21.168,
        1.158,   -8.889,   -2.477,    9.665,    2.747,  -15.960,   -5.202,
       -1.907,   25.096,  -16.439,   34.161,  -21.276,  -23.082,  -56.840,
        2.902,   -8.399,    0.105,    8.263,  -25.483,   -1.458,    5.060,
      -55.274,   16.154,   24.529,   87.687,    6.866,    4.620,   -3.689,
       -7.008,  -11.168,   -5.683,  -11.634,   24.559,    1.958,    1.403,
        5.050,  -25.584,   13.522,   26.583,  -41.850,    8.615,   44.744,
      -28.135,   68.830,   -6.324,  -23.360,   59.315,    8.844,  -27.604,
       23.877,  -33.975,  -34.406,   -3.222,   -0.224,   10.170,  -37.788,
       21.650,   24.763,    6.596,  -12.257,  -39.306,   19.539,   -1.930,
       18.622,   -4.376,  -14.308,    3.962,  -50.768,   24.841,   -0.976,
       20.353,   18.069,   36.704,   31.156,  -20.531,   25.090,   32.431,
       15.456,   19.008,  -46.201,  -10.399,    8.428,   27.733,  -25.227,
       35.155,   60.000,   -7.748,   -1.000,  -57.462,    4.047,   17.749,
       48.122,   21.181,  -15.990,    3.249,   -0.059,  -15.388,   15.759,
        4.033,  -22.524,   -4.023,   -5.816,   15.513,   -9.039,   16.197,
       16.081,    0.195,   -9.000,   28.210,   29.654,   10.325,   19.748,
        7.244,   30.613,   -6.954,  -19.609,  -12.978,   19.392,  -62.586,
       16.295,  -36.707,   48.247,  -35.489,  -20.264,    9.818,   16.008,
       27.639,   14.939,  -10.166,  -33.115,   14.643,   -9.111,    9.395,
        5.607,   23.420,   13.346,  -11.063,  -31.428,   26.281,  -36.123,
       -9.376,   -2.076,  -41.087,    5.456,   25.952,  -14.472,  -12.606,
       -3.256,  -18.451,  -62.588,  -21.275,  -31.679,   22.753,    9.495,
      -11.839,  -54.278,   26.687,   -4.609,   58.323,   40.581,  -20.780,
        9.861,  -36.634,   12.775,   58.481,  -26.092,  -53.322,   -8.967,
      -16.170,   12.471,   -7.848,   12.334,   70.146,    4.191,  -25.790,
       79.228,   -1.503,   44.053,    8.504,  -15.381,  -18.403,   -9.789,
       27.350,   34.656,  -14.410,  -11.937,  -23.446,  -13.808,  -66.075,
      -39.711,  -43.210,   17.517,   38.001,   12.220,   26.014,   15.242,
        4.174,    0.208,  -10.445,   20.283,  -16.453,   18.866,  -15.824,
      -12.063,   -1.762,  -10.457,  -52.309,   19.068,   60.888,  -29.680,
        9.153,    8.497,    0.845,   21.666,   -7.883,  -30.732,  -40.015,
        5.131,    4.783,   -4.746,   -5.072,    6.900,   30.478,   19.848,
      -18.542,  -21.284,    6.124,    1.787,    6.299,   -3.066,  -59.066,
       14.363,   19.298,  -41.078,  -20.929,   10.395,  -18.842,   19.470,
       27.781,   51.402,    2.100,    1.549,   14.192,   84.641,  -24.473,
      -10.489,    6.907,  -14.830,   21.792,   14.841,   -5.812,   -9.549,
       25.598,   50.669,   -0.156,  -14.925,   -5.932,   11.979,    3.371,
      -73.706,   17.230,   18.815,   18.408,   36.372,  -12.317,   99.939,
       -1.636,   -0.217,    8.819,   11.315,   -7.020,    2.560,   -0.737,
        6.079,    0.068,    4.696,   -0.958,   10.435,    5.726,  -19.945,
       -3.319,   -7.472,  -97.667,   10.960,   17.783,   14.191,    1.899,
        3.909,   16.614,   -6.122,  -10.335,   -7.735,   -5.526,    1.585,
      -11.744,   -5.192,    8.361,   42.075,   19.730,    9.927,  -16.501,
      -29.104,   23.129,   33.248,   22.507,    9.323,   33.801,  -53.028,
      -10.492,   15.941,   -9.143,    2.558,    2.092,  -27.617,    0.156,
       39.655,   -4.600,    4.586,  -27.497,   17.341,   14.096,  -16.989,
       22.430,   15.816,   47.189,    0.257,    9.978,   19.975,  -54.766,
      -27.842,  -30.169,   12.540,  -58.977,  -32.277,    9.597,    0.450,
      -17.303,   -1.180,   -0.748,   -0.644,   -0.745,    0.751,   -0.496,
        0.577,   -0.764,   -0.544,    0.783,    0.863,    0.607,   -0.555,
        1.211,   -0.696,    0.579,   -0.642,    0.744,   -0.736,   -0.694,
       -0.615,    0.718,    0.959,    0.629,   -0.592,    0.709,    0.584,
        1.103,    0.631,   -0.423,    0.722
    },
    {  33.468,  -62.595,    2.237,   -6.627,   39.783,    8.439,  -30.481,
      -11.885,   35.707,  -12.945,   17.214,  -46.110,    1.059,   13.688,
      -28.100,   -4.449,  -38.517,    9.577,   44.821,   20.923,  -10.562,
       19.251,  -16.696,  -13.494,   45.700,  -53.156,   65.968,   18.412,
       -9.572,   12.921,    2.646,   -4.603,   55.087,    8.056,   12.578,
       73.577,   27.589,   -3.695,   33.957,   21.649,   18.348,   20.296,
        5.851,  -37.015,   27.698,  -23.413,  -25.402,   -9.421,   18.833,
        3.931,    2.760,  -45.650,    1.290,   21.647,   45.984,   29.781,
        4.865,  -16.597,  -25.790,   36.204,    5.583,  -23.940,   45.741,
      -16.320,   18.855,   21.687,   44.625,  -21.243,  -34.978,    4.473,
       28.246,   21.112,  -17.970,  -52.825,   -3.273,  -40.273,  -26.851,
       63.013,  -26.412,    1.935,   32.557,  -29.234,  -12.887,   25.375,
      -24.369,   31.318,  -45.817,   11.889,   10.474,   -9.025,  -31.616,
      -21.198,  -24.118,   -8.407,  -24.638,  -19.748,    5.334,   26.977,
       19.593,   51.666,   10.607,  -31.796,   10.482,   13.040,  -19.203,
        9.384,   21.695,    6.593,  -19.724,   32.381,  -39.830,   -7.852,
      -21.477,  -31.878,   18.541,   15.555,  -26.877,   37.204,    3.883,
       -4.899,    7.115,   41.824,   -7.643,   43.100,    3.268,   -8.079,
       29.305,    3.873,   -7.481,  -16.800,  -30.372,   31.514,   11.957,
       33.353,  -12.323,  -24.193,  -24.277,  -46.224,   14.331,    3.174,
        4.458,    7.934,   20.078,  -42.000,    5.724,    8.628,   10.628,
       10.473,   10.178,    4.820,   -4.701,   -5.153,   46.094,   22.761,
       26.962,  -13.450,   -1.720,    3.831,  -34.601,  -28.702,   11.089,
      -24.649,   69.159,  -10.300,  -44.480,    9.868,   33.353,   27.539,
       -5.347,  -15.633,   14.808,   -3.249,    3.686,  -37.370,  -22.468,
       32.682,  -57.026,   35.015,    3.222,   14.977,  -16.617,   14.663,
      -12.046,   11.711,  -27.294,   38.167,   -3.605,   -6.612,  -24.317,
       44.221,  -24.719,    4.719,   28.004,   21.523,  -20.747,  -49.604,
       33.203,  -57.773,  -26.414,   39.827,   -6.908,    6.466,  -19.069,
       -2.630,   -5.352,   -8.448,    8.793,    2.242,  -10.523,   -1.899,
       -0.550,   33.368,  -18.482,   35.682,  -21.137,  -19.291,  -53.049,
        4.316,  -10.984,    0.100,    8.913,  -21.137,   -2.329,    6.524,
      -52.561,   15.302,   24.106,   83.740,    6.811,    6.177,   -2.557,
       -5.132,  -14.796,   -4.316,  -16.201,   15.809,    3.843,   -1.086,
        4.435,  -29.657,   13.348,   25.950,  -39.557,    4.527,   44.427,
      -19.987,   59.029,   -4.319,  -23.372,   51.830,    3.753,  -25.007,
       24.595,  -22.700,  -32.295,   -6.027,   -3.554,    4.617,  -36.677,
       15.333,   26.307,    6.356,   -7.284,  -33.283,   16.588,   -3.514,
       20.423,   -2.786,  -11.176,    2.957,  -46.995,   19.663,   -2.341,
       14.819,   19.339,   30.310,   29.240,  -19.919,   21.758,   29.605,
       13.573,   19.585,  -43.737,   -4.542,    5.997,   24.553,  -27.100,
       35.490,   55.764,   -6.793,    0.782,  -58.049,    2.677,   19.903,
       50.378,   26.986,  -18.862,    2.097,    0.064,  -14.173,   16.957,
        1.587,  -19.278,   -8.045,   -7.297,   18.126,  -12.735,   20.010,
       11.193,    4.078,   -8.958,   36.083,   32.463,    8.898,   23.678,
        9.430,   32.723,   -5.103,  -23.245,  -15.787,   16.231,  -67.715,
       20.257,  -40.078,   46.634,  -36.285,  -18.766,   10.247,   17.480,
       26.626,   16.630,  -11.385,  -37.508,   12.497,  -11.000,   11.223,
        3.341,   25.386,    7.985,  -11.610,  -28.950,   25.362,  -38.560,
      -14.894,   -1.255,  -42.512,    8.310,   24.198,  -13.951,  -12.206,
       -1.149,  -18.433,  -62.537,  -19.696,  -29.957,   13.000,   13.224,
      -12.391,  -53.614,   30.249,   -6.358,   56.353,   38.378,  -20.271,
        7.234,  -33.740,   11.620,   56.798,  -25.554,  -50.119,   -8.912,
      -15.344,   10.656,  -10.202,   13.806,   68.451,    1.984,  -21.316,
       79.577,   -2.354,   43.451,    4.201,  -14.424,  -15.390,   -8.463,
       28.960,   35.893,  -17.255,  -16.658,  -25.524,  -13.246,  -54.960,
      -35.737,  -42.457,   17.045,   38.147,    9.536,   18.174,    9.356,
        5.477,   -3.187,   -4.471,   17.139,  -10.267,   13.253,   -8.642,
       -8.857,   -3.896,   -6.937,  -40.007,   23.578,   41.368,  -22.111,
        8.762,    9.754,    0.892,   23.716,   -6.996,  -29.619,  -39.866,
        6.516,    3.934,   -6.086,   -3.418,    8.029,   29.357,   18.788,
      -17.092,  -18.688,    9.044,    2.026,    3.894,   -1.107,  -55.697,
       15.604,   20.899,  -36.648,  -24.208,   11.724,  -18.733,   19.317,
       25.005,   49.383,    2.515,   -0.489,   14.620,   86.468,  -27.527,
       -8.662,    5.140,  -19.226,   17.961,   16.283,   -6.527,   -6.467,
       21.895,   53.745,   -0.385,  -12.445,   -2.936,   21.772,    0.310,
      -75.292,   29.470,   10.386,   21.644,   35.742,  -17.384,  100.352,
       -2.383,    2.076,    9.925,   12.254,   -9.862,    3.003,   -0.086,
        6.589,    2.106,    3.471,   -1.639,    9.648,    4.680,  -23.611,
       -4.007,   -7.109,  -98.220,   10.149,   15.849,   13.371,   -1.380,
        7.024,   18.057,   -7.568,  -12.603,   -7.148,   -6.510,    0.394,
      -12.861,   -7.320,    7.060,   45.976,   19.433,    9.912,  -16.525,
      -29.566,   19.714,   34.108,   19.055,   10.628,   41.884,  -54.394,
      -10.091,   12.709,   -3.550,    3.298,    9.621,  -31.936,   -1.172,
       40.389,   -8.179,   -5.762,  -24.749,   16.754,    7.504,  -14.737,
       20.795,   15.786,   43.092,   -1.049,    6.363,   14.939,  -48.740,
      -25.995,  -25.615,   10.086,  -50.086,  -29.130,   10.542,   -0.289,
      -12.269,   -1.176,   -0.663,   -0.658,   -0.708,    0.773,   -0.528,
        0.453,   -0.672,   -0.629,    0.782,    0.837,    0.605,   -0.567,
        1.073,   -0.637,    0.463,   -0.599,    0.715,   -0.788,   -0.660,
       -0.684,    0.660,    0.924,    0.546,   -0.646,    0.619,    0.684,
        1.153,    0.638,   -0.494,    0.722
    },
    {  27.328,  -61.217,    3.549,   -8.101,   34.802,    3.367,  -29.053,
       -1.909,   32.032,  -15.937,   14.140,  -42.730,   -0.443,   13.088,
      -29.948,    0.259,  -34.603,    5.186,   40.232,   20.343,   -4.621,
       14.715,  -15.643,  -15.128,   43.981,  -49.868,   56.681,   15.260,
       -5.767,   11.576,    4.251,  -12.080,   51.866,    7.671,   10.194,
       68.070,   28.747,    0.890,   37.930,   22.200,   17.327,   23.817,
        8.842,  -38.711,   28.205,  -25.214,  -24.964,  -14.645,   21.180,
        2.332,    3.649,  -47.419,    1.134,   23.615,   40.056,   27.972,
        4.956,  -15.163,  -25.242,   32.310,    6.740,  -19.978,   38.877,
      -14.556,   16.267,   21.505,   38.057,  -16.461,  -31.818,   -0.115,
       22.033,   20.038,  -17.717,  -47.593,    2.457,  -40.320,  -40.901,
       52.472,  -35.176,   -0.581,   34.897,  -33.376,  -11.135,   25.949,
      -24.041,   29.134,  -30.029,   16.470,   13.535,   -6.707,  -31.482,
      -20.911,  -23.948,   -5.524,  -30.878,  -17.231,    5.890,   32.318,
       15.572,   50.237,    6.074,  -31.077,   11.424,   24.436,  -10.567,
       13.264,   23.900,    4.377,  -19.154,   29.263,  -38.242,   -4.728,
      -23.604,  -25.313,   19.639,   18.686,  -24.072,   36.918,    2.583,
       -3.975,    8.866,   41.108,   -8.100,   43.273,    4.467,  -13.230,
       33.561,    3.408,   -4.589,  -18.976,  -30.561,   38.702,   17.475,
       35.307,  -16.469,  -31.283,  -25.601,  -55.774,   17.748,   -5.582,
        8.201,    6.521,   20.949,  -48.143,    7.181,    8.833,   12.865,
       10.216,   11.020,    2.858,   -5.429,   -8.361,   46.132,   23.962,
       30.049,  -14.645,    0.096,    8.353,  -30.464,  -28.835,    9.445,
      -25.700,   75.701,   -5.407,  -49.948,    7.348,   33.261,   30.415,
       -6.300,  -14.701,   13.748,   -6.387,    3.348,  -39.465,  -22.183,
       36.033,  -61.773,   35.587,    2.434,   15.814,  -18.287,   16.840,
      -14.136,   10.766,  -28.994,   41.056,   -4.386,   -6.735,  -23.488,
       47.590,  -27.287,    6.261,   27.723,   25.952,  -23.307,  -50.801,
       31.755,  -58.626,  -26.215,   38.922,   -3.674,    6.617,  -22.269,
       -5.799,   -6.306,   -4.828,    7.362,    2.730,   -9.664,   -2.266,
        1.031,   33.843,  -22.508,   35.407,  -17.643,  -21.135,  -46.847,
        3.520,   -8.377,    1.407,    7.700,  -18.969,   -1.221,    6.075,
      -46.566,   12.264,   22.172,   73.269,    6.408,    4.943,   -4.535,
       -4.197,  -12.987,   -4.789,   -9.240,   20.214,    3.507,   -2.466,
        3.641,  -25.415,   13.020,   21.093,  -35.772,    5.790,   39.957,
      -15.538,   51.173,   -2.229,  -25.281,   46.563,    3.764,  -23.360,
       28.362,  -24.118,  -34.654,   -5.026,    0.793,    5.101,  -36.337,
       20.101,   26.193,    4.198,  -13.131,  -31.223,   16.568,   10.067,
       15.519,   -0.823,  -12.734,    2.089,  -46.798,   23.887,   -6.522,
       19.248,   18.342,   30.817,   28.811,  -19.934,   23.285,   31.353,
       11.088,   18.867,  -44.829,  -14.335,    9.497,   24.428,  -22.582,
       34.615,   58.767,   -5.616,    5.012,  -60.584,   10.249,   22.927,
       55.155,   26.566,  -29.112,    2.324,   -0.561,  -16.625,   21.219,
        1.799,  -18.178,   -9.928,   -5.802,   16.214,  -13.906,   24.792,
       10.614,    5.432,  -13.304,   42.730,   37.126,   14.482,   27.103,
        6.202,   36.298,   -6.477,  -27.866,  -11.452,   18.829,  -74.122,
       24.844,  -48.340,   48.667,  -38.062,  -18.740,    9.663,   18.137,
       26.246,   16.648,  -11.321,  -36.429,   11.852,  -13.800,   10.605,
        5.153,   33.345,   10.403,  -10.909,  -29.756,   29.569,  -42.052,
      -12.444,   -0.819,  -42.023,    6.824,   20.311,  -12.941,  -10.602,
        0.183,  -13.187,  -65.367,  -21.964,  -26.638,   15.063,   14.420,
       -7.533,  -52.975,   28.542,   -4.936,   52.905,   34.696,  -18.405,
        8.862,  -30.869,   12.815,   52.592,  -24.310,  -47.575,   -7.087,
      -14.505,   10.468,   -7.142,   11.000,   61.957,    4.226,  -24.227,
       74.925,   -3.568,   40.749,    3.691,  -14.525,  -15.101,   -7.625,
       24.067,   39.171,  -15.681,  -14.654,  -26.966,  -12.795,  -51.561,
      -38.144,  -38.248,   12.572,   40.932,    7.770,   14.843,    8.444,
        4.061,   -0.715,   -5.962,   17.282,  -15.283,   15.960,  -18.448,
       -9.736,   -4.822,   -8.787,  -32.195,    8.086,   44.145,  -14.779,
        6.814,   10.996,    3.402,   24.248,   -8.874,  -27.934,  -37.065,
        5.634,    2.844,   -9.001,   -5.102,    4.989,   28.851,   17.859,
      -10.528,  -22.362,    6.819,    2.602,    4.240,   -1.477,  -51.791,
       14.336,   19.256,  -35.692,  -17.130,    8.260,  -21.881,   16.415,
       27.710,   48.727,   -0.593,    0.491,   11.790,   82.184,  -27.834,
       -6.541,    5.046,  -20.994,   19.684,   17.909,   -2.796,   -6.811,
       25.032,   60.276,    0.046,  -10.979,   -6.751,   14.775,    3.239,
      -83.436,   35.974,    7.286,   24.958,   38.696,  -12.377,  102.585,
       -0.145,   -0.673,   11.389,    8.993,   -8.312,    1.506,   -0.773,
        8.720,    5.245,    2.976,   -1.034,    9.309,    3.879,  -28.985,
       -3.918,   -7.361, -100.441,   13.921,   22.387,   16.710,   -1.657,
        6.719,   21.167,  -10.471,  -13.613,   -7.717,   -5.731,    1.295,
      -16.219,   -8.446,    9.191,   54.116,   22.421,   13.389,  -19.295,
      -28.573,   23.011,   31.914,   14.677,    7.151,   45.476,  -62.858,
       -8.634,   17.516,    0.082,   -6.005,    9.072,  -35.264,   -4.809,
       38.763,  -13.491,   -4.479,  -14.189,   11.220,    7.108,  -12.228,
       15.436,   11.439,   32.457,   -0.206,    6.007,   14.985,  -38.898,
      -20.058,  -22.198,    8.651,  -45.846,  -22.705,    6.831,    0.295,
      -11.528,   -1.088,   -0.771,   -0.704,   -0.831,    0.753,   -0.418,
        0.605,   -0.774,   -0.737,    0.802,    0.743,    0.627,   -0.600,
        1.028,   -0.632,    0.511,   -0.642,    0.746,   -0.731,   -0.621,
       -0.619,    0.784,    0.931,    0.586,   -0.506,    0.656,    0.682,
        1.148,    0.768,   -0.579,    0.727
    },
    {  31.502,  -63.626,    5.097,  -10.953,   38.856,    6.155,  -32.486,
       -9.020,   32.956,  -13.959,   17.517,  -44.033,   -1.699,    9.685,
      -30.220,   -1.076,  -35.655,    4.376,   38.688,   18.998,   -7.588,
       15.668,  -15.124,  -10.458,   41.277,  -49.401,   53.993,   13.263,
       -2.931,   10.686,    1.420,  -13.272,   45.227,   10.197,   13.020,
       61.869,   34.518,   -2.777,   41.292,   24.324,   17.984,   22.777,
        7.057,  -42.016,   34.535,  -28.737,  -29.635,  -12.170,   21.772,
       13.703,    1.381,  -50.774,    0.796,   26.918,   34.949,   23.220,
        5.294,  -13.078,  -20.538,   27.220,    4.831,  -22.375,   36.703,
      -14.811,   13.738,   17.670,   34.386,  -16.830,  -31.599,    2.712,
       22.451,   18.545,  -16.904,  -46.543,    0.073,  -34.198,  -29.390,
       54.567,  -28.530,   -8.788,   30.174,  -29.087,   -5.672,   20.029,
      -20.263,   28.665,  -18.155,   15.233,   12.536,   -5.236,  -32.447,
      -15.920,  -18.841,   -7.774,  -30.119,  -18.229,    3.889,   29.860,
       20.575,   49.284,    6.220,  -37.801,   11.456,   18.288,   -8.766,
        8.796,   25.180,    3.517,  -26.422,   35.909,  -42.385,   -7.175,
      -25.242,  -31.620,   16.489,   21.778,  -28.074,   42.134,    2.140,
        2.586,    8.679,   48.626,   -8.662,   49.206,    3.224,  -16.330,
       36.448,   -0.126,   -2.899,  -20.471,  -32.702,   38.341,   16.086,
       37.120,  -17.280,  -32.163,  -29.051,  -57.033,   17.583,    1.672,
       10.552,    5.897,   20.373,  -46.720,    5.796,    9.945,   15.371,
       12.045,   10.809,    3.140,   -6.120,   -6.824,   44.878,   22.626,
       26.960,  -16.558,   -1.213,    9.806,  -35.953,  -27.135,   11.564,
      -26.115,   83.449,   -6.894,  -52.257,   10.472,   34.895,   30.313,
       -6.513,  -14.620,   15.516,  -10.496,    5.400,  -41.933,  -26.911,
       30.450,  -59.881,   36.939,    0.784,   17.408,  -15.330,   15.558,
      -14.036,   11.816,  -28.246,   40.122,   -3.305,   -4.832,  -23.148,
       43.519,  -26.884,    4.524,   27.505,   23.694,  -17.549,  -49.737,
       31.573,  -57.172,  -24.665,   37.424,   -0.206,    7.626,  -21.452,
       -0.119,   -8.068,   -5.406,    6.655,    3.088,  -12.851,   -6.491,
        0.700,   29.567,  -26.247,   36.098,  -14.808,  -17.401,  -45.876,
        2.452,   -8.093,    0.279,    6.868,  -19.098,   -1.912,    4.779,
      -45.708,   13.135,   20.393,   72.141,    6.294,    4.862,   -3.043,
       -5.119,  -11.644,   -3.704,   -6.753,   15.849,    2.881,   -2.269,
        1.366,  -22.243,   14.226,   15.874,  -28.391,    4.461,   36.158,
      -16.079,   42.932,    0.569,  -27.574,   38.566,    6.075,  -16.934,
       31.977,  -30.836,  -43.268,   -4.118,    0.444,   11.165,  -44.429,
       27.760,   30.869,    2.654,  -11.088,  -40.841,   19.787,    1.898,
        8.897,   -1.953,  -15.353,   -0.206,  -52.014,   25.703,   -6.919,
       20.365,   19.541,   29.103,   30.045,  -17.033,   27.365,   34.662,
        7.022,   21.256,  -46.441,  -10.078,   -2.835,   25.689,  -24.497,
       37.652,   57.419,   -9.461,    6.938,  -62.237,   10.164,   22.867,
       52.580,   29.072,  -30.896,    3.941,    1.208,  -19.684,   17.929,
        5.455,  -18.176,  -10.399,   -8.756,   15.086,   -8.818,   29.231,
        9.643,    4.224,  -16.594,   45.571,   36.204,   13.823,   26.981,
        3.780,   37.240,   -6.158,  -23.985,   -7.280,   17.349,  -76.577,
       29.092,  -48.838,   51.970,  -37.978,  -20.713,   11.738,   18.790,
       25.866,   18.770,   -9.831,  -36.930,   14.577,  -11.134,   13.553,
        4.317,   31.682,    9.961,  -11.107,  -31.272,   23.898,  -43.027,
      -13.068,    1.403,  -43.157,    6.374,   21.489,   -9.398,  -13.058,
        1.662,  -17.541,  -70.421,  -23.788,  -28.157,   16.713,   23.305,
       -7.480,  -53.389,   32.113,   -5.700,   50.429,   34.605,  -18.154,
        7.177,  -33.792,   11.601,   54.147,  -22.193,  -46.700,   -6.947,
      -12.698,   10.243,   -8.914,   15.330,   63.793,    1.350,  -20.408,
       71.779,   -3.205,   40.126,    4.800,  -14.692,  -13.780,   -8.811,
       26.018,   31.824,  -12.683,  -11.172,  -22.954,  -11.087,  -48.343,
      -36.361,  -36.060,   13.726,   34.556,   11.015,   25.154,   10.505,
        2.493,   -5.931,   -5.634,   15.344,  -11.130,   12.393,  -14.110,
      -11.216,   -7.078,  -12.179,  -39.650,   12.925,   46.432,  -13.593,
        4.436,    8.214,   -0.434,   22.347,   -8.927,  -28.722,  -36.778,
        5.793,    3.990,   -7.515,   -4.564,    7.496,   29.029,   17.978,
      -23.567,  -10.461,    6.984,    1.548,    4.853,   -3.658,  -56.155,
       12.434,   19.363,  -38.004,  -18.072,   10.491,  -21.499,   16.754,
       26.252,   51.763,    2.501,    2.457,   13.900,   76.172,  -27.153,
       -8.876,    7.501,  -21.116,   20.428,   19.044,   -6.171,   -8.972,
       23.449,   58.789,    0.325,  -13.054,   -6.900,   17.575,    0.795,
      -82.530,   30.095,   11.015,   23.624,   36.379,  -13.099,  101.621,
       -2.157,    1.299,   11.318,    8.854,   -9.312,    0.234,    0.648,
        7.993,    3.984,    1.812,   -0.479,    8.582,    6.386,  -27.208,
       -2.566,   -8.484,  -98.318,   17.106,   25.285,   19.051,   -1.883,
        9.542,   25.038,  -11.132,  -17.254,  -10.063,   -8.221,    3.720,
      -17.228,  -10.582,   12.230,   63.976,   27.003,   13.427,  -23.223,
      -27.723,   14.564,   26.505,   14.606,    6.554,   49.343,  -53.827,
      -11.456,   19.797,   -0.976,   -4.186,   -1.557,  -34.248,   -3.082,
       33.982,   -9.521,   -6.394,  -14.456,   14.351,   16.765,  -11.212,
       13.911,    4.818,   33.295,   -0.249,    9.801,    9.441,  -34.691,
      -18.019,  -18.177,    5.871,  -36.544,  -24.676,    6.796,    0.231,
      -12.412,   -1.210,   -0.735,   -0.612,   -0.801,    0.873,   -0.480,
        0.518,   -0.724,   -0.673,    0.757,    0.765,    0.585,   -0.558,
        1.098,   -0.676,    0.522,   -0.671,    0.767,   -0.774,   -0.703,
       -0.656,    0.644,    0.972,    0.587,   -0.618,    0.650,    0.677,
        1.239,    0.705,   -0.591,    0.711
    },
    {  32.542,  -66.694,    2.359,   -6.103,   43.095,    8.678,  -30.154,
       -4.752,   35.895,  -15.485,   17.127,  -49.633,    0.769,   12.458,
      -30.624,   -4.546,  -40.281,    4.803,   36.077,   15.081,   -6.165,
       12.406,  -10.164,  -10.616,   37.171,  -44.698,   53.352,   11.738,
       -3.690,   10.834,   -2.811,   -4.354,   40.139,   10.335,   11.580,
       58.277,   36.917,    1.607,   43.274,   26.097,   22.186,   27.722,
        9.788,  -41.383,   32.717,  -28.896,  -29.821,  -16.239,   23.001,
       15.898,   -0.890,  -56.705,   -3.152,   27.018,   36.596,   25.004,
        2.773,  -13.113,  -22.325,   28.256,    4.237,  -19.747,   36.330,
      -15.372,   14.129,   19.275,   33.508,  -18.748,  -25.639,    2.528,
       21.031,   18.694,  -15.489,  -40.478,   -2.004,  -39.000,  -30.266,
       59.360,  -30.040,   -3.781,   31.451,  -36.384,   -9.080,   20.616,
      -25.860,   41.081,  -19.769,   15.322,   11.411,  -12.416,  -28.957,
      -14.677,  -20.940,   -4.892,  -18.523,  -20.381,    6.097,   22.515,
       18.030,   50.308,   10.467,  -30.469,    8.853,   17.093,  -14.108,
       10.727,   25.521,    1.903,  -22.733,   38.614,  -40.136,   -5.682,
      -19.747,  -30.054,   16.038,   17.975,  -29.441,   42.059,    2.268,
        3.052,   10.567,   57.827,  -16.462,   45.750,    3.858,  -14.237,
       31.539,   -0.978,   -3.130,  -16.737,  -27.819,   34.035,   14.804,
       35.120,  -13.928,  -27.005,  -26.955,  -50.944,   16.721,    1.597,
       11.611,    8.746,   21.576,  -43.788,    5.284,   13.168,   12.787,
       10.667,   11.513,    5.798,   -6.569,   -5.041,   52.484,   25.249,
       30.477,  -15.617,   -0.989,    5.114,  -41.741,  -28.443,   12.204,
      -28.667,   89.199,   -6.928,  -51.912,   11.558,   40.146,   29.362,
       -9.854,  -16.458,   14.697,   -8.574,    3.037,  -43.041,  -25.225,
       34.740,  -64.672,   37.680,    1.956,   17.257,  -13.294,   18.088,
      -10.496,   14.681,  -26.237,   35.199,   -2.328,   -3.279,  -23.304,
       41.154,  -25.560,    4.486,   27.218,   28.567,  -14.399,  -59.623,
       32.502,  -57.172,  -20.553,   41.653,   -1.287,    6.265,  -21.472,
       -0.577,   -4.511,   -2.278,    4.675,    3.525,  -16.071,   -2.836,
       -1.411,   33.153,  -20.127,   35.974,  -11.915,  -18.098,  -50.248,
        4.492,   -9.629,    0.797,    7.049,  -20.063,   -1.702,    4.313,
      -49.238,   12.405,   23.237,   78.990,    7.436,    5.710,   -3.289,
       -5.162,  -10.772,   -5.942,   -6.916,   14.170,    4.152,   -3.157,
        4.706,  -25.941,   11.924,   15.943,  -26.504,    6.401,   32.350,
      -17.164,   47.201,   -3.474,  -22.211,   43.483,    4.851,  -16.723,
       34.948,  -29.385,  -38.189,   -5.574,   -1.737,    7.526,  -41.315,
       19.949,   32.273,    4.466,   -8.910,  -43.713,   18.820,    2.268,
       16.282,   -4.691,  -17.407,    2.443,  -55.068,   24.644,    0.911,
       21.400,   13.718,   27.778,   32.187,  -20.360,   28.639,   33.820,
        9.311,   21.197,  -49.341,  -12.168,   -4.769,   25.518,  -27.573,
       43.360,   61.421,  -11.085,    2.776,  -61.074,   11.045,   19.738,
       53.990,   27.433,  -27.083,    2.550,    0.002,  -15.797,   18.525,
        7.083,  -21.617,   -9.830,  -13.901,   19.907,  -14.782,   19.355,
       15.747,    4.642,  -13.357,   38.549,   39.316,   14.587,   22.156,
        5.114,   35.840,   -5.511,  -22.511,  -19.604,   20.888,  -69.848,
       22.928,  -45.774,   45.183,  -30.717,  -19.865,    3.982,   13.207,
       25.953,   13.638,   -5.214,  -31.660,    9.847,   -9.874,    8.960,
        0.534,   27.932,   12.915,   -6.711,  -25.146,   15.292,  -42.220,
      -10.628,   -2.304,  -42.899,    6.869,   21.630,  -13.041,  -13.778,
       -1.123,  -16.981,  -71.948,  -19.388,  -27.514,   15.038,   24.968,
      -10.372,  -50.259,   31.063,   -2.140,   52.375,   32.631,  -18.428,
        8.559,  -30.186,   11.141,   56.647,  -21.653,  -49.076,   -6.026,
      -14.434,    7.975,   -2.240,   13.609,   62.131,    1.562,  -25.237,
       66.596,   -1.252,   33.897,    5.005,  -15.404,  -14.495,   -7.892,
       19.093,   32.370,  -13.876,  -11.961,  -20.438,  -11.324,  -50.471,
      -27.038,  -36.119,   14.051,   35.912,   10.281,   27.478,    9.495,
        1.282,   -3.956,   -9.897,   18.254,  -13.367,   22.003,  -21.618,
       -9.776,   -7.418,  -13.944,  -41.469,   10.856,   54.083,  -19.714,
        6.324,    8.983,    0.416,   27.064,   -9.980,  -34.978,  -47.174,
        8.146,    5.991,   -9.276,   -9.583,   12.761,   37.830,   21.031,
      -27.791,  -14.453,    5.337,   -1.834,    6.056,   -0.531,  -56.229,
       13.466,   19.142,  -39.361,  -18.303,    9.480,  -18.773,   18.910,
       28.938,   50.704,    1.115,    3.010,   26.383,   76.802,  -27.846,
       -8.424,    3.971,  -18.756,   18.459,   14.724,   -3.845,   -7.114,
       22.287,   50.307,    0.033,  -11.814,   -5.751,   15.385,    0.789,
      -69.454,   21.484,   10.633,   22.217,   37.743,  -13.557,   94.001,
        1.909,   -1.514,    9.494,    5.645,   -5.222,    4.875,   -0.635,
        7.058,    6.233,    1.488,   -1.205,    6.860,    8.371,  -23.343,
       -3.012,   -4.963,  -89.384,   18.276,   27.887,   21.161,   -0.922,
       11.118,   25.956,  -11.280,  -17.235,   -8.844,   -8.712,    4.808,
      -21.305,  -11.409,   10.717,   71.252,   28.430,   13.706,  -24.860,
      -31.330,    8.103,   28.824,   12.513,   13.789,   46.237,  -59.347,
      -20.760,   20.948,   -3.309,   -7.475,    3.950,  -36.885,    5.611,
       30.333,  -15.701,   -7.746,  -13.500,   10.426,   14.324,   -8.203,
       13.852,    1.331,   31.234,   -0.651,    9.411,    2.676,  -28.779,
      -22.812,  -13.566,    8.124,  -40.321,  -19.431,    3.016,    3.710,
       -9.744,   -1.307,   -0.615,   -0.589,   -0.823,    0.767,   -0.512,
        0.444,   -0.741,   -0.651,    0.769,    0.826,    0.633,   -0.605,
        1.141,   -0.672,    0.403,   -0.665,    0.859,   -0.770,   -0.682,
       -0.561,    0.698,    1.003,    0.604,   -0.612,    0.646,    0.604,
        1.155,    0.710,   -0.439,    0.713
    },
    {  31.766,  -71.033,    4.125,  -10.415,   39.159,    8.526,  -33.764,
       -8.739,   35.094,  -12.191,   11.766,  -50.708,    0.499,   15.167,
      -32.544,    0.800,  -35.681,    9.248,   38.280,   15.517,  -10.740,
       16.259,  -11.336,  -12.365,   37.067,  -47.540,   54.824,   12.105,
       -4.225,   10.145,    3.108,   -6.104,   43.470,   11.852,   12.199,
       62.686,   28.387,   -0.198,   35.179,   21.852,   18.347,   25.052,
        7.665,  -40.198,   28.730,  -25.896,  -27.493,  -10.941,   21.655,
        2.662,    0.203,  -52.445,    1.269,   25.378,   35.740,   24.255,
        2.033,  -12.931,  -22.230,   30.038,    4.628,  -18.194,   34.882,
      -13.555,   14.190,   19.397,   32.993,  -16.892,  -27.676,    0.401,
       21.137,   16.134,  -14.641,  -36.775,   -4.754,  -38.741,  -31.102,
       62.968,  -29.015,    0.124,   28.479,  -33.535,  -11.996,   19.568,
      -24.146,   45.298,  -26.259,   11.710,    9.120,   -8.836,  -25.066,
      -15.854,  -22.106,   -3.735,  -25.108,  -11.121,    7.345,   26.395,
       16.686,   42.000,    6.591,  -26.314,   10.372,   15.546,   -7.481,
        5.347,   17.282,    5.575,  -27.164,   33.447,  -44.295,   -6.283,
      -19.436,  -33.414,   16.189,   21.161,  -31.144,   44.089,    5.513,
        6.267,    7.868,   63.746,  -18.796,   54.624,    3.545,  -17.669,
       27.305,   -1.138,   -4.325,  -17.007,  -27.450,   32.696,   13.171,
       30.151,  -13.248,  -25.770,  -22.703,  -45.164,   13.227,   -3.929,
       10.013,    2.630,   16.489,  -38.522,    4.301,   14.348,   14.318,
       11.714,   13.334,    5.732,   -7.498,   -7.513,   54.883,   28.113,
       34.479,  -17.496,   -0.103,    5.686,  -44.026,  -28.405,   15.037,
      -32.142,   85.380,   -8.537,  -53.209,   12.224,   35.135,   30.356,
       -9.808,  -16.575,   16.941,   -6.328,    1.027,  -46.042,  -23.752,
       30.468,  -62.716,   42.965,    5.440,   17.574,  -13.159,   18.724,
       -8.570,   14.902,  -31.559,   31.014,    1.052,   -3.489,  -24.441,
       42.149,  -25.236,    5.494,   28.782,   22.573,   -9.109,  -56.540,
       36.260,  -60.341,  -26.581,   46.388,   -3.985,    8.938,  -23.493,
       -1.838,   -7.804,   -4.639,    6.013,    5.389,  -21.074,   -1.461,
       -3.904,   34.070,  -22.538,   39.100,  -15.603,  -19.625,  -49.613,
        2.052,   -8.910,    1.722,    7.537,  -23.094,   -0.166,    7.446,
      -49.205,   14.910,   23.953,   81.521,    5.057,    3.966,    1.212,
       -6.017,  -12.082,   -4.559,   -9.426,    9.301,    3.765,   -0.875,
        6.960,  -23.539,   14.835,   14.638,  -30.160,    6.583,   36.482,
      -16.465,   48.004,   -5.182,  -25.969,   43.705,    3.653,  -14.942,
       31.442,  -34.659,  -38.453,   -2.784,   -5.182,    5.430,  -44.808,
       20.280,   29.827,    5.417,  -11.717,  -40.466,   23.231,   -5.496,
       20.034,   -0.822,  -12.098,    9.386,  -54.094,   28.409,   -4.387,
       21.050,   18.449,   31.590,   32.796,  -20.120,   28.314,   32.883,
        6.809,   21.413,  -48.792,  -17.616,   -4.754,   19.792,  -27.107,
       42.628,   66.483,  -14.895,    0.954,  -65.750,   12.106,   23.070,
       58.228,   30.344,  -28.883,    5.153,   -1.447,  -17.394,   19.659,
        5.955,  -20.777,   -9.841,  -12.238,   19.580,  -16.485,   16.701,
       14.825,    3.209,  -14.469,   37.078,   35.746,   13.091,   24.580,
        8.428,   33.569,   -8.513,  -21.430,  -18.509,   21.328,  -70.510,
       19.223,  -38.587,   38.934,  -29.847,  -13.644,    6.529,   10.943,
       22.424,   12.391,   -7.785,  -31.753,    9.590,   -7.649,    8.749,
        0.975,   25.346,    1.778,  -10.378,  -26.008,   20.713,  -36.545,
       -9.619,   -4.253,  -42.836,    8.712,   23.679,  -12.077,  -11.627,
        2.068,  -15.566,  -65.739,  -16.718,  -23.544,   18.272,   21.294,
       -9.963,  -45.116,   25.859,   -1.217,   53.259,   33.578,  -19.135,
        6.074,  -30.290,   11.421,   53.647,  -21.740,  -47.091,   -7.743,
      -13.923,    8.812,   -0.325,   11.939,   59.798,    4.386,  -23.737,
       70.858,    0.502,   39.885,    7.926,  -14.754,  -16.938,   -8.011,
       18.436,   34.724,  -13.918,  -11.874,  -24.150,   -9.090,  -56.282,
      -32.241,  -39.812,   15.447,   41.029,   11.237,   30.160,   10.994,
        3.513,   -1.895,   -7.272,   21.045,  -15.309,   21.930,  -19.456,
       -9.616,  -10.241,  -16.069,  -55.100,   16.195,   58.232,  -21.749,
        6.797,   10.791,   -0.845,   31.052,  -12.308,  -38.509,  -56.190,
       11.187,    2.844,  -12.511,   -8.515,   11.726,   46.495,   24.418,
      -27.797,  -24.450,    8.398,   -0.530,   10.177,   -1.844,  -54.587,
       14.612,   19.343,  -38.869,  -22.923,    8.788,  -20.668,   20.430,
       26.846,   49.084,    0.632,   -0.621,   19.240,   71.605,  -28.801,
       -6.080,    4.422,  -18.125,   16.222,   15.516,   -5.664,   -8.087,
       22.405,   52.286,    0.649,  -11.577,   -5.880,   17.654,    1.550,
      -70.854,   20.966,    7.136,   20.119,   33.636,  -10.402,   87.282,
       -0.094,   -2.778,    9.733,    2.810,   -4.294,    4.650,    1.190,
        7.391,    6.691,   -0.393,   -1.485,    6.378,    5.177,  -23.497,
       -2.513,   -2.857,  -85.293,   19.292,   24.856,   22.296,    0.151,
       13.462,   26.396,  -11.091,  -21.533,  -12.525,   -9.861,    3.052,
      -18.526,  -13.591,   17.424,   65.375,   29.901,   16.541,  -27.023,
      -31.254,   14.555,   28.075,   12.899,    1.160,   51.950,  -56.962,
      -21.365,   24.114,   -4.608,    1.858,    2.992,  -39.782,   10.938,
       24.600,  -19.848,   -9.984,  -12.245,   11.730,   14.312,  -11.148,
       12.206,    5.541,   33.528,   -1.758,    8.610,    4.191,  -31.107,
      -21.883,  -16.745,    5.489,  -42.005,  -15.367,    2.969,    1.899,
       -8.809,   -1.502,   -0.671,   -0.632,   -0.748,    0.839,   -0.487,
        0.507,   -0.772,   -0.737,    0.813,    0.917,    0.624,   -0.598,
        1.180,   -0.673,    0.601,   -0.716,    0.846,   -0.738,   -0.594,
       -0.511,    0.707,    0.851,    0.596,   -0.500,    0.635,    0.702,
        1.232,    0.701,   -0.567,    0.765
    },
    {  28.396,  -77.014,    3.220,   -4.738,   43.474,    7.201,  -31.169,
       -2.845,   37.355,  -16.836,   19.574,  -50.208,    0.732,    4.724,
      -27.075,   -1.174,  -42.192,    9.391,   37.450,   21.196,   -9.164,
       18.948,  -15.134,  -14.717,   41.072,  -50.132,   61.803,   11.268,
      -10.157,    9.935,   -4.411,   -5.358,   39.522,   14.937,   17.494,
       64.115,   28.307,    1.148,   37.585,   23.364,   17.773,   24.867,
        6.413,  -36.737,   28.226,  -27.142,  -31.553,  -10.777,   21.020,
        1.079,    1.270,  -49.137,    4.768,   20.193,   31.807,   21.453,
        4.838,  -12.091,  -18.868,   24.929,    3.895,  -19.101,   30.171,
      -12.472,   11.980,   19.108,   29.676,  -16.129,  -23.780,    4.730,
       18.994,   15.084,   -8.669,  -41.235,   -0.168,  -42.638,  -28.341,
       64.322,  -32.205,    0.178,   28.411,  -34.018,   -8.997,   25.641,
      -21.657,   51.747,  -25.974,   17.022,   14.778,  -15.846,  -18.536,
      -13.154,  -13.268,   -3.947,  -19.226,  -14.624,    3.570,   18.016,
       13.946,   31.898,    1.364,  -21.654,    9.379,   14.086,   -3.635,
        5.882,   13.861,    6.686,  -31.209,   41.479,  -47.942,   -9.535,
      -25.345,  -34.420,   18.037,   17.056,  -33.737,   49.136,    5.939,
        2.890,    8.174,   63.209,  -18.142,   57.891,    3.123,  -16.130,
       28.754,   -1.683,   -3.521,  -13.185,  -25.173,   32.778,   13.175,
       28.685,  -17.332,  -24.099,  -21.100,  -43.301,   14.738,    2.047,
        6.146,    4.354,   14.433,  -33.684,    1.640,   14.902,   18.107,
       14.108,   12.768,    3.364,   -6.181,   -8.421,   57.408,   30.523,
       36.009,  -17.706,   -2.516,   11.638,  -54.909,  -29.735,   14.979,
      -37.693,   84.693,   -3.523,  -53.950,   11.760,   30.981,   30.782,
       -8.828,  -11.500,   15.852,  -10.026,    5.091,  -42.202,  -26.245,
       34.829,  -60.339,   38.494,    2.319,   17.367,  -11.179,   14.402,
      -10.084,   14.637,  -28.445,   36.264,   -3.337,   -0.330,  -24.850,
       40.494,  -27.829,    7.917,   28.082,   29.325,   -0.003,  -56.662,
       31.833,  -60.043,  -30.289,   51.160,   -3.382,   10.804,  -25.802,
       -4.763,  -11.372,   -7.090,    5.661,    5.504,  -17.048,   -4.917,
       -0.861,   38.658,  -26.539,   45.049,  -10.842,  -28.291,  -52.051,
        5.418,   -7.665,    1.071,    6.469,  -25.181,   -3.809,    4.425,
      -52.576,   16.196,   22.411,   82.619,    6.453,    5.392,   -1.904,
       -4.772,  -11.104,   -5.148,   -7.785,   13.692,    4.440,   -4.565,
        5.664,  -25.602,   10.893,   17.346,  -25.886,    6.251,   35.335,
      -20.543,   49.067,   -2.933,  -23.560,   44.223,    1.944,  -17.093,
       31.956,  -31.933,  -41.373,   -5.158,   -1.665,    2.685,  -44.379,
       20.827,   31.888,    3.031,  -12.718,  -40.550,   24.247,    0.152,
       20.785,    1.908,  -12.684,    9.163,  -50.249,   22.012,   -4.742,
       18.414,   17.517,   27.316,   29.364,  -20.224,   28.813,   30.363,
        5.223,   21.232,  -46.123,  -12.983,    0.344,   16.199,  -26.964,
       43.293,   69.643,   -6.135,    3.961,  -68.980,    7.784,   25.467,
       58.505,   32.247,  -30.610,    0.748,   -1.612,  -19.788,   21.096,
       -3.089,  -13.475,   -8.031,   -7.295,   15.405,  -12.120,   14.512,
       14.321,    4.449,  -15.489,   36.093,   33.328,   14.820,   20.893,
        8.133,   28.923,   -8.089,  -17.422,  -13.373,   22.970,  -64.717,
       18.737,  -36.552,   44.376,  -34.965,  -20.019,    7.072,    9.191,
       31.535,   14.746,   -7.674,  -32.681,   15.169,   -9.194,    3.182,
       -0.203,   15.359,   11.619,   -9.816,  -29.132,   20.050,  -40.469,
       -6.741,   -1.445,  -41.155,    0.392,   16.229,  -13.016,   -4.643,
        3.294,  -16.350,  -65.791,  -16.725,  -19.963,    8.217,   18.060,
       -2.980,  -39.840,   17.946,   -2.748,   45.192,   33.976,  -18.523,
        6.020,  -29.930,    9.055,   51.809,  -22.291,  -41.792,   -8.590,
      -10.864,    7.282,   -7.348,   17.666,   53.365,    2.877,  -21.526,
       81.796,   -2.375,   47.020,    9.287,  -18.088,  -26.258,   -8.904,
       21.150,   41.327,  -16.545,  -10.890,  -25.417,  -12.680,  -59.246,
      -37.323,  -39.491,   18.424,   43.437,   18.165,   39.241,   13.313,
        1.421,   -5.077,   -8.108,   25.705,  -14.216,   23.948,  -27.560,
      -14.835,  -13.564,  -20.394,  -57.695,   18.035,   70.390,  -24.901,
        7.993,   12.110,   -3.129,   43.079,  -14.801,  -53.630,  -67.232,
       11.901,   10.098,  -15.882,  -10.559,    8.717,   53.963,   29.844,
      -36.435,  -28.193,   15.595,    1.717,    7.523,   -0.364,  -52.740,
        6.921,   22.521,  -35.557,  -15.832,   10.354,  -17.248,   16.642,
       24.299,   49.503,    4.788,    1.180,   15.710,   73.534,  -26.799,
       -6.478,    4.062,  -18.314,   18.734,   19.883,   -7.135,  -11.744,
       18.662,   48.494,   -0.170,  -12.271,   -0.058,   14.961,    4.806,
      -69.508,   25.137,    7.400,   20.319,   32.578,  -11.667,   71.613,
       -1.341,   -2.673,    8.117,    6.897,   -3.675,    3.266,   -1.761,
        5.036,    4.806,    1.322,   -0.625,    6.072,    5.769,  -19.708,
       -2.444,   -4.231,  -67.462,   18.605,   25.913,   20.097,   -1.427,
       11.945,   27.863,  -14.297,  -19.907,  -11.297,   -9.294,    3.175,
      -19.574,  -11.281,   11.007,   75.720,   30.677,   17.863,  -27.087,
      -25.599,   18.468,   29.689,   10.822,    8.587,   51.318,  -65.178,
      -24.006,   28.762,   -8.842,   -2.162,   -3.332,  -40.026,   24.814,
       18.248,  -24.193,   -7.332,   -9.984,   13.555,   20.196,  -15.265,
       14.924,    5.790,   39.502,   -1.156,   11.058,    5.916,  -36.400,
      -24.314,  -19.683,    7.099,  -41.488,  -26.699,    5.945,    3.351,
      -13.884,   -1.583,   -0.693,   -0.683,   -0.786,    0.872,   -0.570,
        0.616,   -0.825,   -0.667,    0.889,    0.914,    0.690,   -0.580,
        1.154,   -0.728,    0.563,   -0.740,    0.802,   -0.819,   -0.708,
       -0.589,    0.701,    1.078,    0.720,   -0.565,    0.709,    0.750,
        1.296,    0.731,   -0.578,    0.823
    },
    {  27.292,  -81.706,    0.540,   -8.212,   46.630,    7.345,  -31.849,
       -8.928,   37.754,  -14.984,   22.471,  -47.368,   -0.521,    1.806,
      -34.856,   -5.601,  -46.447,   14.683,   41.835,   21.338,   -5.190,
       18.073,  -12.618,  -17.126,   39.055,  -48.937,   56.222,   10.590,
       -6.886,   12.314,   -1.228,  -10.323,   39.817,   12.647,   13.508,
       67.873,   32.713,    1.362,   42.830,   21.675,   18.289,   26.716,
        7.210,  -41.704,   29.552,  -31.315,  -29.109,  -12.653,   21.871,
       15.533,    1.610,  -54.169,    1.191,   26.149,   28.836,   19.828,
        2.621,  -11.649,  -17.416,   24.951,    4.449,  -18.635,   30.877,
      -11.451,   11.064,   14.334,   30.744,  -13.210,  -29.455,    5.112,
       21.890,   13.867,  -13.538,  -42.619,   -2.754,  -54.919,  -26.108,
       68.618,  -37.241,    4.625,   34.217,  -40.575,   -9.631,   29.581,
      -26.918,   52.665,  -30.060,   17.822,   17.409,  -19.817,  -19.497,
      -14.295,  -15.439,   -7.165,  -15.137,  -14.653,    2.571,   16.763,
       13.028,   33.058,    7.244,  -21.314,    7.203,   12.357,   -7.460,
        3.708,   13.538,    5.752,  -30.066,   43.569,  -49.387,   -7.462,
      -28.380,  -37.813,   20.398,   18.405,  -35.849,   53.381,    3.400,
        4.849,   11.173,   73.746,  -15.986,   53.080,   -0.357,  -17.653,
       24.542,   -1.447,   -5.831,  -16.740,  -24.507,   29.284,    9.230,
       25.122,  -16.417,  -23.772,  -21.870,  -37.240,   16.539,   -3.087,
        5.500,    7.363,   20.133,  -34.789,    5.397,   15.820,   20.871,
       13.740,   15.833,    4.375,   -6.265,   -8.417,   60.091,   33.205,
       37.125,  -22.301,   -1.240,   17.007,  -60.082,  -35.282,   17.832,
      -38.194,   80.615,   -6.197,  -48.380,   10.735,   34.203,   31.623,
       -6.857,  -16.029,   17.332,   -5.450,    7.334,  -48.001,  -26.064,
       30.816,  -63.926,   39.785,    1.971,   15.191,  -13.921,   11.267,
       -9.046,   12.149,  -29.198,   33.557,   -1.202,   -3.596,  -22.633,
       38.797,  -23.594,    5.147,   25.040,   23.563,   -5.695,  -49.995,
       30.571,  -56.155,  -31.546,   54.105,   -4.159,   10.288,  -30.784,
       -5.774,  -15.010,   -3.704,    6.681,    6.146,  -24.144,   -6.557,
       -5.573,   44.420,  -28.563,   44.327,  -14.224,  -27.255,  -51.880,
        4.704,   -5.104,   -0.390,    8.144,  -26.558,   -3.096,    3.519,
      -52.958,   16.496,   22.571,   80.808,    5.497,    5.095,   -4.695,
       -5.768,  -12.516,   -4.219,  -10.591,   12.405,   -0.822,   -0.995,
        5.905,  -22.119,   15.405,   18.076,  -30.580,    4.089,   40.377,
      -17.838,   49.243,   -7.027,  -28.285,   49.991,    4.125,  -19.287,
       29.335,  -21.775,  -39.862,   -7.654,    0.433,    3.582,  -42.399,
       16.687,   25.311,    3.120,   -8.811,  -29.260,   18.166,   -8.377,
       25.788,    0.952,   -7.857,   -0.531,  -46.687,   24.542,   -3.869,
       17.397,   20.625,   24.021,   30.071,  -21.687,   28.885,   30.651,
        2.357,   21.140,  -45.506,  -10.551,   -6.095,   16.249,  -24.780,
       41.316,   67.393,   -5.631,    5.771,  -65.548,    4.914,   20.204,
       59.717,   35.612,  -26.146,    1.702,   -2.732,  -21.711,   16.553,
       -4.488,  -14.981,   -1.153,   -4.687,   11.928,  -12.605,   10.950,
        8.335,    3.581,  -10.153,   30.016,   27.448,    9.044,   17.822,
        6.871,   25.675,   -4.361,  -16.832,  -16.752,   19.759,  -53.429,
       12.336,  -29.149,   55.195,  -44.643,  -20.435,   10.819,   15.112,
       36.245,   18.913,   -9.788,  -42.296,   17.499,  -11.538,    3.346,
       -0.331,   33.018,    5.631,   -7.985,  -34.479,   25.126,  -37.539,
       -9.139,   -3.682,  -36.011,    7.093,   15.700,   -9.356,  -13.994,
        4.724,  -13.251,  -61.200,  -15.949,  -18.939,   18.277,   18.144,
       -4.504,  -37.268,   23.283,   -4.592,   41.257,   25.719,  -18.975,
        7.202,  -22.387,   10.485,   52.814,  -17.670,  -42.123,   -9.445,
      -13.571,    8.951,   -5.055,   15.596,   53.258,    0.718,  -22.429,
       84.682,  -10.345,   44.675,    8.017,  -14.612,  -22.937,   -6.263,
       27.231,   42.234,  -13.604,  -17.910,  -26.051,  -15.655,  -58.195,
      -32.224,  -47.418,   15.666,   45.341,   14.131,   37.035,   13.103,
        0.696,   -6.283,   -7.473,   25.751,  -13.428,   25.061,  -25.894,
      -14.720,  -14.892,  -20.061,  -64.527,   19.304,   72.343,  -23.086,
        5.493,   14.104,   -0.253,   47.864,  -11.120,  -52.612,  -70.847,
       10.653,    7.638,  -15.180,   -7.433,    9.874,   49.767,   33.655,
      -35.842,  -34.094,   12.604,    2.104,   10.315,   -0.791,  -48.181,
       13.932,   20.072,  -37.955,  -15.536,    8.133,  -15.230,   16.116,
       25.257,   49.442,    1.298,    1.766,   17.263,   66.718,  -24.098,
       -7.512,    2.229,  -13.002,   18.499,   15.320,   -5.671,   -8.296,
       17.117,   42.097,    0.192,   -9.367,   -2.766,   12.053,    1.663,
      -59.062,   16.108,   17.072,   16.041,   31.242,  -12.490,   60.050,
       -2.356,   -2.011,    6.048,    6.903,   -2.785,    2.712,   -2.493,
        3.334,    3.493,    0.502,    0.310,    4.231,    3.979,  -18.034,
       -3.151,   -3.888,  -56.581,   19.338,   30.033,   21.962,   -0.563,
       13.987,   30.258,  -14.390,  -22.600,  -13.464,  -13.415,   -0.429,
      -14.955,  -13.783,    8.708,   72.158,   31.356,   18.249,  -28.256,
      -35.867,   21.858,   27.028,   18.442,    7.598,   58.922,  -69.988,
      -22.602,   33.591,   -0.375,   -1.523,    3.004,  -47.819,   12.762,
