//-----------------------------------------------------------------------------
// Network: hzz4mu
// Inputs:
//                                                  Offset       Scale
//    ele1_pt                                    6.313e+01   3.127e+01
//    ele1_eta                                   1.405e-02   1.069e+00
//    ele1_phi                                   2.995e-03   1.807e+00
//    ele2_pt                                    4.208e+01   2.064e+01
//    ele2_eta                                   4.764e-02   1.109e+00
//    ele2_phi                                  -5.535e-02   1.806e+00
//    ele3_pt                                    2.680e+01   1.276e+01
//    ele3_eta                                  -9.231e-03   1.147e+00
//    ele3_phi                                   3.805e-02   1.824e+00
//    ele4_pt                                    1.585e+01   9.037e+00
//    ele4_eta                                   1.122e-02   1.200e+00
//    ele4_phi                                   3.361e-02   1.808e+00
//    worst_iso_X_ele                            4.358e-01   9.723e-01
//    second_worst_iso_X_ele                     1.375e-01   2.883e-01
//    worst_vertex                               5.904e+00   1.189e+01
//    second_worst_vertex                        1.978e+00   3.545e+00
//    mZ                                         8.907e+01   2.709e+01
//    mZstar                                     4.935e+01   3.187e+01
//    mbestH                                     1.751e+02   7.505e+01
//
// Created: Thu Jun 21 09:22:21 2012
//-----------------------------------------------------------------------------
#include <cmath>
#include <vector>
#include <iostream>
//-----------------------------------------------------------------------------
// Make following visible only to this programming unit
namespace nshzz4mu {
  // NOTE: Network indices start at 0
  static const int nnetworks=200;
  static const int ninputs  =19;
  static const int nhidden  =30;
  static const int nparams  =631;

  static const double mean[ninputs]={
  6.31300e+01,
  1.40500e-02,
  2.99500e-03,
  4.20800e+01,
  4.76400e-02,
 -5.53500e-02,
  2.68000e+01,
 -9.23100e-03,
  3.80500e-02,
  1.58500e+01,
  1.12200e-02,
  3.36100e-02,
  4.35800e-01,
  1.37500e-01,
  5.90400e+00,
  1.97800e+00,
  8.90700e+01,
  4.93500e+01,
  1.75100e+02
  };

  static const double sigma[ninputs]={
  3.12700e+01,
  1.06900e+00,
  1.80700e+00,
  2.06400e+01,
  1.10900e+00,
  1.80600e+00,
  1.27600e+01,
  1.14700e+00,
  1.82400e+00,
  9.03700e+00,
  1.20000e+00,
  1.80800e+00,
  9.72300e-01,
  2.88300e-01,
  1.18900e+01,
  3.54500e+00,
  2.70900e+01,
  3.18700e+01,
  7.50500e+01
  };

  static const double weight[nnetworks][nparams]={
    {  -0.332,    1.147,    6.583,   -0.521,   -2.802,    1.068,   -0.796,
       -2.235,    2.204,   -2.315,   -0.206,    1.917,   -0.597,   -3.503,
        7.856,   -5.911,    2.858,   -1.415,   -4.273,    0.170,    0.784,
       -1.341,    2.227,    0.620,   -0.725,   -7.242,   -1.616,    2.923,
       -2.696,   -0.658,   -5.053,   -1.992,   -0.389,   -0.852,   -0.412,
       -2.452,    0.226,    2.034,   -4.111,    5.437,   21.959,   -0.473,
       -2.314,   -0.999,    3.396,   -3.545,    1.157,    1.829,    1.010,
       -1.940,   -0.904,   -4.216,   -1.536,    4.567,    0.411,    2.195,
        2.500,    3.805,    1.842,    3.163,   10.132,    3.168,   -2.783,
       -1.159,    2.919,    0.536,   -6.791,   -1.864,   -0.482,    3.955,
        0.794,   -1.257,    2.398,    1.591,   -4.127,   -0.767,   -0.806,
        0.006,    1.084,   -6.837,   14.257,    2.488,    3.931,   -0.266,
       -0.484,    2.512,   -5.443,   -5.946,    1.801,   -0.218,   -3.060,
       -1.403,   -0.433,    1.324,    1.383,   -0.073,    4.235,   -3.585,
       -2.039,   -2.357,   -9.142,    2.117,    0.064,   -1.834,    1.427,
       -0.640,    0.419,   -7.446,    0.289,   -1.192,    1.096,   -3.068,
       -0.864,    2.707,   -1.248,    1.863,   -2.079,   -3.230,    0.510,
       -4.091,    1.655,    1.436,    1.345,   -0.187,   -1.624,   -7.328,
        1.094,   -3.763,    1.016,   -1.271,   -3.175,    2.187,   -0.737,
       -0.436,    1.767,   -1.311,   -1.071,   -0.325,   -0.778,    1.883,
       -1.901,    1.392,    3.700,    1.130,   -1.661,   -0.617,    0.045,
       -2.796,    3.772,   -3.626,   -0.834,    4.107,   -1.567,   -2.694,
       -0.858,   -2.972,    3.630,    4.912,   -3.670,   -0.842,    6.063,
        1.872,    3.661,   -4.007,    0.591,    0.092,   -1.628,   -6.790,
        0.533,   -0.269,    1.992,   -6.297,   -2.108,   -1.083,   -0.944,
        0.609,    0.166,   -3.575,    4.701,    1.514,    6.792,    2.523,
       -1.025,   -0.674,   -5.411,   -2.942,    1.021,    7.692,    1.117,
        1.019,    0.371,    2.082,    0.879,   -0.963,   -2.821,    6.350,
        3.952,   -6.717,    4.395,    3.880,   -0.370,    0.878,   -0.672,
       -0.593,    0.352,    1.387,   -1.696,    1.539,   -0.544,    0.774,
       -1.063,    1.095,    2.021,    3.221,    6.131,    6.767,    4.524,
       -1.381,    0.491,    7.372,    1.355,   -4.714,    0.277,    2.687,
       -0.508,   -1.972,    4.297,   -2.209,   -5.455,   -0.713,   -0.499,
       -1.821,   -1.498,    1.056,    1.067,    3.672,    1.515,    2.289,
       -1.219,   -0.435,    6.976,    0.286,   -1.043,    1.780,    3.719,
       -0.027,    0.204,   -3.355,    5.777,    0.138,   -0.854,   -4.249,
       -1.285,    1.053,    2.863,    3.375,   -4.620,    0.598,    0.195,
        5.260,    1.661,    6.024,   -5.740,    1.268,    3.152,    1.535,
        5.010,    2.093,   -4.541,   -2.198,   -3.341,   -0.538,   -4.558,
        0.893,    1.318,   -1.449,   -2.011,   -1.042,    3.309,   -1.570,
       -1.668,   -5.014,    0.441,    2.137,    0.139,    2.762,    1.921,
        2.499,   -1.431,   -1.317,   -7.821,    1.105,    2.475,    1.254,
       -0.787,    6.005,   -1.271,   -1.487,   -3.776,    1.746,    4.901,
       -0.799,    0.241,    2.562,    0.580,   -5.211,    4.299,    1.707,
       -0.155,    2.101,   -4.110,    3.838,   -4.032,   -3.123,   -5.698,
        7.535,    1.965,   -0.311,    1.369,    5.440,   -0.698,   -1.026,
        0.085,    2.850,    3.294,    1.996,   -2.000,   -2.081,    1.517,
       -0.503,    1.775,    0.812,   -1.791,   -1.372,    1.936,    1.302,
        5.670,    0.241,    5.122,    0.617,   -0.419,   -0.810,   -0.734,
       -4.977,   -0.684,   -0.912,   -3.112,   -1.805,    1.013,    0.895,
        3.653,    4.113,    2.724,    0.298,   -1.398,    2.145,   -1.741,
        1.257,    0.587,   -3.219,    6.844,   -3.006,   -0.905,    1.229,
        0.481,    2.839,   -4.400,    1.550,   -2.613,    5.116,    2.738,
        1.984,    0.747,   -0.278,    3.453,    5.610,   -1.906,   -2.217,
       -4.760,    0.507,   -2.272,    2.492,    0.087,    1.606,    1.406,
       -1.654,   -0.199,    0.571,   -0.684,   -3.188,    4.942,    3.750,
        1.340,    2.370,   -1.536,   -3.863,   -4.074,   -3.296,    0.897,
       -5.925,   -2.435,    0.802,    0.427,    1.534,   -4.501,   -1.059,
       -0.058,    2.991,    7.078,    1.630,    0.130,   -5.853,   -1.195,
        3.903,    4.229,   -7.778,    4.096,    1.809,   -1.473,   -1.086,
       -3.309,   -2.296,    1.476,    3.697,   -3.850,    0.085,   -2.147,
       -1.590,    0.052,   -1.713,   -3.177,   -1.995,    2.402,    0.228,
        0.643,   -0.142,   -0.777,    5.880,   -3.681,    3.552,  -11.320,
       -3.286,    1.758,    4.472,    1.871,    1.387,   -0.193,   -0.404,
       -2.598,    1.862,    1.745,   -0.204,   -4.468,   -2.340,    0.363,
        7.087,    0.614,    1.010,   -0.997,   -0.336,    7.107,   -5.547,
        0.279,    0.529,    1.861,    2.399,   -1.434,   -0.668,    0.067,
        3.095,    0.644,    1.280,    0.653,    1.824,   -5.199,   -0.428,
       -2.407,   -1.290,   -0.633,   -1.795,   -6.945,   -0.816,    0.827,
       -1.244,   -0.312,   -0.319,   -0.862,   -0.053,    0.816,   -6.231,
        4.727,    2.590,    3.607,    1.444,   -2.067,   -0.814,   -0.184,
        4.834,   -2.062,    0.999,   -4.808,    4.003,   -1.089,    3.172,
       -4.152,   -2.157,    5.516,    2.696,   -0.676,   -2.856,   -2.724,
       -1.180,   -4.465,    6.120,    3.584,    1.832,   -2.051,    1.716,
       -5.810,    0.906,  -16.195,   -1.510,    0.105,    0.589,   -1.988,
        2.639,   -1.234,    1.470,   -4.339,   -0.760,    4.310,   -0.237,
       -1.006,   -1.271,   -0.376,    1.561,   -0.479,   -0.200,    3.473,
       -3.655,    0.999,   -0.035,    0.035,    0.023,   -0.443,    0.033,
       -0.065,   -0.305,   -0.026,   -0.087,    0.078,   -0.063,   -0.136,
        0.834,    1.252,   -0.646,   -0.402,   -0.290,   -0.142,   10.159,
       -1.271,   -0.177,    0.189,   -1.514,   -0.009,    1.867,   -3.103,
       -1.172,   -1.780,   -0.720,   -2.606,   -0.499,    1.712,    1.493,
        0.662,    9.973,   -0.767,   -0.743,   -4.946,   -1.023,   21.936,
       -3.946,    0.967,   -4.096,    3.097,    3.585,   -2.608,   -0.455,
       -3.049,    1.642,    0.205,   -1.126,   -0.094,   -1.586,   -2.838,
       -2.357,    6.579,    3.509,    7.182,   -1.873,  -14.073,    1.305,
        0.898,    1.107,    0.681,    1.661,   -0.880,   -0.927,   -0.938,
       -1.453,   -1.695,   -5.990,   -0.753,   -2.024,    1.139,   -1.181,
       -1.427,   -0.528,   -0.290,   -1.527,    1.453,    1.490,   -0.911,
        1.806,   -1.169,   -1.059,   -1.183,   -4.044,   -7.402,   -1.586,
        2.125
    },
    {  -1.845,    2.252,    7.995,   -0.823,   -3.222,    0.945,   -1.159,
       -2.453,    3.214,   -3.083,    0.317,    2.195,   -0.792,   -3.568,
        3.015,   -6.233,    4.363,   -1.148,   -4.515,   -2.980,    1.395,
       -0.075,    0.358,    2.504,   -1.042,   -4.570,   -0.836,    2.830,
       -0.636,    0.225,   -1.562,   -2.802,    1.151,   -0.852,   -2.783,
       -4.447,   -0.896,    2.108,   -2.571,    5.796,   23.120,   -1.045,
       -2.795,   -2.007,    2.836,   -2.567,    0.591,    1.672,    0.643,
       -2.520,    0.060,   -4.161,   -0.772,    5.489,   -0.087,    4.260,
        2.256,    2.496,    2.451,    4.470,   11.581,    4.753,   -2.576,
       -0.290,    4.269,   -0.328,   -8.799,   -0.855,    0.507,    6.699,
       -1.391,   -1.353,    3.251,    0.829,   -1.871,   -4.332,   -5.939,
       -0.746,    1.892,   -3.906,   12.322,    1.480,    4.459,    1.025,
       -1.870,    1.622,   -4.756,   -5.234,    1.476,   -0.816,   -2.664,
       -0.668,    0.447,    1.629,    2.413,   -0.940,   -0.332,   -1.076,
       -0.299,   -0.482,  -11.386,    1.170,    0.116,   -3.041,    0.145,
       -0.121,   -1.064,   -8.788,    1.219,   -2.148,   -2.423,   -3.795,
       -1.206,    0.030,   -3.470,    4.553,   -1.631,   -2.516,    2.755,
       -2.790,    4.037,    5.248,    0.009,   -0.896,   -1.520,   -9.457,
        3.034,   -1.706,    2.355,   -2.549,   -2.127,    2.394,    0.208,
       -1.594,    4.808,   -1.816,    4.598,    0.899,   -6.358,    0.085,
       -1.103,    4.543,    3.757,    0.687,   -1.289,   -0.757,   -0.509,
       -3.352,    4.051,   -2.189,   -0.414,    2.249,   -0.740,   -1.209,
       -2.238,   -1.373,    3.002,    3.937,   -2.984,   -3.000,    5.181,
        1.688,    2.978,   -2.728,   -0.424,    0.636,   -2.005,   -4.390,
        0.396,    0.370,    1.124,   -5.813,   -1.367,   -0.189,   -0.587,
        1.177,    1.716,   -3.344,    3.002,    0.260,    7.825,    0.918,
       -0.833,   -0.568,   -4.464,   -2.666,    0.900,    7.295,    1.406,
        0.916,    0.914,    0.993,    0.269,   -2.164,   -0.179,    7.716,
        1.355,   -6.786,    3.142,    5.760,   -4.118,    0.884,    0.810,
       -1.372,   -0.768,    2.020,   -1.681,    1.331,   -0.684,   -0.048,
        0.093,    0.459,    2.383,    3.579,    6.940,    3.669,    5.997,
       -1.143,    1.046,    6.110,    5.063,   -2.842,   -2.744,    2.876,
       -1.075,   -5.052,    1.372,   -2.996,   -7.780,    0.841,   -0.292,
       -1.937,    2.985,    0.894,   -0.189,    2.108,    3.080,    0.070,
       -3.402,    0.060,    8.517,   -0.214,   -2.038,    1.646,    3.830,
        0.068,    0.594,   -4.909,    7.470,   -0.316,   -2.725,   -5.381,
       -1.399,    2.978,    0.649,    2.456,   -5.572,    3.502,    3.145,
        7.215,    2.306,    6.034,   -7.812,    0.660,    3.950,    2.655,
        5.290,    0.408,   -6.803,   -0.224,   -2.577,   -0.180,   -5.956,
       -0.418,    2.442,   -3.514,   -1.634,    2.322,    5.169,    1.425,
       -0.531,   -4.873,    0.286,    1.959,   -0.159,    2.578,    1.289,
        1.804,   -1.653,   -1.219,   -5.445,    0.581,    1.785,    2.640,
       -1.193,    6.161,   -0.744,    0.250,   -4.066,    1.954,    5.056,
        0.002,    0.003,    2.545,   -2.534,   -3.482,    4.664,    0.719,
       -0.676,    1.615,   -3.720,    2.948,   -2.930,   -4.737,   -3.631,
       11.987,    1.005,    2.459,    5.092,    1.388,   -0.804,   -2.004,
       -0.815,    1.523,    5.113,    0.935,   -1.608,   -1.430,    0.971,
       -0.003,    2.405,   -0.423,   -1.621,   -0.095,    0.664,    1.583,
        2.919,   -0.890,    4.258,   -2.333,    0.918,    1.648,   -2.470,
       -6.540,   -3.132,    1.389,   -5.012,   -4.150,   -1.476,    0.949,
        2.100,    4.734,    2.175,   -0.871,   -0.489,    2.927,   -0.345,
        0.998,    2.380,   -1.095,    5.205,   -1.992,   -0.414,    1.088,
       -0.808,    1.506,   -2.805,    1.946,   -1.759,    3.938,    1.872,
        1.850,    0.548,   -1.147,    2.402,    7.626,   -0.882,   -1.269,
       -4.578,   -0.883,   -1.064,    3.745,    0.256,    1.130,    1.402,
       -2.518,   -0.408,    0.253,   -0.736,   -3.151,    4.544,    4.033,
        2.196,    4.638,   -0.579,   -8.433,   -2.118,   -1.982,    0.875,
       -4.361,   -1.808,    1.252,   -0.303,    0.400,   -4.052,   -0.586,
       -0.628,    3.346,    5.908,    1.230,    0.654,   -5.148,   -1.370,
        1.598,    4.422,   -5.944,    3.545,    1.690,   -1.317,   -1.814,
       -0.237,   -3.026,    1.226,    1.764,   -1.096,    0.404,   -4.388,
       -0.852,   -0.809,   -1.169,   -3.614,   -1.056,    2.077,    0.851,
        4.549,   -1.074,   -1.412,    5.218,   -4.313,    4.489,  -11.528,
       -1.962,    1.580,    5.212,   -1.625,    0.045,   -0.078,   -0.383,
       -2.260,    1.645,   -0.412,    1.331,   -4.205,   -1.622,    1.479,
        5.518,    0.531,   -0.721,    0.348,   -0.477,    8.942,   -4.616,
        1.250,   -0.029,   -3.435,    5.286,   -0.333,   -1.394,    0.740,
        1.567,    0.219,    1.380,    0.300,    0.756,   -2.411,    0.499,
       -4.778,   -0.037,   -1.755,   -2.978,   -5.700,   -1.777,    0.835,
        0.338,   -1.204,   -0.485,   -0.322,    3.344,    0.723,   -4.674,
        2.035,    1.868,    2.738,   -0.269,    0.928,    0.618,   -1.297,
        4.017,   -0.291,   -1.332,   -8.488,    5.199,   -1.489,    3.523,
       -8.610,   -1.525,    5.093,    3.848,   -1.259,   -2.487,   -2.858,
        0.466,   -3.850,    4.136,    2.944,    1.252,   -5.701,   -1.445,
       -6.312,    0.726,  -18.673,   -1.580,   -2.501,    1.111,   -2.742,
        3.194,   -1.951,   -0.033,   -4.442,   -1.040,    5.395,    0.112,
       -0.821,   -0.414,    4.457,   -0.201,    0.438,    1.770,    5.234,
       -2.743,    0.586,    0.117,   -0.042,   -0.026,   -0.113,    0.039,
       -0.038,   -0.153,   -0.027,   -0.008,    0.064,    0.034,    0.005,
        0.574,    1.110,   -0.552,   -0.526,   -0.227,   -0.044,    7.069,
        0.417,    0.284,    0.336,   -1.070,    0.456,    1.666,   -2.396,
       -2.008,   -2.690,   -0.020,   -1.348,   -0.375,    1.228,    2.644,
       -1.249,    7.779,    4.373,   -0.017,   -5.895,   -0.254,   18.979,
       -1.185,   -1.001,   -4.535,    2.459,    2.455,   -1.553,    0.393,
        0.312,    1.623,    0.979,   -2.803,    0.230,   -0.443,    0.200,
       -1.676,    2.350,    3.996,    5.150,    0.872,  -14.579,    1.854,
        1.077,    1.135,    0.574,    1.763,   -1.277,   -1.402,   -1.473,
       -1.493,   -1.683,   -7.353,   -0.576,   -1.872,    1.366,   -1.244,
       -1.161,   -1.080,   -0.115,   -1.789,    1.234,    1.580,   -0.675,
        1.720,   -1.094,   -1.129,   -0.960,   -3.639,   -9.126,   -1.407,
        0.002
    },
    {  -1.885,    0.694,    6.276,   -1.087,   -2.521,    1.044,   -1.239,
       -1.093,    3.173,   -2.777,   -0.284,    1.463,   -0.756,    0.036,
       -0.241,   -2.618,    1.091,   -0.473,   -4.624,   -1.847,    4.505,
        3.029,    0.764,    2.647,    0.482,   -6.804,   -3.286,    1.103,
       -1.750,    0.790,   -0.833,   -2.145,    0.977,    1.479,   -1.944,
        1.502,   -2.920,    2.547,   -4.709,    4.929,   21.723,   -1.188,
       -1.738,   -0.735,    2.952,   -3.174,    2.192,    0.556,    1.084,
       -1.596,    2.037,   -4.355,   -1.807,    4.987,   -0.037,    4.466,
        2.077,    2.308,    1.149,    2.741,    8.629,    2.469,    0.443,
        0.210,    4.057,   -3.021,   -8.757,    3.076,    1.066,    5.543,
       -2.054,   -0.626,    1.422,   -2.061,   -1.837,   -4.835,   -6.599,
       -4.192,   -0.336,    1.105,   10.623,    1.738,    3.825,    0.402,
       -1.156,    2.602,   -5.027,   -5.958,    3.578,   -0.932,   -3.636,
       -1.767,    0.159,    1.249,    1.740,   -4.630,   -0.525,   -2.663,
        0.164,   -4.075,  -14.132,    1.724,   -0.676,   -3.051,   -1.092,
       -0.384,   -0.355,  -10.585,    1.101,   -1.617,   -1.464,   -3.825,
       -1.726,   -0.078,   -1.076,    6.655,    1.047,   -2.756,    0.238,
       -5.154,    5.384,    4.044,    0.456,   -0.576,    2.905,  -12.075,
        3.562,   -1.444,    3.100,   -2.057,   -5.107,    2.379,    0.358,
        0.225,    5.631,   -3.657,    5.042,   -1.706,   -6.292,    0.415,
        0.094,    3.635,    4.002,    1.356,   -1.946,   -2.252,   -1.659,
       -3.309,    3.972,   -2.246,    0.527,    3.445,   -1.906,    2.167,
       -0.248,   -1.503,    0.313,    4.868,   -3.536,   -2.850,    8.395,
        2.883,    3.970,   -3.533,   -1.049,    1.400,   -1.998,   -6.096,
        1.135,    0.234,    1.966,   -7.530,   -2.250,    0.937,    0.607,
       -0.306,    2.853,   -3.344,    4.164,    1.572,    6.042,    1.378,
       -0.657,   -0.128,   -4.296,   -3.056,    1.173,    6.529,    1.162,
        0.559,    1.119,    1.556,    0.708,   -2.544,   -2.042,    7.862,
        4.177,   -6.532,    1.882,    4.346,   -2.210,   -0.021,    0.884,
       -0.768,    0.507,    0.572,   -1.646,   -1.446,    0.402,   -1.333,
        0.513,    0.418,    2.589,    4.896,    7.727,    3.977,    6.896,
       -1.119,    1.999,    8.660,    4.817,   -1.229,   -1.867,    1.814,
       -1.373,   -6.671,   -0.185,    0.523,   -5.563,    2.268,    2.679,
       -0.318,    3.933,    1.729,   -3.001,    1.362,    2.378,   -0.522,
       -2.297,   -1.047,    9.899,   -0.248,   -2.202,    1.615,    3.525,
       -0.672,    1.020,   -5.499,    7.572,   -0.481,   -2.349,   -4.694,
       -1.389,    0.196,    1.562,    4.830,   -4.602,    2.044,    2.226,
       10.414,    1.195,    2.933,   -4.574,    1.771,    4.498,    0.441,
        4.498,    1.409,   -3.922,   -0.235,   -3.050,    0.328,   -3.560,
        0.927,    2.791,   -4.865,   -0.959,    2.075,    3.863,   -0.499,
       -2.050,   -6.415,   -0.341,    1.967,    2.128,    3.722,    1.315,
        1.054,   -1.971,   -1.188,   -8.812,    0.384,    2.278,    4.766,
       -3.660,    0.962,   -1.275,    0.617,   -2.593,    4.232,    2.890,
        2.459,    0.307,    2.560,   -1.782,   -4.191,    4.376,    1.129,
       -0.249,    1.929,   -2.131,    2.790,   -2.309,   -4.596,   -3.558,
       10.412,   -2.217,    3.686,    2.988,   -1.299,   -2.010,   -2.587,
       -0.753,    1.068,    4.412,    0.933,   -2.768,   -0.715,    1.751,
       -0.191,    3.265,   -0.477,   -2.890,   -1.516,   -0.379,    3.075,
        1.951,   -1.194,    6.004,   -0.833,   -1.053,    2.673,   -1.410,
       -3.295,   -1.761,    2.745,   -1.769,   -4.734,   -5.106,    0.557,
        1.391,   -0.961,   -2.807,   -1.491,    0.019,    0.949,   -1.277,
       -2.640,    4.518,    4.827,    4.384,   -2.600,   -0.619,    0.661,
        0.739,    2.225,   -4.199,    1.342,   -1.469,    4.207,    2.770,
        1.110,    0.418,   -1.231,    2.945,    2.467,    0.184,   -1.018,
       -5.280,   -0.697,   -2.311,    4.444,    0.569,    2.283,    1.096,
       -2.787,   -0.076,    0.162,   -1.767,   -4.378,    7.701,    5.198,
        2.759,    3.482,   -0.026,   -7.280,   -1.361,   -5.316,    0.517,
       -7.874,   -3.200,    0.998,   -0.271,    0.511,   -2.727,   -0.908,
       -0.318,    2.887,    5.189,    0.929,    0.332,   -4.180,   -1.280,
        1.732,    1.918,   -5.929,    2.189,    2.145,   -1.081,   -3.355,
       -0.951,   -4.958,    0.675,    4.244,    2.246,   -1.068,   -2.399,
        2.369,   -1.392,   -1.508,   -3.876,    2.264,    2.900,    0.562,
       10.183,    0.246,   -0.370,    4.786,   -6.951,   -0.125,  -13.686,
       -0.784,    2.252,    5.569,   -1.010,   -0.517,   -0.937,    0.870,
       -2.833,    2.008,    1.986,    1.808,   -4.146,   -3.449,    0.260,
        5.823,   -0.571,    5.662,    0.085,   -2.255,   10.028,   -3.108,
        1.958,    2.073,   -6.270,    4.302,   -1.132,    2.975,    0.725,
        0.916,   -4.344,   -0.826,    0.975,    0.236,   -0.181,   -1.607,
       -1.001,   -0.229,   -0.226,   -2.937,   -5.281,   -0.280,    0.413,
        0.366,    2.207,   -0.205,    0.010,   -1.024,   -0.554,   -5.702,
        4.726,    2.982,    2.655,   -4.069,    1.908,    2.159,    0.106,
        6.043,    1.090,   -2.779,   -8.473,    3.496,   -2.070,    2.855,
       -7.412,   -1.244,    4.438,    3.166,   -1.373,   -2.578,   -3.938,
        0.285,   -3.877,    4.477,   -0.811,    0.361,   -1.897,    2.999,
       -4.065,    0.399,  -19.314,   -2.013,   -4.249,    1.904,   -3.949,
        1.845,   -3.277,    1.938,   -4.400,   -1.554,    4.826,    1.268,
       -2.059,    3.890,    4.035,    2.355,    2.623,    0.218,    4.485,
        1.959,    0.728,   -0.050,    0.106,    0.008,   -0.366,    0.018,
       -0.047,   -0.122,   -0.064,   -0.081,    0.076,   -0.063,   -0.072,
        0.917,    0.679,   -0.430,    0.126,    0.006,   -0.221,    8.712,
       -0.638,   -0.846,    0.260,   -1.522,    0.452,    2.427,   -3.086,
       -2.269,   -3.052,   -0.480,   -1.417,   -0.507,    1.487,    3.590,
        0.961,    8.394,    1.800,    0.446,   -7.293,   -0.141,   17.891,
        0.324,    0.608,   -1.389,    2.276,   -0.965,    2.542,   -1.740,
        3.590,    2.209,    1.607,    1.485,   -3.142,    0.737,    0.617,
       -1.457,   -2.574,   -0.805,    0.524,    2.064,  -13.234,    1.108,
        0.887,    1.482,    0.314,    1.651,   -0.973,   -1.010,   -0.970,
       -1.509,   -1.783,   -7.416,   -0.474,   -1.878,    1.334,   -1.196,
       -1.106,   -1.136,    0.136,   -1.428,    1.279,    1.444,   -0.381,
        2.673,   -1.303,   -0.895,   -1.313,   -3.879,   -7.788,   -1.594,
        0.026
    },
    {  -0.396,    0.302,    5.871,   -0.677,   -2.222,    0.629,   -0.872,
       -0.608,    2.083,   -2.006,    0.039,    1.454,   -0.793,   -0.362,
        2.896,   -3.603,    4.748,   -0.156,   -3.030,   -3.252,   -0.639,
        4.213,   -0.785,    2.544,    0.158,   -5.330,   -1.808,    3.902,
       -0.515,    0.366,   -2.586,    1.477,    0.333,    0.155,   -3.548,
       -3.047,   -0.844,   -0.446,   -5.999,    1.240,   19.621,   -1.531,
       -2.584,   -0.605,    3.227,   -3.111,    3.413,    1.108,    2.013,
       -1.941,    2.450,   -4.495,   -2.819,   -0.174,   -1.588,    2.505,
       -0.645,    3.675,    3.264,   -1.300,    6.908,   -0.488,    2.390,
        0.425,    3.768,   -3.083,   -2.535,    6.930,   -1.924,    4.065,
       -0.285,   -0.718,   -0.546,   -0.261,   -5.064,   -0.012,   -4.122,
       -1.392,   -4.748,    1.402,    7.681,    2.568,    2.580,   -0.001,
       -0.602,    2.752,   -3.667,   -5.847,    1.747,   -0.929,   -2.128,
       -1.119,   -1.245,    1.889,    0.905,   -4.266,    0.848,   -1.064,
        0.460,   -8.465,  -11.766,    2.106,   -0.440,   -2.695,   -0.824,
       -0.244,   -0.411,   -7.450,    0.735,   -2.909,   -1.351,   -4.090,
       -1.496,    1.559,   -0.495,    6.193,    0.289,   -2.991,   -2.795,
       -3.061,    3.182,    4.241,    0.198,    0.503,    0.277,   -9.259,
        3.094,    1.174,    2.444,   -1.346,   -4.437,    2.600,    0.498,
        1.628,    1.670,    0.478,    0.419,   -1.101,   -7.345,    0.332,
        3.465,    2.984,    3.872,    0.453,    1.703,   -2.266,   -0.758,
       -5.089,    5.654,   -2.370,   -0.619,    8.305,   -0.653,    1.767,
       -2.061,   -0.413,   -1.937,    6.784,   -3.646,    2.297,    9.066,
        4.678,    4.194,   -4.868,    0.943,    1.585,   -2.781,   -7.592,
       -0.237,   -0.133,    2.990,   -7.763,   -3.318,    4.273,   -3.446,
       -0.814,    4.128,   -6.712,    4.466,    1.262,    5.806,    1.246,
       -0.416,    0.146,   -3.837,   -2.856,    1.043,    6.976,    1.073,
        0.830,    0.623,    1.565,    0.529,   -0.955,   -1.207,    7.078,
        1.540,   -6.969,    2.778,    2.854,   -2.410,    0.851,    0.401,
       -0.365,    0.432,   -0.021,   -1.202,   -0.154,    0.195,   -0.507,
        0.445,   -0.017,    2.902,    4.561,    6.120,    5.922,    4.288,
       -1.651,    0.445,    4.833,   -1.111,    0.783,    0.975,    1.447,
       -1.382,   -4.013,    3.679,   -3.053,   -5.953,   -0.026,    3.170,
       -5.983,    2.698,    0.015,    0.749,    2.783,   -3.124,    0.583,
       -4.605,   -3.080,    8.220,   -0.644,   -1.901,    1.240,    3.317,
       -0.417,    1.006,   -4.919,    7.017,   -0.830,   -1.340,   -4.670,
       -1.204,    3.380,    2.226,    2.135,   -5.403,    3.516,    1.894,
        6.674,   -2.562,    1.900,   -4.187,    1.367,    4.908,    1.846,
        3.901,    0.489,   -4.185,   -0.757,   -2.963,    1.011,   -2.500,
        2.826,   -0.124,   -8.969,   -2.824,    2.194,    2.275,    0.521,
       -3.715,   -8.567,   -1.858,    2.720,   -0.203,    4.733,    2.046,
       -0.305,   -0.392,   -0.666,   -8.114,   -0.183,    2.722,    4.014,
       -5.474,   -0.748,    0.724,    1.641,   -1.571,    3.978,    1.909,
        1.470,    0.877,    3.802,   -0.639,   -4.424,    4.842,    1.181,
       -0.410,    1.037,   -2.950,    3.148,   -3.335,   -4.472,   -5.458,
        3.383,   -0.618,    0.685,    2.918,    2.378,   -2.439,   -1.153,
       -0.215,    0.339,    6.394,    2.013,   -4.468,   -0.716,    0.230,
       -2.074,    3.422,   -0.987,   -5.060,    1.024,   -3.270,    3.666,
        2.993,    1.191,    8.931,   -5.509,   -2.911,    2.427,    0.833,
       -1.077,    0.294,    3.646,   -2.009,   -4.971,   -4.232,    1.116,
        2.682,   -3.624,   -1.375,    3.417,   -0.138,    1.517,   -0.800,
       -3.284,   -0.541,    4.134,    2.556,   -1.516,   -0.684,    0.360,
        0.056,    1.242,   -2.482,    0.485,   -0.579,    2.686,    0.996,
        0.427,   -0.402,   -0.680,   -0.657,    0.364,    4.788,   -1.485,
       -2.950,   -0.156,   -1.298,    4.472,    0.056,    1.876,    1.214,
       -3.065,   -0.530,   -0.053,   -0.764,   -4.625,    6.111,    4.868,
        2.551,    3.733,   -0.224,   -9.283,   -1.446,   -3.445,    2.890,
       -7.652,   -2.318,   -0.210,    0.275,    0.722,   -2.263,   -0.972,
       -0.112,    2.325,    5.731,    1.022,    0.489,   -5.156,   -1.373,
        1.790,    1.265,   -6.261,    2.212,    1.812,   -1.807,    2.065,
        0.146,    0.478,    0.472,    3.796,    6.440,   -1.441,   -1.578,
       -0.819,   -1.318,   -0.619,   -2.739,    3.217,    3.225,    2.885,
        5.408,   -1.163,    0.325,    4.711,   -5.268,   -5.843,  -14.957,
        1.001,    2.607,    7.550,    0.831,    2.116,   -1.500,    1.303,
       -4.466,   -0.401,    3.873,   -2.060,   -2.545,    0.488,    3.351,
        2.278,    0.802,    0.113,   -0.225,   -5.423,   11.462,   -2.750,
        1.132,    0.759,   -6.295,    3.218,    1.641,    5.837,   -1.777,
        4.998,   -4.253,   -3.541,    3.829,   -4.519,    4.118,   -1.098,
        1.183,    0.619,   -0.813,   -2.341,   -7.393,   -2.763,    0.060,
        1.802,    1.892,   -1.414,    1.060,   -1.663,    1.310,   -7.465,
        5.932,    3.051,    4.044,   -1.430,   -0.956,    0.557,   -0.091,
        7.498,    1.391,    0.969,   -4.571,    3.403,   -0.038,    1.433,
       -5.164,   -0.590,    2.777,   -0.081,   -2.097,   -2.924,   -4.574,
       -0.374,   -2.076,    1.237,    1.280,    3.706,   -2.542,    3.714,
        0.330,    0.349,  -17.448,   -4.044,   -1.794,    1.360,   -5.284,
        1.700,   -1.799,    4.369,   -2.621,   -0.977,    2.756,    0.219,
       -2.517,    2.340,   -0.819,    3.523,    3.201,    1.161,    6.582,
       -0.058,    1.037,   -0.119,    0.081,    0.098,   -0.119,    0.062,
        0.103,   -0.004,   -0.126,   -0.073,    0.064,    0.000,    0.040,
        1.013,    1.379,   -0.696,    0.206,   -0.389,   -0.448,    9.536,
       -1.443,   -1.250,    0.712,   -1.023,   -0.261,    1.795,   -1.918,
       -1.901,   -2.613,   -0.178,   -1.935,   -0.318,    1.106,   -2.551,
        0.219,    9.137,    2.298,    0.413,   -5.930,    1.269,   16.144,
       -1.320,    1.289,    4.676,    3.285,   -5.813,    1.803,    2.454,
        1.065,    2.707,   -1.802,    5.122,   -2.542,    0.551,   -1.781,
       -5.231,   -1.371,   -2.621,   -3.286,    1.683,  -11.405,    1.253,
        0.839,    1.301,    0.650,    1.554,   -0.750,   -0.839,   -0.723,
       -1.305,   -1.723,   -4.629,   -0.254,   -1.752,    1.211,   -0.975,
       -1.241,   -0.966,    0.313,   -1.709,    1.500,    1.467,   -0.693,
        1.304,   -0.406,   -1.092,   -0.943,   -3.674,   -7.611,   -1.492,
       -0.328
    },
    {  -1.509,    0.170,    5.946,   -0.979,   -1.620,    0.426,   -0.950,
       -1.414,    2.472,   -3.172,    0.147,    2.527,   -1.039,   -5.015,
        4.676,   -3.465,    3.842,   -1.101,   -3.872,   -3.045,   -0.854,
        2.893,   -4.160,    0.266,   -2.089,   -1.293,   -1.645,    5.791,
       -0.255,    0.803,   -4.757,   -0.336,   -0.632,    2.711,   -2.339,
       -4.799,   -3.627,    0.264,   -0.680,    0.243,   19.698,   -1.528,
       -2.272,   -0.056,    2.913,   -3.202,    2.681,    3.949,    0.658,
       -2.147,    1.509,   -3.869,   -1.844,    0.448,    1.988,    0.264,
        1.193,    2.252,    0.214,    0.751,    8.749,    0.810,    2.678,
        1.559,    4.399,   -5.254,   -2.359,    3.098,   -2.539,    3.699,
        1.039,    0.233,    1.087,   -1.421,   -2.093,   -0.728,   -1.807,
        0.021,   -2.655,   -0.916,    7.204,    0.743,    0.554,   -0.539,
        1.021,    2.960,   -2.995,   -4.023,    1.537,    0.533,   -0.571,
       -0.852,   -0.219,   -1.732,    2.657,    0.831,    1.526,    2.312,
       -0.487,   -6.531,   -8.837,   -0.301,   -0.605,   -2.881,    3.789,
       -0.009,   -1.237,   -9.152,    1.200,   -1.729,    0.833,   -3.355,
       -1.306,    0.795,    0.968,    2.114,   -0.043,   -0.802,   -1.747,
        0.242,    5.814,    4.701,    0.197,   -0.524,   -2.626,   -7.651,
        2.770,   -2.815,    1.736,   -0.281,   -1.396,    2.730,    1.060,
        1.930,    1.557,    2.355,   -1.792,    0.491,   -3.251,    1.827,
        0.867,    2.152,    2.801,    1.452,   -3.168,   -1.266,    0.468,
       -2.595,    3.873,   -3.337,   -2.763,    7.725,   -0.519,    0.547,
        0.462,    1.923,   -5.399,    3.550,   -1.647,   -0.331,    8.078,
        2.812,    5.241,   -4.741,    2.908,    0.383,   -2.302,   -7.894,
        0.606,   -0.670,    2.800,   -7.926,   -3.222,    2.202,   -4.093,
       -1.605,    1.298,   -3.205,    5.068,    0.602,    4.588,    1.324,
       -0.257,    0.153,   -1.836,   -1.748,    0.276,    4.940,    0.810,
        0.572,    1.123,    0.822,    0.668,   -0.739,   -0.531,    5.764,
        1.168,   -4.049,    1.313,    0.673,   -4.299,    0.892,    1.632,
       -1.378,   -0.462,    0.093,   -1.242,    0.779,   -1.132,   -0.580,
       -0.151,    0.937,    2.224,    3.499,    8.746,    6.400,    6.449,
       -0.055,    4.458,   -0.369,   -2.647,   -0.144,   -3.483,    3.426,
        0.025,   -1.706,   -0.355,   -1.569,    0.188,   -0.429,    5.799,
       -6.857,    0.946,   -4.401,    2.401,   -1.477,   -5.541,   -0.615,
       -3.392,   -6.341,    7.500,   -0.916,   -1.924,    1.229,    3.029,
        0.044,    0.437,   -4.044,    6.659,   -0.391,   -1.663,   -4.492,
       -1.287,    1.145,    1.973,    2.980,   -5.376,    3.012,    0.605,
        8.185,   -2.594,    4.803,   -4.284,    1.395,    3.536,    1.313,
        4.674,    0.688,   -2.823,   -0.233,   -4.190,    0.434,   -2.660,
       -0.041,   -3.210,   -7.279,   -3.051,    0.195,    5.875,   -1.668,
       -1.974,   -6.793,   -1.463,    2.767,   -1.967,    4.183,    3.151,
        0.550,   -0.998,   -0.795,   -7.034,    0.380,    2.373,    3.023,
       -0.915,   -0.309,    3.076,    2.380,   -2.207,    2.405,    4.490,
        1.596,    1.175,    4.755,    1.185,   -6.419,    5.894,    0.432,
       -1.049,    1.943,   -5.017,    5.054,   -4.587,   -2.698,   -3.408,
       -1.076,    0.981,    1.384,    3.499,    6.574,   -1.855,    0.049,
       -1.210,    1.432,    4.985,    1.743,   -2.548,    1.829,    0.978,
       -1.564,    1.655,   -0.533,   -3.047,    0.123,   -0.369,    3.272,
        2.642,   -1.022,    5.220,   -6.411,   -2.537,    5.280,    1.570,
       -3.807,   -0.414,    1.285,    1.483,   -2.547,   -4.737,   -2.430,
        6.812,   -4.051,    0.981,   -0.140,   -4.439,    0.156,   -1.926,
       -2.922,   -5.174,    2.231,    5.215,   -1.503,   -0.603,    0.405,
       -0.596,    1.237,   -2.845,    0.457,   -0.596,    3.969,    2.188,
        0.782,   -0.265,   -0.850,   -0.344,    1.442,    8.754,   -1.928,
       -4.502,    0.865,   -3.494,    1.381,    0.115,    1.908,    1.663,
       -1.426,   -1.625,    1.369,   -1.045,   -3.080,    5.599,    3.720,
        1.923,    3.230,   -1.772,   -8.283,    1.448,   -1.239,   -0.307,
       -6.811,   -0.667,   -0.015,    0.277,    0.419,   -2.186,   -0.805,
       -0.354,    3.171,    6.430,    1.304,   -0.779,   -5.379,   -1.287,
        3.748,    4.131,   -3.825,    2.502,    2.638,   -0.512,   -0.931,
       -3.961,    1.206,    0.153,    2.499,    3.707,   -1.204,   -1.786,
        0.575,   -1.779,   -0.699,   -3.229,    1.010,    3.116,    1.939,
        0.495,   -0.734,    0.871,    3.405,   -7.798,   -3.094,  -13.450,
       -0.233,    1.789,    4.112,    3.440,    1.544,   -0.057,   -0.806,
       -5.231,   -1.275,    2.892,   -1.773,   -4.122,    0.697,   -1.531,
       -0.755,   -1.104,    3.375,    3.405,   -3.272,   10.618,   -3.238,
        3.191,    1.292,   -3.980,    1.643,    3.062,   -0.650,   -2.555,
        1.097,   -2.989,   -0.942,   -0.671,   -0.533,    3.082,   -2.974,
       -0.033,    0.332,   -0.438,    0.218,  -10.739,   -2.979,   -0.189,
        2.123,    1.894,   -1.915,   -1.078,   -0.268,    2.168,   -8.239,
        4.826,    4.299,    6.341,    1.202,   -3.330,   -1.081,    2.494,
        4.145,   -2.539,    2.083,   -6.268,    3.846,   -0.202,    2.956,
       -6.810,   -0.545,    3.847,    2.427,   -1.686,   -2.675,   -4.853,
        0.163,   -2.301,    2.729,   -0.562,    3.424,   -2.528,    4.207,
       -2.085,   -1.381,  -15.214,   -5.369,   -0.984,    1.549,    0.173,
        1.770,   -1.320,   -0.327,   -2.170,   -1.088,    6.018,   -1.053,
       -1.548,    5.460,   -3.178,    2.591,    0.706,    4.273,    3.442,
       -2.855,    0.841,   -0.019,    0.115,    0.095,   -0.269,    0.037,
        0.064,   -0.158,   -0.031,    0.032,   -0.072,    0.136,   -0.072,
        0.465,    1.307,   -0.465,   -0.312,   -0.275,    0.001,    9.105,
       -1.112,   -1.582,    0.611,   -0.932,   -0.779,    2.195,   -1.739,
       -1.662,   -2.346,   -0.253,   -2.611,   -0.241,    0.932,   -1.380,
        0.635,    7.489,   -1.322,   -0.509,   -3.040,    1.734,   13.637,
       -0.071,    2.726,    1.275,   -0.067,   -8.009,   -1.028,    5.333,
        0.412,    2.639,   -2.371,    3.077,    1.064,    2.562,   -2.314,
       -4.542,    1.784,   -2.820,   -1.200,   -0.116,  -12.390,    1.758,
        0.673,    1.092,    1.160,    1.852,   -1.126,   -1.230,   -1.008,
       -1.686,   -2.130,   -6.389,   -0.316,   -1.857,    1.160,   -1.039,
       -1.297,   -1.186,   -0.030,   -1.763,    1.626,    1.499,   -0.539,
        1.318,   -0.307,   -1.254,   -1.012,   -2.797,   -7.803,   -2.108,
       -0.519
    },
    {  -1.836,   -1.151,    7.747,   -1.050,   -1.553,    0.518,   -1.597,
       -0.490,    2.938,   -3.140,    0.312,    1.753,   -1.043,   -3.096,
        5.768,   -6.099,    2.577,   -2.045,   -4.628,   -3.557,   -0.384,
        7.393,   -1.356,    0.268,   -3.753,   -1.800,    0.859,    2.822,
       -0.138,   -0.419,   -8.026,   -2.604,   -0.310,    2.924,   -4.350,
       -4.232,   -4.552,   -0.389,    5.739,    0.734,   19.834,   -1.934,
       -1.774,   -0.972,    3.642,   -3.164,    3.105,   -0.193,    1.421,
       -1.498,    2.677,   -3.764,   -1.644,    2.123,    1.071,   -1.954,
        2.146,    1.982,    3.526,    2.292,    6.907,    0.575,    2.894,
        1.017,    5.790,   -4.971,   -3.027,    4.601,   -2.130,    3.458,
       -1.112,   -0.085,    0.922,   -0.544,    0.157,   -5.374,    0.484,
        0.238,   -0.157,   -5.143,    8.964,    1.782,    2.604,    0.469,
       -1.269,    2.384,   -3.468,   -5.031,    2.176,    0.174,   -1.281,
       -0.860,   -1.023,   -4.800,   -2.158,    1.007,    0.694,   -3.113,
        1.599,   -2.140,   -9.738,   -0.097,   -1.352,   -0.831,    2.392,
       -0.456,   -0.899,   -6.678,   -0.220,   -1.013,   -2.606,   -1.313,
       -1.110,    2.289,    1.710,    3.736,   -2.923,   -0.414,    0.521,
       -3.317,    4.569,    1.427,    0.241,   -0.808,   -0.912,   -8.789,
        2.010,   -1.018,    2.647,   -1.396,   -1.670,    1.455,    0.380,
        3.221,   -0.670,    3.415,    0.900,    1.480,   -3.115,    0.335,
        0.803,    1.722,    2.206,    1.736,    0.635,   -0.283,   -2.005,
       -2.694,    2.070,   -1.473,   -5.677,    5.454,   -0.309,   -1.800,
       -0.681,    5.488,   -4.768,    7.638,    0.031,   -1.867,    2.113,
        3.177,    2.726,   -3.039,   -0.277,    0.692,   -1.555,   -4.633,
        0.601,    0.344,    1.430,   -4.797,   -1.997,    1.665,   -7.521,
       -1.822,   -0.598,   -2.972,    3.066,    1.709,    5.405,    1.056,
       -0.363,   -0.301,   -2.245,   -2.242,    0.292,    4.424,    0.808,
        0.585,    0.552,    1.306,    0.446,   -1.073,   -0.713,    8.740,
       -0.511,   -4.247,    1.598,    3.355,   -7.479,    0.292,    0.767,
       -1.634,   -0.830,    0.272,   -1.769,    0.271,    0.221,   -1.345,
       -0.039,    1.725,    2.542,    5.746,    7.168,    4.094,    9.513,
        1.320,    6.869,   -2.698,   -0.014,    0.325,   -4.445,    1.318,
       -2.975,   -3.885,   -3.279,   -1.045,   -0.322,    2.981,    3.445,
       -3.750,   -4.191,   -0.182,    2.905,   -0.982,   -1.851,   -1.700,
       -0.003,   -2.503,    5.839,   -0.740,   -1.367,    1.278,    2.390,
        0.195,    0.486,   -3.128,    5.728,   -0.178,   -1.793,   -4.277,
       -1.105,    1.571,    1.765,    1.323,   -4.612,    2.667,    1.091,
        5.438,   -3.099,    2.845,   -5.009,    1.043,    3.663,    2.126,
        3.028,   -0.000,   -4.008,   -1.223,   -2.004,    0.549,   -2.396,
       -1.912,    0.249,   -8.510,   -1.300,    3.712,    4.799,   -2.549,
        1.926,   -5.465,   -0.653,    2.606,   -0.629,    3.152,    1.777,
       -0.598,   -0.203,    0.150,   -6.327,   -0.938,    1.342,    1.766,
        1.247,    4.160,    0.653,    0.145,    0.539,    3.269,    9.656,
        2.082,    2.258,    4.148,    3.668,   -6.524,    6.517,    0.788,
       -0.795,    2.811,   -3.650,    3.340,   -4.113,   -2.133,    5.841,
        1.560,    1.375,    0.770,    3.736,    1.184,   -0.656,   -1.291,
       -1.019,    3.907,    5.613,    2.906,   -1.205,    1.467,   -0.216,
       -0.743,    0.542,   -0.277,   -2.559,   -2.749,    1.521,    2.940,
        3.812,   -3.121,    4.919,   -3.686,   -5.425,    1.626,   -0.382,
       -4.255,   -0.843,   -0.404,    1.311,    0.473,   -6.097,   -3.960,
        8.245,    0.821,    2.096,   -2.192,   -4.499,    2.110,   -1.373,
       -1.366,   -3.243,   -1.320,    7.011,   -1.799,   -1.120,    1.113,
       -0.556,    3.455,   -4.639,    2.141,   -1.552,    4.857,    2.291,
        0.811,   -0.517,    0.214,    1.697,    3.390,    8.147,   -1.672,
       -6.756,   -0.728,   -1.330,    1.311,    0.755,    1.467,    0.057,
       -0.836,   -1.396,   -0.253,   -1.341,   -2.821,    5.127,    3.125,
        1.921,    2.760,   -4.326,   -1.515,   -2.687,   -1.257,    0.696,
       -2.558,   -2.236,   -0.312,    0.043,    0.895,   -4.728,   -1.140,
       -0.887,    4.167,    9.305,    1.618,    0.394,   -7.601,   -1.516,
        2.787,    3.563,    0.889,    0.660,    3.156,   -0.585,   -3.189,
       -3.953,    0.833,    1.999,   -0.291,    0.631,    1.765,   -5.084,
        3.609,    0.534,    0.404,   -3.048,   -0.053,    5.132,   -1.446,
        0.865,    0.278,   -0.834,    3.090,  -10.052,    3.921,  -11.653,
       -1.314,    0.439,    3.547,    3.146,    3.378,    0.060,    0.328,
       -2.939,    0.629,    1.496,   -1.739,   -3.107,   -0.868,   -3.026,
        2.712,   -0.618,    2.258,    2.968,   -3.475,   12.632,   -4.526,
        3.782,    1.572,   -0.701,   -3.362,    2.916,   -2.928,   -0.796,
        1.698,    2.104,    2.625,   -0.686,    1.405,   -1.733,    0.251,
        1.022,   -3.377,   -5.146,    2.853,   -4.457,   -2.297,    0.393,
        0.376,    1.398,   -1.079,   -0.609,   -0.575,    0.540,   -5.738,
        2.688,    1.957,    4.531,   -2.802,   -0.604,   -0.122,    0.823,
        1.543,   -0.498,    6.219,   -9.250,    4.020,   -0.417,    2.282,
       -7.273,   -1.083,    3.928,    1.799,   -1.147,   -2.827,   -6.503,
        0.192,   -3.357,   -2.804,   -2.869,    2.703,    0.999,    1.341,
       -1.989,   -0.900,  -15.771,   -3.317,   -2.901,    0.633,    3.450,
        3.732,   -2.071,   -3.021,   -1.520,   -1.977,    5.447,   -1.774,
       -2.067,    4.102,   -2.298,    2.553,   -4.763,    0.343,    4.339,
        2.677,    0.313,   -0.115,    0.067,    0.076,   -0.538,   -0.024,
       -0.012,    0.010,   -0.066,   -0.038,   -0.121,    0.059,   -0.071,
        0.595,    1.532,   -1.698,   -0.693,   -0.609,   -0.133,   10.338,
       -2.992,   -2.102,    0.596,   -1.675,   -1.647,    4.317,   -3.052,
       -2.665,   -4.254,   -0.866,   -4.849,   -0.188,    1.896,    0.217,
       -0.386,   14.940,   -3.163,   -0.900,   -5.759,   -0.194,   12.043,
       -0.783,    2.968,    1.180,    0.766,   -4.528,    0.465,    2.959,
       -3.019,   -1.679,   -2.269,   -0.341,    1.705,    4.606,   -1.275,
       -0.120,    2.110,   -5.160,   -1.253,   -2.901,  -12.803,    1.309,
        0.646,    1.475,    1.171,    1.423,   -1.071,   -1.024,   -0.702,
       -1.534,   -1.641,   -4.855,   -0.068,   -1.707,    1.159,   -0.923,
       -1.152,   -0.626,   -0.520,   -1.233,    1.047,    1.219,   -0.746,
        1.248,   -2.774,   -1.031,   -0.993,   -4.972,   -8.927,   -1.593,
       -0.413
    },
    {  -1.856,   -1.755,    8.063,   -1.678,   -2.277,    0.695,   -1.403,
       -2.385,    2.778,   -4.433,    1.411,    1.926,   -1.126,   -5.422,
        7.918,   -4.834,    1.900,   -3.883,   -6.203,   -0.687,   -0.545,
        7.052,   -2.636,    0.625,   -7.594,   -1.107,    0.201,    2.117,
       -0.724,   -1.523,   -7.042,   -2.243,   -0.782,    0.311,   -3.329,
       -3.020,   -1.059,   -0.273,    3.377,    3.797,   22.687,   -0.892,
       -1.839,    1.056,    2.969,   -5.213,    4.965,    0.902,    2.650,
       -2.263,    3.343,   -3.724,   -3.223,    5.103,   -2.423,   -2.884,
        2.550,    5.916,    4.582,   -0.713,    6.382,    0.542,    2.682,
        0.514,    4.918,   -5.435,   -3.972,    3.569,   -3.152,    4.144,
       -0.526,    0.726,    1.232,   -1.818,   -1.473,   -5.207,   -0.654,
       -1.612,   -1.739,   -4.304,    8.708,    6.064,    2.242,    0.184,
       -2.361,    2.900,   -3.125,   -5.549,    2.470,   -0.437,   -0.077,
       -1.378,   -0.056,   -6.896,   -0.393,    1.316,   -3.278,   -3.308,
        0.323,   -3.271,   -6.996,    0.239,   -1.064,   -1.358,    2.645,
       -1.519,   -0.846,   -7.010,    0.070,    1.302,   -5.074,   -1.788,
       -1.566,    0.578,    1.939,    5.349,   -0.542,   -0.119,    0.085,
        0.535,    3.650,    2.293,    0.067,   -1.051,   -3.900,   -9.256,
        3.304,   -3.786,    1.589,    1.064,   -1.986,    0.712,   -0.776,
        1.508,    1.318,    2.794,    2.254,    0.517,   -5.429,    1.281,
        1.719,   -1.064,    3.130,    1.709,    1.449,   -1.165,    0.257,
       -3.787,    3.028,   -3.956,   -5.774,    5.553,   -0.014,    0.529,
        2.839,    0.777,   -0.211,    5.628,    1.455,    1.087,    2.662,
        3.396,    3.533,   -3.405,   -0.652,    0.483,   -1.647,   -6.006,
        0.790,    0.226,    2.532,   -6.884,   -2.154,    0.993,   -5.000,
       -1.779,   -3.636,   -2.879,    4.595,   -0.139,    4.587,    0.882,
       -0.441,   -0.319,   -2.807,   -2.402,    0.064,    4.727,    0.945,
        0.470,    1.213,    1.608,    0.137,   -1.239,   -4.147,    7.613,
        0.390,   -5.450,    0.053,    5.580,   -6.297,   -0.245,    0.354,
       -2.157,   -0.197,   -0.549,   -0.746,    1.425,    0.154,   -0.693,
        0.453,    1.190,    2.435,    4.622,    7.059,    5.166,   10.422,
        0.678,    3.925,   -5.100,    4.371,    1.067,   -3.930,    0.463,
       -2.894,   -6.992,   -4.966,    0.443,   -0.687,    1.484,   -4.359,
       -4.709,   -2.090,   -0.049,   -1.083,    2.239,    0.350,   -0.551,
        2.254,    1.368,    5.010,    0.210,   -1.584,    1.134,    2.689,
        0.061,    0.691,   -3.592,    5.509,   -0.321,   -0.943,   -3.865,
       -0.899,    1.159,   -0.162,    3.409,   -5.228,    2.383,    1.290,
        4.334,   -3.904,    2.099,   -4.559,    2.084,    4.817,    3.852,
        2.930,    1.371,   -4.322,   -0.849,   -3.201,    1.291,   -1.221,
       -3.164,    0.760,   -7.312,   -2.160,    1.386,    3.160,   -2.331,
        2.591,   -2.771,   -0.031,    2.530,   -0.135,    2.298,    1.706,
        1.740,   -0.980,   -0.711,   -6.819,    0.079,    1.359,    2.978,
       -2.310,    5.042,   -2.981,    0.865,   -0.499,    5.726,   12.491,
        2.969,   -0.591,    2.791,   -1.608,   -3.692,    4.717,    2.471,
       -1.588,    1.555,   -2.306,    4.021,   -3.308,   -2.620,    9.688,
        0.711,    1.269,    1.415,    4.767,    3.021,   -2.863,   -0.121,
       -1.245,    4.667,    5.637,    2.126,   -0.512,    0.675,   -0.374,
       -0.675,   -0.506,    0.973,   -3.738,   -4.086,   -0.938,    1.151,
        4.241,   -4.134,    4.830,   -2.780,   -3.578,   -4.829,   -1.050,
       -2.484,   -0.791,    0.601,   -0.249,    3.970,   -2.961,   -6.677,
        3.240,    1.846,    2.572,   -3.206,   -4.628,    2.326,   -0.743,
       -0.257,   -2.562,    1.609,    6.817,   -0.992,   -0.379,    0.918,
       -0.240,    1.910,   -3.872,    1.640,   -1.878,    5.135,    2.247,
        1.693,    0.411,   -2.194,    5.260,   -0.973,    5.950,   -1.256,
       -4.945,   -1.272,   -1.550,    2.440,    1.370,    1.984,    0.714,
       -2.776,   -2.531,    0.052,   -2.241,   -4.551,    7.040,    5.819,
        3.776,    0.204,   -0.761,   -2.819,   -5.469,   -3.822,    0.779,
       -2.267,   -1.228,    1.782,   -0.073,    0.216,   -3.665,   -0.831,
       -0.709,    4.120,    8.075,    1.689,    0.291,   -6.649,   -1.417,
        4.415,    3.590,   -2.947,   -1.913,    2.479,   -1.857,    0.191,
       -1.879,   -1.004,    2.381,    2.317,   -6.002,   -0.069,   -4.025,
        2.298,    1.797,   -0.857,   -1.182,   -1.537,    3.747,    0.137,
        3.537,    1.740,    2.244,    3.613,  -10.879,    3.602,  -12.300,
       -2.308,    1.375,    5.050,    1.043,    1.835,    0.371,    1.106,
       -2.874,    2.073,    1.516,   -0.224,   -5.337,    1.167,    2.203,
        3.313,    0.992,   -1.550,   -0.872,   -0.293,   15.072,   -3.756,
       -0.130,   -0.218,   -3.168,   -2.494,    2.420,   -1.053,   -0.357,
        5.784,    1.583,    1.930,   -0.694,    3.448,   -0.480,    3.669,
        1.968,   -2.349,   -6.874,    2.835,    1.398,   -0.337,    1.941,
        0.509,   -0.341,   -1.887,   -0.757,   -1.896,    0.068,   -4.755,
       -0.432,    0.125,    2.768,   -2.213,    3.287,    0.688,   -0.736,
        0.700,    4.091,    7.734,   -9.826,    3.778,   -1.427,    3.685,
       -9.844,   -0.495,    4.832,    3.077,   -2.580,   -4.015,   -5.807,
        0.487,   -2.969,    0.816,    2.897,    0.495,   -4.327,   -0.423,
       -3.046,   -0.182,  -15.558,   -2.761,   -3.515,    2.000,   -2.281,
        2.673,   -2.471,   -0.828,   -1.510,   -1.927,    4.961,   -1.005,
       -1.721,    1.308,    0.480,    0.972,   -1.321,    0.106,    4.212,
        7.461,    1.259,   -0.126,    0.121,   -0.096,   -0.137,    0.020,
       -0.043,   -0.149,   -0.077,   -0.001,    0.074,    0.029,    0.126,
        0.877,    1.381,    0.663,   -0.679,   -0.452,   -0.259,    9.620,
       -3.715,   -1.771,    1.077,   -1.690,   -2.680,    4.230,   -2.803,
       -2.455,   -4.155,   -0.456,   -5.933,   -0.623,    2.037,   -2.991,
        2.894,   12.319,   -2.099,    1.063,   -3.754,   -2.287,   13.135,
       -3.512,    2.949,    4.382,    3.159,   -0.868,    3.109,   -0.072,
        0.318,   -0.644,   -2.528,   -2.225,   -3.479,    3.362,    1.690,
        0.176,    0.050,   -2.885,   -1.017,   -3.957,  -10.128,    1.537,
        1.126,    1.565,    1.111,    1.558,   -1.106,   -1.007,   -1.063,
       -1.575,   -1.819,   -5.007,    0.063,   -1.972,    0.987,   -0.794,
       -0.789,   -0.926,   -0.744,   -1.613,    1.461,    1.442,   -0.742,
        1.272,   -1.036,   -1.017,   -0.903,   -2.926,   -8.116,   -1.678,
       -1.179
    },
    {  -2.516,   -1.804,    8.019,   -1.639,   -0.997,    1.425,   -1.641,
       -4.150,    3.706,   -4.926,    0.089,    2.216,   -1.590,   -6.168,
        5.654,   -3.159,   -0.704,    0.898,   -4.803,    0.572,    0.411,
        5.841,   -2.787,    1.292,   -4.895,   -1.161,    2.351,    0.752,
        0.220,   -0.677,   -5.041,   -1.504,   -0.444,    1.677,    0.095,
       -3.134,   -2.969,   -1.346,    4.632,    3.032,   23.712,   -0.213,
       -3.329,    1.685,    1.319,   -6.174,    7.035,    0.290,    2.402,
       -4.220,    3.429,   -3.149,   -2.288,    4.148,   -4.364,   -4.666,
        1.866,    4.954,    6.853,   -0.729,    4.834,    2.302,    2.396,
        0.219,    4.369,   -4.830,   -2.175,    2.708,   -2.566,    4.253,
       -0.675,   -0.080,   -0.237,   -1.963,   -4.246,   -3.190,   -3.892,
       -1.442,   -1.773,   -2.439,    7.061,    5.864,    1.395,    0.147,
       -2.578,    2.063,   -5.509,   -5.814,    2.158,   -0.484,   -0.278,
       -0.639,   -1.280,   -7.628,    0.964,   -2.872,   -0.082,   -2.494,
        1.370,   -8.693,   -6.222,   -1.068,   -2.022,   -0.957,    0.732,
       -0.534,    0.220,   -6.220,   -0.106,   -1.291,   -4.191,   -1.301,
       -1.538,    0.907,    0.527,    5.547,    1.256,   -1.257,   -0.664,
        4.667,    0.629,   -0.358,   -0.774,   -0.164,   -4.573,  -11.080,
        3.214,   -3.906,    3.822,    1.257,   -1.178,    0.380,   -1.383,
        1.299,    3.897,    0.514,    1.108,   -1.651,   -7.096,    0.299,
        3.143,   -0.162,    2.742,    1.101,    1.984,   -0.938,   -0.837,
       -1.353,    4.050,   -4.969,   -3.843,    4.950,   -1.485,    2.616,
        3.975,    0.674,    3.275,    6.755,   -3.302,    1.056,    2.763,
        5.254,    3.846,   -3.576,    1.145,    0.332,   -1.900,   -6.300,
        0.045,   -0.011,   -0.094,   -6.462,   -1.982,   -0.479,   -5.264,
        0.040,   -4.432,   -3.583,    6.740,   -1.761,    5.075,    0.541,
       -0.689,   -0.834,   -2.032,   -1.995,    0.198,    3.627,    1.246,
        0.472,    1.331,    1.192,    0.336,    0.239,   -2.265,    7.711,
        0.662,   -3.293,    0.858,    3.591,   -5.521,    1.342,    0.522,
       -2.047,   -2.707,    0.551,   -1.920,    2.222,   -0.360,   -0.479,
        0.113,    0.112,    2.127,    4.302,    8.131,    7.911,    6.137,
        0.345,    2.734,   -1.863,    4.952,    2.903,   -2.236,    2.378,
       -4.497,   -3.327,   -5.526,    2.340,   -0.822,    4.958,   -9.055,
       -3.338,   -0.753,   -1.445,   -3.199,    1.892,   -0.203,    1.026,
        4.789,    6.087,    7.121,   -0.066,   -1.560,    1.040,    2.018,
       -0.586,    0.569,   -3.905,    6.059,   -0.565,   -2.463,   -3.823,
       -1.148,    0.298,    1.218,    3.641,   -5.447,    2.841,    2.307,
        7.438,   -2.952,    1.234,   -5.204,    1.565,    5.190,    3.200,
        4.146,    0.142,   -6.476,   -0.740,   -5.005,    2.203,   -2.438,
       -2.052,    1.732,   -6.931,   -3.053,    1.804,    5.028,    2.067,
       -1.545,   -6.070,   -1.653,    2.422,    0.381,    4.063,    3.097,
       -1.736,   -0.742,   -0.423,   -6.467,   -0.712,    1.521,    1.980,
       -5.968,    2.154,   -0.027,    0.749,   -0.038,    4.016,   13.295,
        1.165,    0.826,    3.910,   -0.157,   -6.304,    5.748,    0.509,
       -0.892,    1.028,   -4.260,    4.192,   -4.040,    0.653,    7.274,
        2.465,   -0.604,    1.092,    5.647,    6.083,   -4.411,   -0.783,
       -0.846,    5.243,    6.218,    0.903,   -2.369,    0.572,    2.098,
       -1.716,    2.374,    0.370,   -3.286,   -0.702,    1.486,    1.494,
        3.081,   -5.162,    2.890,   -2.313,    0.429,   -5.785,   -2.394,
       -2.736,   -0.048,    1.485,    0.087,    4.834,   -3.330,   -7.531,
        1.559,    1.638,    2.562,   -2.029,   -3.553,   -0.484,    5.301,
       -3.104,   -0.800,    5.327,    5.313,   -0.967,   -0.505,    0.420,
       -0.234,    3.085,   -5.519,    1.804,   -1.567,    5.837,    2.956,
        1.766,   -0.617,   -0.667,    3.161,   -0.396,    4.046,   -0.424,
       -6.222,   -2.578,   -2.872,    1.485,    0.891,    2.737,    1.240,
       -0.865,   -2.600,    0.384,   -2.267,   -3.021,    9.509,    4.452,
        2.728,   -2.194,   -0.865,   -3.828,   -3.796,   -2.586,   -2.002,
       -1.865,   -2.658,    0.140,    0.233,    0.174,   -4.037,   -1.076,
       -0.853,    4.452,    8.686,    1.134,   -0.378,   -6.972,   -1.989,
        3.831,    5.490,   -2.553,   -1.563,    2.778,   -1.749,   -3.159,
       -3.012,   -2.518,    1.707,    3.131,   -2.438,   -1.505,   -3.119,
        2.844,    1.131,   -1.735,   -5.721,   -2.659,    2.456,   -0.228,
        4.678,    0.247,    4.548,    6.288,   -6.456,    0.501,  -16.423,
       -3.268,    0.969,    4.610,    0.913,    2.467,   -0.845,    2.303,
       -2.686,    2.529,    1.684,   -0.566,   -7.185,    2.092,   -0.686,
        3.084,    1.565,   -0.454,   -4.478,    1.134,   14.604,   -3.058,
       -3.998,   -1.699,   -1.671,   -1.052,    3.345,   -1.334,   -0.290,
        2.887,    1.189,    3.780,    0.487,    6.621,    1.672,    1.935,
       -0.637,    1.142,   -5.864,    0.023,    1.160,   -1.049,    1.660,
       -0.176,    0.508,   -1.271,    0.238,   -0.845,    0.185,   -4.522,
        2.389,   -0.897,    2.935,   -2.209,    2.763,    2.812,   -0.598,
       -0.822,    0.966,    7.175,   -9.668,    4.625,   -1.462,    3.549,
       -8.812,   -0.887,    3.655,    2.189,   -2.303,   -2.906,   -4.274,
        1.110,   -2.834,    1.170,    1.684,   -1.205,   -4.889,    1.828,
       -2.340,   -1.982,  -14.579,   -5.007,   -3.778,    0.976,   -0.821,
        3.079,   -2.121,    1.386,   -1.114,   -1.681,    3.740,   -0.239,
       -0.533,   -2.997,    1.598,    1.223,    1.399,    1.446,    2.900,
        8.685,    0.628,   -0.035,    0.137,    0.043,   -0.193,    0.165,
       -0.035,   -0.283,   -0.145,   -0.042,    0.073,   -0.005,    0.029,
        0.086,    1.168,   -0.291,   -0.382,   -0.646,   -0.193,    9.291,
       -3.847,   -1.093,    1.223,   -0.941,   -1.559,    2.865,   -2.817,
       -2.016,   -2.633,    0.101,   -4.903,   -1.131,    1.543,   -3.037,
       -1.132,   10.571,   -0.004,    0.794,   -2.971,   -1.381,   12.936,
       -3.384,    1.555,    4.703,    4.153,   -4.038,    2.946,   -1.046,
        0.289,   -0.583,   -2.236,   -0.085,   -1.439,    1.999,    2.900,
       -0.829,   -3.490,   -1.066,   -0.489,   -5.808,  -12.395,    1.464,
        0.888,    1.711,    1.317,    1.420,   -0.677,   -1.329,   -0.861,
       -1.439,   -1.905,   -4.744,    0.778,   -1.806,    0.825,   -0.829,
       -1.164,   -0.808,   -0.254,   -1.809,    1.050,    1.527,   -0.541,
        0.992,   -2.012,   -0.816,   -1.101,   -5.609,   -9.023,   -1.810,
       -1.726
    },
    {  -1.625,   -0.898,    6.899,   -0.964,   -1.840,    0.727,   -0.619,
       -2.540,    2.313,   -3.698,    0.709,    1.423,   -0.842,   -5.248,
        4.466,    1.139,   -0.949,   -0.577,   -4.800,   -2.573,   -1.644,
        6.114,   -2.405,    1.337,   -4.938,   -2.549,    3.187,    2.258,
        0.068,    1.466,   -5.299,   -0.464,    0.570,    1.746,    1.517,
       -3.831,   -7.208,   -3.549,    4.593,    3.059,   20.493,   -2.171,
       -3.850,    1.016,    1.855,   -3.716,    4.936,    2.214,    0.983,
       -2.708,    2.729,   -1.525,   -2.511,   -1.589,   -3.473,   -2.519,
        2.154,    2.929,    6.199,    1.533,    5.661,   -0.589,    2.013,
        0.115,    3.064,   -5.718,   -3.488,    4.503,   -2.714,    4.155,
       -3.992,    0.836,    1.299,   -0.579,   -3.343,   -2.992,   -1.453,
       -4.193,   -2.753,   -1.298,    7.565,    4.409,    2.998,   -0.553,
       -2.534,    2.118,   -5.115,   -5.507,    2.285,   -1.109,   -1.446,
       -0.648,   -0.524,   -7.486,    0.801,   -3.720,    3.054,   -1.564,
       -0.047,   -8.192,   -7.352,   -0.122,   -0.003,   -2.072,    1.229,
       -1.126,    1.101,   -4.787,    0.725,   -0.276,   -1.338,   -2.088,
       -0.378,    0.302,   -1.232,    3.373,    2.500,   -3.824,   -4.467,
        5.311,    0.747,   -0.376,   -0.701,   -0.180,   -0.516,   -8.220,
        3.614,   -4.018,    1.648,    1.664,   -1.163,    1.623,   -0.653,
        1.493,    1.022,   -1.469,    1.670,   -1.234,   -5.615,    2.179,
        0.242,    0.060,    2.266,    2.156,    0.543,    0.842,   -0.381,
       -2.950,    5.393,   -3.552,   -1.265,    4.259,   -0.942,    1.396,
       -0.069,    0.416,    3.341,    5.546,   -5.086,   -0.340,    4.920,
        2.744,    3.738,   -3.343,   -0.601,    0.544,   -1.983,   -5.484,
        1.177,    0.844,    1.017,   -6.325,   -1.230,   -1.557,   -0.887,
       -1.201,    0.168,   -2.161,    4.265,    1.379,    4.308,    1.418,
       -0.561,   -0.337,   -4.245,   -1.972,    0.388,    5.132,    0.842,
        0.625,    0.543,    0.941,    0.265,   -2.791,   -1.778,    9.426,
        1.521,   -4.573,    2.140,    1.869,   -3.012,    1.620,    0.613,
       -1.048,    0.086,    0.515,   -1.764,    2.035,   -2.292,   -0.660,
       -1.215,    1.801,    2.868,    3.433,    9.161,    7.244,    8.554,
       -1.175,    2.398,    3.629,    4.588,    4.219,   -1.893,    1.469,
       -5.720,   -2.170,   -2.873,    2.666,    0.424,    4.035,   -4.573,
       -2.981,   -1.298,   -3.100,    0.641,    0.915,   -3.443,   -0.355,
        4.011,    6.219,    8.047,   -0.506,   -1.733,    1.413,    3.416,
       -0.521,    0.079,   -4.207,    7.314,   -0.705,   -2.120,   -5.252,
       -1.845,    0.452,    2.915,   -1.856,   -2.940,    3.057,    1.738,
        8.299,   -2.979,    0.426,   -4.829,    1.566,    5.899,    2.447,
        4.290,    0.106,   -4.218,   -0.424,   -3.277,    1.688,   -2.035,
       -1.726,    1.782,   -8.435,    1.364,   -0.152,   -0.370,    2.928,
        0.007,   -7.687,   -0.725,    3.010,   -1.383,    4.389,    2.214,
        1.856,   -1.361,   -0.209,   -8.722,   -1.812,    2.495,    4.099,
       -0.476,    3.048,    0.347,    1.874,   -1.148,    1.889,   13.201,
        4.024,    0.685,    4.471,   -2.894,   -4.990,    6.262,    0.440,
       -1.685,    1.751,   -2.667,    4.776,   -4.866,    1.481,    4.262,
        5.167,   -2.194,    2.934,    6.832,    4.718,   -4.571,   -1.653,
       -0.629,    3.924,    4.911,    1.035,   -3.332,   -2.619,    2.811,
        0.514,    4.530,    1.573,   -3.043,    1.835,   -2.165,    2.330,
        0.070,   -2.640,    3.891,   -3.638,    3.671,   -3.030,   -0.348,
       -1.925,    2.454,   -0.452,   -1.440,    2.126,   -3.446,   -7.389,
        1.283,   -0.339,    1.550,   -1.534,    1.130,   -5.654,    6.472,
       -4.096,    2.069,    5.023,    6.494,   -0.928,   -1.442,    1.543,
        0.866,    2.389,   -4.860,    2.962,   -1.489,    6.288,    3.297,
        3.149,    0.249,   -0.467,    4.763,    2.020,    2.532,   -3.556,
       -8.793,   -2.452,   -1.807,    3.485,   -0.578,    1.699,    1.018,
       -0.877,   -3.495,    2.089,   -2.175,   -4.152,    8.092,    5.445,
        1.784,    0.010,   -2.340,   -3.472,   -1.959,   -6.282,   -2.135,
       -1.281,   -3.304,   -0.069,    1.018,    0.917,   -5.099,   -1.402,
       -0.492,    4.291,    7.368,    1.609,   -0.683,   -6.350,   -1.626,
        4.809,    0.404,   -2.174,   -2.052,    3.116,   -0.347,   -2.364,
       -5.345,   -1.821,    2.081,    4.460,   -3.756,   -1.556,   -2.611,
        2.619,    0.148,   -1.500,   -7.596,   -1.233,    4.205,   -3.739,
        2.557,   -0.951,    4.447,    8.632,   -3.595,    0.433,  -17.891,
       -2.022,   -0.778,    5.325,    1.010,    2.778,   -0.490,    0.193,
       -2.604,    4.496,    2.387,    0.550,   -5.978,    1.808,   -1.159,
        1.612,    0.659,    0.770,   -0.517,   -1.638,   13.694,   -4.845,
       -3.668,   -4.014,    1.795,   -1.152,    3.594,   -1.968,    0.427,
        2.114,   -1.700,    1.344,    1.647,    3.878,   -3.162,   -1.465,
        0.012,    1.235,   -1.977,    0.570,   -2.214,   -1.769,    1.075,
       -0.299,    4.013,   -0.233,   -0.346,   -1.177,   -0.533,   -5.190,
        1.733,    0.013,    2.984,   -1.130,   -0.922,    0.920,    1.040,
       -0.080,    0.710,    3.200,  -10.572,    4.161,   -1.939,    3.023,
       -6.590,   -1.135,    3.982,    1.834,   -1.158,   -1.795,   -3.534,
        1.972,   -3.058,   -0.555,   -1.604,    0.142,   -3.345,    1.739,
       -2.519,   -3.901,  -12.341,   -4.884,   -1.708,    0.984,   -2.086,
        3.416,   -3.515,    0.537,   -1.413,   -0.728,    2.640,   -1.562,
       -1.336,   -0.334,    1.209,    2.503,    4.668,   -0.425,    3.824,
        8.719,    0.426,    0.001,    0.224,    0.111,   -0.109,   -0.053,
        0.093,   -0.224,   -0.012,   -0.052,    0.031,    0.046,   -0.024,
        0.510,    0.958,   -0.452,   -0.975,   -0.333,   -0.177,    8.739,
       -0.352,   -0.457,    0.147,   -1.008,   -0.322,    1.997,   -1.763,
       -1.278,   -2.205,    0.140,   -2.970,   -0.010,    1.318,   -0.245,
        0.284,    8.511,   -0.825,   -0.094,   -3.253,    0.321,   14.041,
       -3.163,   -0.425,    4.603,    2.104,   -5.803,    4.004,   -0.963,
        0.463,    1.051,   -2.909,    1.422,    0.513,    4.314,    0.909,
       -2.337,   -2.519,   -0.833,   -2.395,   -3.298,  -10.482,    1.145,
        0.644,    1.138,    1.299,    1.901,   -1.007,   -1.212,   -0.604,
       -1.242,   -1.731,   -5.141,    0.495,   -1.666,    1.072,   -1.060,
       -0.968,   -0.814,   -0.459,   -1.802,    1.275,    1.301,   -0.585,
        1.229,   -1.321,   -0.799,   -1.080,   -3.402,   -8.237,   -1.687,
       -1.696
    },
    {   1.016,    0.208,    7.104,   -1.398,   -2.076,    1.003,   -1.773,
       -2.827,    3.101,   -3.738,   -0.709,    1.699,   -0.697,   -2.856,
        4.303,    0.241,    0.390,    0.120,   -2.843,    0.544,   -2.849,
        5.717,   -3.228,    3.142,   -4.852,   -0.896,    0.884,    2.565,
       -0.297,    2.099,   -5.033,   -2.001,    1.597,   -0.113,    0.123,
       -4.649,   -4.733,   -0.884,    4.772,   -0.236,   19.998,    0.554,
       -2.454,   -1.129,    4.939,   -5.404,    1.980,    2.627,    3.253,
       -2.771,    0.877,   -5.091,   -2.236,   -1.478,   -0.961,    0.149,
        0.867,    6.596,    1.901,    0.101,    9.588,    0.258,    1.772,
        1.469,    4.061,   -5.573,   -3.082,    5.487,   -1.852,    5.722,
       -2.363,    2.096,    1.855,    0.173,   -1.351,   -2.341,    2.571,
       -0.705,   -3.565,   -1.970,    6.869,    2.307,    2.822,   -2.630,
       -3.004,    1.391,   -4.102,   -4.343,    1.171,   -0.633,   -2.891,
       -0.582,   -1.492,   -4.587,    2.639,   -1.993,    3.177,    0.378,
        1.900,   -7.178,  -10.217,    2.164,    0.236,   -1.960,    1.923,
       -2.201,    0.797,   -4.776,   -0.084,    0.759,   -4.610,   -2.592,
       -0.780,    0.509,   -3.484,    0.621,    0.549,   -4.454,   -4.085,
        2.948,    0.317,    1.050,   -1.062,    0.043,   -2.379,   -7.061,
        1.607,   -3.083,    1.204,    0.945,    0.058,    1.309,   -0.434,
       -0.846,   -0.515,   -0.160,    0.793,   -0.685,   -4.485,    1.688,
       -1.933,    2.902,    2.824,    1.815,   -1.758,    0.805,   -0.423,
       -0.989,    2.520,   -3.018,   -3.104,    3.039,    0.750,    2.582,
       -3.502,   -1.022,    1.245,    4.185,   -3.820,   -1.093,    5.042,
        3.242,    3.187,   -3.312,    0.962,    0.543,   -1.910,   -5.232,
       -0.243,    0.210,    2.388,   -5.060,   -2.457,   -0.043,    0.102,
       -1.376,    1.183,   -5.292,    2.890,    0.141,    4.532,    1.813,
       -0.958,   -0.674,   -2.679,   -1.976,    0.142,    4.949,    1.217,
        0.463,    0.641,    1.492,    0.561,   -3.153,   -1.740,    9.545,
        1.661,   -3.646,    1.275,    1.209,   -2.262,    1.379,    0.890,
       -0.605,   -1.321,    1.214,   -1.749,    2.024,   -1.274,    0.234,
        0.186,    1.073,    2.162,    3.403,    6.948,    6.205,    7.473,
       -1.356,    1.143,    3.392,    2.494,    2.896,   -0.045,    0.257,
       -5.957,   -1.866,   -2.646,    2.142,    0.639,    1.054,   -4.903,
       -3.975,   -1.405,    2.556,    0.809,    2.329,   -0.432,   -1.020,
       -0.188,    1.886,    7.107,   -0.574,   -1.296,    1.320,    3.346,
       -0.412,    0.723,   -4.492,    6.252,   -0.660,   -1.172,   -4.406,
       -1.510,    1.606,    0.415,    1.814,   -5.103,    3.241,    1.035,
        8.137,   -2.885,    1.925,   -3.908,    1.080,    2.798,    2.366,
        3.308,    0.594,   -3.024,   -0.325,   -2.051,    0.875,   -2.049,
       -1.214,   -2.055,   -5.182,    1.026,   -0.639,    0.739,    0.008,
        1.621,   -6.412,   -1.450,    3.253,   -0.042,    4.643,    2.589,
       -0.243,   -1.743,   -0.473,   -7.245,    0.619,    2.456,    1.764,
        1.339,    4.146,    3.451,   -0.027,   -1.654,    3.911,   10.617,
        3.224,    0.017,    4.341,   -1.193,   -5.472,    6.619,    1.512,
       -1.385,    1.803,   -4.758,    4.703,   -3.209,    1.617,    4.271,
        2.937,    1.788,   -0.822,    3.504,    4.196,   -5.171,   -1.070,
       -0.088,    2.739,    3.362,    0.099,   -2.278,   -2.716,    2.287,
        0.322,    1.816,    0.003,   -1.664,    1.075,   -3.827,    4.231,
       -0.944,   -1.652,    3.340,   -2.270,    5.905,   -2.014,    0.790,
       -4.260,   -1.834,    0.578,    1.359,    0.088,   -2.199,   -6.511,
        2.635,   -2.572,   -0.659,   -3.305,    2.174,   -3.493,    3.718,
        1.354,    2.773,    2.782,   10.260,   -3.709,   -2.433,    1.230,
        1.799,    3.821,   -6.036,    1.872,   -1.704,   10.305,    4.346,
        4.040,   -0.124,   -0.288,    2.690,    3.008,    1.316,   -5.943,
       -9.613,   -0.315,   -1.674,    2.545,    0.005,    3.055,    1.573,
       -1.108,   -2.459,    1.192,   -1.979,   -4.151,    8.130,    5.102,
        2.664,    1.914,   -1.296,   -4.551,   -3.405,   -5.434,   -1.521,
       -1.285,   -3.393,    0.590,    0.839,    0.216,   -4.089,   -1.437,
       -0.695,    5.720,    7.646,    1.507,    1.017,   -6.711,   -1.718,
        4.764,    2.672,   -2.512,   -2.792,    2.326,   -3.919,   -2.307,
       -7.246,   -5.466,    2.197,    3.938,   -3.467,   -1.744,   -3.777,
        0.113,    0.834,   -1.948,   -3.680,   -3.049,    1.811,   -3.766,
        3.653,   -1.289,    0.419,    5.433,   -6.016,    0.523,  -15.343,
       -3.031,    0.297,    5.361,    0.867,    3.262,   -0.606,   -1.066,
       -2.032,    3.491,    2.133,   -0.856,   -5.048,    0.713,    1.986,
        2.159,   -2.183,    2.732,   -0.763,    1.044,   12.942,   -4.882,
       -0.351,   -1.281,    0.047,   -4.120,    2.557,   -4.352,    3.779,
       -0.278,   -3.987,    1.541,    1.430,    1.230,   -5.176,    1.040,
       -0.444,   -2.686,    0.605,    1.209,   -2.156,   -2.512,    2.051,
       -1.514,    4.422,   -0.505,   -2.853,    0.715,   -0.660,   -9.335,
        3.709,    2.339,    4.336,    1.099,   -3.530,    1.544,    4.164,
        2.576,    0.427,    4.825,   -7.063,    3.516,   -1.547,    1.989,
       -5.628,   -0.351,    3.958,    4.412,   -0.528,   -1.672,   -4.492,
        1.413,   -3.302,   -0.324,   -1.100,    2.512,   -3.172,    0.432,
       -4.846,    0.803,  -11.445,   -0.870,   -2.755,    1.831,    0.417,
        4.992,   -2.949,   -1.461,   -2.021,   -0.746,    3.243,   -1.199,
       -0.856,    4.023,   -1.233,    0.403,    1.935,    0.844,    4.269,
        4.516,    1.569,   -0.115,    0.097,   -0.027,   -0.372,   -0.074,
        0.092,   -0.201,   -0.035,   -0.088,    0.045,    0.075,   -0.068,
        0.886,    2.042,   -0.219,    0.062,    0.465,   -0.071,   11.117,
        1.029,   -1.090,    0.856,   -0.727,   -0.311,    1.901,   -1.895,
       -0.908,   -2.327,   -0.159,   -2.301,   -0.394,    1.687,    0.208,
        1.634,   10.660,   -1.198,   -0.217,   -3.325,   -0.216,   10.716,
       -4.253,   -1.272,    1.164,    0.293,   -3.680,    4.847,    0.732,
        1.072,    2.998,   -3.632,    0.230,   -0.046,    2.119,   -0.047,
       -3.840,   -3.225,   -4.701,   -3.792,    1.942,   -9.299,    1.824,
        0.968,    0.856,    1.299,    1.837,   -0.799,   -1.038,   -1.008,
       -1.436,   -1.955,   -5.339,    0.339,   -2.003,    1.173,   -1.094,
       -0.931,   -0.782,   -0.154,   -1.758,    1.385,    1.325,   -1.103,
        1.776,   -1.705,   -0.902,   -1.058,   -4.272,   -8.116,   -1.795,
       -1.723
    },
    {   2.606,    0.158,    7.173,   -1.204,   -0.405,    0.892,   -0.762,
       -2.222,    3.129,   -3.953,    0.652,    1.947,   -1.233,   -0.299,
        7.311,   -1.425,    1.610,    0.321,   -4.309,   -1.526,   -3.258,
        5.189,   -1.653,    2.146,   -1.065,   -2.224,    1.602,    0.288,
       -1.305,    1.191,   -2.504,   -0.621,    0.942,   -1.246,   -2.235,
       -8.703,   -0.242,   -1.067,    3.194,   -0.523,   21.137,   -0.701,
       -3.470,   -1.612,    0.761,   -3.037,    2.759,    1.888,    1.457,
       -3.356,    3.844,   -4.266,   -2.828,   -1.246,   -1.585,   -0.082,
        0.262,    7.877,    1.844,    4.106,    9.123,   -1.158,    2.614,
        0.977,    1.657,   -5.727,   -2.861,    4.694,   -1.801,    4.301,
       -0.284,    1.435,    0.060,   -0.468,    1.955,   -2.235,    3.589,
        1.451,   -2.704,   -1.725,    7.631,    0.462,    2.404,   -1.658,
        0.619,    1.482,   -3.342,   -5.150,    2.239,   -1.078,   -1.632,
       -1.198,   -0.266,    2.292,    1.806,   -0.462,    0.873,    0.210,
       -1.165,   -7.462,  -14.716,    2.564,    1.002,   -2.134,    4.017,
       -3.442,   -0.037,   -4.864,    0.232,    1.283,   -7.816,   -2.723,
       -0.045,    2.188,   -6.320,   -0.393,    1.159,   -3.448,   -2.907,
       -1.659,    0.095,    2.376,   -1.671,    0.531,   -4.876,   -8.934,
        2.324,   -4.627,    3.219,    1.259,   -1.244,    1.180,   -0.284,
       -1.675,   -1.108,    4.286,    1.905,   -1.638,   -6.964,    1.654,
        1.568,    3.222,    3.584,    1.633,    0.921,    0.040,    0.758,
       -2.442,    1.355,   -2.799,    1.471,    1.631,    0.798,    2.215,
        1.958,    1.943,   -0.875,    6.388,   -2.155,   -2.852,    3.144,
        3.324,    3.214,   -3.127,   -0.004,    0.463,   -1.124,   -4.881,
        0.178,    0.163,    1.857,   -4.855,   -1.821,   -0.877,   -4.410,
       -0.259,   -0.709,   -3.309,    4.836,   -1.013,    5.831,    0.860,
       -0.665,   -0.119,   -2.788,   -2.401,    0.376,    5.580,    1.435,
        0.535,    1.151,    1.870,    0.468,   -0.629,   -3.446,    9.501,
       -0.721,   -5.933,    0.668,    5.148,   -2.162,    0.469,    0.468,
       -0.636,   -0.702,    0.268,   -1.073,    0.824,   -0.578,   -0.184,
       -0.165,    0.631,    2.323,    2.425,    5.120,    4.863,    3.898,
       -1.750,   -0.049,    4.654,    0.462,    2.061,   -0.666,    3.314,
       -3.386,    1.350,    0.037,    2.538,    0.755,    0.341,   -2.295,
       -3.414,   -0.919,    2.522,   -1.811,    4.287,    3.108,   -1.316,
       -2.645,   -0.093,    6.235,    0.367,   -1.236,    0.980,    4.460,
       -0.741,    0.640,   -3.904,    6.229,   -1.267,   -2.084,   -4.009,
       -1.132,   -0.398,    2.430,    1.982,   -3.774,    1.530,    1.634,
        2.962,   -4.624,    3.136,   -5.244,    0.782,    0.447,    2.724,
        5.797,    1.212,   -6.994,   -1.574,   -1.298,    2.829,   -2.828,
        1.382,    0.208,    0.175,   -7.700,   -2.410,    1.253,   -2.321,
       -1.020,   -3.869,   -1.260,    2.469,   -1.624,    4.670,    2.129,
        0.269,   -1.514,   -1.213,   -7.176,   -0.178,    2.506,   -2.506,
        2.186,    1.264,    0.565,    1.145,   -1.476,    3.150,    5.558,
        2.448,    0.870,    3.305,   -1.009,   -4.824,    4.380,   -0.423,
       -1.288,    1.702,   -2.405,    4.032,   -3.255,    1.621,    1.226,
       -1.138,    1.970,   -1.540,    1.750,    4.388,   -1.638,   -3.032,
       -1.140,    2.972,    5.125,    0.282,   -3.533,   -3.772,    3.273,
       -0.086,    4.205,    2.045,   -3.037,    0.442,   -1.285,    7.530,
        3.209,   -3.659,    4.120,   -0.361,    1.354,   -5.114,    1.744,
       -6.095,   -0.749,    1.124,    0.217,    1.937,   -2.535,   -4.527,
        0.586,   -1.040,    2.751,   -2.469,    1.668,    1.151,   -0.988,
        4.827,   -0.293,    1.381,    7.214,   -3.921,   -0.843,    0.845,
        0.816,    2.187,   -4.726,    2.428,   -2.411,    5.870,    3.524,
        2.602,    0.576,    0.379,    3.847,    0.913,    3.851,   -3.124,
       -7.695,    0.499,   -0.229,    3.136,    1.223,    2.427,    0.525,
       -1.457,   -2.695,    0.013,   -2.533,   -2.594,    8.912,    4.716,
        2.509,   -0.710,   -0.201,   -2.550,   -2.219,   -3.795,   -2.134,
       -0.307,   -4.502,    0.569,    1.391,    0.608,   -4.592,   -1.663,
       -1.307,    3.019,    8.916,    1.889,   -1.594,   -7.551,   -1.276,
        4.960,    1.955,   -3.057,   -1.045,    3.364,    1.107,   -3.705,
       -4.145,   -5.238,    0.688,    4.549,   -2.020,    0.440,   -4.012,
       -1.744,   -0.768,    0.558,   -3.351,   -2.223,    1.778,    0.750,
        1.509,    4.740,   -2.707,    2.184,   -3.523,    3.759,  -17.069,
       -1.277,    0.852,    3.996,   -2.735,    1.865,   -0.162,   -1.883,
       -3.213,    4.200,    0.052,   -6.692,   -1.748,    3.139,    2.579,
        1.605,   -2.230,    5.655,    1.770,    5.048,   11.505,   -2.117,
       -1.147,   -0.155,    1.185,   -7.611,    1.439,   -2.416,   -1.056,
        0.204,   -2.349,    2.661,    3.175,   -3.538,   -4.086,    3.473,
       -0.670,   -2.387,    0.491,    2.497,   -3.095,   -3.716,    1.929,
       -0.754,    3.815,   -0.694,   -1.717,   -0.918,    0.827,   -8.653,
        3.586,    1.327,    4.988,    3.167,   -2.302,    4.547,    6.239,
        2.172,   -1.332,    4.093,   -4.003,    4.192,   -1.086,    2.553,
       -5.585,   -1.324,    3.970,    1.163,   -2.504,   -3.358,   -2.863,
        0.647,   -3.664,    3.420,   -0.279,    2.696,   -4.428,    1.604,
       -3.260,    4.138,  -11.319,   -5.660,   -1.065,    1.174,   -0.504,
        2.277,   -1.947,    0.805,   -1.262,   -0.705,    3.079,   -0.893,
       -0.705,    2.425,    1.721,    4.459,   -1.338,    2.390,    2.448,
       -0.880,    1.389,   -0.024,    0.170,    0.034,   -0.372,   -0.026,
       -0.123,   -0.340,   -0.064,   -0.001,    0.123,    0.013,    0.071,
        1.237,    1.661,   -0.933,   -0.211,   -0.180,   -0.251,   11.299,
        1.007,   -0.960,    1.317,   -1.106,   -0.909,    2.930,   -2.780,
       -1.623,   -3.435,   -0.027,   -3.195,   -0.615,    1.622,   -0.190,
        3.436,   15.531,    4.281,    3.038,   -6.148,   -2.540,   13.200,
       -4.401,   -2.011,   -0.092,    0.008,    1.571,    2.541,    2.330,
       -0.797,    5.976,   -3.361,    0.805,    1.525,   -3.276,   -1.962,
       -2.373,    2.503,   -7.689,   -4.537,    4.975,  -12.264,    1.595,
        0.697,    1.037,    1.017,    1.565,   -0.874,   -1.035,   -0.995,
       -1.385,   -1.715,   -5.449,    0.489,   -1.582,    0.908,   -0.987,
       -1.007,   -0.650,   -0.296,   -1.317,    1.290,    0.972,   -0.658,
        0.817,    0.334,   -0.794,   -1.137,   -4.682,   -7.049,   -1.482,
       -1.802
    },
    {   2.058,    1.081,    7.528,   -0.625,   -1.740,    1.730,   -1.126,
       -3.108,    2.614,   -3.181,    0.529,    3.048,   -1.140,   -1.616,
        3.787,   -2.245,    3.863,   -1.573,   -4.867,    0.110,   -6.043,
        4.254,   -3.988,   -0.140,    2.177,   -1.036,    2.133,    2.363,
       -4.039,    0.602,   -0.462,   -4.375,    3.466,   -5.155,   -0.561,
       -9.737,   -1.259,   -0.316,    5.296,   -3.104,   19.170,   -1.198,
       -0.056,    0.173,    3.086,   -3.560,    3.573,    1.421,    1.038,
       -1.170,    1.195,   -4.422,   -2.288,    0.413,    3.739,   -1.473,
        3.075,    4.348,   -0.455,    4.442,    7.130,    0.460,    1.654,
        1.917,    4.063,   -5.515,   -2.571,    4.261,   -0.131,    3.729,
       -1.030,    0.543,   -0.467,   -0.547,   -1.390,   -0.422,   -2.173,
        1.766,   -2.299,   -0.673,    7.496,    2.657,    2.418,   -0.208,
       -0.134,    3.587,   -3.987,   -5.538,    1.675,   -1.359,   -3.260,
       -0.968,   -0.292,    2.165,   -3.262,   -3.039,    1.773,    0.413,
        1.435,   -9.223,  -15.075,    5.112,   -2.408,   -0.990,    3.163,
       -0.771,    0.452,   -2.231,   -1.462,    2.409,   -9.023,   -0.958,
       -0.038,   -0.047,   -8.027,    2.437,    1.996,   -5.553,   -1.894,
       -1.358,    0.614,   -0.125,   -0.469,   -0.074,   -4.208,   -9.557,
        2.760,   -3.336,    3.318,    1.511,   -2.077,   -0.347,   -1.716,
       -3.693,    1.253,    7.720,    4.009,   -1.864,   -7.644,    0.945,
        2.014,    3.594,    4.780,    2.480,    1.209,    1.275,    2.190,
       -2.056,    2.295,   -2.788,    0.320,    3.173,    0.397,    3.592,
        4.065,    3.734,   -0.698,    8.909,   -2.027,   -5.345,    0.321,
        2.275,    2.283,   -2.076,    0.014,    0.758,   -0.595,   -4.185,
        0.587,    0.009,    1.143,   -4.127,   -1.386,   -0.471,   -4.505,
       -2.191,   -1.101,   -2.758,    2.840,   -0.464,    7.253,    0.071,
       -1.150,    0.200,   -2.955,   -2.609,    0.536,    5.048,    1.613,
        0.907,    0.948,    1.667,    0.588,   -0.791,   -4.603,    8.579,
       -0.010,   -7.276,    0.586,   11.061,   -1.441,    0.206,    0.489,
       -0.239,   -1.015,    0.891,   -1.744,    2.087,   -1.171,    0.217,
       -0.691,    0.344,    1.988,    3.030,    6.668,    5.588,    5.787,
       -0.386,    0.983,    3.480,   -3.860,    0.279,   -1.584,    4.810,
       -6.744,    2.285,    1.052,    0.166,   -1.625,    0.073,    1.065,
       -3.764,   -1.423,    3.211,   -2.508,    4.336,    2.455,   -3.457,
       -0.941,   -2.460,    6.675,   -0.696,   -1.822,    1.013,    2.925,
       -0.165,    0.794,   -3.516,    7.291,   -0.643,   -2.076,   -4.968,
       -1.457,    1.354,    2.328,   -0.143,   -3.429,    2.646,    1.708,
        5.263,   -3.448,    1.427,   -5.805,    1.818,    2.161,    2.846,
        8.091,    0.129,   -7.622,   -2.333,   -3.087,    3.773,   -3.832,
       -0.042,    2.993,   -0.150,  -10.688,    2.464,    3.643,   -2.994,
       -1.221,   -5.384,   -1.431,    2.578,   -0.161,    4.354,    2.164,
        2.310,   -2.360,   -1.896,   -8.571,    0.003,    1.602,    0.653,
        4.177,    1.926,   -1.276,    1.940,   -2.334,   -1.143,    2.978,
        4.583,    1.729,    3.565,   -1.431,   -4.148,    5.364,    0.540,
       -1.450,    1.696,   -3.980,    2.981,   -2.612,   -7.051,   -0.896,
       -1.079,    0.083,    1.563,    2.809,    3.097,   -0.712,   -2.599,
       -0.250,    4.172,    6.371,    0.284,   -3.309,   -3.212,    5.248,
        0.290,    5.814,   -0.406,   -3.184,   -0.990,    2.805,    6.030,
        5.005,   -4.313,    5.986,    0.565,    2.795,   -5.256,    1.800,
       -7.053,    0.645,    2.270,   -0.816,    1.348,   -3.132,   -5.825,
        2.527,   -0.027,    2.205,   -1.635,    0.697,    0.983,   -1.554,
        2.216,   -0.673,    1.686,    3.962,   -0.589,   -1.069,    0.233,
       -0.249,    2.003,   -2.069,   -0.054,   -1.475,    3.350,    2.916,
        1.519,    0.169,    0.002,    0.232,    1.623,    2.598,   -0.904,
       -3.453,   -0.224,   -3.314,    2.285,   -0.152,    1.575,    0.474,
       -0.937,   -1.412,    1.354,   -2.465,   -2.293,    7.033,    4.287,
        1.334,    1.397,   -2.131,   -5.506,   -2.291,   -2.622,   -4.446,
       -1.242,   -1.396,    0.703,   -0.596,    1.074,   -3.130,   -0.976,
       -0.829,    5.055,    8.281,    1.332,   -0.473,   -6.443,   -1.366,
        2.702,    4.397,    0.232,   -2.185,    2.607,   -0.734,   -1.946,
       -1.411,   -4.112,    0.938,    3.056,   -1.528,   -0.684,   -3.320,
       -0.962,    0.559,   -1.551,   -2.509,   -2.060,    1.200,    2.827,
        0.862,    7.976,   -1.056,    3.502,   -3.875,    1.794,  -18.588,
       -0.527,    0.835,    5.928,   -5.609,    1.068,    4.362,    0.699,
       -3.305,    3.618,   -0.657,   -2.127,   -2.314,    0.505,    1.308,
       -1.938,   -6.222,    4.467,    2.405,    2.222,    8.096,    0.329,
        0.708,    1.429,   -0.114,   -3.346,    3.321,   -2.822,   -2.518,
        1.139,   -2.257,    2.477,    2.320,   -6.192,   -5.206,   -1.154,
        1.475,   -1.041,   -0.241,   -2.442,   -4.637,   -1.768,    0.459,
        2.836,    1.854,   -2.287,   -0.256,   -2.636,   -2.688,  -10.542,
        1.503,    0.455,    2.994,   -1.040,   -0.144,    6.873,    4.167,
        1.003,   -0.744,    3.789,   -5.564,    2.671,   -1.817,    2.993,
       -6.705,   -0.583,    3.735,    2.289,   -1.046,   -1.748,   -2.946,
        1.116,   -3.003,    5.425,    0.324,    1.791,   -0.854,    0.243,
       -5.137,    1.948,   -9.287,   -3.674,   -2.758,    1.532,    1.347,
        2.052,   -1.855,   -1.118,   -1.155,   -1.290,    2.108,   -0.078,
       -1.384,    0.632,    5.795,    2.807,    0.619,    3.085,    5.072,
       -2.084,    0.545,   -0.229,    0.064,    0.072,    0.032,    0.008,
        0.137,   -0.109,   -0.113,   -0.014,    0.064,    0.102,    0.105,
        0.762,    1.046,   -1.463,    0.213,   -0.272,   -0.124,    8.126,
       -1.102,   -0.532,    0.386,   -1.064,    0.914,    2.437,   -2.547,
       -2.041,   -3.059,   -0.356,   -2.196,   -0.523,    1.769,   -1.139,
        1.205,   12.681,    0.587,    0.028,   -6.734,   -1.367,   14.008,
       -1.687,   -0.223,    0.682,   -1.802,    0.789,    3.541,    2.679,
       -5.074,    1.927,   -2.672,    2.650,    3.049,   -1.258,   -5.856,
        2.116,    5.319,   -4.834,   -1.499,   -2.356,  -13.537,    1.838,
        0.876,    1.236,    0.796,    1.589,   -0.787,   -1.096,   -1.288,
       -1.717,   -1.829,   -5.713,    0.721,   -1.381,    0.902,   -1.075,
       -0.828,   -0.828,   -0.503,   -1.261,    1.060,    1.405,   -1.064,
        0.346,   -0.137,   -0.429,   -1.236,   -4.405,   -7.247,   -1.343,
       -0.586
    },
    {  -0.672,    0.161,    5.452,   -0.691,   -0.584,    1.494,   -1.323,
       -2.585,    2.817,   -2.597,   -0.087,    2.179,   -0.943,   -2.923,
        3.318,   -5.123,    3.640,   -3.644,   -5.059,    2.249,   -4.901,
        5.792,   -3.624,   -0.340,    0.728,   -1.744,    2.082,    1.432,
       -5.662,   -0.098,    0.428,   -4.475,    3.087,   -5.019,   -0.439,
       -3.849,   -1.764,    0.921,    4.525,   -3.880,   18.359,   -0.193,
       -2.146,   -0.715,    1.268,   -4.175,    2.598,    2.511,    2.091,
       -3.233,    3.947,   -4.080,   -1.919,    2.658,    1.427,    1.095,
       -0.930,    5.622,   -1.858,    2.539,    9.370,    2.056,    0.792,
        0.945,    1.025,   -2.053,   -2.303,    2.433,   -0.676,    4.110,
        2.130,   -1.491,   -0.905,    0.519,   -2.812,    0.657,   -2.007,
        2.681,   -2.282,    1.181,    6.368,    3.846,    4.324,    0.064,
       -1.823,    2.643,   -4.764,   -5.579,    2.734,   -0.947,   -2.356,
       -2.974,   -0.650,   -1.874,   -5.598,   -4.899,    1.431,   -1.232,
        0.110,   -8.682,  -13.482,    1.321,   -1.668,   -1.821,   -0.305,
       -1.883,   -0.507,   -3.076,   -1.425,    1.794,   -6.826,   -1.490,
       -0.053,    0.695,   -5.241,    2.155,    5.807,   -2.440,   -1.300,
       -2.510,    0.033,   -0.476,   -0.737,   -0.704,   -4.654,  -10.165,
        3.454,   -3.340,    4.101,    1.319,   -2.016,    0.787,   -1.827,
       -3.695,    2.139,    4.453,    3.845,    1.776,   -6.044,   -0.542,
        0.101,    4.400,    2.801,    1.567,   -0.010,   -0.190,    0.342,
       -1.967,    1.507,   -1.910,   -1.456,    2.300,    0.426,    4.905,
        0.313,    0.740,   -1.910,    7.293,   -2.236,   -3.103,    3.339,
        2.001,    2.993,   -3.136,    0.136,    1.328,   -1.580,   -4.992,
       -0.553,   -0.657,    0.960,   -5.340,   -1.113,   -0.614,   -2.170,
       -2.196,   -2.055,   -2.525,    5.073,    1.289,    8.415,    0.639,
       -0.992,   -0.195,   -3.388,   -2.691,    0.823,    6.709,    1.446,
        0.651,    2.093,    1.505,    1.120,   -1.889,   -2.572,    7.594,
        3.132,   -7.846,    0.741,    9.420,   -1.735,    0.632,    0.267,
       -0.379,   -1.314,    1.216,   -1.321,    2.012,   -0.671,    0.073,
       -0.548,    0.889,    1.520,    2.391,    6.458,    5.169,    4.259,
       -0.442,    0.463,    3.584,   -1.270,    3.814,   -3.149,    5.395,
       -9.258,    3.726,    1.508,    0.698,   -1.443,    2.593,   -2.208,
       -4.927,   -0.221,    4.053,   -4.992,    6.037,    2.370,   -2.077,
        0.093,   -0.851,    6.109,    0.388,   -1.593,    1.572,    2.986,
       -0.671,    0.872,   -4.013,    6.667,   -0.070,   -2.746,   -4.351,
       -1.417,    1.372,   -1.251,    1.516,   -5.087,    4.683,    2.663,
        5.599,   -4.340,   -3.507,   -6.538,    2.682,    1.853,    2.078,
        8.448,   -0.929,   -8.444,   -1.959,   -6.364,    4.772,   -4.405,
        0.381,    0.765,   -2.993,   -5.682,    1.714,    5.473,    2.551,
       -0.606,   -6.239,   -0.796,    2.423,    2.098,    3.900,    3.096,
        1.071,   -2.615,   -1.559,   -7.186,    0.207,    1.542,    1.986,
        3.974,    1.437,    1.063,    0.017,   -1.236,   -2.204,    3.379,
        3.116,    1.374,    3.923,   -1.667,   -6.158,    5.798,   -0.886,
       -0.622,    0.539,   -1.128,    3.132,   -5.647,   -5.978,   -2.415,
        1.536,    1.579,    2.003,    1.489,    0.146,   -4.925,   -0.468,
       -0.753,    6.060,    4.398,    2.375,   -2.752,   -1.494,    5.703,
       -0.512,    7.233,   -0.293,   -3.685,   -1.825,    5.324,    2.388,
        3.701,   -4.508,    5.657,   -4.026,    3.869,   -3.828,    2.693,
       -3.536,    3.706,    1.302,   -0.243,   -0.862,   -1.367,   -2.804,
        3.061,   -1.201,    2.621,    2.408,    0.182,   -0.371,   -1.832,
        0.703,   -0.958,    2.770,    3.660,    0.659,   -1.248,    0.434,
       -1.548,    2.308,   -1.522,   -0.574,   -2.324,    3.745,    2.862,
        1.439,    0.091,    0.446,   -3.096,    3.377,    0.930,    1.533,
       -3.234,    0.138,   -0.881,    2.558,    0.403,    1.750,    1.500,
       -1.354,   -1.906,    1.000,   -2.293,   -2.888,    8.453,    4.027,
        1.755,    4.646,   -2.820,   -1.805,   -2.756,   -1.023,   -3.906,
       -2.591,   -1.609,    2.222,   -0.037,    1.090,   -4.665,   -1.223,
       -0.937,    4.769,    6.805,    1.427,   -0.267,   -5.808,   -1.609,
        3.995,    0.365,   -1.522,    4.032,    0.680,   -2.241,   -1.134,
       -1.155,   -4.127,   -0.294,    3.473,   -0.823,    0.754,   -1.991,
       -0.653,   -0.373,   -0.530,   -0.841,   -1.404,    1.657,    0.989,
       -1.976,   13.068,   -1.026,    3.910,   -4.911,    0.462,  -23.933,
       -1.410,   -1.551,    7.282,   -1.285,   -2.863,    3.362,    2.148,
       -2.522,    2.565,   -6.104,    0.929,   -2.661,   -0.507,    0.949,
       -0.111,   -6.434,    0.744,    0.302,    1.545,    6.454,   -1.847,
        0.834,    0.576,   -2.377,    4.335,    2.165,   -1.547,   -3.678,
        3.670,   -1.969,    2.024,    1.251,   -5.351,   -1.055,   -1.360,
       -0.955,    1.704,    3.262,   -1.679,   -8.776,    1.364,    2.281,
        1.221,    1.735,   -0.472,   -1.533,    0.008,   -1.680,   -9.775,
        1.916,   -0.392,    2.987,   -2.947,    1.618,    4.376,   -3.445,
       -3.388,    3.629,    0.620,   -6.605,    3.209,   -1.370,    2.192,
       -6.355,   -1.284,    3.655,    3.338,   -0.720,   -1.638,   -2.730,
        0.700,   -3.735,    3.565,    1.001,    2.494,   -2.154,    1.590,
       -4.691,   -0.459,   -9.795,   -5.633,   -2.708,    1.485,   -0.699,
        2.280,   -2.327,    0.910,   -1.038,   -1.116,    2.790,   -0.528,
       -1.200,    1.394,    8.301,    2.592,    2.490,    2.327,    3.410,
        1.317,    0.874,   -0.189,    0.192,    0.028,   -0.357,   -0.031,
       -0.072,   -0.335,   -0.089,   -0.185,   -0.057,   -0.006,    0.112,
        1.282,    1.590,   -2.061,    0.153,   -0.578,    0.141,   11.368,
        1.249,   -0.560,    0.673,   -0.851,    0.602,    1.936,   -2.846,
       -1.450,   -3.193,   -0.134,   -1.438,   -0.554,    0.981,   -1.620,
        3.692,   10.222,    2.695,   -0.077,   -6.889,    0.443,   15.808,
       -5.353,   -0.908,    2.267,    1.193,    2.146,    4.650,   -0.510,
        0.113,   -0.141,   -0.869,    2.624,    2.728,    0.526,   -7.467,
        3.398,    4.235,   -1.202,    2.945,   -7.966,  -15.162,    1.500,
        1.116,    1.088,    1.231,    1.960,   -1.136,   -1.384,   -1.353,
       -1.335,   -2.404,   -6.898,    0.386,   -1.907,    1.357,   -1.119,
       -0.905,   -0.840,   -0.666,   -1.672,    1.563,    1.564,   -1.159,
        0.801,    0.325,   -0.757,   -1.353,   -5.010,   -8.685,   -1.650,
       -2.329
    },
    {  -0.522,    0.382,    5.228,   -0.600,   -1.249,    1.174,   -0.713,
       -2.080,    1.999,   -2.617,   -0.179,    1.541,   -0.569,   -2.492,
        4.811,   -7.472,    2.126,   -2.385,   -3.414,    2.215,   -1.990,
        5.043,   -1.947,    1.325,   -0.917,   -0.207,    0.719,    4.118,
       -4.120,    0.263,    1.454,   -4.218,    2.108,   -2.153,    1.111,
        1.777,    0.397,    1.247,   -0.991,   -6.326,   17.557,    0.887,
       -3.386,    1.292,   -0.766,   -4.190,    2.029,    1.655,    0.249,
       -1.695,    5.461,   -3.320,   -1.434,    5.128,    0.663,    1.274,
       -4.654,    6.174,   -2.620,   -2.113,    6.606,    2.445,    0.841,
        1.748,   -2.225,   -1.014,   -2.685,    4.498,   -1.708,    4.755,
        1.564,   -1.584,   -0.843,    0.494,   -3.431,   -4.956,   -1.852,
        2.416,   -0.959,    0.774,    9.656,    1.824,    3.535,   -0.985,
       -3.497,    3.185,   -5.645,   -7.357,    2.355,   -0.949,   -4.328,
       -1.647,    0.185,   -1.811,   -2.278,   -2.238,    2.523,   -0.591,
        0.566,   -9.245,  -14.115,    3.185,   -1.743,   -2.170,    1.610,
       -1.557,   -1.163,   -2.659,   -0.976,    1.847,   -6.117,   -2.433,
       -0.072,   -4.053,    1.671,    4.334,    4.276,   -3.851,   -7.795,
        1.159,   -0.274,   -0.249,   -2.404,   -0.226,   -5.933,   -8.548,
        2.706,   -4.090,    3.426,    0.841,   -2.832,    0.358,   -0.299,
       -3.841,    6.275,    2.150,   -1.335,    0.110,   -5.451,    0.941,
       -0.861,    3.675,    2.669,    1.250,   -0.076,   -0.033,   -0.396,
       -1.889,    1.083,   -3.064,   -1.221,    2.689,    0.402,    0.353,
        1.146,   -3.654,    0.347,    4.590,   -3.213,   -0.052,    4.277,
        2.059,    3.199,   -2.202,    0.180,    1.683,   -0.764,   -5.243,
        0.426,   -0.690,    1.061,   -5.945,   -0.790,   -1.576,   -2.370,
       -0.650,   -2.243,   -1.533,    5.163,    3.499,    5.725,    0.186,
       -0.327,   -0.613,   -2.942,   -1.377,    0.130,    3.893,    0.897,
        0.216,    1.472,    0.303,    0.610,    0.926,   -3.420,    5.168,
       -0.319,   -4.022,    0.190,    7.905,   -2.217,    1.167,   -0.111,
       -0.425,   -1.655,    1.546,   -1.338,    1.962,   -0.755,    0.380,
       -0.884,    0.931,    2.628,    3.589,    7.816,    6.788,    4.526,
       -0.527,    0.941,    4.777,   -4.281,    7.037,   -0.288,    3.753,
       -4.971,    3.579,    0.142,   -1.446,    1.186,    0.606,   -3.688,
       -0.050,    1.086,    2.532,   -3.998,    3.217,    1.278,    1.322,
       -0.895,   -2.746,    8.006,   -1.182,   -1.650,    0.952,    4.106,
       -0.400,    0.148,   -3.950,    7.175,   -0.706,   -2.010,   -5.096,
       -1.675,   -0.426,    2.466,    2.944,   -3.431,    0.086,    1.251,
        7.447,   -1.936,   -3.638,   -8.803,    3.172,    3.664,    2.885,
       10.016,   -2.856,   -9.525,   -2.032,   -5.053,    5.806,   -4.859,
        1.194,    2.283,   -1.644,   -5.153,    4.761,    6.360,    2.470,
       -0.404,   -5.249,   -1.768,    3.005,    1.086,    0.910,    3.347,
        1.820,   -1.230,   -0.903,   -8.719,    2.668,    0.810,    3.159,
        0.326,    1.688,    0.489,    1.164,   -0.474,    2.274,    2.639,
        1.474,   -0.028,    2.920,   -1.231,   -5.183,    6.149,    1.794,
       -2.449,    0.377,   -3.198,    4.166,   -6.469,   -2.755,   -3.974,
        1.312,    3.374,   -0.570,    0.561,   -1.564,   -5.115,   -1.829,
       -3.086,    4.720,    5.233,    1.973,   -2.224,    1.161,    4.867,
       -1.462,    3.251,    0.590,   -1.636,    1.592,    3.238,    1.847,
       -1.817,   -7.416,    6.777,   -5.461,    3.547,   -5.342,    3.606,
       -3.914,    3.509,    0.765,    1.171,   -1.623,   -0.952,    0.423,
       -0.862,   -1.954,    3.223,    6.803,   -1.139,   -0.377,   -4.030,
        2.510,   -0.411,    5.524,    5.590,    1.245,   -1.807,    0.553,
       -2.455,    3.469,   -0.937,   -1.284,   -2.652,    4.022,    4.608,
        2.861,   -0.043,    1.969,   -3.922,    8.246,    1.075,    2.117,
       -3.764,   -0.044,   -1.472,    1.977,   -0.606,    2.001,    0.263,
       -1.284,   -1.703,    1.626,   -2.187,   -3.538,    5.809,    3.869,
        1.376,    5.537,   -1.778,   -3.814,   -3.524,   -1.801,   -0.740,
       -4.755,   -3.173,    0.599,   -0.084,    1.500,   -3.287,   -1.179,
       -0.054,    5.228,    8.582,    1.681,    0.699,   -6.884,   -2.122,
        4.715,    0.514,   -5.137,    2.912,    2.137,   -4.097,    1.180,
       -1.667,   -3.874,   -0.308,    4.206,   -2.182,    0.659,   -2.341,
       -1.012,    0.259,   -1.699,   -1.709,   -1.557,    1.475,    0.877,
       -1.505,   14.143,   -0.952,    4.406,   -4.831,    0.172,  -24.235,
       -4.261,    0.340,    5.102,    0.351,   -2.550,    3.029,    2.047,
       -4.843,    2.207,   -6.281,    3.116,   -2.257,   -1.436,   -2.889,
        1.552,   -3.498,   -2.300,   -3.649,    2.518,    8.978,   -0.147,
       -0.253,   -2.160,    0.889,    1.289,   -0.544,   -0.467,   -2.602,
        0.339,   -3.905,    1.758,    0.746,   -3.578,    1.130,   -2.264,
       -3.896,    3.772,   -1.446,   -1.318,   -9.285,    3.003,    4.778,
        4.146,    1.971,   -3.759,   -2.609,   -0.185,   -1.625,   -7.774,
        0.550,    2.158,    1.633,   -1.154,    1.088,   -0.013,   -4.313,
       -3.178,    3.341,   -1.955,   -8.379,    2.618,   -1.424,    3.105,
       -6.038,   -0.527,    4.784,    3.120,   -1.194,   -1.763,   -2.311,
        0.910,   -3.655,    3.962,    2.137,    1.808,   -5.900,    1.265,
       -5.900,   -0.711,  -10.263,   -4.468,   -2.774,    2.178,   -0.235,
        2.643,   -2.503,   -0.669,   -0.820,   -1.050,    2.629,   -0.962,
       -1.783,    2.229,    4.864,    3.415,    0.934,    0.481,    2.437,
        4.602,    1.091,   -0.226,    0.192,    0.116,   -0.179,    0.041,
       -0.105,   -0.260,   -0.049,   -0.037,    0.158,    0.056,    0.060,
        0.634,    1.837,   -1.773,    0.770,   -0.554,   -0.236,   11.181,
       -1.718,   -0.271,    0.527,   -1.525,    1.071,    1.556,   -3.353,
       -1.573,   -3.058,    0.161,   -2.677,   -0.674,    1.314,   -3.468,
        2.882,    8.215,    3.956,   -0.785,   -6.887,   -2.098,   16.042,
       -5.014,   -0.596,    3.237,   -0.369,    3.389,   -0.135,   -3.902,
        2.602,    2.177,    2.177,    0.318,    0.846,    1.804,   -3.524,
        2.577,    1.371,   -0.331,    0.088,   -4.166,  -12.304,    1.816,
        1.084,    1.236,    0.770,    2.174,   -0.812,   -1.185,   -1.364,
       -1.503,   -1.947,   -5.004,    0.220,   -1.427,    1.327,   -1.147,
       -0.950,   -0.980,   -0.644,   -1.512,    1.196,    1.584,   -1.201,
        0.966,    2.563,   -0.591,   -1.411,   -2.544,   -7.248,   -1.630,
       -1.803
    },
    {  -0.612,    0.392,    5.680,   -1.165,   -1.545,    0.726,   -1.504,
       -2.822,    2.370,   -3.301,    0.524,    2.210,   -0.940,   -3.870,
        6.691,   -5.258,    1.647,   -1.571,   -5.427,    1.529,    0.408,
        4.940,   -2.687,    2.100,    0.259,   -0.193,    2.730,    4.759,
       -5.292,    1.196,    0.024,   -4.504,    3.135,    1.488,    2.630,
        1.257,   -1.003,   -0.517,    4.942,   -7.378,   16.925,    3.346,
       -1.864,    0.172,    0.944,   -4.904,    3.058,    3.587,   -0.716,
       -2.105,    4.680,   -3.896,   -0.887,    4.570,    0.631,   -2.180,
       -6.489,    5.774,   -1.683,   -5.837,    7.522,   -1.113,   -1.672,
        3.643,   -2.255,   -0.320,   -4.139,    7.043,    0.089,    6.621,
       -0.077,   -4.450,   -0.678,   -3.784,   -4.574,   -4.761,   -1.868,
        2.610,    0.552,    4.131,   10.844,    0.549,    3.663,   -0.877,
       -0.702,    3.596,   -5.157,   -8.477,    2.892,   -2.672,   -2.570,
       -2.146,   -0.151,   -1.984,   -2.509,    2.638,    2.333,   -0.501,
       -0.180,   -8.782,  -16.191,    2.187,   -2.937,    0.529,    0.379,
       -3.709,    1.187,   -6.257,   -0.492,    0.917,   -5.884,   -1.682,
        0.531,   -8.270,    3.638,    3.958,    4.322,   -4.005,   -2.121,
        0.781,   -1.269,    1.133,   -1.593,   -1.505,   -2.872,   -4.937,
        1.819,   -3.568,    1.727,    0.962,   -2.057,   -0.464,   -1.407,
       -1.432,    2.509,    0.308,   -3.651,    0.525,   -4.365,    1.678,
        1.282,    4.051,    3.052,    0.846,   -1.053,   -0.176,   -0.614,
       -1.961,    1.466,   -3.010,   -0.561,    2.608,    0.887,    2.770,
        2.466,   -2.623,   -0.276,    3.718,   -2.867,   -0.326,    2.028,
        1.612,    3.980,   -3.569,   -1.764,    1.602,   -1.068,   -4.325,
        1.002,   -0.863,    0.902,   -7.694,   -0.963,   -1.195,   -1.877,
       -4.835,    0.753,   -0.225,    6.697,   -2.299,    7.281,    1.049,
       -0.898,   -0.965,   -4.844,   -1.264,   -0.056,    7.301,    1.098,
        0.131,    2.104,    0.910,    0.900,   -1.532,   -1.095,    7.676,
        1.764,   -6.446,    1.661,    4.642,   -2.343,    1.636,    0.781,
       -0.902,   -3.134,    1.097,   -1.016,    4.016,   -1.113,    0.422,
       -0.990,    1.162,    2.254,    2.097,   10.096,    4.738,    7.358,
       -1.251,    0.390,    4.450,   -6.625,    1.721,    3.524,    2.435,
